word1 -0.16711 -0.57706 0.4185 -0.33856 -0.063699 -0.044058 0.1961 0.033133 -0.019892 -0.25597 -0.2293 0.046212 0.010611 0.74051 -0.1483 0.078615 -0.37282 0.17993 -0.44346 0.31592 -0.41573 0.22952 0.0099831 -0.39681 0.18523 0.069692 0.37651 0.29861 0.31841 0.45121 0.067676 -0.58942 -0.17898 -0.18906 -0.091898 -0.47869 0.3192 -0.65985 -0.32405 -0.084194 0.1945 0.4401 -0.2014 0.2933 0.21218 -0.56865 0.28309 0.0912 0.072114 -0.26925 0.035209 0.21716 0.073864 0.1741 -0.22611 0.20886 -0.1167 0.54799 0.0068 0.15834 0.05479 0.051787 -0.031068 -0.072573 -0.11559 -0.026101 -0.34169 -0.16677 0.012569 0.022706 -0.045871 0.10066 0.17034 0.085365 0.37953 -0.257 0.062283 0.082481 0.21358 0.047028 0.022969 0.117 -0.31894 0.18635 -0.26521 -0.099892 0.43699 0.17553 0.007665 0.24202 -0.10219 0.2962 0.42917 0.16909 -0.80127 -0.26085 0.14869 -0.075834 0.084832 0.35613 
word2 0.22795 -0.44845 0.21353 -0.053292 0.16548 -0.12898 -0.1697 0.12524 -0.055827 -0.16041 -0.24729 0.12848 0.088509 0.812 -0.22113 0.32002 -0.13554 0.12363 -0.42439 0.26244 -0.3413 0.17915 0.046642 -0.42002 0.04266 -0.066537 0.34637 0.36695 -0.021062 0.2793 0.12314 -0.29608 -0.24474 -0.076609 -0.15939 -0.65438 0.17082 -0.67116 -0.44379 0.057017 0.23564 0.3533 -0.20696 0.40799 0.14524 -0.23453 0.18341 -0.057396 0.027237 -0.35176 -0.012967 0.30811 0.047003 0.057307 -0.18444 0.11517 -0.15079 0.26052 0.017298 0.19426 -0.062899 -0.07968 -0.12334 -0.20322 -0.16715 0.03666 -0.26925 -0.24491 -0.0022892 0.11796 -0.17999 -0.016433 0.18813 0.15454 0.47235 -0.44476 0.2283 0.17348 0.32774 0.13777 -0.061957 0.18166 -0.15346 0.28579 -0.2272 -0.038021 0.4713 0.21971 -0.29457 0.15853 -0.15099 0.26304 0.33184 0.11077 -0.58966 -0.086773 0.055909 -0.1435 -0.052655 0.46787 
love -0.010019 0.093678 0.17017 -0.24998 0.016519 -0.19537 0.092958 -0.13864 0.11457 -0.49893 -0.67699 -0.05231 -0.0311 0.38751 -0.25124 0.33073 -0.34923 0.21118 -0.35281 -0.088977 0.18987 0.086079 0.22262 0.14087 -0.32091 -0.50179 0.33712 0.23448 -0.12378 0.12855 0.23849 0.29932 -0.28415 0.25871 0.14954 -0.45289 -0.27971 -0.37855 -0.26128 -0.27759 0.21088 0.14413 0.041434 0.020597 0.097477 -0.28583 -0.054428 0.31496 -0.39872 -0.39096 -0.14772 -0.11003 -0.39955 -0.063207 0.14074 -0.38341 0.36099 -0.036093 0.62836 -0.27578 0.15944 -0.17777 -0.079183 -0.75739 -0.17523 -0.18287 0.018005 -0.12442 -0.55565 -0.19183 0.28381 0.15493 0.41107 0.03223 0.088427 -0.16682 0.19208 0.066291 -0.016863 -0.13765 0.053626 0.569 0.5016 0.26429 -0.13621 0.29945 0.49835 0.43329 -0.37715 -0.63643 0.20427 0.094691 0.25399 -0.067798 -0.27563 -0.19905 -0.3049 -0.15838 0.12718 0.16427 
sex 0.067527 -0.052552 0.22976 -0.35138 0.066403 -0.12449 0.12786 0.24033 0.12535 -0.16252 -0.20443 0.11303 -0.034385 0.72576 -0.51084 0.17881 -0.47259 0.23751 0.35113 0.075269 -0.15461 -0.080249 -0.058633 0.0059901 0.095358 0.030643 -0.0010984 -0.35993 -0.23627 -0.18306 0.10563 -0.18777 -0.1817 -0.034957 -0.17542 -0.65257 -0.22339 0.0079384 -0.3185 -0.11244 0.023981 0.23844 0.12805 -0.39699 0.2567 -0.64434 0.40234 0.5414 -0.44871 -0.36141 0.086063 -0.018849 0.029119 0.12273 0.15152 -0.60583 -0.026588 0.47843 0.487 -0.0070466 0.81288 -0.13788 -0.098793 -0.2527 -0.2618 -0.73036 0.13602 -0.55411 0.13839 0.14881 0.18154 0.20742 0.55148 -0.0073639 -0.57466 0.30849 0.38728 0.42027 0.043449 -0.85618 0.063204 0.3543 0.64947 -0.20982 -0.7544 0.1454 -0.1362 -0.33243 -0.71453 -0.21228 0.22618 -0.25852 -0.10122 -0.23872 -0.20184 0.10742 -0.2463 0.54226 -0.33102 0.1255 
tiger 0.076882 -0.79738 0.16337 0.050743 0.084066 0.16034 -0.17902 -0.20705 0.58018 -0.52622 -0.20016 0.25807 -0.47883 -0.22344 -0.39168 0.13628 -0.07103 0.34727 -0.44291 0.28746 -0.2363 0.0083774 -0.35475 0.26882 -0.18539 -0.12766 0.22557 -0.14367 0.45203 -0.21327 0.082457 0.03226 0.035977 -0.59645 -0.39756 -0.49773 -0.27826 -0.067695 0.31931 -0.39644 0.58001 -0.28045 -0.12874 0.54183 -0.070873 -0.45232 0.20473 -0.17653 -0.34538 -0.19894 -0.53254 0.16994 0.41313 -0.51261 0.45272 -0.27098 0.024757 -0.61062 0.616 0.12257 -0.04271 -0.25062 0.20278 -0.095143 -0.20563 0.19046 -0.24722 -0.43785 0.10701 0.36649 0.13685 -0.40323 -0.065387 -0.15075 0.14767 -0.19367 -0.33311 -0.11882 0.062254 0.14843 -0.16202 -0.059036 0.022575 -0.17353 0.018027 0.64386 -0.067034 0.43994 -0.40749 -0.49347 0.17163 0.011173 0.39626 -0.43629 -0.020515 0.10516 -0.42499 0.092028 0.41241 0.14876 
cat -0.0092826 -0.23597 -0.098245 -0.1805 0.34718 0.38086 0.2477 -0.58393 0.30772 -0.45454 -0.40983 0.23954 -0.20601 -0.34068 -0.32847 0.38268 -0.27098 0.31787 -0.093953 -0.03764 -0.15399 -0.056431 -0.38371 0.13062 -0.75462 0.21403 0.30973 0.53368 0.10858 -0.045006 0.23004 -0.3338 -0.19126 -0.45861 -0.76163 -0.57943 -0.093286 -0.36201 -0.098768 -0.16334 0.29394 0.27042 -0.090207 0.083681 -0.01487 -0.41754 0.68057 0.44302 0.032138 -0.018893 -0.59049 -0.096702 0.62292 -0.45595 0.23183 -0.20982 0.050799 -0.018369 0.21082 -0.18791 0.082336 0.13784 -0.082133 -0.39312 -0.73849 0.021747 0.27035 -0.41751 -0.30411 -0.19668 0.3572 -0.10916 0.10241 0.00086388 0.22816 -0.21489 -0.50599 0.12106 -0.27937 -0.0050042 -0.24443 -0.10425 0.12556 0.10446 -0.15549 0.5676 -0.15585 0.39969 -0.037708 -0.55017 0.37815 0.041754 0.29322 -0.19743 -0.2533 -0.10237 0.023232 0.22522 0.080329 0.31594 
tiger 0.076882 -0.79738 0.16337 0.050743 0.084066 0.16034 -0.17902 -0.20705 0.58018 -0.52622 -0.20016 0.25807 -0.47883 -0.22344 -0.39168 0.13628 -0.07103 0.34727 -0.44291 0.28746 -0.2363 0.0083774 -0.35475 0.26882 -0.18539 -0.12766 0.22557 -0.14367 0.45203 -0.21327 0.082457 0.03226 0.035977 -0.59645 -0.39756 -0.49773 -0.27826 -0.067695 0.31931 -0.39644 0.58001 -0.28045 -0.12874 0.54183 -0.070873 -0.45232 0.20473 -0.17653 -0.34538 -0.19894 -0.53254 0.16994 0.41313 -0.51261 0.45272 -0.27098 0.024757 -0.61062 0.616 0.12257 -0.04271 -0.25062 0.20278 -0.095143 -0.20563 0.19046 -0.24722 -0.43785 0.10701 0.36649 0.13685 -0.40323 -0.065387 -0.15075 0.14767 -0.19367 -0.33311 -0.11882 0.062254 0.14843 -0.16202 -0.059036 0.022575 -0.17353 0.018027 0.64386 -0.067034 0.43994 -0.40749 -0.49347 0.17163 0.011173 0.39626 -0.43629 -0.020515 0.10516 -0.42499 0.092028 0.41241 0.14876 
tiger 0.076882 -0.79738 0.16337 0.050743 0.084066 0.16034 -0.17902 -0.20705 0.58018 -0.52622 -0.20016 0.25807 -0.47883 -0.22344 -0.39168 0.13628 -0.07103 0.34727 -0.44291 0.28746 -0.2363 0.0083774 -0.35475 0.26882 -0.18539 -0.12766 0.22557 -0.14367 0.45203 -0.21327 0.082457 0.03226 0.035977 -0.59645 -0.39756 -0.49773 -0.27826 -0.067695 0.31931 -0.39644 0.58001 -0.28045 -0.12874 0.54183 -0.070873 -0.45232 0.20473 -0.17653 -0.34538 -0.19894 -0.53254 0.16994 0.41313 -0.51261 0.45272 -0.27098 0.024757 -0.61062 0.616 0.12257 -0.04271 -0.25062 0.20278 -0.095143 -0.20563 0.19046 -0.24722 -0.43785 0.10701 0.36649 0.13685 -0.40323 -0.065387 -0.15075 0.14767 -0.19367 -0.33311 -0.11882 0.062254 0.14843 -0.16202 -0.059036 0.022575 -0.17353 0.018027 0.64386 -0.067034 0.43994 -0.40749 -0.49347 0.17163 0.011173 0.39626 -0.43629 -0.020515 0.10516 -0.42499 0.092028 0.41241 0.14876 
book 0.2052 -0.27246 0.11146 -0.014313 0.16229 0.12349 -0.1102 -0.00076007 0.16631 -0.1948 -0.41099 0.30115 -0.038821 0.22213 -0.078014 0.39617 -0.44181 0.2699 -0.37041 0.10437 -0.28758 0.50016 -0.22557 -0.30669 0.22717 -0.26758 0.23618 0.40612 -0.28431 0.37034 0.29025 -0.4194 -0.33142 0.0071668 -0.079545 -0.62788 0.10511 -0.23889 -0.0094635 -0.11999 0.32291 0.15893 0.07824 0.27823 -0.0031699 -0.025817 0.32675 -0.20353 0.3018 -0.31437 0.045459 0.18984 -0.15844 -0.19012 -0.19581 -0.279 -0.068958 0.049399 0.80383 0.24031 -0.32338 0.0087997 -0.41397 -0.043695 0.075555 0.088211 -0.43637 -0.21604 -0.070165 -0.30208 0.57259 -0.42987 0.075743 0.043341 0.098396 -0.065516 0.50204 0.12715 -0.28926 -0.24464 -0.096766 0.17052 0.10101 0.040642 -0.050103 0.15298 0.28391 0.20815 -0.24798 -0.12703 0.36273 0.33494 0.1384 0.031099 0.033592 0.12366 -0.30155 -0.17234 0.20505 0.23193 
paper -0.075392 0.073825 -0.092025 -0.1011 0.35765 0.24219 0.057433 -0.48882 -0.049079 0.14359 -0.056338 -0.035342 -0.067921 0.26948 -0.20116 0.043802 -0.41279 0.51223 -0.27497 0.19655 -0.33534 0.82969 -0.70735 -0.31982 0.50685 0.2313 0.066021 0.035396 -0.13847 0.35421 0.18958 -0.27611 -0.34462 -0.48384 -0.50037 -0.51689 0.22957 -0.085265 -0.009911 0.26842 -0.22442 0.024478 0.27354 0.49809 0.15188 -0.21234 0.029464 -0.011683 0.65924 -0.18048 0.41323 0.061044 0.21271 -0.23432 -0.40676 0.07017 -0.032844 -0.0029456 0.38693 0.13337 -0.16228 0.074025 0.29791 -0.10055 0.047668 0.12433 -0.39535 -0.33218 0.25778 -0.091196 0.36785 -0.31609 0.18008 -0.6083 0.17933 -0.15927 0.20586 0.3024 -0.1644 -0.33401 -0.71115 0.31688 0.23532 -0.059874 -0.35399 0.12058 0.33192 0.1123 -0.12052 0.20631 -0.20349 -0.032338 0.37377 -0.036483 0.13682 -0.32028 0.050812 0.065366 0.043449 -0.068682 
computer -0.55884 -0.33825 -0.22836 0.067144 0.312 0.11604 -0.19558 -0.17395 -0.25678 0.047479 0.18023 0.50156 -0.11781 0.10572 -0.17492 0.18045 -0.51552 0.092198 -0.31568 -0.013797 -0.5929 -0.090198 -0.34024 -0.33318 -0.0092274 0.12261 -0.35711 0.40434 0.21492 0.13832 0.026404 -0.014365 -0.52993 -0.45789 -0.34994 -0.53951 0.16254 -0.33048 -0.50704 -0.15858 0.23129 0.11941 -0.040031 0.66541 0.29365 -0.38548 0.2201 -0.31902 -0.010083 -0.35949 -0.19768 -0.17034 -0.53171 -0.0029561 -0.31041 0.05049 -0.29519 0.23796 0.31214 -0.014621 0.35719 0.16244 0.10643 -0.06115 0.135 0.56218 -0.46003 -0.35028 -0.30197 0.41486 -0.047151 -0.093063 -0.37352 -0.46292 0.059695 0.071262 0.22848 -0.066988 -0.24577 -0.36273 -0.42016 0.17223 0.32287 -0.089613 -0.25153 0.08574 0.079622 -0.43526 -0.39365 -0.15706 -0.18697 0.13064 0.47034 -0.32461 -0.44435 -0.89443 -0.37779 -0.11415 0.52605 1.1046 
keyboard -0.51258 -0.42705 -0.82429 0.22702 -0.36218 0.54403 0.059148 -0.018136 -0.43311 -0.054119 0.20222 0.52795 0.31625 0.4645 0.39159 0.1171 -0.28603 0.031654 -0.80216 0.65869 -0.39867 -0.24068 -0.22598 -0.13604 -0.027721 0.24299 0.042371 0.80466 -0.15656 -0.10889 0.044256 0.070306 -0.49257 -0.079635 -0.71457 -0.61159 0.09765 -0.77555 -0.38437 0.22431 -0.14409 -0.80753 -0.60606 0.28515 0.033791 0.054996 0.40224 -0.24105 0.089745 -0.87823 -0.41014 0.32506 -0.17945 0.018343 -0.44178 -0.09448 -0.80229 0.36184 0.32016 0.14417 0.41524 -0.076909 0.4268 -0.22614 -0.037265 0.26139 0.00052585 0.05333 -0.55031 0.10835 -0.42019 0.29437 0.32779 0.39917 0.015078 -0.41712 -0.010632 0.16822 0.51192 0.41881 -0.25574 0.50099 0.05871 -0.23609 -0.77812 0.24293 -0.48153 0.047755 -0.78904 0.087539 -0.24797 -0.27936 0.57821 -0.37115 -0.34345 -0.58722 -0.25103 -0.32575 -0.050596 0.56749 
computer -0.55884 -0.33825 -0.22836 0.067144 0.312 0.11604 -0.19558 -0.17395 -0.25678 0.047479 0.18023 0.50156 -0.11781 0.10572 -0.17492 0.18045 -0.51552 0.092198 -0.31568 -0.013797 -0.5929 -0.090198 -0.34024 -0.33318 -0.0092274 0.12261 -0.35711 0.40434 0.21492 0.13832 0.026404 -0.014365 -0.52993 -0.45789 -0.34994 -0.53951 0.16254 -0.33048 -0.50704 -0.15858 0.23129 0.11941 -0.040031 0.66541 0.29365 -0.38548 0.2201 -0.31902 -0.010083 -0.35949 -0.19768 -0.17034 -0.53171 -0.0029561 -0.31041 0.05049 -0.29519 0.23796 0.31214 -0.014621 0.35719 0.16244 0.10643 -0.06115 0.135 0.56218 -0.46003 -0.35028 -0.30197 0.41486 -0.047151 -0.093063 -0.37352 -0.46292 0.059695 0.071262 0.22848 -0.066988 -0.24577 -0.36273 -0.42016 0.17223 0.32287 -0.089613 -0.25153 0.08574 0.079622 -0.43526 -0.39365 -0.15706 -0.18697 0.13064 0.47034 -0.32461 -0.44435 -0.89443 -0.37779 -0.11415 0.52605 1.1046 
internet -0.13488 0.26633 0.10276 0.25129 0.18077 0.21988 -0.042114 -0.30017 0.2295 -0.2456 -0.55395 0.40402 0.15539 0.84827 -0.68022 0.43424 -0.34236 -0.11031 -0.059955 0.20432 -0.6935 -0.014035 0.12506 -0.029329 0.21115 -0.19422 0.11825 0.5759 -0.17956 -0.15587 -0.1814 -0.31068 -0.39442 -0.54062 -0.31244 -0.17433 -0.11397 -0.39032 -0.4891 -0.31661 0.70225 0.25938 0.35975 0.078641 0.49078 -0.50297 0.48787 0.13232 -0.17996 -0.039959 -0.1638 0.32793 -0.12182 -0.12945 -0.031442 0.21964 -0.09232 0.0066822 0.38911 0.36878 0.42862 0.13301 0.37322 0.27293 0.0053326 0.28549 0.15957 -0.17826 0.16472 0.023784 -0.31962 0.26102 -0.22504 -0.60669 -0.19475 0.19591 0.33964 0.23957 0.084162 -0.15614 -0.08747 -0.16019 0.075927 0.12114 -0.1188 -0.50588 0.084326 -0.15752 -0.6526 0.055744 0.33931 0.20658 0.72855 -0.088071 -0.41984 -0.59478 -0.10711 -0.015721 0.12379 0.52631 
plane -0.47981 -0.49675 -0.16896 -0.27431 -0.60668 0.057002 -0.23089 -0.57417 0.19465 -0.40334 -0.1928 -0.1046 -0.3169 -0.47775 -0.067294 -0.020183 0.24009 -0.14081 -0.20031 -0.40007 0.0063179 -0.052493 -0.6921 -0.075249 0.25769 -0.50393 -0.046643 0.080363 -0.094993 -0.29855 -0.76625 0.35017 -0.17423 -2.3018e-05 -0.49854 0.040666 -0.2448 -0.81717 0.090523 0.16305 -0.15648 -0.20266 0.38406 0.59726 -0.064959 -0.58601 -0.010488 0.15809 0.053162 -0.53421 -0.036747 -0.32967 -0.22402 0.2615 -0.70674 -0.37812 0.10984 0.030006 0.38732 0.10114 -0.091135 0.60857 -0.084078 -0.21173 0.093687 0.045562 -0.53747 -0.26289 -0.21711 -0.56582 0.28144 0.05822 0.11816 -0.090156 0.30827 0.47345 -0.26027 0.31465 -0.072006 -0.014047 -0.37229 0.31901 0.20826 0.12735 -0.57543 0.094567 -0.11767 -0.1046 0.089029 -0.2936 -0.1801 0.33317 0.52052 -0.21761 -0.44787 -0.48953 -0.089137 0.03635 0.075248 -0.15503 
car -0.5852 -0.63544 -0.11656 -0.2027 -0.17593 -0.17332 -0.18443 -0.5034 0.28642 -0.44918 -0.37629 0.028052 0.37031 -0.26049 0.15022 0.19822 -0.18132 -0.32664 0.037517 -0.10767 -0.030249 -0.37898 -1.0808 0.51327 -0.37119 0.071681 0.049994 0.56765 0.17136 0.22969 -0.28403 -0.050399 0.20306 -0.20789 -0.3167 0.032047 -0.64104 -0.49721 0.27792 -0.0036112 -0.029148 -0.16957 0.22566 0.37081 -0.26157 -0.26266 0.377 0.49405 -0.028734 -0.18272 0.052403 0.07013 0.35306 0.2801 -0.28255 -0.20785 -0.17846 0.10063 0.39471 0.041283 0.63593 0.14367 0.022271 -0.35304 0.038088 -0.15688 -0.31088 -0.47895 0.0014611 0.31276 0.39867 -0.30997 0.3182 -0.022968 -0.30951 0.38862 0.035253 0.061571 -0.15739 -0.00049256 -0.6024 0.55375 0.40606 0.055416 -0.55594 -0.20199 0.33701 0.31156 -0.37166 -0.057893 0.0035255 0.078365 0.16044 0.059909 0.20607 -0.59927 -0.6591 -0.1357 0.094148 0.34121 
train -0.56463 -0.30889 0.25909 0.041436 -0.52164 0.22644 -0.19831 0.056831 0.43482 -0.55091 -0.23403 0.32432 0.17144 -0.079631 -0.24499 0.030438 -0.53264 0.055779 -0.26127 -0.24828 -0.082905 -0.27743 -0.79219 0.16845 -0.61949 -0.1088 0.15483 0.25238 -0.0652 0.07517 -0.43286 0.25892 -0.20213 -0.56573 -0.10881 -0.071644 -0.36052 -0.1537 0.19905 -0.089019 0.26642 -0.17086 0.45599 0.46073 -0.16102 -0.10326 0.34855 0.53992 0.13593 0.022585 0.10432 -0.35886 0.27242 0.20658 -0.15102 -0.033453 0.094105 -0.49591 -0.052027 0.14432 0.23549 0.13682 -0.1681 -0.58676 0.30513 -0.1387 0.063971 -0.13437 -0.47368 -0.24133 0.32216 0.14902 0.36628 0.2344 -0.35146 0.24643 -0.031253 -0.14771 -0.051923 -0.17538 -0.57364 0.24103 -0.37838 -0.25828 -0.3841 -0.058223 0.11501 0.1303 -0.24349 -0.24707 -0.070258 0.36402 0.1945 0.0078588 0.27663 -0.6329 -0.41445 -0.28266 -0.41289 0.57805 
car -0.5852 -0.63544 -0.11656 -0.2027 -0.17593 -0.17332 -0.18443 -0.5034 0.28642 -0.44918 -0.37629 0.028052 0.37031 -0.26049 0.15022 0.19822 -0.18132 -0.32664 0.037517 -0.10767 -0.030249 -0.37898 -1.0808 0.51327 -0.37119 0.071681 0.049994 0.56765 0.17136 0.22969 -0.28403 -0.050399 0.20306 -0.20789 -0.3167 0.032047 -0.64104 -0.49721 0.27792 -0.0036112 -0.029148 -0.16957 0.22566 0.37081 -0.26157 -0.26266 0.377 0.49405 -0.028734 -0.18272 0.052403 0.07013 0.35306 0.2801 -0.28255 -0.20785 -0.17846 0.10063 0.39471 0.041283 0.63593 0.14367 0.022271 -0.35304 0.038088 -0.15688 -0.31088 -0.47895 0.0014611 0.31276 0.39867 -0.30997 0.3182 -0.022968 -0.30951 0.38862 0.035253 0.061571 -0.15739 -0.00049256 -0.6024 0.55375 0.40606 0.055416 -0.55594 -0.20199 0.33701 0.31156 -0.37166 -0.057893 0.0035255 0.078365 0.16044 0.059909 0.20607 -0.59927 -0.6591 -0.1357 0.094148 0.34121 
telephone -0.46933 0.46622 -0.12222 0.39769 0.1031 0.0093614 0.02721 -0.22078 -0.1835 -0.60894 -0.23144 0.45592 0.12155 0.49355 -0.54312 -0.27047 0.1248 0.64208 -0.76775 0.26062 -0.85865 0.04634 -0.51055 -0.089909 -0.19314 -0.0058302 0.41717 0.94211 0.022053 0.29169 -0.20602 -0.040956 -0.11432 -0.47248 -0.46037 0.13403 -0.057771 -0.56755 -0.47787 -0.056634 -0.045531 0.078631 0.40668 0.1102 -0.027715 -0.046709 0.21229 0.27245 0.1054 -0.066533 0.42857 0.1868 0.38723 0.11287 -0.30669 0.38456 -0.11295 -0.53529 0.51972 -0.16952 0.73886 0.27103 0.66367 -0.38352 -0.066683 0.013135 0.2809 -0.091279 -0.17235 -0.22371 0.15808 0.72127 0.47976 -0.31666 -0.8 0.37836 0.10078 0.3641 0.2148 -0.16953 -0.26337 0.41497 -0.11378 0.025385 -0.57922 0.021684 0.025055 -0.45031 -0.2964 0.11266 0.25848 0.2697 0.2815 -0.3786 0.10354 -0.6443 0.20026 0.16394 0.33318 0.80509 
communication -0.67549 0.34859 0.13834 -0.0067291 0.051899 0.14687 0.071538 0.088671 0.0014768 0.13787 -0.16384 0.26854 0.04109 0.54916 -0.76398 -0.17653 -0.4322 0.18707 -0.19363 -0.22344 -0.93301 -0.066632 -0.24533 -0.57817 -0.17964 0.033824 0.15488 0.40206 -0.099975 0.0028391 0.23279 0.10422 -0.11756 -0.36973 -0.28146 -0.20359 -0.077833 -0.19818 -0.72149 -0.16141 -0.022549 0.21786 0.0057972 0.43369 0.26725 -0.58492 0.20013 -0.094364 -0.20488 -0.33254 0.12072 -0.082556 0.0030879 -0.0019308 -0.14192 0.26306 0.25605 -0.34933 0.20761 0.077052 0.14632 -0.16064 0.21953 -0.0615 0.40033 0.098748 -0.0064912 -0.26372 -0.17078 -0.17729 0.15499 0.26056 0.18803 -0.26568 0.033565 0.40213 -0.19277 0.016986 -0.0050955 -0.31286 0.10371 -0.22454 -0.056713 0.0082624 -0.45828 -0.0077099 -0.1999 -0.36408 -0.41914 -0.25229 -0.022115 -0.14326 0.287 0.076001 -0.29581 -0.45936 0.030582 -0.28432 0.091553 0.59906 
television 0.17749 -0.27159 -0.21501 0.17202 0.39886 -0.12194 -0.21276 -0.17898 -0.051177 -0.1129 -0.52672 -0.11402 -0.13621 0.27765 -0.21131 0.19065 -0.62443 -0.098776 0.30955 0.2019 -0.26764 0.69081 -0.38407 0.1419 -0.34304 -0.12864 0.1139 0.70778 0.17491 -0.18307 -0.25191 0.12327 -0.23682 -0.030162 -0.49724 -0.05558 -0.33614 -0.13749 -0.43056 -0.14882 0.27433 0.57239 0.48871 0.30578 0.2687 -0.12949 0.28414 0.36634 -0.16905 -0.49412 0.052741 0.23753 0.49394 0.13241 0.13232 0.24122 0.15081 -0.0916 0.61062 -0.39172 0.3341 0.14576 0.46664 -0.073454 -0.36891 -0.06248 -0.33678 0.014137 -0.51958 -0.20657 0.19677 0.39634 -0.46198 -0.11569 -0.075354 0.22355 0.048447 0.13439 0.076447 -0.59665 -0.25136 0.10874 0.45424 -0.033211 -0.42306 0.1128 0.03395 -0.21027 -0.45814 -0.075742 0.11426 0.88722 -0.13842 -0.47489 0.051526 -0.4157 -0.23227 -0.2418 -0.17263 0.95013 
radio 0.041916 0.34555 -0.094168 0.23296 0.26169 -0.041834 -0.039739 -0.48407 -0.13842 -0.20049 -0.20937 -0.0048822 -0.26317 0.28463 -0.40499 0.039993 -0.5483 -0.2715 -0.013046 -0.020722 -0.45766 0.49026 -0.41402 -0.1316 -0.45408 0.070525 0.44232 0.81101 -0.30975 -0.30727 -0.23169 0.27383 0.017056 -0.59392 -0.39968 -0.18603 -0.47011 -0.23445 -0.4774 0.13422 0.065427 0.026205 0.44563 0.25487 0.042704 -0.20075 0.53602 0.17648 -0.19569 -0.46344 -0.024115 0.21456 0.48692 -0.050815 -0.066548 0.56516 0.53065 -0.11061 0.49694 -0.24772 0.31843 0.11616 0.7462 -0.019702 -0.14998 0.0092731 0.079417 0.34697 -0.59379 -0.40081 0.2284 0.2783 -0.27963 0.24257 -0.096831 0.19772 -0.030843 0.26726 0.27422 -0.48452 0.090816 -0.05278 0.38061 -0.088618 -0.44702 -0.12612 0.17355 -0.20122 -0.53528 0.19904 0.073385 0.65774 0.12792 -0.2101 0.005931 -0.16208 -0.1407 -0.57571 -0.12544 0.82272 
media -0.16367 0.063016 0.016919 0.32831 0.44955 -0.10252 -0.29459 -0.28912 -0.12832 0.056179 -0.000418 0.086456 -0.31602 0.38566 -0.49142 0.13669 -0.65723 -0.19014 0.043971 0.37341 -0.44519 0.20292 -0.27637 -0.20117 0.3723 0.0077205 0.094472 0.15791 0.13822 -0.034319 0.063656 -0.036105 -0.10875 -0.17746 -0.27827 -0.26929 -0.22287 -0.10931 -0.56897 -0.36557 0.31062 0.12672 0.1086 0.54016 0.69885 -0.42679 0.25369 0.22543 0.052808 -0.59024 -0.14231 0.093519 0.40832 -0.18201 0.040351 0.34519 0.58341 0.14349 0.63124 0.083415 0.16855 0.29089 0.28582 0.46833 -0.032312 0.033609 -0.24477 -0.21025 0.21717 0.19524 0.2768 0.16341 -0.032974 -0.18085 -0.033092 0.079678 0.13184 0.21279 0.12676 -0.32614 -0.37838 0.27963 0.19928 0.10812 -0.2346 0.027786 0.030455 -0.34493 -0.69434 0.2254 -0.037626 0.32574 0.063993 0.16457 0.11016 -0.077739 -0.093523 -0.24393 -0.042172 0.2826 
radio 0.041916 0.34555 -0.094168 0.23296 0.26169 -0.041834 -0.039739 -0.48407 -0.13842 -0.20049 -0.20937 -0.0048822 -0.26317 0.28463 -0.40499 0.039993 -0.5483 -0.2715 -0.013046 -0.020722 -0.45766 0.49026 -0.41402 -0.1316 -0.45408 0.070525 0.44232 0.81101 -0.30975 -0.30727 -0.23169 0.27383 0.017056 -0.59392 -0.39968 -0.18603 -0.47011 -0.23445 -0.4774 0.13422 0.065427 0.026205 0.44563 0.25487 0.042704 -0.20075 0.53602 0.17648 -0.19569 -0.46344 -0.024115 0.21456 0.48692 -0.050815 -0.066548 0.56516 0.53065 -0.11061 0.49694 -0.24772 0.31843 0.11616 0.7462 -0.019702 -0.14998 0.0092731 0.079417 0.34697 -0.59379 -0.40081 0.2284 0.2783 -0.27963 0.24257 -0.096831 0.19772 -0.030843 0.26726 0.27422 -0.48452 0.090816 -0.05278 0.38061 -0.088618 -0.44702 -0.12612 0.17355 -0.20122 -0.53528 0.19904 0.073385 0.65774 0.12792 -0.2101 0.005931 -0.16208 -0.1407 -0.57571 -0.12544 0.82272 
drug -0.41438 0.14532 -0.06283 -0.33681 0.15642 -0.51805 0.24343 0.1613 0.18133 -0.18958 -0.020501 0.16275 -0.48183 0.3508 0.38095 0.44334 -0.18315 -0.15338 -0.12012 -0.37582 -0.041287 -0.32971 -0.020805 -0.1646 -0.088879 0.052779 0.060799 0.16971 0.10605 0.14727 0.14437 -0.1751 -0.02083 0.017739 -0.69207 0.14189 -0.42787 0.20422 -0.075819 -0.083005 0.30912 0.27163 0.040717 0.12393 0.51871 -1.0161 0.41358 0.63115 -0.1086 -0.23792 -0.42276 0.11504 0.19945 -0.56896 -0.60391 0.11655 -0.16071 0.63766 0.76891 0.070157 -0.046726 -0.38511 -0.11216 -0.96265 -0.055503 -0.067571 0.054099 -0.74823 0.13261 -0.12856 0.20277 -0.024923 0.50324 -0.024318 -0.69365 -0.007895 0.71445 0.34619 0.16676 -0.18232 -0.43151 0.2984 0.38568 -0.42601 -0.13191 -0.51392 -0.29654 0.013263 -0.055203 -0.0025158 0.17376 -0.19366 -0.0081331 -0.23143 -0.066092 0.078715 -0.58747 0.28282 -0.37161 0.48876 
abuse -0.45522 0.18529 0.1387 -0.25562 0.046129 -0.23177 -0.18776 0.18363 0.10261 -0.2296 -0.46112 0.050892 -0.67358 0.55701 -0.18711 0.10957 -0.30983 -0.035217 -0.097353 0.17343 0.0014556 -0.041362 0.17391 -0.33657 0.17879 -0.17382 0.44396 -0.044986 0.065909 0.086164 0.24566 -0.16626 0.13594 0.056078 -0.4322 -0.31534 -0.19965 0.15567 -0.47413 -0.3554 -0.18946 0.37295 0.19354 0.11692 0.37763 -0.92213 0.080139 0.52489 -0.52066 -0.43138 -0.54502 0.1404 -0.028087 -0.48384 -0.31326 0.23912 0.32493 0.74289 0.76172 0.095122 0.28364 0.068953 -0.11173 -0.52183 -0.052551 -0.32666 -0.052995 -0.58515 0.3087 0.15154 -0.021772 0.19295 0.3603 -0.42578 -0.53264 0.078516 0.63697 0.29151 -0.17106 -0.11293 -0.030159 -0.069189 0.042973 0.12899 -0.16762 -0.28979 -0.08443 0.042887 -0.23122 0.079543 0.16896 -0.18781 -0.31972 -0.13927 -0.020835 0.05494 -0.3803 0.35422 -0.3358 0.54813 
bread 0.096481 0.093948 -0.27022 0.038267 -0.16104 0.38887 0.061359 -0.085002 0.32828 0.09013 -0.37755 -0.13595 -0.30391 0.27056 -0.13754 0.18673 -0.70342 0.044036 -0.092871 -0.17137 -0.48804 0.78755 -0.082264 0.10487 -0.00043247 -0.32063 0.25664 0.22351 -0.22802 -0.064732 -0.30881 -0.37699 -0.80881 -0.11413 -0.26254 -0.2098 -0.1275 -0.24448 0.49536 0.02713 -0.36504 0.39938 -0.16211 -0.050968 0.27935 0.15805 -0.13272 0.72683 -0.0047283 -0.15344 0.24349 0.3489 0.030439 0.40606 0.016315 0.45359 -0.075637 -0.50108 0.10438 -0.36834 -0.48919 -0.057649 0.03731 -0.86072 0.09893 0.21768 -0.46173 -0.69296 0.19326 0.24272 0.83533 -0.69127 0.70826 0.25702 -0.0457 -0.68843 0.28056 -0.036541 -0.18158 0.011022 0.25473 0.5092 -0.052245 0.16766 -0.35475 0.46044 0.68709 0.19589 -0.37721 -0.13854 -0.3453 -0.21934 0.82379 -0.11012 -0.21586 -0.021024 -0.11213 0.13285 -0.075979 0.42762 
butter 0.042081 -0.15776 -0.17679 -0.031998 -0.15506 0.18211 0.45601 -0.39365 0.63691 -0.14947 -0.32668 -0.42386 -0.18441 0.37548 0.058354 -0.0091378 -0.45904 0.22891 0.056503 0.16256 -0.26182 0.38342 -0.11525 0.20699 -0.14452 -0.33237 0.085085 0.21846 -0.030644 0.087138 -0.1013 -0.21716 -0.6157 -0.3395 -0.60465 -0.15299 0.29149 -0.10668 0.63365 -0.087159 -0.32573 0.16639 -0.027991 0.19953 0.37492 -0.16884 -0.17594 0.46955 0.21581 -0.21382 -0.028191 0.39744 0.0443 0.24787 -0.090951 0.57354 -0.24245 -0.045639 0.47773 -0.36 -0.058072 0.010204 0.37981 -0.95865 -0.094592 0.25052 -0.31224 -1.0321 0.31357 0.3135 0.53224 -0.86247 0.54852 0.20192 0.039459 -0.93707 -0.021629 0.16552 -0.37286 0.045291 0.026169 0.42761 0.16532 0.050852 -0.15084 0.31754 0.47535 0.32811 -0.40243 0.070157 -0.077455 -0.46633 0.72005 -0.54928 -0.54322 -0.30072 -0.13343 0.12635 -0.10461 0.51903 
cucumber 0.087099 -0.4795 -0.64698 -0.22532 0.036011 0.16919 0.16153 -0.10024 0.68238 0.11135 -0.23786 -0.29631 -0.57577 0.34688 -0.56895 0.32413 -0.58308 0.080988 0.022979 0.02791 -0.4214 0.15929 -0.05356 0.10808 0.00034954 -0.49451 0.025519 0.051912 -0.16316 -0.63249 -0.32373 -0.32617 -0.81467 -0.13737 -0.45538 -0.92116 0.21271 -0.018544 0.40145 -0.0093285 -0.17523 0.1837 -0.22911 0.12257 0.37154 -0.18898 -0.05737 0.45911 0.42372 -0.63157 -0.22508 0.017887 0.040749 0.014136 0.012632 0.18701 -0.42498 -0.84545 0.3345 -0.43218 -0.082611 0.18198 0.046548 -0.60492 -0.87396 0.060653 -0.071605 -0.19809 0.35571 0.20837 -0.077885 -0.87404 0.34321 0.13376 0.11399 -0.71191 0.44581 -0.4334 0.024084 0.28259 -0.24977 0.58501 0.53789 0.28022 -0.016736 0.68284 0.11065 0.24216 -0.016474 -0.096954 0.13167 -0.42471 1.3664 -0.57628 -0.42458 0.13959 0.48945 0.13784 0.21906 0.94894 
potato 0.0031056 -0.24362 -0.55512 0.10867 0.32587 0.15568 -0.10981 -0.11869 0.055257 0.10627 -0.04618 0.11834 -0.28935 0.2385 -0.53685 -0.062513 -0.69708 0.3049 0.090353 -0.066226 -0.15651 0.25785 -0.28588 0.20904 -0.12904 -0.48192 0.17871 0.31192 0.24575 0.31184 -0.34504 -0.50848 -0.34559 -0.11287 -0.22066 -0.49312 0.26267 0.16348 0.43136 -0.057075 -0.32118 0.40036 -0.1251 0.18528 -0.036441 -0.16164 -0.36501 0.55234 0.27813 -0.26844 0.12514 0.22836 0.5089 -0.051466 -0.013255 0.65325 -0.42978 -0.35909 0.42709 -0.2816 -0.11256 0.11165 0.46003 -0.82491 -0.41323 0.37954 0.0084102 -0.89896 0.13728 0.87661 0.74998 -0.41422 0.28827 0.51424 -0.38818 -0.88202 0.19948 -0.11132 -0.11822 0.18474 0.020381 0.43853 0.29377 -0.095969 -0.25115 0.25173 0.29743 -0.19829 -0.30966 -0.045545 0.17037 -0.054851 1.0465 -0.39738 -0.55691 -0.2438 0.37784 0.26994 0.074663 0.76009 
doctor -0.37647 -0.36145 -0.39062 0.20129 0.34144 0.59174 0.17419 0.49006 -0.1311 -0.05302 -0.66521 0.017747 -0.0092106 -0.23994 0.19367 0.00086695 -0.61253 0.24945 -0.38331 -0.2965 -0.11061 0.17678 -0.29821 0.0067445 -0.13242 0.027381 0.11524 0.56123 -0.14103 -0.06724 0.13534 -0.27398 -0.19726 0.20053 -0.77346 -0.32244 -0.17653 0.28967 -0.23027 0.058477 -0.026291 0.49133 0.31566 0.25926 0.027754 -0.17733 0.52804 0.47255 -0.14321 -0.30501 -0.22837 -0.31341 -0.011371 -0.18789 -0.13917 -0.10898 -0.18483 0.72104 0.35817 -0.36522 0.045611 -0.013697 -0.2648 -0.45408 -0.13035 -0.061174 -0.36693 0.024479 -0.43898 -0.45202 0.48479 0.10152 0.0066326 0.090898 -0.079486 -0.020161 0.054206 0.35316 -0.063888 -0.072101 -0.097284 0.02209 0.17756 -0.64345 0.090388 0.22597 0.10648 0.30421 -0.39805 -0.44582 0.28914 0.71658 0.27472 -0.24298 -0.021446 0.27196 -0.099313 -0.055424 0.13075 0.80383 
nurse -0.26857 -0.48022 -0.29243 -0.10742 -0.27411 0.26982 0.19538 0.43546 0.12714 -0.29828 -1.0166 0.27923 -0.26706 0.44642 0.10942 -0.0003795 -0.21108 0.62832 -0.53276 -0.41645 0.14469 0.13371 -0.40808 -0.20768 -0.18757 -0.15255 0.16639 -0.29264 -0.51266 -0.28232 0.42552 -0.26489 -0.56201 -0.1422 -0.29661 -0.20764 -0.04956 0.22759 -0.16915 -0.0023131 -0.088473 -0.070811 0.13933 0.24298 0.28793 -0.40927 -0.2511 0.69113 -0.26176 -0.1008 0.018109 -0.1813 0.30793 -0.36749 0.23869 -0.070725 -0.2427 0.26299 0.54809 -0.51801 0.25572 0.072804 -0.091443 -0.29058 -0.3695 -0.50497 -0.16513 -0.007717 -0.60073 0.16058 0.46881 0.21136 0.28188 0.1764 -0.34717 0.044672 0.37346 -0.10285 -0.22977 -0.1501 -0.098862 0.11563 0.36309 -0.45159 -0.07538 0.14225 0.12567 0.024127 -0.25071 -1.0723 0.31806 -0.006843 0.18662 -0.39215 -0.034227 0.20027 -0.11815 0.17213 0.21543 0.51595 
professor -0.26463 -0.7275 -0.14157 0.54382 0.28215 0.61198 0.43456 0.28796 0.29244 0.05149 -0.51639 -0.32034 0.26752 -0.21003 -0.50196 0.12078 -0.38952 0.19578 -0.05727 -0.25294 -0.33205 0.038015 -0.63592 -0.39986 -0.09981 0.1714 -0.016292 0.60776 -0.60696 0.17322 0.46229 -0.089003 -0.19564 0.23474 -0.66932 -0.70037 0.43989 0.59172 -0.22052 -0.20235 0.051912 0.024776 0.28029 0.57077 0.09143 -0.15786 0.14819 -0.066495 -0.099113 -0.3607 0.21481 0.035638 -0.33339 -0.44017 -0.12083 -0.078414 0.19039 0.56935 0.57962 -0.5278 0.19617 0.15522 -0.22173 -0.15727 0.10762 -0.11761 -0.46482 0.39165 -0.17166 -0.12534 0.33203 0.027396 0.32831 0.022349 0.59222 -0.40911 0.36784 0.24418 -0.032477 0.14441 -0.38845 -0.19421 0.19478 -0.50883 -0.10231 0.4857 0.19981 0.059902 -0.15312 -0.22155 -0.27165 -0.0037004 0.23722 0.09243 -0.19138 0.052743 -0.25906 -0.09121 0.40504 0.89517 
doctor -0.37647 -0.36145 -0.39062 0.20129 0.34144 0.59174 0.17419 0.49006 -0.1311 -0.05302 -0.66521 0.017747 -0.0092106 -0.23994 0.19367 0.00086695 -0.61253 0.24945 -0.38331 -0.2965 -0.11061 0.17678 -0.29821 0.0067445 -0.13242 0.027381 0.11524 0.56123 -0.14103 -0.06724 0.13534 -0.27398 -0.19726 0.20053 -0.77346 -0.32244 -0.17653 0.28967 -0.23027 0.058477 -0.026291 0.49133 0.31566 0.25926 0.027754 -0.17733 0.52804 0.47255 -0.14321 -0.30501 -0.22837 -0.31341 -0.011371 -0.18789 -0.13917 -0.10898 -0.18483 0.72104 0.35817 -0.36522 0.045611 -0.013697 -0.2648 -0.45408 -0.13035 -0.061174 -0.36693 0.024479 -0.43898 -0.45202 0.48479 0.10152 0.0066326 0.090898 -0.079486 -0.020161 0.054206 0.35316 -0.063888 -0.072101 -0.097284 0.02209 0.17756 -0.64345 0.090388 0.22597 0.10648 0.30421 -0.39805 -0.44582 0.28914 0.71658 0.27472 -0.24298 -0.021446 0.27196 -0.099313 -0.055424 0.13075 0.80383 
student 0.047471 -0.50376 0.013995 0.17185 0.13535 0.23525 -0.062348 0.39321 0.52101 -0.14172 -0.45028 0.25615 0.073338 0.055408 -0.27812 0.38943 -0.31739 -0.0081364 -0.25103 -0.31322 -0.20512 -0.45424 -0.11887 -0.39012 -0.058655 0.31006 -0.040513 0.1475 -0.25045 -0.19859 0.39077 -0.065494 -0.19853 -0.14262 -0.49815 -0.73402 -0.14419 0.26422 -0.029438 0.042614 -0.3581 0.058577 0.6076 0.80056 0.41061 -0.19572 -0.15443 0.30677 0.21033 -0.16039 0.083804 0.069297 0.18008 -0.67456 0.22753 0.060721 0.44002 0.28207 0.066168 -0.42227 0.10265 0.10576 0.034418 0.046126 -0.022666 -0.12836 -0.22243 0.36541 0.10854 -0.20645 0.19723 -0.0066877 0.53371 -0.090453 -0.0063828 -0.013635 0.1224 0.19766 -0.21372 -0.57026 -0.012818 0.061549 0.1673 -0.13315 -0.81129 0.035874 0.36041 -0.24329 -0.48948 0.2059 -0.096116 0.011456 0.12143 0.25106 0.051922 -0.41988 -0.37184 -0.26419 0.25819 0.44709 
professor -0.26463 -0.7275 -0.14157 0.54382 0.28215 0.61198 0.43456 0.28796 0.29244 0.05149 -0.51639 -0.32034 0.26752 -0.21003 -0.50196 0.12078 -0.38952 0.19578 -0.05727 -0.25294 -0.33205 0.038015 -0.63592 -0.39986 -0.09981 0.1714 -0.016292 0.60776 -0.60696 0.17322 0.46229 -0.089003 -0.19564 0.23474 -0.66932 -0.70037 0.43989 0.59172 -0.22052 -0.20235 0.051912 0.024776 0.28029 0.57077 0.09143 -0.15786 0.14819 -0.066495 -0.099113 -0.3607 0.21481 0.035638 -0.33339 -0.44017 -0.12083 -0.078414 0.19039 0.56935 0.57962 -0.5278 0.19617 0.15522 -0.22173 -0.15727 0.10762 -0.11761 -0.46482 0.39165 -0.17166 -0.12534 0.33203 0.027396 0.32831 0.022349 0.59222 -0.40911 0.36784 0.24418 -0.032477 0.14441 -0.38845 -0.19421 0.19478 -0.50883 -0.10231 0.4857 0.19981 0.059902 -0.15312 -0.22155 -0.27165 -0.0037004 0.23722 0.09243 -0.19138 0.052743 -0.25906 -0.09121 0.40504 0.89517 
smart -0.60475 -0.030641 -0.0070277 0.019387 0.11235 -0.11538 -0.024581 -0.42818 0.00719 -0.18418 -0.1114 0.060822 0.27896 0.50803 -0.10441 -0.20253 -0.089241 0.073417 -0.13917 -0.05626 -0.0015261 0.020421 -0.178 0.20504 -0.48595 0.061989 0.28775 0.59851 0.21031 0.1303 0.30688 -0.063927 -0.25606 -0.69418 -0.0052259 -0.21085 -0.22971 -0.32014 -0.065809 -0.25583 0.44112 -0.00098503 0.35302 0.25874 0.45906 -0.23422 0.45599 -0.2313 -0.33788 -0.30713 -0.27808 -0.027307 0.022695 -0.19485 -0.10431 0.034764 -0.16903 0.47302 0.17814 -0.27171 0.27432 -0.1068 0.21774 -0.30224 -0.24562 -0.20792 -0.09106 -0.4991 0.16783 -0.047719 0.61104 0.086181 -0.036749 -0.53022 -0.30472 0.19391 -0.10858 0.0050575 -0.090853 -0.17089 -0.3876 0.39922 0.21157 -0.095904 -0.50581 0.11136 0.10348 -0.062905 -0.37384 -0.31361 -0.031991 0.17684 0.29594 -0.025217 -0.097376 -0.25471 -0.39377 0.074684 0.75739 0.58078 
student 0.047471 -0.50376 0.013995 0.17185 0.13535 0.23525 -0.062348 0.39321 0.52101 -0.14172 -0.45028 0.25615 0.073338 0.055408 -0.27812 0.38943 -0.31739 -0.0081364 -0.25103 -0.31322 -0.20512 -0.45424 -0.11887 -0.39012 -0.058655 0.31006 -0.040513 0.1475 -0.25045 -0.19859 0.39077 -0.065494 -0.19853 -0.14262 -0.49815 -0.73402 -0.14419 0.26422 -0.029438 0.042614 -0.3581 0.058577 0.6076 0.80056 0.41061 -0.19572 -0.15443 0.30677 0.21033 -0.16039 0.083804 0.069297 0.18008 -0.67456 0.22753 0.060721 0.44002 0.28207 0.066168 -0.42227 0.10265 0.10576 0.034418 0.046126 -0.022666 -0.12836 -0.22243 0.36541 0.10854 -0.20645 0.19723 -0.0066877 0.53371 -0.090453 -0.0063828 -0.013635 0.1224 0.19766 -0.21372 -0.57026 -0.012818 0.061549 0.1673 -0.13315 -0.81129 0.035874 0.36041 -0.24329 -0.48948 0.2059 -0.096116 0.011456 0.12143 0.25106 0.051922 -0.41988 -0.37184 -0.26419 0.25819 0.44709 
smart -0.60475 -0.030641 -0.0070277 0.019387 0.11235 -0.11538 -0.024581 -0.42818 0.00719 -0.18418 -0.1114 0.060822 0.27896 0.50803 -0.10441 -0.20253 -0.089241 0.073417 -0.13917 -0.05626 -0.0015261 0.020421 -0.178 0.20504 -0.48595 0.061989 0.28775 0.59851 0.21031 0.1303 0.30688 -0.063927 -0.25606 -0.69418 -0.0052259 -0.21085 -0.22971 -0.32014 -0.065809 -0.25583 0.44112 -0.00098503 0.35302 0.25874 0.45906 -0.23422 0.45599 -0.2313 -0.33788 -0.30713 -0.27808 -0.027307 0.022695 -0.19485 -0.10431 0.034764 -0.16903 0.47302 0.17814 -0.27171 0.27432 -0.1068 0.21774 -0.30224 -0.24562 -0.20792 -0.09106 -0.4991 0.16783 -0.047719 0.61104 0.086181 -0.036749 -0.53022 -0.30472 0.19391 -0.10858 0.0050575 -0.090853 -0.17089 -0.3876 0.39922 0.21157 -0.095904 -0.50581 0.11136 0.10348 -0.062905 -0.37384 -0.31361 -0.031991 0.17684 0.29594 -0.025217 -0.097376 -0.25471 -0.39377 0.074684 0.75739 0.58078 
stupid -0.12436 -0.096184 0.17126 -0.080435 -0.094566 0.016363 0.0096804 -0.2108 -0.30403 -0.87804 0.070688 -0.13075 -0.011965 0.40117 -0.19774 0.32379 -0.45649 -0.19401 -0.039412 0.25696 0.1062 0.038425 0.054849 0.10922 -0.46846 -0.34068 0.54537 0.67531 0.40914 0.31824 0.26382 -0.59757 -0.49427 -0.18935 0.0069064 -0.8454 -0.0034525 -0.19351 -0.16079 0.16285 0.29956 0.31414 0.25286 0.05491 -0.4016 -0.58229 0.43662 0.42449 -0.55662 -0.31575 -0.20635 -0.035522 -0.10779 -0.39938 0.02805 -0.12488 0.30072 0.49797 0.34755 -0.23176 0.21185 -0.033141 0.19404 -0.57218 -0.2448 -0.2306 -0.04632 -0.14884 0.16205 0.47259 0.18728 -0.38994 0.38114 -0.39442 -0.099323 0.0058313 -0.092479 0.16487 -0.07695 0.029943 0.029183 0.30443 0.15897 0.1724 -0.27573 0.43065 0.43925 0.53543 0.10277 -0.032892 0.3764 0.42616 0.45395 0.039729 -0.20279 -0.29356 -0.058307 0.013608 0.62291 0.64211 
company -0.11728 -0.28861 -0.01299 0.070292 0.27079 -0.50739 -0.063519 -0.22862 0.19631 -0.38482 -0.36422 0.12665 0.41531 -0.028841 -0.073247 0.20854 -0.22061 0.39288 -0.61512 -0.15325 -0.48793 0.63868 -0.79554 0.38948 -0.19867 0.35183 0.23857 -0.07521 -0.046988 0.060384 -0.040758 -0.0026757 -0.47953 -0.020385 -0.41154 -0.026623 -0.45147 -0.42903 -0.02783 -0.10696 -0.011264 0.18742 0.22409 0.91302 0.27763 -0.080362 -0.18189 0.13937 -0.022461 -0.080551 0.021534 0.12634 0.061938 -0.090535 -0.20775 0.041638 0.017854 -0.32926 0.70356 0.0002341 0.51509 -0.076155 0.12763 -0.34538 0.33885 -0.0050958 -0.079063 -0.30806 -0.11442 0.29362 0.10599 -0.25783 -0.22863 -0.21762 -0.23203 -0.24788 0.29166 0.4738 -0.2979 -0.093221 -0.68361 0.16342 -0.0086738 -0.031862 -0.10423 0.050539 0.0094295 -0.33388 -0.23316 0.18013 -0.10044 0.084049 0.078352 0.0021288 0.052203 -0.56315 -0.068282 -0.3748 -0.10415 0.10931 
stock -0.52002 -0.73414 -0.28267 -0.024144 0.34769 -0.15233 -0.031112 -0.39423 0.030593 -0.34749 -0.11276 0.0692 0.25854 0.053987 -0.23778 0.54834 -0.52896 0.34741 -0.38362 -0.055867 -0.40978 0.29646 -0.91002 0.51696 0.088722 -0.29165 0.27396 0.14278 0.059569 0.18532 -0.15581 -0.29607 -0.12217 -0.24305 -0.46946 0.31936 -0.41734 0.043816 0.28332 -0.20779 0.46113 0.097903 0.042073 0.27545 0.3723 -0.21773 -0.025448 0.60504 0.026234 0.052347 0.068324 0.34026 0.19194 0.32846 -0.19867 0.13074 -0.4852 -0.41824 0.53303 -0.080658 0.14951 0.035579 0.26247 -0.16875 -0.29368 0.10429 -0.1843 -0.25686 0.4773 0.15018 0.31448 -0.11422 0.18712 -0.41283 0.11632 -0.43402 -0.066257 0.52854 0.070326 0.056619 -0.41729 0.17066 -0.20205 0.30037 -0.7479 0.28741 -0.2194 0.0043734 -0.27475 0.24355 -0.28715 -0.038577 0.10712 0.48295 0.44709 -0.3872 -0.22663 0.13859 -0.11706 0.10315 
stock -0.52002 -0.73414 -0.28267 -0.024144 0.34769 -0.15233 -0.031112 -0.39423 0.030593 -0.34749 -0.11276 0.0692 0.25854 0.053987 -0.23778 0.54834 -0.52896 0.34741 -0.38362 -0.055867 -0.40978 0.29646 -0.91002 0.51696 0.088722 -0.29165 0.27396 0.14278 0.059569 0.18532 -0.15581 -0.29607 -0.12217 -0.24305 -0.46946 0.31936 -0.41734 0.043816 0.28332 -0.20779 0.46113 0.097903 0.042073 0.27545 0.3723 -0.21773 -0.025448 0.60504 0.026234 0.052347 0.068324 0.34026 0.19194 0.32846 -0.19867 0.13074 -0.4852 -0.41824 0.53303 -0.080658 0.14951 0.035579 0.26247 -0.16875 -0.29368 0.10429 -0.1843 -0.25686 0.4773 0.15018 0.31448 -0.11422 0.18712 -0.41283 0.11632 -0.43402 -0.066257 0.52854 0.070326 0.056619 -0.41729 0.17066 -0.20205 0.30037 -0.7479 0.28741 -0.2194 0.0043734 -0.27475 0.24355 -0.28715 -0.038577 0.10712 0.48295 0.44709 -0.3872 -0.22663 0.13859 -0.11706 0.10315 
market -0.25793 -0.359 -0.099837 0.34456 0.010866 -0.32196 -0.1644 -0.47035 0.15366 0.0021534 -0.1014 0.44325 -0.095035 0.27848 -0.02057 0.34268 -0.48241 -0.21904 -0.53168 -0.29455 -0.1505 0.39523 -0.49577 0.41289 0.11996 0.37923 0.19683 0.14805 0.090019 0.080883 0.072568 -0.21818 -0.053129 -0.11737 -0.24691 0.198 -0.51838 0.065882 -0.024228 -0.48345 0.30128 -0.037741 -0.01244 0.26588 0.42388 -0.26446 0.23175 0.25677 -0.012117 0.2072 0.05954 0.15904 -0.030144 0.15106 -0.073005 0.087042 -0.37649 -0.40631 0.35628 0.16067 0.20041 0.21558 0.21807 -0.18079 0.02558 0.02407 -0.31887 -0.58141 0.20911 0.10759 0.29764 -0.088344 -0.016231 -0.74369 -0.35427 -0.56537 0.099195 0.054422 0.014228 -0.54992 -0.36805 0.63343 0.051899 0.11944 -0.74108 0.23643 -0.37586 -0.23808 -0.483 0.12599 0.034827 -0.31302 0.32604 0.37133 -0.25667 -0.67595 0.055836 -0.36517 -0.063419 0.26521 
stock -0.52002 -0.73414 -0.28267 -0.024144 0.34769 -0.15233 -0.031112 -0.39423 0.030593 -0.34749 -0.11276 0.0692 0.25854 0.053987 -0.23778 0.54834 -0.52896 0.34741 -0.38362 -0.055867 -0.40978 0.29646 -0.91002 0.51696 0.088722 -0.29165 0.27396 0.14278 0.059569 0.18532 -0.15581 -0.29607 -0.12217 -0.24305 -0.46946 0.31936 -0.41734 0.043816 0.28332 -0.20779 0.46113 0.097903 0.042073 0.27545 0.3723 -0.21773 -0.025448 0.60504 0.026234 0.052347 0.068324 0.34026 0.19194 0.32846 -0.19867 0.13074 -0.4852 -0.41824 0.53303 -0.080658 0.14951 0.035579 0.26247 -0.16875 -0.29368 0.10429 -0.1843 -0.25686 0.4773 0.15018 0.31448 -0.11422 0.18712 -0.41283 0.11632 -0.43402 -0.066257 0.52854 0.070326 0.056619 -0.41729 0.17066 -0.20205 0.30037 -0.7479 0.28741 -0.2194 0.0043734 -0.27475 0.24355 -0.28715 -0.038577 0.10712 0.48295 0.44709 -0.3872 -0.22663 0.13859 -0.11706 0.10315 
phone -0.49861 0.15708 -0.13407 0.35643 -0.16106 0.083227 0.064283 -0.14247 -0.11261 -0.6858 -0.26566 0.42665 0.11063 0.52629 -0.66732 -0.17367 -0.17378 0.81771 -0.63366 0.51918 -0.49739 -0.065781 -0.23439 0.10412 -0.017262 -0.094292 0.41003 0.88378 0.10621 0.039716 -0.24769 -0.23908 -0.19433 -0.38694 -0.27575 0.12958 -0.009207 -0.70065 -0.44335 0.02773 0.12544 -0.018428 0.2585 0.050528 0.37902 -0.15081 0.35299 0.24654 -0.0066998 -0.26521 0.24728 0.055715 0.32753 0.1518 -0.12772 0.4008 -0.12704 0.02544 0.28933 -0.35887 0.79207 0.44516 0.3398 -0.38223 0.26128 0.054828 0.27476 -0.075605 -0.17726 -0.078811 0.28969 0.61008 0.0036407 -0.32316 -0.94166 0.30893 -0.1937 0.50731 0.4738 -0.11898 -0.051983 0.37753 0.27332 -0.011458 -0.3352 -0.063564 0.21411 -0.37762 -0.52983 -0.057151 0.18165 0.073906 0.44243 -0.31476 -0.081856 -0.69585 -0.17586 0.15078 0.34383 0.69193 
stock -0.52002 -0.73414 -0.28267 -0.024144 0.34769 -0.15233 -0.031112 -0.39423 0.030593 -0.34749 -0.11276 0.0692 0.25854 0.053987 -0.23778 0.54834 -0.52896 0.34741 -0.38362 -0.055867 -0.40978 0.29646 -0.91002 0.51696 0.088722 -0.29165 0.27396 0.14278 0.059569 0.18532 -0.15581 -0.29607 -0.12217 -0.24305 -0.46946 0.31936 -0.41734 0.043816 0.28332 -0.20779 0.46113 0.097903 0.042073 0.27545 0.3723 -0.21773 -0.025448 0.60504 0.026234 0.052347 0.068324 0.34026 0.19194 0.32846 -0.19867 0.13074 -0.4852 -0.41824 0.53303 -0.080658 0.14951 0.035579 0.26247 -0.16875 -0.29368 0.10429 -0.1843 -0.25686 0.4773 0.15018 0.31448 -0.11422 0.18712 -0.41283 0.11632 -0.43402 -0.066257 0.52854 0.070326 0.056619 -0.41729 0.17066 -0.20205 0.30037 -0.7479 0.28741 -0.2194 0.0043734 -0.27475 0.24355 -0.28715 -0.038577 0.10712 0.48295 0.44709 -0.3872 -0.22663 0.13859 -0.11706 0.10315 
cd -0.37542 -0.24591 -0.27397 -0.28965 -0.12404 0.56648 -0.11627 -0.23049 -0.41096 -0.40042 -0.093489 0.30813 -0.36009 0.28868 -0.1351 0.52418 -0.32219 0.076117 -0.43584 -0.21616 0.096969 0.57239 -0.23656 0.32937 0.16846 0.13763 -0.11646 -0.020992 0.049338 -0.10988 0.022592 0.42114 -0.039168 -0.53536 -0.18049 -0.74837 -0.15732 -0.55304 -0.49409 -0.14404 0.381 -0.31969 -0.45858 -0.13676 0.0034342 -0.25251 0.46911 0.055134 0.19445 -0.63173 -0.54029 -0.13452 0.28389 -0.16125 -0.18882 0.060885 -0.63007 0.025961 0.25885 0.28938 0.053686 -0.34071 0.1996 -0.026802 0.43789 0.41447 0.52414 -0.53455 -0.2644 -0.17622 0.24644 -0.16546 -0.027008 0.10288 0.16598 -0.098114 0.33476 0.37864 0.49323 -0.61018 -0.10651 0.47819 0.76649 -0.45186 -0.3201 0.032914 0.64984 0.39821 -1.1263 0.22764 0.086362 0.083111 0.085448 -0.023891 -0.082349 -0.17112 -0.17297 -0.58315 -0.1364 0.32102 
stock -0.52002 -0.73414 -0.28267 -0.024144 0.34769 -0.15233 -0.031112 -0.39423 0.030593 -0.34749 -0.11276 0.0692 0.25854 0.053987 -0.23778 0.54834 -0.52896 0.34741 -0.38362 -0.055867 -0.40978 0.29646 -0.91002 0.51696 0.088722 -0.29165 0.27396 0.14278 0.059569 0.18532 -0.15581 -0.29607 -0.12217 -0.24305 -0.46946 0.31936 -0.41734 0.043816 0.28332 -0.20779 0.46113 0.097903 0.042073 0.27545 0.3723 -0.21773 -0.025448 0.60504 0.026234 0.052347 0.068324 0.34026 0.19194 0.32846 -0.19867 0.13074 -0.4852 -0.41824 0.53303 -0.080658 0.14951 0.035579 0.26247 -0.16875 -0.29368 0.10429 -0.1843 -0.25686 0.4773 0.15018 0.31448 -0.11422 0.18712 -0.41283 0.11632 -0.43402 -0.066257 0.52854 0.070326 0.056619 -0.41729 0.17066 -0.20205 0.30037 -0.7479 0.28741 -0.2194 0.0043734 -0.27475 0.24355 -0.28715 -0.038577 0.10712 0.48295 0.44709 -0.3872 -0.22663 0.13859 -0.11706 0.10315 
jaguar -0.21942 -0.80982 -0.52321 -0.40308 -0.018686 -0.15782 -0.066288 -0.19406 0.44202 -0.4128 -0.41862 0.077178 -0.067541 -0.3927 0.014307 0.08484 -0.010684 -0.27831 -0.49844 -0.12074 -0.1121 -0.030713 -0.67117 0.65065 -0.32955 0.15568 0.58089 0.049959 0.6692 -0.57326 -0.17903 -0.049401 -0.03633 -0.51725 -0.25753 -0.22819 -0.29454 -0.54147 0.36721 -0.21452 0.54958 0.10727 -0.65035 0.55215 0.043003 -0.4361 0.30432 -0.31932 -0.53846 -0.1646 -0.47891 -0.16524 0.37981 -0.12204 -0.14085 -0.32699 -0.15571 -0.25448 0.33813 0.46515 0.40054 -0.58955 0.11466 -0.33851 0.0011395 -0.0027428 -0.25624 -0.71436 -0.047532 0.81521 0.2433 -0.4893 -0.23699 -0.020416 0.51526 -0.47018 -0.18149 -0.066293 -0.03393 0.27978 -0.16201 0.26323 0.44956 -0.16871 -0.56554 0.26931 0.37333 0.041006 -0.42117 -0.45536 -0.14171 -0.26712 0.15736 -0.53779 -0.00050727 -0.0070778 -0.4132 0.098172 0.43408 0.062332 
stock -0.52002 -0.73414 -0.28267 -0.024144 0.34769 -0.15233 -0.031112 -0.39423 0.030593 -0.34749 -0.11276 0.0692 0.25854 0.053987 -0.23778 0.54834 -0.52896 0.34741 -0.38362 -0.055867 -0.40978 0.29646 -0.91002 0.51696 0.088722 -0.29165 0.27396 0.14278 0.059569 0.18532 -0.15581 -0.29607 -0.12217 -0.24305 -0.46946 0.31936 -0.41734 0.043816 0.28332 -0.20779 0.46113 0.097903 0.042073 0.27545 0.3723 -0.21773 -0.025448 0.60504 0.026234 0.052347 0.068324 0.34026 0.19194 0.32846 -0.19867 0.13074 -0.4852 -0.41824 0.53303 -0.080658 0.14951 0.035579 0.26247 -0.16875 -0.29368 0.10429 -0.1843 -0.25686 0.4773 0.15018 0.31448 -0.11422 0.18712 -0.41283 0.11632 -0.43402 -0.066257 0.52854 0.070326 0.056619 -0.41729 0.17066 -0.20205 0.30037 -0.7479 0.28741 -0.2194 0.0043734 -0.27475 0.24355 -0.28715 -0.038577 0.10712 0.48295 0.44709 -0.3872 -0.22663 0.13859 -0.11706 0.10315 
egg 0.13546 -0.39753 -0.23979 -0.24347 0.11787 0.57055 0.75298 0.019414 0.50055 -0.20807 -0.0034554 0.22251 -0.42502 0.26054 -0.65416 0.46383 -0.72489 0.29051 0.022837 -0.099643 -0.12965 0.049904 0.095614 -0.10687 -0.052369 -0.01464 -0.29589 0.0039375 -0.4085 -0.20971 -0.68767 -0.19991 -0.53326 -0.3957 -0.17446 -0.69247 0.38342 0.22017 0.46532 -0.17503 0.15932 0.1973 0.20925 0.4925 0.10213 0.046252 -0.09145 0.23458 0.17084 -0.36138 -0.37637 -0.22841 0.24519 0.096235 -0.10233 -0.077301 -0.55284 -0.27612 0.054149 -0.73148 -0.27583 -0.08223 0.13155 -0.623 -0.25428 0.0015818 -0.27183 -0.81916 0.30442 -0.049258 0.4888 -0.22947 0.085081 -0.0784 -0.027715 -0.36221 -0.1634 0.17817 -0.5352 0.21324 0.52873 0.49919 0.01692 -0.18378 -0.67511 0.40585 0.26909 0.27923 -0.45247 -0.042059 0.16583 -0.35728 0.88867 -0.72178 0.0092501 -0.24726 0.21176 -0.10914 0.072854 -0.13769 
fertility -0.048848 -0.10005 -0.59162 -0.27189 0.37877 -0.16317 0.1021 -0.1276 0.36311 0.036305 -0.78688 0.28853 -0.77097 0.51187 -0.42029 -0.066909 -0.11863 0.13944 0.20979 -1.0586 0.052706 0.036411 0.10934 -0.2596 -0.068909 -0.54884 -0.27784 -0.38804 -0.55087 -0.16343 0.26835 -0.17797 -0.098407 0.21839 -0.054201 -0.64101 0.065473 0.34558 0.34769 -0.32632 0.4002 0.30215 -0.56356 -0.0069131 0.017405 -0.63737 -0.82654 0.32764 -0.48556 -0.65549 0.42727 -0.050099 0.26421 0.17944 0.087789 -0.36367 -0.14999 -0.44318 0.62157 0.44802 0.16043 0.15163 0.33041 -0.31306 -0.30553 -0.24425 0.087647 -0.5519 -0.26351 0.24106 0.59561 0.4237 0.30441 -0.26185 -0.37046 0.26318 0.57748 -0.54356 0.2398 -0.27796 0.82597 0.21253 0.35432 -0.39634 -0.73138 0.55546 0.24106 -0.19888 -0.84195 -0.27672 -0.13473 -0.11301 0.17589 -0.098998 0.29161 0.011236 -0.39943 0.67937 -0.022551 0.094458 
egg 0.13546 -0.39753 -0.23979 -0.24347 0.11787 0.57055 0.75298 0.019414 0.50055 -0.20807 -0.0034554 0.22251 -0.42502 0.26054 -0.65416 0.46383 -0.72489 0.29051 0.022837 -0.099643 -0.12965 0.049904 0.095614 -0.10687 -0.052369 -0.01464 -0.29589 0.0039375 -0.4085 -0.20971 -0.68767 -0.19991 -0.53326 -0.3957 -0.17446 -0.69247 0.38342 0.22017 0.46532 -0.17503 0.15932 0.1973 0.20925 0.4925 0.10213 0.046252 -0.09145 0.23458 0.17084 -0.36138 -0.37637 -0.22841 0.24519 0.096235 -0.10233 -0.077301 -0.55284 -0.27612 0.054149 -0.73148 -0.27583 -0.08223 0.13155 -0.623 -0.25428 0.0015818 -0.27183 -0.81916 0.30442 -0.049258 0.4888 -0.22947 0.085081 -0.0784 -0.027715 -0.36221 -0.1634 0.17817 -0.5352 0.21324 0.52873 0.49919 0.01692 -0.18378 -0.67511 0.40585 0.26909 0.27923 -0.45247 -0.042059 0.16583 -0.35728 0.88867 -0.72178 0.0092501 -0.24726 0.21176 -0.10914 0.072854 -0.13769 
stock -0.52002 -0.73414 -0.28267 -0.024144 0.34769 -0.15233 -0.031112 -0.39423 0.030593 -0.34749 -0.11276 0.0692 0.25854 0.053987 -0.23778 0.54834 -0.52896 0.34741 -0.38362 -0.055867 -0.40978 0.29646 -0.91002 0.51696 0.088722 -0.29165 0.27396 0.14278 0.059569 0.18532 -0.15581 -0.29607 -0.12217 -0.24305 -0.46946 0.31936 -0.41734 0.043816 0.28332 -0.20779 0.46113 0.097903 0.042073 0.27545 0.3723 -0.21773 -0.025448 0.60504 0.026234 0.052347 0.068324 0.34026 0.19194 0.32846 -0.19867 0.13074 -0.4852 -0.41824 0.53303 -0.080658 0.14951 0.035579 0.26247 -0.16875 -0.29368 0.10429 -0.1843 -0.25686 0.4773 0.15018 0.31448 -0.11422 0.18712 -0.41283 0.11632 -0.43402 -0.066257 0.52854 0.070326 0.056619 -0.41729 0.17066 -0.20205 0.30037 -0.7479 0.28741 -0.2194 0.0043734 -0.27475 0.24355 -0.28715 -0.038577 0.10712 0.48295 0.44709 -0.3872 -0.22663 0.13859 -0.11706 0.10315 
live 0.44744 -0.14066 -0.17351 0.028674 -0.088995 0.37645 -0.50737 0.035847 0.08935 -0.17214 -0.2209 0.22469 -0.11133 -0.085485 -0.49672 0.51881 -0.49458 0.42021 0.2806 -0.14145 -0.27014 0.36898 -0.16207 0.43401 -0.4057 -0.18201 -0.00010671 0.16717 -0.10189 -0.31939 -0.11273 0.17068 -0.19876 -0.022026 -0.25025 -0.29197 0.00096965 -0.18925 -0.28972 -0.39426 0.19332 0.13913 -0.065432 -0.17841 -0.1261 -0.55999 0.056794 0.29286 -0.399 -0.27227 -0.57646 -0.24331 0.28106 -0.059508 0.70931 -0.16304 -0.20086 0.029481 0.16383 0.021309 0.2653 0.36257 0.15993 -0.53726 0.12858 -0.15188 0.3206 -0.15301 0.11664 -0.44848 0.17584 0.087547 0.12499 0.15219 -0.066674 0.26003 -0.22274 0.065205 0.23092 -0.26647 0.044596 0.40369 0.62185 0.31434 -0.53353 0.020243 0.25794 0.30601 -0.66711 0.0058661 -0.21358 0.052221 0.17068 0.075952 0.28771 -0.36709 -0.33005 -0.26936 -0.24062 0.63822 
stock -0.52002 -0.73414 -0.28267 -0.024144 0.34769 -0.15233 -0.031112 -0.39423 0.030593 -0.34749 -0.11276 0.0692 0.25854 0.053987 -0.23778 0.54834 -0.52896 0.34741 -0.38362 -0.055867 -0.40978 0.29646 -0.91002 0.51696 0.088722 -0.29165 0.27396 0.14278 0.059569 0.18532 -0.15581 -0.29607 -0.12217 -0.24305 -0.46946 0.31936 -0.41734 0.043816 0.28332 -0.20779 0.46113 0.097903 0.042073 0.27545 0.3723 -0.21773 -0.025448 0.60504 0.026234 0.052347 0.068324 0.34026 0.19194 0.32846 -0.19867 0.13074 -0.4852 -0.41824 0.53303 -0.080658 0.14951 0.035579 0.26247 -0.16875 -0.29368 0.10429 -0.1843 -0.25686 0.4773 0.15018 0.31448 -0.11422 0.18712 -0.41283 0.11632 -0.43402 -0.066257 0.52854 0.070326 0.056619 -0.41729 0.17066 -0.20205 0.30037 -0.7479 0.28741 -0.2194 0.0043734 -0.27475 0.24355 -0.28715 -0.038577 0.10712 0.48295 0.44709 -0.3872 -0.22663 0.13859 -0.11706 0.10315 
life -0.19651 -0.35352 -0.24083 -0.040287 0.1002 0.079137 -0.17196 -0.15914 0.34818 0.019774 -0.55607 -0.054635 -0.33227 0.20541 -0.11044 0.089096 -0.41768 0.15009 -0.13399 0.018086 0.30024 0.1476 -0.21642 0.13303 -0.11885 -0.10006 -0.11507 0.44453 -0.46959 0.062655 0.18979 -0.0087093 -0.10381 0.09895 -0.24456 -0.50837 -0.003358 0.23403 -0.23882 -0.21657 0.034265 0.4206 -0.031646 0.06872 -0.23514 -0.35973 -0.073104 -0.083243 -0.52715 -0.041604 -0.056348 0.14413 -0.18887 -0.30357 0.092852 -0.26682 0.10084 -0.056379 0.59124 0.17062 -0.17414 0.22139 -0.4025 -0.40188 0.32495 -0.11949 0.061473 -0.15036 0.089135 -0.23689 0.3877 0.23266 0.089571 -0.0050497 -0.23274 0.17109 0.064308 0.021526 -0.14036 -0.18642 -0.15812 0.12962 0.23237 0.2096 -0.17419 0.0736 0.29933 0.15775 -0.28915 -0.40994 -0.08606 0.21447 0.23062 0.15288 -0.061408 -0.16548 -0.33044 -0.11004 -0.26328 0.21038 
book 0.2052 -0.27246 0.11146 -0.014313 0.16229 0.12349 -0.1102 -0.00076007 0.16631 -0.1948 -0.41099 0.30115 -0.038821 0.22213 -0.078014 0.39617 -0.44181 0.2699 -0.37041 0.10437 -0.28758 0.50016 -0.22557 -0.30669 0.22717 -0.26758 0.23618 0.40612 -0.28431 0.37034 0.29025 -0.4194 -0.33142 0.0071668 -0.079545 -0.62788 0.10511 -0.23889 -0.0094635 -0.11999 0.32291 0.15893 0.07824 0.27823 -0.0031699 -0.025817 0.32675 -0.20353 0.3018 -0.31437 0.045459 0.18984 -0.15844 -0.19012 -0.19581 -0.279 -0.068958 0.049399 0.80383 0.24031 -0.32338 0.0087997 -0.41397 -0.043695 0.075555 0.088211 -0.43637 -0.21604 -0.070165 -0.30208 0.57259 -0.42987 0.075743 0.043341 0.098396 -0.065516 0.50204 0.12715 -0.28926 -0.24464 -0.096766 0.17052 0.10101 0.040642 -0.050103 0.15298 0.28391 0.20815 -0.24798 -0.12703 0.36273 0.33494 0.1384 0.031099 0.033592 0.12366 -0.30155 -0.17234 0.20505 0.23193 
library -0.32426 -0.46014 -0.15286 0.60772 0.15574 -0.034079 -0.04634 -0.24212 0.35688 0.039327 -0.22148 0.42081 0.21598 0.15837 -0.25537 0.46007 -0.24711 0.46076 -0.22747 -0.26914 -0.30968 0.0057609 -0.15289 -0.41235 0.28936 0.014855 -0.051094 0.6514 0.034246 -0.035352 0.023615 -0.19531 -0.46319 -0.7318 -0.57254 -0.79854 -0.18635 -0.24356 -0.79127 -0.12612 0.02752 -0.1153 0.24413 0.38527 0.41258 0.072246 0.099179 -0.10642 0.048023 0.014265 -0.052999 0.1412 -0.027097 -0.67926 0.096388 0.0822 -0.4705 -0.2032 0.48284 0.12786 -0.28957 0.15967 -0.26602 0.48175 0.10669 -0.034964 0.025299 0.19339 -0.14227 -0.40205 0.30315 0.11126 0.076163 0.25006 0.20514 -0.085604 0.65421 -0.087143 -0.29239 -0.14058 -0.46065 -0.20461 -0.083966 0.38305 0.014972 -0.10629 0.32049 0.22107 -0.45363 0.38338 -0.10531 -0.63055 0.078887 -0.26941 0.0030188 -0.14512 -0.39336 -0.41759 0.13161 0.63998 
bank -0.29102 -0.63864 -0.10881 0.56322 0.29123 -0.052798 -0.15059 -0.35342 0.32434 -0.051744 0.062803 0.55911 -0.12856 0.20555 -0.15275 0.56908 -0.49359 0.8138 -0.44817 -0.0062823 -0.44943 0.22641 -0.71014 -0.036204 -0.30593 0.0045874 0.36866 0.11746 0.10789 0.075398 -0.61128 -0.058347 -0.1408 -0.079576 -0.75592 -0.20143 -0.72726 -0.14397 0.32743 -0.19057 0.32294 -0.044905 -0.029 0.17688 0.80189 -0.20121 -0.042833 0.23509 -0.18983 -0.35481 0.49214 -0.048537 -0.24868 -0.28026 0.22593 0.065609 -0.33047 -0.21794 0.3129 0.24123 -0.21486 0.034699 0.34144 -0.28162 0.27181 -0.13663 -0.42501 0.362 0.011646 -0.10572 0.34664 -0.016996 0.13392 -0.4202 -0.29286 -0.28324 0.53452 0.26325 0.11974 0.066182 -0.47371 0.24259 -0.35594 -0.014171 -0.05294 0.31433 -0.36068 -0.12382 0.0078881 0.017392 0.47779 -0.083361 -0.20338 0.7263 0.54594 -0.65687 0.22713 -0.206 0.46582 -0.095507 
money -0.32789 -0.33493 -0.30134 0.20254 0.11468 -0.22641 0.10707 -0.18531 -0.14719 -0.1931 0.12282 0.42479 0.36124 0.43414 -0.016553 0.51387 -0.55407 0.20729 -0.27107 0.19773 0.049371 0.30559 -0.42437 -0.19093 0.012367 -0.1879 -0.030379 0.58067 -0.30968 0.11685 -0.13776 -0.042265 -0.11336 -0.16822 -0.42567 -0.19494 -0.54256 -0.12595 0.38322 -0.21735 0.02128 0.022829 0.16316 0.098673 0.54829 -0.40772 -0.27573 0.67939 -0.45384 0.079321 0.12941 0.1627 0.1301 -0.43699 0.089345 -0.12879 -0.14998 0.22781 0.80755 -0.067254 -0.46691 -0.18022 0.2206 -0.6267 -0.011289 -0.17981 0.14238 -0.19176 0.14433 0.25218 0.46445 -0.087789 0.13316 -0.62158 -0.11676 -0.2774 0.21528 0.082723 0.03004 -0.24518 -0.011407 0.55728 -0.075953 0.19779 -0.25333 0.044297 0.03776 0.087271 -0.33157 -0.10962 0.16299 0.026346 0.048298 0.66095 0.2169 -0.36153 -0.38067 -0.065667 0.41671 -0.073567 
wood -0.12462 0.12129 -0.19975 0.37725 0.30762 -0.074302 -0.14242 -0.28341 0.21869 0.049997 -0.60348 -0.14809 -0.081724 0.26324 -0.57004 -0.55801 -0.065666 0.7415 0.085696 -0.018109 0.079042 0.53092 -0.8647 0.12744 0.24251 -0.56985 0.10006 0.066592 0.10875 -0.27013 0.16259 -0.21047 -0.53241 -0.34352 -0.58623 -0.28167 -0.30299 -0.20238 0.54274 0.031771 -0.17288 -0.3147 -0.44245 0.21908 -0.31688 0.094575 -0.097907 -0.057321 0.13359 -0.1163 -0.29793 -0.075109 0.38763 -0.2761 0.13003 0.2529 -0.30339 -0.27814 0.4484 0.048947 -0.11004 0.21148 -0.18476 -0.47113 -0.10421 -0.27149 -0.47944 -0.23501 0.33134 -0.10951 -0.12325 -0.16322 0.25652 -0.050206 0.0036336 -0.24404 0.22218 -0.28817 -0.25929 0.145 -0.23032 0.3714 0.19421 -0.022964 -0.70191 0.43561 -0.17379 0.31936 -0.24765 -0.33582 -0.42685 -0.18592 0.36275 -0.7155 0.10326 -0.2528 0.3138 -0.36043 0.1266 0.068267 
forest 0.096786 -0.36224 -0.20722 0.31751 -0.050157 -0.29768 -0.66696 -0.26438 0.7213 -0.37413 -0.43568 -0.07541 -0.51679 -0.19785 -1.0391 -0.03395 0.12068 0.51698 -0.054387 -0.32855 -0.45133 0.26503 -0.44172 0.16403 -0.34725 -0.6452 0.048609 -0.39552 0.4309 0.077954 0.36314 0.17087 -0.095255 -0.30757 -0.57831 -0.39805 0.16795 0.14721 0.31651 -0.22374 0.050592 0.036113 -0.36592 0.35811 -0.088659 -0.43704 0.0088887 0.16648 0.11762 0.23284 -0.14444 -0.53642 0.21395 -0.017648 0.15548 0.21898 -0.38858 -0.077202 0.86477 0.35199 0.076451 0.16302 -0.27378 -0.35584 0.32814 0.0093398 -0.28849 0.25024 -0.09015 -0.15931 0.38029 -0.054926 -0.073225 -0.11722 -0.63858 -0.23163 0.12849 -0.44285 -0.34411 -0.14574 0.01133 -0.044831 -0.050394 0.43174 -0.11448 -0.11368 0.16024 0.037039 -0.50864 -0.31163 0.028026 -0.31198 0.16318 -0.58325 -0.06402 -0.49742 -0.015144 -0.49007 0.32594 0.20709 
money -0.32789 -0.33493 -0.30134 0.20254 0.11468 -0.22641 0.10707 -0.18531 -0.14719 -0.1931 0.12282 0.42479 0.36124 0.43414 -0.016553 0.51387 -0.55407 0.20729 -0.27107 0.19773 0.049371 0.30559 -0.42437 -0.19093 0.012367 -0.1879 -0.030379 0.58067 -0.30968 0.11685 -0.13776 -0.042265 -0.11336 -0.16822 -0.42567 -0.19494 -0.54256 -0.12595 0.38322 -0.21735 0.02128 0.022829 0.16316 0.098673 0.54829 -0.40772 -0.27573 0.67939 -0.45384 0.079321 0.12941 0.1627 0.1301 -0.43699 0.089345 -0.12879 -0.14998 0.22781 0.80755 -0.067254 -0.46691 -0.18022 0.2206 -0.6267 -0.011289 -0.17981 0.14238 -0.19176 0.14433 0.25218 0.46445 -0.087789 0.13316 -0.62158 -0.11676 -0.2774 0.21528 0.082723 0.03004 -0.24518 -0.011407 0.55728 -0.075953 0.19779 -0.25333 0.044297 0.03776 0.087271 -0.33157 -0.10962 0.16299 0.026346 0.048298 0.66095 0.2169 -0.36153 -0.38067 -0.065667 0.41671 -0.073567 
cash -0.26316 -0.16609 -0.40264 0.116 0.19563 -0.10568 -0.51914 -0.50621 -4.9114e-05 -0.25722 -0.20944 0.55338 0.35898 0.59514 -0.042203 0.37693 -0.37228 0.53622 -0.58606 0.14264 -0.040498 0.28598 -0.65602 0.20725 0.12313 -0.30075 -0.10926 0.34607 -0.21389 0.30606 -0.35781 0.035214 -0.11554 -0.080997 -0.4033 0.48478 -0.35356 0.11578 0.33734 -0.073474 0.1894 -0.23853 0.0037994 0.026512 0.66153 -0.40775 -0.46248 0.83929 -0.19231 -0.18321 0.063407 0.34137 0.14938 -0.30636 0.15828 0.17936 -0.535 0.1427 0.7408 0.18252 -0.3096 -0.35074 0.19337 -0.99913 -0.15004 0.05917 0.29754 -0.34711 -0.30932 0.21903 -0.052421 -0.027742 -0.11915 -0.32812 -0.29778 -0.050963 0.22281 -0.20167 0.17936 -0.098549 -0.26543 0.68116 0.19476 0.23563 -0.18983 0.17104 -0.17337 0.2468 -0.47656 -0.032766 0.21115 -0.13447 0.04971 0.60665 0.063078 -0.49745 -0.62071 0.031577 0.59293 0.17653 
professor -0.26463 -0.7275 -0.14157 0.54382 0.28215 0.61198 0.43456 0.28796 0.29244 0.05149 -0.51639 -0.32034 0.26752 -0.21003 -0.50196 0.12078 -0.38952 0.19578 -0.05727 -0.25294 -0.33205 0.038015 -0.63592 -0.39986 -0.09981 0.1714 -0.016292 0.60776 -0.60696 0.17322 0.46229 -0.089003 -0.19564 0.23474 -0.66932 -0.70037 0.43989 0.59172 -0.22052 -0.20235 0.051912 0.024776 0.28029 0.57077 0.09143 -0.15786 0.14819 -0.066495 -0.099113 -0.3607 0.21481 0.035638 -0.33339 -0.44017 -0.12083 -0.078414 0.19039 0.56935 0.57962 -0.5278 0.19617 0.15522 -0.22173 -0.15727 0.10762 -0.11761 -0.46482 0.39165 -0.17166 -0.12534 0.33203 0.027396 0.32831 0.022349 0.59222 -0.40911 0.36784 0.24418 -0.032477 0.14441 -0.38845 -0.19421 0.19478 -0.50883 -0.10231 0.4857 0.19981 0.059902 -0.15312 -0.22155 -0.27165 -0.0037004 0.23722 0.09243 -0.19138 0.052743 -0.25906 -0.09121 0.40504 0.89517 
cucumber 0.087099 -0.4795 -0.64698 -0.22532 0.036011 0.16919 0.16153 -0.10024 0.68238 0.11135 -0.23786 -0.29631 -0.57577 0.34688 -0.56895 0.32413 -0.58308 0.080988 0.022979 0.02791 -0.4214 0.15929 -0.05356 0.10808 0.00034954 -0.49451 0.025519 0.051912 -0.16316 -0.63249 -0.32373 -0.32617 -0.81467 -0.13737 -0.45538 -0.92116 0.21271 -0.018544 0.40145 -0.0093285 -0.17523 0.1837 -0.22911 0.12257 0.37154 -0.18898 -0.05737 0.45911 0.42372 -0.63157 -0.22508 0.017887 0.040749 0.014136 0.012632 0.18701 -0.42498 -0.84545 0.3345 -0.43218 -0.082611 0.18198 0.046548 -0.60492 -0.87396 0.060653 -0.071605 -0.19809 0.35571 0.20837 -0.077885 -0.87404 0.34321 0.13376 0.11399 -0.71191 0.44581 -0.4334 0.024084 0.28259 -0.24977 0.58501 0.53789 0.28022 -0.016736 0.68284 0.11065 0.24216 -0.016474 -0.096954 0.13167 -0.42471 1.3664 -0.57628 -0.42458 0.13959 0.48945 0.13784 0.21906 0.94894 
king 0.38137 -0.53321 -0.45638 0.062709 0.17384 0.15219 -0.25531 0.18635 0.75894 -0.18208 -0.09873 0.22694 -0.18086 0.43778 -0.41641 0.052525 0.28919 0.16513 0.19869 -0.16364 -0.00070809 0.2518 -0.09817 -0.49227 -0.41117 -0.4255 0.47728 0.61111 -0.24208 -0.083677 0.17717 0.1205 -0.484 0.32704 -0.54718 -0.14899 -0.026262 -0.35465 0.10467 -0.31774 0.23343 0.0636 0.11386 0.29231 -0.029808 0.41513 0.096336 0.075276 -0.27854 -0.019829 -0.25883 -0.48764 0.053233 -0.16312 -0.011754 -0.057648 0.42689 0.15853 0.40294 -0.08009 -0.17879 0.10221 0.018532 -0.30788 0.47724 0.35355 -0.28664 -0.30606 0.17685 0.067557 0.31293 0.045048 0.54688 -0.052822 -0.017964 -0.15455 0.19557 0.44308 0.24389 0.28329 0.10059 0.60145 -0.28907 0.25826 0.2169 0.508 -0.033495 -0.32217 -0.55815 -0.29611 0.38198 -0.27311 -0.38904 -0.44785 0.2613 -0.33313 -0.40982 -0.12954 0.12149 0.4542 
cabbage -0.21804 -0.57218 -0.66351 0.021146 0.27046 -0.11293 0.26239 -0.06582 0.50816 -0.19651 -0.18622 0.10725 -0.25492 0.062141 -0.41535 0.29611 -0.28745 0.31724 -0.23244 -0.18745 -0.18767 0.22265 0.10883 0.3977 -0.24723 -0.45703 -0.041448 0.20279 -0.22802 -0.22135 -0.30668 -0.18088 -0.19394 -0.23665 -0.23854 -0.40092 0.54576 0.1567 0.42586 0.16482 -0.38216 -0.035616 -0.4437 0.25818 0.12607 -0.39101 -0.023528 0.67735 0.60444 -0.23964 -0.24661 0.13392 0.32211 -0.14526 -0.011405 0.10143 -0.16329 -0.29811 0.32576 -0.28693 0.20266 -0.0045492 0.53811 -0.63628 -0.37484 0.17289 -0.21114 -0.6313 0.43854 0.45571 0.51235 -0.81798 0.35028 0.13737 0.0079696 -1.0553 0.091228 0.072999 -0.14901 -0.021064 -0.57317 0.55559 0.42136 0.53252 -0.13812 0.63084 0.31068 0.39335 0.050204 -0.27077 0.18482 0.076546 1.2491 -0.47045 -0.63674 -0.19137 0.53021 0.1078 -0.095415 0.73642 
king 0.38137 -0.53321 -0.45638 0.062709 0.17384 0.15219 -0.25531 0.18635 0.75894 -0.18208 -0.09873 0.22694 -0.18086 0.43778 -0.41641 0.052525 0.28919 0.16513 0.19869 -0.16364 -0.00070809 0.2518 -0.09817 -0.49227 -0.41117 -0.4255 0.47728 0.61111 -0.24208 -0.083677 0.17717 0.1205 -0.484 0.32704 -0.54718 -0.14899 -0.026262 -0.35465 0.10467 -0.31774 0.23343 0.0636 0.11386 0.29231 -0.029808 0.41513 0.096336 0.075276 -0.27854 -0.019829 -0.25883 -0.48764 0.053233 -0.16312 -0.011754 -0.057648 0.42689 0.15853 0.40294 -0.08009 -0.17879 0.10221 0.018532 -0.30788 0.47724 0.35355 -0.28664 -0.30606 0.17685 0.067557 0.31293 0.045048 0.54688 -0.052822 -0.017964 -0.15455 0.19557 0.44308 0.24389 0.28329 0.10059 0.60145 -0.28907 0.25826 0.2169 0.508 -0.033495 -0.32217 -0.55815 -0.29611 0.38198 -0.27311 -0.38904 -0.44785 0.2613 -0.33313 -0.40982 -0.12954 0.12149 0.4542 
queen 0.055861 -0.49623 -0.58635 -0.1249 -0.040857 0.11704 -0.35593 -0.17487 0.47702 -0.3086 -0.020591 -0.0086875 -0.069888 0.6901 -0.043412 0.27333 -0.14804 0.38912 -0.30208 -0.089203 -0.052301 0.33244 -0.01187 -0.36333 -0.294 -0.12432 0.044376 0.26849 -0.23247 -0.44069 0.2285 0.13685 -0.26735 -0.32043 -0.24162 -0.318 -0.17749 0.05078 0.28115 -0.22995 0.55818 -0.0075357 0.13056 0.42952 0.070714 0.32389 0.019166 0.21445 -0.35261 0.017656 -0.18856 -0.77606 0.028711 -0.010235 0.084575 -0.33458 0.37266 0.46141 0.39294 0.057614 -0.036895 0.098598 0.50449 -0.47018 0.01664 0.039743 -0.16493 -0.15039 -0.16548 -0.073278 0.46409 0.48208 0.87632 0.14909 0.00017445 -0.33279 0.59909 0.31073 0.1025 0.22475 0.11016 0.48736 0.34784 0.2759 0.11838 0.64321 0.04007 -0.16737 -0.61981 -0.59882 0.30221 0.063074 -0.97104 -0.80251 0.38275 -0.072958 -0.082828 0.11928 -0.038305 0.26627 
king 0.38137 -0.53321 -0.45638 0.062709 0.17384 0.15219 -0.25531 0.18635 0.75894 -0.18208 -0.09873 0.22694 -0.18086 0.43778 -0.41641 0.052525 0.28919 0.16513 0.19869 -0.16364 -0.00070809 0.2518 -0.09817 -0.49227 -0.41117 -0.4255 0.47728 0.61111 -0.24208 -0.083677 0.17717 0.1205 -0.484 0.32704 -0.54718 -0.14899 -0.026262 -0.35465 0.10467 -0.31774 0.23343 0.0636 0.11386 0.29231 -0.029808 0.41513 0.096336 0.075276 -0.27854 -0.019829 -0.25883 -0.48764 0.053233 -0.16312 -0.011754 -0.057648 0.42689 0.15853 0.40294 -0.08009 -0.17879 0.10221 0.018532 -0.30788 0.47724 0.35355 -0.28664 -0.30606 0.17685 0.067557 0.31293 0.045048 0.54688 -0.052822 -0.017964 -0.15455 0.19557 0.44308 0.24389 0.28329 0.10059 0.60145 -0.28907 0.25826 0.2169 0.508 -0.033495 -0.32217 -0.55815 -0.29611 0.38198 -0.27311 -0.38904 -0.44785 0.2613 -0.33313 -0.40982 -0.12954 0.12149 0.4542 
rook 0.075899 -0.69702 -0.95999 -0.68222 -0.30218 -0.16602 -0.17498 -0.01926 -0.079931 -0.40501 0.095013 -0.093783 -0.43857 0.20264 -0.29093 -0.32253 -0.6324 0.088404 -0.69978 0.52539 -0.02859 -0.26067 0.41655 -0.78281 0.54063 -0.28028 0.28356 0.26255 0.22236 -1.2604 0.0047129 -0.28286 -0.15402 -0.62648 -1.3511 -0.09342 0.085086 0.024599 0.45494 0.094743 0.51082 -0.64869 -0.37577 0.42828 0.096973 -0.26849 0.98856 0.22797 0.18605 0.27151 -0.24899 -0.55861 -0.021974 0.026563 -0.39854 -0.54311 -0.20257 0.36656 0.28882 -0.32122 0.10126 -0.071243 -0.22694 -0.26154 0.82935 0.30161 -0.34838 0.22536 -0.11934 -0.3133 0.48703 -0.21276 0.67562 -0.525 0.51323 -0.11068 0.15751 0.33115 0.25017 0.48826 0.37016 0.5832 -0.39137 0.40196 -1.222 1.1433 -0.17096 -0.34788 -0.40152 -0.27652 0.15896 0.20588 -0.18839 -0.19834 0.054475 -0.41981 0.063265 -0.16769 -0.084413 0.36569 
bishop 0.037986 -0.45561 -0.49831 0.37472 -0.35617 0.33304 -0.13432 0.02858 0.55809 0.041787 -0.38219 -0.51148 -0.047412 0.10993 -0.75774 -0.55683 -0.42631 0.14219 -0.20404 -0.052937 -0.13934 0.17783 -0.13553 -0.47756 0.18362 0.29685 0.27088 0.43906 0.074343 -0.34111 0.15412 -0.13669 -0.32244 0.045703 -0.87283 -0.11772 -0.27642 -0.029435 0.10104 0.58582 -0.15469 -0.20857 -0.11233 0.10553 -0.051517 0.31873 0.4375 0.246 -0.32575 0.29175 -0.054894 -0.20644 0.10646 -0.10543 -0.14103 -0.21172 0.074835 0.64472 0.16941 -0.22699 -0.014934 0.15895 -0.62451 -0.61939 0.60133 0.26395 -0.60604 0.17095 -0.083323 -0.33744 0.34277 0.095034 0.29516 -0.17228 -0.011895 -0.2125 1.0626 0.45975 0.29483 0.21295 0.22174 0.67528 -0.52272 0.42307 -0.79534 0.48395 0.2603 -0.51881 -0.23916 -0.055783 0.11832 0.25799 -0.10951 -0.31837 -0.028201 0.19756 -0.26051 -0.041652 -0.20204 0.27587 
rabbi 0.63594 -0.3153 -0.46955 -0.46821 -0.12133 0.6139 0.46276 -0.13544 0.26726 0.098407 -0.87593 0.07539 -0.060955 -0.16545 -0.21704 -0.012786 -0.19319 0.31696 -0.0041558 0.029132 -0.27616 0.083303 -0.301 -0.42571 0.42695 0.32034 1.1048 0.46234 -0.93582 0.0379 0.47553 0.34378 -0.43383 0.020828 -0.29746 -0.23919 0.059568 -0.46352 -0.17884 -0.38486 0.40573 0.56784 -0.35074 0.63762 0.39164 -0.13744 0.13771 0.30377 0.40391 0.09013 0.63692 0.9893 -0.64317 -0.54642 -0.0082792 -0.026465 0.17503 -0.069695 0.33772 -0.020539 0.0096748 0.6238 -1.027 -0.31213 0.29252 -0.25751 -0.80565 0.30665 0.01244 -0.018027 0.13249 -0.31825 1.1742 0.43276 -0.046945 0.12058 0.55463 0.31118 -0.12898 0.39231 0.25498 0.80379 -0.17288 -0.024253 -0.17368 -0.31718 0.29774 -0.27498 -0.93898 0.409 -0.15854 1.1015 0.61002 0.081003 0.42336 -0.33786 -0.29131 0.4978 0.478 1.0377 
jerusalem 0.55072 -0.38823 -0.20617 -0.17426 0.018591 0.34751 -0.02664 0.02956 0.59269 0.32891 -0.0077935 0.33929 -0.16777 -0.17358 0.04694 -0.1518 -0.48068 0.53532 0.19843 -0.49222 -0.22481 -0.17951 -0.49495 -0.49306 -0.068313 -0.39346 0.69117 0.19531 -0.58801 -0.29266 -0.21198 0.39312 -0.31021 0.4338 -0.37041 0.0023911 -0.52873 -0.3917 -0.31806 -0.19866 0.39923 0.036658 -0.15702 0.33313 0.55774 0.07744 0.49476 0.017269 -0.32676 0.040396 0.16826 -0.28019 -0.42793 -0.070264 -0.15831 -0.13043 0.1634 0.39981 0.51618 0.15256 -0.18158 0.2916 -0.59786 -0.0059339 0.38692 -0.10978 -0.45144 -0.14761 0.022706 -0.024936 0.73791 -0.28078 0.95276 0.085914 -0.46753 -0.023186 0.73451 -0.14791 -0.14235 0.41149 0.53632 0.96871 0.082001 0.43675 -0.10598 0.30731 0.31393 0.032382 -0.47723 0.34784 0.030713 0.5095 0.30684 -0.22735 0.81206 -0.0089505 -0.045738 0.11904 0.31511 0.60738 
israel 0.66264 -0.48917 -0.10842 -0.12982 0.10571 -0.003125 0.18735 -0.055583 0.16182 0.059032 0.075678 0.22868 -0.3953 -0.12675 0.11889 -0.20799 0.080143 0.3565 0.088611 -0.21769 -0.67509 0.23705 -0.36707 -0.20506 0.071949 -0.19066 0.61744 0.11853 -0.43137 -0.07867 -0.29338 0.32755 -0.14314 0.17899 -0.40086 -0.19163 -0.39006 -0.45871 -0.3628 -0.83152 0.43959 0.17696 -0.31032 0.27945 0.43305 -0.40661 0.20138 0.14714 -0.29934 -0.47907 0.45351 0.181 -0.28605 0.032871 0.15528 0.076197 0.16027 -0.10076 0.48067 0.1933 -0.18001 0.32345 -0.0025364 -0.24368 0.16884 -0.0027211 -0.51333 0.069905 -0.0049231 -0.26296 0.75926 -0.48422 1.1056 0.38734 -0.38126 -0.050442 0.23761 -0.24832 0.069031 0.10787 0.22651 0.57657 0.21475 -0.02979 0.086425 -0.18683 -0.037752 -0.36003 -0.67726 0.14401 -0.035586 0.72828 0.26438 0.12714 0.89247 -0.59347 0.03593 0.47448 0.76274 0.35401 
jerusalem 0.55072 -0.38823 -0.20617 -0.17426 0.018591 0.34751 -0.02664 0.02956 0.59269 0.32891 -0.0077935 0.33929 -0.16777 -0.17358 0.04694 -0.1518 -0.48068 0.53532 0.19843 -0.49222 -0.22481 -0.17951 -0.49495 -0.49306 -0.068313 -0.39346 0.69117 0.19531 -0.58801 -0.29266 -0.21198 0.39312 -0.31021 0.4338 -0.37041 0.0023911 -0.52873 -0.3917 -0.31806 -0.19866 0.39923 0.036658 -0.15702 0.33313 0.55774 0.07744 0.49476 0.017269 -0.32676 0.040396 0.16826 -0.28019 -0.42793 -0.070264 -0.15831 -0.13043 0.1634 0.39981 0.51618 0.15256 -0.18158 0.2916 -0.59786 -0.0059339 0.38692 -0.10978 -0.45144 -0.14761 0.022706 -0.024936 0.73791 -0.28078 0.95276 0.085914 -0.46753 -0.023186 0.73451 -0.14791 -0.14235 0.41149 0.53632 0.96871 0.082001 0.43675 -0.10598 0.30731 0.31393 0.032382 -0.47723 0.34784 0.030713 0.5095 0.30684 -0.22735 0.81206 -0.0089505 -0.045738 0.11904 0.31511 0.60738 
palestinian 0.6175 -0.74152 0.23367 -0.23099 0.042615 0.52009 0.25027 -0.16003 0.20407 0.15817 0.12675 0.83206 -0.54846 0.01243 0.043596 -0.25565 0.19322 0.27963 0.10123 -0.34099 -0.67042 0.051245 -0.25388 -0.055857 0.080103 -0.24052 0.53883 0.12448 -0.11204 -0.02071 -0.40286 0.30524 -0.10894 -0.03947 -0.4599 0.015266 -0.51489 -0.22907 -0.38689 -0.58318 0.30657 0.19695 -0.042141 0.53179 0.67415 -0.72088 0.31148 0.063063 -0.46063 -0.82288 0.26647 0.024986 0.13443 -0.35339 -0.15933 0.029874 0.38744 0.55879 0.28598 0.18864 -0.1093 0.50356 -0.25877 -0.073307 -0.068919 -0.29592 -0.58402 -0.12676 0.23844 -0.13399 0.18459 -0.40686 1.3628 0.11927 -0.73301 0.40048 0.4659 -0.2312 0.099891 -0.091232 0.13578 0.5594 0.028112 0.44176 -0.30284 -0.19606 -0.69711 0.11207 -0.51929 0.51299 -0.098282 0.96628 0.48967 0.23765 0.58692 -0.53444 -0.010091 0.55669 0.69041 0.01786 
holy -0.29635 -0.31661 -0.24054 0.092103 0.10414 0.08044 -0.26937 0.23308 0.64256 0.1278 -0.50592 0.014541 0.068458 0.18904 -0.35544 0.016076 -0.19275 0.050863 0.16805 -0.27015 -0.21933 0.60709 -0.064122 -0.40952 -0.4417 -0.18241 0.56422 0.30988 0.032651 -0.47369 -0.1349 0.55932 -0.33216 -0.05065 -0.19467 -0.21421 -0.49286 -0.35907 -0.066545 -0.10463 0.22131 0.32814 -0.25127 0.01665 -0.00010372 0.21119 0.065042 0.45566 -0.58251 -0.020695 -0.35405 -0.29787 -0.41653 -0.10785 0.12909 -0.43938 0.12062 -0.078129 0.23157 0.19925 -0.56063 0.22839 -0.75156 -0.51927 0.33081 0.2495 -0.95933 -0.31939 0.027069 0.19169 0.50546 -0.12038 0.38582 0.24675 -0.063062 -0.43099 0.59102 0.42822 -0.047175 0.36179 0.84102 0.19868 -0.022422 0.27866 -0.025583 -0.11732 0.76296 0.33125 -0.30499 0.086166 -0.27339 0.50496 0.11046 -0.40157 0.041763 -0.14536 -0.3091 0.24303 0.207 0.14071 
sex 0.067527 -0.052552 0.22976 -0.35138 0.066403 -0.12449 0.12786 0.24033 0.12535 -0.16252 -0.20443 0.11303 -0.034385 0.72576 -0.51084 0.17881 -0.47259 0.23751 0.35113 0.075269 -0.15461 -0.080249 -0.058633 0.0059901 0.095358 0.030643 -0.0010984 -0.35993 -0.23627 -0.18306 0.10563 -0.18777 -0.1817 -0.034957 -0.17542 -0.65257 -0.22339 0.0079384 -0.3185 -0.11244 0.023981 0.23844 0.12805 -0.39699 0.2567 -0.64434 0.40234 0.5414 -0.44871 -0.36141 0.086063 -0.018849 0.029119 0.12273 0.15152 -0.60583 -0.026588 0.47843 0.487 -0.0070466 0.81288 -0.13788 -0.098793 -0.2527 -0.2618 -0.73036 0.13602 -0.55411 0.13839 0.14881 0.18154 0.20742 0.55148 -0.0073639 -0.57466 0.30849 0.38728 0.42027 0.043449 -0.85618 0.063204 0.3543 0.64947 -0.20982 -0.7544 0.1454 -0.1362 -0.33243 -0.71453 -0.21228 0.22618 -0.25852 -0.10122 -0.23872 -0.20184 0.10742 -0.2463 0.54226 -0.33102 0.1255 
fuck -0.049085 -0.37947 0.30571 -0.43152 0.063741 -0.31544 0.27958 -0.14621 -0.45773 -0.7155 -0.19014 -0.1646 -0.24238 0.54673 -0.47629 0.52365 -0.49199 0.090645 -0.05383 0.53878 -0.0035463 -0.082614 -0.53621 0.16276 -0.27734 -0.52584 0.6568 0.19385 0.0051384 0.14202 -0.39766 -0.48803 -0.34675 -0.078279 -0.10814 -0.90708 0.053932 -0.79567 -0.21807 0.16552 0.071228 0.17856 0.33695 -0.01999 -0.22215 -0.76902 0.29597 0.58582 -0.72092 -0.58568 -0.097949 0.052006 0.033045 -0.33641 0.093617 0.10292 0.67849 0.48091 0.000852 -0.076268 0.18769 0.1524 0.24127 -0.70858 0.083276 -0.13512 0.067838 -0.35502 -0.039798 0.21827 -0.025685 -0.36822 0.36992 0.084618 0.027056 -0.16622 0.19462 0.41387 0.41225 0.050868 -0.014618 0.32865 0.26358 -0.11272 0.055098 0.32531 0.52747 0.52803 -0.39055 0.084597 0.34375 0.18483 0.40189 0.26949 -0.59665 0.2148 0.35677 0.051881 0.080138 0.32827 
sex 0.067527 -0.052552 0.22976 -0.35138 0.066403 -0.12449 0.12786 0.24033 0.12535 -0.16252 -0.20443 0.11303 -0.034385 0.72576 -0.51084 0.17881 -0.47259 0.23751 0.35113 0.075269 -0.15461 -0.080249 -0.058633 0.0059901 0.095358 0.030643 -0.0010984 -0.35993 -0.23627 -0.18306 0.10563 -0.18777 -0.1817 -0.034957 -0.17542 -0.65257 -0.22339 0.0079384 -0.3185 -0.11244 0.023981 0.23844 0.12805 -0.39699 0.2567 -0.64434 0.40234 0.5414 -0.44871 -0.36141 0.086063 -0.018849 0.029119 0.12273 0.15152 -0.60583 -0.026588 0.47843 0.487 -0.0070466 0.81288 -0.13788 -0.098793 -0.2527 -0.2618 -0.73036 0.13602 -0.55411 0.13839 0.14881 0.18154 0.20742 0.55148 -0.0073639 -0.57466 0.30849 0.38728 0.42027 0.043449 -0.85618 0.063204 0.3543 0.64947 -0.20982 -0.7544 0.1454 -0.1362 -0.33243 -0.71453 -0.21228 0.22618 -0.25852 -0.10122 -0.23872 -0.20184 0.10742 -0.2463 0.54226 -0.33102 0.1255 
maradona 0.22311 -0.24975 -0.34932 0.24887 -0.32918 0.19789 0.034543 0.17147 0.15382 -0.32911 -0.75418 0.12567 -0.18774 -0.11026 -0.086939 0.046341 -0.1276 -0.65198 -0.19529 0.10745 0.2919 0.050533 -0.73553 -0.54122 0.25164 0.14227 -0.049748 0.059272 0.53466 -0.35099 0.15002 0.13138 0.05497 0.13434 -0.75656 -0.033861 -0.49331 -0.50227 0.024654 -0.34104 0.65684 0.21716 -0.44611 -0.02621 -0.22957 -0.60518 -0.17687 0.013461 0.067325 -0.47752 -0.22881 0.02843 0.15226 -0.55334 -0.0648 0.26491 0.39186 0.39366 0.70466 -0.54637 0.48336 -0.093911 0.42309 -0.45834 -0.065612 0.49038 -0.4082 -0.24166 -0.28083 0.079788 0.061272 -0.015695 0.42723 0.21093 0.29685 0.12472 0.19441 0.37683 0.37321 0.032146 0.023215 0.45678 0.39064 0.28554 -0.37993 -0.079874 0.37286 0.199 -0.12799 -0.31178 0.71813 0.030197 0.55289 0.233 0.16284 -0.53823 -0.39332 0.51416 -0.28975 0.15533 
football 0.75837 -0.53455 -0.4651 0.29174 -0.035295 0.15778 -0.3214 0.14978 0.36156 -0.4448 -0.93372 0.3149 -0.17221 0.059305 -0.44285 -0.29044 -0.34559 -0.52451 -0.23827 0.066892 -0.070087 -0.17533 -0.72116 -0.26255 -0.0082611 -0.22171 0.071307 0.076004 0.66508 -0.40824 0.060523 0.021486 0.10743 -0.11907 -0.71615 -0.87199 -0.5164 -0.036757 0.038041 0.16854 0.79031 -0.20126 -0.13191 0.26749 0.40545 0.11979 -0.12201 0.023506 -0.6745 -0.23457 -0.15094 -0.093423 0.012451 -0.31082 0.48507 0.30158 0.18781 0.11619 0.24895 -0.57229 0.13239 -0.063779 0.72157 -0.51687 0.0246 0.205 -0.69716 0.26781 -0.33053 0.7074 0.1748 -0.16722 0.26334 0.16681 0.27668 0.38225 0.31102 -0.03784 -0.058138 -0.27086 -0.49278 -0.36723 -0.037054 0.015478 -0.61641 0.31036 0.24439 -0.39942 -0.35638 0.39606 0.44338 0.10154 0.31687 -0.13934 -0.11649 -0.6519 -0.29615 -0.031332 -0.54269 0.34287 
football 0.75837 -0.53455 -0.4651 0.29174 -0.035295 0.15778 -0.3214 0.14978 0.36156 -0.4448 -0.93372 0.3149 -0.17221 0.059305 -0.44285 -0.29044 -0.34559 -0.52451 -0.23827 0.066892 -0.070087 -0.17533 -0.72116 -0.26255 -0.0082611 -0.22171 0.071307 0.076004 0.66508 -0.40824 0.060523 0.021486 0.10743 -0.11907 -0.71615 -0.87199 -0.5164 -0.036757 0.038041 0.16854 0.79031 -0.20126 -0.13191 0.26749 0.40545 0.11979 -0.12201 0.023506 -0.6745 -0.23457 -0.15094 -0.093423 0.012451 -0.31082 0.48507 0.30158 0.18781 0.11619 0.24895 -0.57229 0.13239 -0.063779 0.72157 -0.51687 0.0246 0.205 -0.69716 0.26781 -0.33053 0.7074 0.1748 -0.16722 0.26334 0.16681 0.27668 0.38225 0.31102 -0.03784 -0.058138 -0.27086 -0.49278 -0.36723 -0.037054 0.015478 -0.61641 0.31036 0.24439 -0.39942 -0.35638 0.39606 0.44338 0.10154 0.31687 -0.13934 -0.11649 -0.6519 -0.29615 -0.031332 -0.54269 0.34287 
soccer 0.50796 -0.43307 -0.35327 0.1495 -0.00010504 -0.022382 -0.37853 0.32934 0.21376 -0.39577 -0.81961 0.34083 -0.27434 -0.0050178 -0.30734 -0.26726 -0.18968 -0.56385 -0.045605 -0.1569 -0.19893 -0.57252 -0.38114 -0.31107 -0.057676 0.043966 -0.1276 -0.10907 0.60881 -0.3382 -0.028983 0.20587 0.18251 0.022814 -0.51322 -0.77726 -0.68688 -0.39303 0.18643 0.10414 0.87564 -0.22667 -0.12309 0.33556 0.45305 0.0035293 -0.23889 0.21071 -0.44763 -0.41809 -0.31343 -0.31989 0.015527 -0.66632 0.34287 0.12371 0.081457 0.030688 0.53964 -0.52702 0.59451 0.10933 0.65291 -0.39688 -0.10922 0.22662 -0.83844 0.10108 -0.42914 0.57131 0.43038 -0.31109 0.52666 0.19093 0.098189 0.31924 0.37588 -0.23301 -0.27889 -0.28294 -0.78589 -0.33785 0.182 -0.32413 -0.412 0.21748 0.36253 -0.40688 -0.13512 0.26629 0.45596 0.1322 0.40525 0.18109 -0.26197 -0.82491 -0.37076 -0.1608 -0.50891 0.50143 
football 0.75837 -0.53455 -0.4651 0.29174 -0.035295 0.15778 -0.3214 0.14978 0.36156 -0.4448 -0.93372 0.3149 -0.17221 0.059305 -0.44285 -0.29044 -0.34559 -0.52451 -0.23827 0.066892 -0.070087 -0.17533 -0.72116 -0.26255 -0.0082611 -0.22171 0.071307 0.076004 0.66508 -0.40824 0.060523 0.021486 0.10743 -0.11907 -0.71615 -0.87199 -0.5164 -0.036757 0.038041 0.16854 0.79031 -0.20126 -0.13191 0.26749 0.40545 0.11979 -0.12201 0.023506 -0.6745 -0.23457 -0.15094 -0.093423 0.012451 -0.31082 0.48507 0.30158 0.18781 0.11619 0.24895 -0.57229 0.13239 -0.063779 0.72157 -0.51687 0.0246 0.205 -0.69716 0.26781 -0.33053 0.7074 0.1748 -0.16722 0.26334 0.16681 0.27668 0.38225 0.31102 -0.03784 -0.058138 -0.27086 -0.49278 -0.36723 -0.037054 0.015478 -0.61641 0.31036 0.24439 -0.39942 -0.35638 0.39606 0.44338 0.10154 0.31687 -0.13934 -0.11649 -0.6519 -0.29615 -0.031332 -0.54269 0.34287 
basketball 0.49817 -0.32482 -0.36524 0.23224 -0.1718 0.18334 -0.32168 0.33221 0.42474 -0.2861 -0.60891 0.12685 -0.060304 0.085712 -0.43025 -0.10896 0.11356 -0.41879 0.23475 0.33948 -0.064351 -0.54378 -0.50823 -0.15557 0.082551 -0.19006 -0.23853 -0.26747 0.29696 -0.23373 0.20881 0.15805 -0.097607 -0.15865 -0.91133 -0.92108 -0.48844 -0.050754 -0.050823 0.31399 0.89904 -0.28242 -0.015285 0.42484 0.58128 0.074366 -0.41208 0.47819 -0.41004 -0.16956 -0.49039 0.18375 -0.12387 -0.78634 0.20922 -0.16615 0.18295 -0.086071 0.56146 -0.70555 0.30939 -0.21709 0.56102 -0.41153 0.10175 0.14705 -0.60538 0.051514 -0.46483 0.53225 0.19639 0.021216 0.39125 0.11468 0.36455 0.62653 0.33236 -0.10146 -0.12027 -0.23445 -0.60095 -0.22941 0.17043 0.040271 -0.4895 0.49243 0.42169 -0.56174 -0.71331 0.34173 0.70586 0.11182 0.22635 -0.25898 -0.047539 -0.681 -0.68783 -0.064955 -0.033657 0.61791 
football 0.75837 -0.53455 -0.4651 0.29174 -0.035295 0.15778 -0.3214 0.14978 0.36156 -0.4448 -0.93372 0.3149 -0.17221 0.059305 -0.44285 -0.29044 -0.34559 -0.52451 -0.23827 0.066892 -0.070087 -0.17533 -0.72116 -0.26255 -0.0082611 -0.22171 0.071307 0.076004 0.66508 -0.40824 0.060523 0.021486 0.10743 -0.11907 -0.71615 -0.87199 -0.5164 -0.036757 0.038041 0.16854 0.79031 -0.20126 -0.13191 0.26749 0.40545 0.11979 -0.12201 0.023506 -0.6745 -0.23457 -0.15094 -0.093423 0.012451 -0.31082 0.48507 0.30158 0.18781 0.11619 0.24895 -0.57229 0.13239 -0.063779 0.72157 -0.51687 0.0246 0.205 -0.69716 0.26781 -0.33053 0.7074 0.1748 -0.16722 0.26334 0.16681 0.27668 0.38225 0.31102 -0.03784 -0.058138 -0.27086 -0.49278 -0.36723 -0.037054 0.015478 -0.61641 0.31036 0.24439 -0.39942 -0.35638 0.39606 0.44338 0.10154 0.31687 -0.13934 -0.11649 -0.6519 -0.29615 -0.031332 -0.54269 0.34287 
tennis 0.47857 -0.55509 -0.72354 0.23205 0.15144 0.3813 -0.22994 0.27937 0.31916 -0.7444 -0.76256 0.40567 -0.25152 0.61127 -0.083882 -0.10722 -0.25889 -0.44282 0.047399 0.27322 0.15741 -0.54701 -0.1502 -0.30995 0.0096599 0.033797 -0.52574 0.08617 0.17437 -0.2578 0.063574 0.1436 0.19884 -0.33878 -0.52321 -0.26692 -0.67085 -0.47164 0.20629 -0.21378 0.73765 -0.21674 -0.26039 0.011473 0.20876 0.1583 -0.3254 0.34642 -0.15172 0.10252 -0.076822 -0.020546 0.03418 -0.61266 0.38958 -0.10156 -0.070519 0.074916 0.70347 -0.63234 0.62741 0.24884 0.54336 -0.24058 -0.3541 0.24404 -1.2542 0.072754 -0.15512 0.16638 0.32827 0.10553 0.9491 -0.18761 0.045129 0.82427 0.35527 -0.10139 0.033267 -0.036317 -0.88076 -0.30951 0.4221 -0.087714 0.029705 0.46718 0.35022 -0.049613 -0.74464 0.046288 0.51513 -0.44762 0.11298 0.0269 -0.40934 -0.80011 -0.47147 -0.56766 -0.23559 0.63986 
tennis 0.47857 -0.55509 -0.72354 0.23205 0.15144 0.3813 -0.22994 0.27937 0.31916 -0.7444 -0.76256 0.40567 -0.25152 0.61127 -0.083882 -0.10722 -0.25889 -0.44282 0.047399 0.27322 0.15741 -0.54701 -0.1502 -0.30995 0.0096599 0.033797 -0.52574 0.08617 0.17437 -0.2578 0.063574 0.1436 0.19884 -0.33878 -0.52321 -0.26692 -0.67085 -0.47164 0.20629 -0.21378 0.73765 -0.21674 -0.26039 0.011473 0.20876 0.1583 -0.3254 0.34642 -0.15172 0.10252 -0.076822 -0.020546 0.03418 -0.61266 0.38958 -0.10156 -0.070519 0.074916 0.70347 -0.63234 0.62741 0.24884 0.54336 -0.24058 -0.3541 0.24404 -1.2542 0.072754 -0.15512 0.16638 0.32827 0.10553 0.9491 -0.18761 0.045129 0.82427 0.35527 -0.10139 0.033267 -0.036317 -0.88076 -0.30951 0.4221 -0.087714 0.029705 0.46718 0.35022 -0.049613 -0.74464 0.046288 0.51513 -0.44762 0.11298 0.0269 -0.40934 -0.80011 -0.47147 -0.56766 -0.23559 0.63986 
racket -0.18549 -0.029051 -0.23145 -0.35088 -0.19196 -0.26747 -0.28337 0.12415 -0.16814 -0.35472 0.0073009 0.28374 -0.48569 -0.049148 -0.28611 0.75741 -0.12042 0.027898 -0.16507 0.43021 0.0074938 -0.48706 -0.075017 0.022146 0.26467 -0.13432 0.21768 0.59011 0.19443 -0.12155 -0.45847 0.045765 -0.010627 -0.3688 -0.39049 -0.45128 -0.77292 -0.33936 0.42779 0.094387 0.020196 0.019342 0.017911 0.060489 -0.070153 -0.14454 0.33081 0.50863 0.056301 0.13274 -0.32062 0.066813 0.29168 -0.56338 0.049279 0.21355 -0.067894 0.26871 0.57459 -0.36019 0.42 -0.63568 -0.16892 -0.47817 -0.4192 -0.11376 -0.78854 -0.29882 -0.35012 0.036885 -0.15642 -0.3827 0.36881 -0.55507 -0.30817 -0.27136 -0.079387 0.19659 0.11096 -0.27221 -0.3484 0.17168 0.27569 0.20684 -0.32038 0.2523 0.083103 -0.2383 -0.37979 -0.21417 0.30444 -0.040358 0.24801 0.32784 -0.0014559 0.066117 -0.0032768 0.32227 0.066647 0.17475 
arafat 0.24659 -0.66896 -0.37511 -0.11975 -0.031109 0.51272 0.37736 -0.26318 0.56145 0.090264 -0.082237 0.56276 -0.74528 0.15736 0.16618 -0.38596 -0.019992 0.47798 -0.27267 -0.43716 -0.3771 0.19123 -0.45458 -0.3278 -0.20135 -0.06432 0.4946 0.17433 -0.099754 0.38756 -0.27949 0.47462 0.36427 0.25401 -0.34926 0.38424 -0.33084 -0.41917 -0.48016 -0.29492 0.31871 0.2383 0.14667 0.91723 0.43497 -0.69557 0.14485 0.2505 -0.36518 -0.8932 0.41277 0.1893 -0.13839 -0.23551 -0.10399 0.26084 0.49879 0.64157 0.17237 -0.011966 -0.13304 0.4068 -0.42467 -0.33342 0.39104 -0.36045 -0.31215 -0.036146 0.41772 -0.37628 0.14631 0.074798 1.2524 -0.21671 -0.57598 0.25109 0.51421 0.26451 0.52365 0.33893 -0.28759 0.62613 0.34322 0.05139 -0.15786 -0.061317 -0.28511 0.090894 -0.45717 0.3066 0.22784 0.59431 0.72614 0.35855 0.39804 -0.395 -0.074642 0.49516 0.9052 -0.15028 
peace 0.17641 -0.60459 0.034258 -0.056339 0.42788 0.18976 0.22232 0.22769 0.46909 0.0013942 0.24657 0.28906 -0.26097 0.18264 -0.32592 -0.005122 -0.18522 0.4249 -0.022066 -0.72553 -0.2021 0.63148 0.19719 -0.19513 -0.70264 0.077623 0.57201 0.50608 0.012159 -0.033909 0.29415 0.57461 0.16904 0.15561 -0.26535 -0.17454 -0.35821 -0.37127 -0.52193 -0.31123 -0.10792 0.2698 -0.070083 -0.29351 0.21048 -0.31571 0.31982 0.045943 0.057518 -0.23503 0.39451 -0.25535 -0.546 -0.28151 0.52716 -0.13055 0.62344 -0.2731 0.48721 -0.12102 -0.39099 -0.1176 -0.065932 -0.83228 0.76512 0.32437 -0.48829 0.14647 -0.1107 -0.13228 0.051791 0.081382 0.83306 0.29609 -0.36764 -0.17214 0.37124 -0.3241 0.18049 -0.0873 -0.24919 0.13465 0.27756 0.42307 -0.22819 0.33529 -0.022383 -0.033223 -0.45301 -0.35343 -0.13614 -0.031351 0.2933 0.29795 0.033888 -0.31701 -0.2117 0.21982 0.35535 -0.037231 
arafat 0.24659 -0.66896 -0.37511 -0.11975 -0.031109 0.51272 0.37736 -0.26318 0.56145 0.090264 -0.082237 0.56276 -0.74528 0.15736 0.16618 -0.38596 -0.019992 0.47798 -0.27267 -0.43716 -0.3771 0.19123 -0.45458 -0.3278 -0.20135 -0.06432 0.4946 0.17433 -0.099754 0.38756 -0.27949 0.47462 0.36427 0.25401 -0.34926 0.38424 -0.33084 -0.41917 -0.48016 -0.29492 0.31871 0.2383 0.14667 0.91723 0.43497 -0.69557 0.14485 0.2505 -0.36518 -0.8932 0.41277 0.1893 -0.13839 -0.23551 -0.10399 0.26084 0.49879 0.64157 0.17237 -0.011966 -0.13304 0.4068 -0.42467 -0.33342 0.39104 -0.36045 -0.31215 -0.036146 0.41772 -0.37628 0.14631 0.074798 1.2524 -0.21671 -0.57598 0.25109 0.51421 0.26451 0.52365 0.33893 -0.28759 0.62613 0.34322 0.05139 -0.15786 -0.061317 -0.28511 0.090894 -0.45717 0.3066 0.22784 0.59431 0.72614 0.35855 0.39804 -0.395 -0.074642 0.49516 0.9052 -0.15028 
terror -0.11733 -0.21083 -0.10942 0.072269 0.12982 0.10031 -0.27064 0.077645 -0.13952 -0.39956 0.28154 0.11818 -0.85224 -0.0178 -0.22756 0.26363 -0.078466 0.15434 -0.090129 0.021149 0.06442 0.048159 -0.024668 -0.17074 -0.14637 -0.65451 0.92308 0.33998 -0.030126 0.01712 -0.19519 -0.23298 0.36351 0.13584 -0.11107 -0.26967 -0.46017 -0.058681 -0.18528 -0.43934 0.46521 0.42317 0.12517 0.083622 -0.091771 -0.55573 0.50738 -0.20595 -0.24738 -0.35862 -0.29086 -0.25898 -0.026814 -0.39807 -0.011186 -0.21035 0.86463 -0.012868 0.58648 0.16542 -0.11101 -0.013961 -0.30017 -0.26279 0.22305 -0.015598 -0.34749 -0.57936 0.012344 -0.13731 0.17191 0.012822 0.51457 0.0057872 -0.5794 -0.38446 0.028905 -0.037473 0.056785 0.074811 -0.20225 0.029635 0.31504 0.032411 -0.12803 0.080701 0.083682 -0.18755 0.03386 0.086039 -0.13654 0.31947 0.32966 -0.074827 0.40616 -0.36738 -0.091933 -0.32378 0.29805 0.17419 
arafat 0.24659 -0.66896 -0.37511 -0.11975 -0.031109 0.51272 0.37736 -0.26318 0.56145 0.090264 -0.082237 0.56276 -0.74528 0.15736 0.16618 -0.38596 -0.019992 0.47798 -0.27267 -0.43716 -0.3771 0.19123 -0.45458 -0.3278 -0.20135 -0.06432 0.4946 0.17433 -0.099754 0.38756 -0.27949 0.47462 0.36427 0.25401 -0.34926 0.38424 -0.33084 -0.41917 -0.48016 -0.29492 0.31871 0.2383 0.14667 0.91723 0.43497 -0.69557 0.14485 0.2505 -0.36518 -0.8932 0.41277 0.1893 -0.13839 -0.23551 -0.10399 0.26084 0.49879 0.64157 0.17237 -0.011966 -0.13304 0.4068 -0.42467 -0.33342 0.39104 -0.36045 -0.31215 -0.036146 0.41772 -0.37628 0.14631 0.074798 1.2524 -0.21671 -0.57598 0.25109 0.51421 0.26451 0.52365 0.33893 -0.28759 0.62613 0.34322 0.05139 -0.15786 -0.061317 -0.28511 0.090894 -0.45717 0.3066 0.22784 0.59431 0.72614 0.35855 0.39804 -0.395 -0.074642 0.49516 0.9052 -0.15028 
jackson 0.32582 0.022626 0.027771 0.038894 0.20681 0.28419 -0.44314 0.11078 0.27039 0.11572 -0.069853 -0.28076 0.002978 0.036433 -0.41 -0.0018629 -0.064997 0.0053024 0.098174 0.040437 0.39542 0.096605 -0.51386 -0.17871 0.33313 -0.14336 0.40459 0.29305 -0.11045 0.14171 -0.22272 -0.1631 -0.34072 -0.19797 -0.38702 0.14443 -0.29942 -0.34073 -0.042489 -0.047233 0.5205 -0.34081 0.15027 0.76742 0.10732 -0.30525 -0.19054 0.21654 0.24001 -0.49153 -0.31623 0.099816 -0.33616 -0.48718 0.20802 0.2009 0.012193 0.46707 0.47261 0.13804 0.071953 -0.27694 0.066401 -0.81758 0.44327 -0.41188 -0.21326 0.0054913 -0.11738 -0.2695 -0.052572 0.12194 0.020631 0.083505 -0.35714 0.2065 0.33763 0.14564 -0.12032 -0.22523 -0.23735 0.098949 0.4445 0.38921 -0.28571 0.51212 -0.25301 -0.091416 -0.81199 -0.0031422 0.30914 -0.29141 0.094211 -0.60496 -0.16985 -0.019344 -0.00066274 -0.20558 0.64127 0.31841 
law -0.2119 -0.54418 0.05508 -0.15838 0.49038 0.17503 0.094277 0.035193 0.40727 -0.10734 -0.14094 -0.058926 0.17361 0.053411 -0.35253 -0.13739 0.47972 -0.20632 0.080405 -0.094604 -0.17655 0.41336 -0.29937 -0.54795 -0.037016 -0.023436 0.031035 0.55686 -0.84625 0.19328 0.08192 0.18535 -0.10738 0.069047 -0.70716 -0.69546 -0.3655 0.26186 -0.22984 -0.60433 -0.3098 0.35533 0.061535 0.039359 0.33184 -0.61267 0.14745 0.41081 -0.15859 0.029153 -0.052721 -0.015901 -0.36212 -0.17453 0.13529 -0.097846 -0.01423 0.19132 0.35486 0.13006 -0.16433 0.17846 -0.38799 -0.021812 -0.1341 -0.60976 -0.43653 0.012032 -0.64943 -0.18904 0.0043045 -0.41022 0.36809 -0.027816 -0.245 -0.13656 0.37757 0.40087 0.010354 -0.18174 -0.40675 -0.11213 -0.33735 -0.067061 -0.032921 0.3109 0.17285 -0.33363 -0.60072 -0.04012 0.18617 -0.24818 -0.17736 0.33712 -0.13379 -0.08061 -0.086851 0.36933 -0.1492 0.46039 
lawyer -0.2169 -0.96757 -0.42467 0.30365 0.20209 0.35767 0.15657 -0.075298 0.20174 -0.16982 -0.65686 -0.088429 0.27812 0.28833 -0.32222 0.075772 0.28074 -0.11903 -0.09001 0.212 0.31206 0.3208 -0.40638 -0.105 0.21649 0.37781 0.23692 0.51818 -0.20146 0.039674 0.48866 -0.15379 -0.2972 -0.12577 -0.40823 -0.4578 -0.22145 0.066975 -0.13053 0.013653 -0.10786 0.32717 0.40212 0.53305 0.096282 -0.50763 -0.058331 0.24266 -0.15368 0.035519 0.43042 0.040971 0.10506 -0.41305 0.23308 -0.13213 0.19339 0.5512 0.36985 -0.54023 0.22205 -0.21092 -0.53777 -0.46833 0.15962 -0.40859 -0.17986 0.19169 -0.3031 -0.14854 0.26036 -0.43228 0.62076 0.043513 -0.39724 0.26318 0.66596 0.18048 0.30442 0.16214 -0.62809 0.12322 -0.20768 -0.061183 -0.24668 0.26789 -0.037779 -0.68791 -0.1521 -0.19163 0.48329 0.11722 0.28384 0.47116 -0.29481 -0.26596 -0.31705 0.17907 0.018721 0.44332 
movie -0.024329 -0.39547 0.28887 -0.024005 0.029458 0.057508 -0.38129 -0.0265 0.01802 -0.44757 -0.44771 0.15325 -0.027806 -0.011121 -0.073598 0.42798 -0.74438 0.16871 0.40061 0.12985 0.13672 0.17592 -0.37214 0.20054 -0.13134 -0.44082 -0.23316 0.34153 0.10085 -0.15443 -0.043281 0.010097 -0.53604 0.23022 -0.14619 -0.27221 -0.12407 -0.42537 -0.041124 -0.23192 0.76543 0.28882 0.26769 0.095579 0.18351 -0.19799 0.4417 0.45046 0.010042 -0.47614 -0.17311 -0.062753 0.16025 0.0026518 0.11803 -0.15733 0.23202 -0.0094747 0.66658 -0.19296 0.076006 -0.31419 0.012705 0.0291 0.076814 -0.0023583 -0.36385 -0.43203 -0.095183 -0.35026 -0.011804 0.021228 -0.5221 0.1577 -0.092896 -0.33805 0.080834 0.40053 -0.18975 -0.018449 -0.34441 0.2247 0.15678 0.064743 -0.34182 0.04106 0.26718 0.22975 -0.54677 -0.22549 0.20607 0.39004 0.17657 -0.47583 -0.15752 -0.44062 -0.28729 -0.14369 0.30474 0.53121 
star -0.17185 -0.19067 0.17501 -0.32431 0.059751 -0.1725 -0.36969 -0.0056219 0.32183 -0.28781 0.012231 -0.23259 0.084483 0.14933 -0.076791 0.26723 -0.05665 -0.033263 0.071964 0.06907 0.26613 0.1149 -0.069036 0.085912 0.13869 -0.017926 0.017129 0.36248 -0.26767 -0.55994 0.14991 0.16532 0.14754 -0.364 -0.18848 -0.20364 -0.34763 -0.27063 0.082018 0.37338 0.69897 -0.15028 0.35295 0.064089 0.49493 0.097721 0.14334 0.27311 0.11491 -0.42166 -0.22682 -0.079761 0.068016 -0.10093 0.047152 -0.092188 0.24132 0.11837 0.55487 0.19037 0.10068 -0.074071 0.13072 -0.18738 0.38634 0.047065 -0.58612 -0.36082 -0.4813 0.034895 0.19653 0.25025 -0.52608 0.22424 0.037538 -0.073101 -0.0046188 0.37002 -0.23993 0.22627 -0.22603 -0.39217 0.54604 0.31531 -0.28609 0.54969 -0.082088 0.09349 -0.84625 -0.27567 -0.1035 0.85162 0.61147 -0.66292 0.010892 -0.46395 -0.40301 -0.075656 0.32119 0.32422 
movie -0.024329 -0.39547 0.28887 -0.024005 0.029458 0.057508 -0.38129 -0.0265 0.01802 -0.44757 -0.44771 0.15325 -0.027806 -0.011121 -0.073598 0.42798 -0.74438 0.16871 0.40061 0.12985 0.13672 0.17592 -0.37214 0.20054 -0.13134 -0.44082 -0.23316 0.34153 0.10085 -0.15443 -0.043281 0.010097 -0.53604 0.23022 -0.14619 -0.27221 -0.12407 -0.42537 -0.041124 -0.23192 0.76543 0.28882 0.26769 0.095579 0.18351 -0.19799 0.4417 0.45046 0.010042 -0.47614 -0.17311 -0.062753 0.16025 0.0026518 0.11803 -0.15733 0.23202 -0.0094747 0.66658 -0.19296 0.076006 -0.31419 0.012705 0.0291 0.076814 -0.0023583 -0.36385 -0.43203 -0.095183 -0.35026 -0.011804 0.021228 -0.5221 0.1577 -0.092896 -0.33805 0.080834 0.40053 -0.18975 -0.018449 -0.34441 0.2247 0.15678 0.064743 -0.34182 0.04106 0.26718 0.22975 -0.54677 -0.22549 0.20607 0.39004 0.17657 -0.47583 -0.15752 -0.44062 -0.28729 -0.14369 0.30474 0.53121 
popcorn 0.42555 0.35246 -0.14276 0.011776 -0.16861 -0.042434 0.0074524 -0.36288 0.45186 -0.13174 0.16146 -0.16777 -0.25623 0.41414 -0.29353 0.29006 -0.25387 -0.018596 0.25252 0.083297 -0.32678 0.30387 -0.64079 0.30162 -0.050237 -0.12173 -0.028217 0.23112 0.25967 0.28142 -0.72191 -0.20992 -0.72248 -0.62008 -0.27247 0.17322 0.010632 0.098526 0.45122 0.327 -0.042876 -0.22376 -0.039511 0.30495 0.29843 -0.23869 -0.12642 0.39076 0.25128 -0.6723 0.059521 0.11412 0.22793 0.13107 0.29627 0.43994 0.038056 -0.24956 0.6763 -0.32614 -0.088935 -0.34529 0.38173 -0.9453 -0.19089 0.093617 -0.56785 -0.77743 0.017206 0.41826 0.091468 -0.35065 -0.029505 0.33097 -0.51651 -0.71364 0.037415 -0.16084 -0.17505 -0.12797 -0.32492 0.24477 0.34518 0.15973 -0.18237 0.32229 0.94562 0.050554 -0.3153 0.31495 -0.23911 -0.26883 0.86785 -0.43002 -0.33549 0.029305 -0.28325 0.12858 0.084133 0.51334 
movie -0.024329 -0.39547 0.28887 -0.024005 0.029458 0.057508 -0.38129 -0.0265 0.01802 -0.44757 -0.44771 0.15325 -0.027806 -0.011121 -0.073598 0.42798 -0.74438 0.16871 0.40061 0.12985 0.13672 0.17592 -0.37214 0.20054 -0.13134 -0.44082 -0.23316 0.34153 0.10085 -0.15443 -0.043281 0.010097 -0.53604 0.23022 -0.14619 -0.27221 -0.12407 -0.42537 -0.041124 -0.23192 0.76543 0.28882 0.26769 0.095579 0.18351 -0.19799 0.4417 0.45046 0.010042 -0.47614 -0.17311 -0.062753 0.16025 0.0026518 0.11803 -0.15733 0.23202 -0.0094747 0.66658 -0.19296 0.076006 -0.31419 0.012705 0.0291 0.076814 -0.0023583 -0.36385 -0.43203 -0.095183 -0.35026 -0.011804 0.021228 -0.5221 0.1577 -0.092896 -0.33805 0.080834 0.40053 -0.18975 -0.018449 -0.34441 0.2247 0.15678 0.064743 -0.34182 0.04106 0.26718 0.22975 -0.54677 -0.22549 0.20607 0.39004 0.17657 -0.47583 -0.15752 -0.44062 -0.28729 -0.14369 0.30474 0.53121 
critic 0.042354 -0.60447 -0.28735 0.37436 0.075069 0.28049 -0.026774 -0.56966 0.063529 0.13287 -0.51749 -0.3302 -0.22222 0.36389 -0.25319 0.24398 -0.57708 -0.22379 -0.045061 0.11066 0.016358 0.15704 -0.2032 0.097923 0.54229 0.035905 0.33878 0.55308 -0.42381 0.35482 0.76486 0.0599 -0.39929 0.063499 -0.11907 -0.34182 -0.036844 0.31504 -0.33661 -0.16337 0.25276 0.11849 0.35651 0.5329 -0.0082161 -0.045284 0.4403 -0.45672 0.015488 -0.45662 0.05539 0.49114 0.31644 -0.34521 0.14125 0.17009 0.73898 0.24376 0.70829 -0.15148 -0.1125 -0.51972 0.094825 -0.080606 -0.1136 -0.29094 -0.62764 0.1876 0.085174 -0.46761 0.36214 -0.047924 0.56632 0.13259 -0.075185 -0.17883 0.4842 0.11604 0.53397 0.32354 -0.4362 0.29163 -0.02726 0.13808 -0.44173 0.26357 0.038837 -0.025833 -0.085432 0.051617 -0.16779 0.2947 0.36911 0.59669 -0.54551 0.087057 -0.26703 -0.67631 0.058681 0.44623 
movie -0.024329 -0.39547 0.28887 -0.024005 0.029458 0.057508 -0.38129 -0.0265 0.01802 -0.44757 -0.44771 0.15325 -0.027806 -0.011121 -0.073598 0.42798 -0.74438 0.16871 0.40061 0.12985 0.13672 0.17592 -0.37214 0.20054 -0.13134 -0.44082 -0.23316 0.34153 0.10085 -0.15443 -0.043281 0.010097 -0.53604 0.23022 -0.14619 -0.27221 -0.12407 -0.42537 -0.041124 -0.23192 0.76543 0.28882 0.26769 0.095579 0.18351 -0.19799 0.4417 0.45046 0.010042 -0.47614 -0.17311 -0.062753 0.16025 0.0026518 0.11803 -0.15733 0.23202 -0.0094747 0.66658 -0.19296 0.076006 -0.31419 0.012705 0.0291 0.076814 -0.0023583 -0.36385 -0.43203 -0.095183 -0.35026 -0.011804 0.021228 -0.5221 0.1577 -0.092896 -0.33805 0.080834 0.40053 -0.18975 -0.018449 -0.34441 0.2247 0.15678 0.064743 -0.34182 0.04106 0.26718 0.22975 -0.54677 -0.22549 0.20607 0.39004 0.17657 -0.47583 -0.15752 -0.44062 -0.28729 -0.14369 0.30474 0.53121 
theater 0.19848 -0.37011 0.067486 0.51237 0.053876 -0.2021 -0.28954 -0.12049 0.080773 -0.32033 -0.075959 0.065453 -0.10721 0.13922 -0.13125 0.91533 -0.59419 0.088007 0.20897 -0.28656 -0.22615 -0.052858 -0.62455 0.21191 0.0001544 -0.23112 -0.026622 0.27793 0.040771 -0.14414 0.12595 0.47752 -0.56725 0.12191 -0.50978 -0.21097 -0.48977 -0.14368 -0.24608 0.010298 0.40914 0.098298 0.15399 0.85288 0.53288 -0.23617 0.22583 -0.00054615 -0.0067701 -0.14616 0.33166 -0.094749 0.10313 -0.26331 0.19742 -0.35694 0.31131 -0.36266 0.12813 -0.73042 0.22237 -0.15099 -0.22345 -0.16869 -0.056323 -0.23096 -0.36614 0.11343 -0.33596 -0.27663 0.11774 0.3286 -0.1613 0.36761 -0.053481 -0.4733 0.096784 -0.016522 -0.044175 -0.26407 -0.39767 0.11971 0.25219 0.19573 -0.34728 -0.097937 0.30738 0.1941 -0.60433 0.035482 -0.42078 -0.16099 0.18229 -0.33355 0.13834 -0.52357 -0.22286 -0.46427 -0.20608 0.66565 
physics -0.50157 -0.073289 -0.068392 0.1213 0.60967 0.38319 0.16845 0.011834 0.11078 -0.26476 -0.022623 -0.025948 0.12594 -0.07499 -0.28592 -0.069476 -0.40989 -0.049704 0.11896 -0.40284 -0.40391 -0.25232 -0.63753 -0.51526 -0.036042 0.20562 -0.46772 0.78855 -0.55695 0.055508 0.50573 0.39946 0.14369 -0.24166 -0.684 -0.80992 0.053856 0.45304 0.16074 -0.67838 -0.05253 -0.092375 0.0017582 0.23254 0.41153 -0.46857 0.1604 -0.0035089 0.20125 -0.35142 0.41642 -0.034877 -0.73814 -0.31224 -0.26278 -0.37911 0.053355 0.1664 0.58101 -0.078372 0.23057 0.62208 0.36927 -0.052499 0.29891 0.41454 -0.65726 0.11492 -0.68896 -0.28808 0.046546 -0.03084 0.16347 -0.25257 0.74255 -0.0073557 -0.09187 0.25975 -0.53101 -0.087011 -0.50253 -0.099609 0.30504 -0.029126 -0.30845 0.17523 0.28436 0.34328 -0.20027 0.22777 -0.57897 0.24949 -0.0088182 -0.06809 -0.62015 -0.12585 -0.19274 0.18904 0.28241 0.62762 
proton -0.34397 -0.29727 0.27254 -0.58134 0.17027 -0.37922 0.63076 -0.51424 0.66505 -0.8835 -0.070764 0.018098 -0.7545 0.22725 0.43938 0.18514 -0.16414 -0.090261 0.17255 -0.88658 -0.38673 -0.36069 0.11175 -0.21791 -0.095186 0.20534 -0.17761 0.43279 -0.74503 -0.46686 -0.21164 0.27171 -0.022289 -0.5964 -0.81984 -0.10911 -0.47377 0.3724 0.77687 -0.46333 0.2363 0.047436 0.36481 -0.11375 0.42267 -0.033375 0.14026 0.34844 -0.13468 -0.68784 -0.26907 -0.11747 0.095376 -0.047821 -0.5875 -0.32234 -0.43632 0.14636 0.24446 -0.080154 0.5489 0.36727 0.47603 -0.23437 1.2882 0.13165 -0.075843 -0.40189 -0.25542 -0.4217 0.33385 0.22008 -0.075874 -0.48723 0.45493 -0.16697 -0.30604 0.6748 -0.1936 -0.1518 -0.37018 0.40421 0.474 -0.064303 -0.62479 -0.37415 0.3029 0.29378 -0.10004 0.57745 -0.20455 0.33189 0.050853 0.23983 -0.3993 -0.18647 -0.045114 -0.10972 0.48131 0.21354 
physics -0.50157 -0.073289 -0.068392 0.1213 0.60967 0.38319 0.16845 0.011834 0.11078 -0.26476 -0.022623 -0.025948 0.12594 -0.07499 -0.28592 -0.069476 -0.40989 -0.049704 0.11896 -0.40284 -0.40391 -0.25232 -0.63753 -0.51526 -0.036042 0.20562 -0.46772 0.78855 -0.55695 0.055508 0.50573 0.39946 0.14369 -0.24166 -0.684 -0.80992 0.053856 0.45304 0.16074 -0.67838 -0.05253 -0.092375 0.0017582 0.23254 0.41153 -0.46857 0.1604 -0.0035089 0.20125 -0.35142 0.41642 -0.034877 -0.73814 -0.31224 -0.26278 -0.37911 0.053355 0.1664 0.58101 -0.078372 0.23057 0.62208 0.36927 -0.052499 0.29891 0.41454 -0.65726 0.11492 -0.68896 -0.28808 0.046546 -0.03084 0.16347 -0.25257 0.74255 -0.0073557 -0.09187 0.25975 -0.53101 -0.087011 -0.50253 -0.099609 0.30504 -0.029126 -0.30845 0.17523 0.28436 0.34328 -0.20027 0.22777 -0.57897 0.24949 -0.0088182 -0.06809 -0.62015 -0.12585 -0.19274 0.18904 0.28241 0.62762 
chemistry -0.64628 -0.15798 -0.11498 -0.12458 0.6849 0.013374 0.42584 -0.062468 0.27281 -0.014948 -0.16147 -0.27018 -0.15398 0.25494 -0.21849 8.3721e-05 -0.43786 0.2444 0.044048 -0.84305 -0.36492 0.0058605 -0.34662 -0.48162 -0.34474 0.14751 -0.4828 0.7822 -0.52055 -0.054594 0.63916 0.18297 -0.093165 0.0013528 -1.0762 -0.50539 0.35282 0.51016 0.39238 -0.30095 0.071434 -0.36865 -0.20307 0.0080412 0.45191 -0.69644 0.10941 -0.10531 0.19976 -0.36592 0.36667 0.22801 -0.52899 -0.3196 -0.22017 0.23217 -0.30696 0.22929 0.4753 -0.36747 0.27222 0.22592 0.090391 -0.31836 0.66363 0.39045 -0.46038 -0.006828 -0.26925 0.0069727 0.076891 -0.11415 0.45958 -0.36655 0.29463 0.022296 0.53243 0.3899 -0.49487 -0.37062 -0.50043 -0.22159 0.66464 -0.21869 -0.076877 0.17114 0.15415 0.35139 0.084961 0.32304 -0.68792 0.082776 0.074807 -0.27158 -0.50238 -0.0037552 -0.36542 -0.11673 -0.36424 0.57651 
