word1 -0.17748 0.17715 0.36487 0.59894 -0.05794 0.13988 -0.17845 -0.022002 0.30417 0.23658 0.026575 -0.42227 0.095415 -0.078505 -0.18664 -0.18399 -0.077605 0.10913 -0.21032 0.083004 0.30454 -0.041043 0.010603 0.19443 0.20132 -0.40894 0.2513 -0.14798 -0.31387 0.2244 -0.083955 -0.3464 0.01544 0.21143 0.23633 -0.13712 0.051219 -0.13538 -0.049722 -0.074571 -0.097031 0.023215 0.12487 -0.073374 -0.17434 0.40765 -0.30799 0.35678 0.18687 0.3423 -0.053978 -0.1327 -0.20223 0.025993 -0.22011 0.072605 0.0077109 -0.035409 -0.076784 0.12202 -0.37452 -0.13341 -0.33268 -0.39705 -0.0018816 -0.036529 0.19858 -0.21279 -0.46095 -0.077764 0.14637 0.045201 0.056453 -0.04675 0.47019 -0.081602 0.18356 0.16714 0.18113 0.2691 0.056666 0.4916 0.037618 0.093406 0.094492 0.27676 -0.40367 -0.17558 0.35163 -0.34967 0.24025 0.43168 0.11292 -0.40306 -0.033038 -0.16636 0.13428 0.02659 0.20667 -0.18593 -0.087411 -0.40287 -0.14146 0.41753 0.22361 0.23022 -0.16386 0.31645 -0.088682 -0.22067 -0.042008 -0.096615 -0.044177 0.17511 -0.028941 -0.20372 -0.28061 0.032179 -0.31931 0.35833 -0.11516 -0.065979 -0.015043 0.37699 0.26569 -0.30561 0.12553 0.0063159 -0.28549 -0.17873 -0.42652 -0.0081151 0.023754 0.15083 0.109 -0.29915 0.30691 0.23609 0.20419 0.12477 -0.54926 0.11755 -0.26678 -0.32433 0.061805 -0.082827 0.22337 0.0043021 -0.47234 -0.035401 -0.012427 -0.040271 0.24262 -0.38247 0.11337 -0.18432 0.029486 0.29126 -0.062678 -0.15329 0.044984 0.33234 0.22844 -0.19712 -0.032992 0.23739 -0.32139 0.20829 0.043956 0.47374 0.14799 0.061592 -0.29652 0.18937 -0.13855 0.46919 -0.031326 -0.013892 -0.063708 0.53358 -0.093254 -0.069297 -0.20356 -0.05701 0.15223 -0.48537 -0.29252 0.036037 0.33452 -0.18581 0.1619 -0.03068 -0.10156 0.14474 0.26631 0.029248 -0.17763 -0.25319 0.25824 0.21169 0.28258 -0.018511 -0.055045 -0.32192 -0.37085 0.039813 -0.1504 -0.25221 0.14867 0.22174 0.020254 0.2606 -0.13182 0.29766 0.11749 -0.56407 -0.033753 0.1032 0.023182 -0.50566 0.34607 0.028024 -0.27897 -0.4269 0.22324 0.3507 -0.20192 -0.037095 0.018472 0.25565 -0.094382 -0.16344 -0.49672 -0.12628 0.1948 0.082854 0.22984 0.088523 0.18465 0.030916 -0.01199 -0.23718 -0.24217 0.64671 -0.19505 -0.036862 -0.16877 0.135 0.43919 0.46276 0.15405 -0.11356 -0.10224 0.044394 0.10602 -0.105 -0.047336 -0.35915 -0.11714 0.0062648 -0.038558 0.29788 -0.11854 -0.068232 -0.14086 -0.16112 0.050157 -0.1317 -0.033162 -0.13733 0.0031758 0.089267 -0.24427 0.2175 -0.031259 -0.17288 0.21942 0.10566 -0.14615 0.18475 -0.1824 0.19867 -0.0043081 0.043883 -0.26776 0.22111 0.15623 0.209 -0.35755 -0.066911 -0.3022 -0.15022 0.13221 -0.19487 -0.080325 -0.34388 -0.30838 0.32286 0.10354 -0.2322 
word2 -0.077762 0.042951 0.019574 0.31689 0.18596 0.018916 -0.16784 -0.23329 0.19981 0.10307 -0.22657 -0.11527 -0.12117 0.13426 -0.23553 0.14925 -0.11923 -0.02799 -0.076326 -0.41089 0.27153 0.17885 0.25381 0.1386 0.2723 -0.23512 0.45811 0.20714 -0.17148 0.46842 -0.12763 -0.071225 0.035756 0.11768 -0.10089 -0.07936 0.091614 -0.17661 -0.17669 -0.16528 -0.39302 0.015147 -0.022114 -0.16927 -0.096064 0.13105 -0.18285 -0.050719 0.3518 0.21988 0.15783 -0.4533 -0.018502 0.17571 -0.20384 0.12522 -0.17943 0.31291 -0.29081 0.093237 -0.29837 -0.24005 -0.0068026 -0.10709 0.060074 -0.023221 0.37952 -0.19912 -0.32511 0.16524 0.026554 0.081275 -0.26731 -0.16665 0.4329 0.023004 0.22679 -0.0023435 0.28088 0.16155 -0.070406 0.21541 0.08444 0.023007 0.1047 0.13833 -0.25293 0.20585 0.49351 -0.47131 0.071269 0.27805 0.4195 -0.056984 -0.12765 -0.0028591 0.29325 -0.12606 0.15721 -0.25724 -0.30821 -0.15551 0.00021587 0.42363 0.25439 0.1801 -0.42429 -0.15708 -0.031125 -0.12919 -0.39956 -0.26419 -0.085659 0.085229 -0.28816 0.039921 -0.30375 0.009608 -0.28011 0.39207 -0.20426 0.018012 0.18042 0.29544 0.40063 -0.364 0.38132 0.10043 -0.021002 -0.19668 -0.22249 0.20787 -0.17628 0.3581 -0.13813 -0.0039865 0.33135 0.13803 0.1119 0.19948 -0.60995 -0.11021 0.055613 -0.19668 0.27649 0.19164 0.28376 0.077825 -0.52505 -0.34565 -0.16638 -0.067965 0.53567 -0.18008 0.19917 -0.20088 0.010267 -0.12023 0.21999 -0.19844 0.31464 0.17383 0.2307 0.090802 -0.13521 0.13802 -0.30306 0.15912 -0.056004 0.21938 0.28681 0.22189 -0.18887 0.11916 -0.16493 0.22074 -0.25229 0.20375 -0.17615 0.24313 0.01612 -0.027159 0.16844 0.2741 0.01908 -0.42617 -0.41989 -0.24397 0.28458 -0.14513 0.2105 -0.32075 0.26261 0.18433 0.44673 -0.0035666 -0.29485 -0.27749 0.28092 0.21123 0.070694 -0.26251 -0.10546 -0.43387 -0.34983 -0.20731 -0.049727 -0.3159 0.26407 0.28989 -0.14122 0.16325 -0.014357 0.34809 -0.062371 -0.30953 -0.27612 0.011533 -0.20303 -0.137 0.28679 0.045251 -0.37032 -0.44124 0.039538 0.26641 -0.26292 0.12865 0.19661 0.068426 -0.034182 0.076825 -0.21931 0.24371 0.23005 0.21215 0.25291 0.052962 -0.0017549 0.041956 -0.23701 -0.11907 -0.19983 0.99756 -0.44269 -0.068341 0.056994 0.30242 0.2079 -0.048573 0.34682 0.19262 -0.2147 0.19991 -0.033166 -0.035146 0.23885 -0.091995 -0.012395 0.098732 -0.043563 0.41737 -0.086356 -0.029588 -0.064338 -0.13439 0.022522 -0.21096 -0.008023 0.068024 0.15334 0.048325 0.084466 -0.090167 -0.088187 -0.17068 0.15702 -0.013635 -0.30427 0.27429 0.0098098 0.18657 0.24164 0.15261 0.13222 -0.045651 0.15925 -0.15136 -0.2791 -0.10435 -0.10902 -0.23903 0.42172 -0.13985 0.11157 -0.43108 -0.27112 0.4288 0.28218 -0.38624 
love -0.022216 0.041878 -0.25933 0.27632 0.09674 -0.0001737 0.089923 -0.027282 0.28171 -0.34163 -0.2636 0.2547 -0.11281 -0.22152 -0.24438 0.34868 -0.33629 0.15361 -0.059544 -0.23138 -0.015278 0.061162 0.54741 0.28405 0.40476 -0.058011 -0.2597 0.24987 -0.2092 0.034231 -0.25865 -0.21645 0.17652 -0.040595 -0.00030219 -0.15791 0.065733 -0.045778 -0.21729 -0.40025 -0.032385 -0.035481 0.49469 -0.088424 0.2735 0.40148 -0.36871 -0.115 0.01112 0.11465 0.112 -0.30426 -0.19743 -0.17378 -0.17698 0.18529 -0.21078 0.083978 -0.31087 0.41816 -0.2214 0.045997 0.047025 -0.051437 -0.24385 -0.41271 0.18161 -0.060933 -0.10495 0.26514 -0.13461 0.15612 -0.071838 -0.47059 0.32296 -0.22372 0.053095 -0.068086 0.2261 0.18329 0.030474 -0.036669 0.28076 -0.041693 -0.056873 0.31423 0.076282 0.11558 0.12856 -0.20618 0.17766 0.37161 -0.22488 -0.1539 -0.16567 0.087361 0.10149 0.097556 0.041485 0.11514 0.056565 0.34021 -0.065936 -0.19478 0.01573 -0.043846 -0.2836 -0.11364 -0.27944 -0.048936 0.36926 -0.066531 0.070465 -0.12846 -0.027944 -0.29478 -0.26967 -0.10719 -0.17345 0.2204 0.40376 -0.035226 0.1852 0.29307 0.21992 0.057473 0.25233 0.1217 -0.016492 0.18452 -0.20898 0.16723 0.068244 0.26446 0.0054435 -0.23849 0.19235 0.28672 0.23365 -0.041148 -0.029751 -0.13111 -0.22248 -0.24563 0.24985 -0.089956 -0.21898 -0.02854 -0.0056919 -0.073577 0.01087 -0.056692 0.076261 -0.016428 -0.0046433 -0.15006 -0.19968 -0.58283 -0.015989 -0.16973 -0.30733 0.0033227 0.16027 -0.093136 0.23377 -0.44332 -0.17757 -0.12015 0.32263 -0.053462 0.14207 0.22622 -0.017985 -0.098735 -0.22095 -0.020499 -0.21121 0.053806 -0.054169 0.15357 -0.10777 -0.078589 -0.19774 0.031406 0.14225 -0.090875 -0.28801 -0.072535 0.14787 -0.080187 -0.14215 -0.05804 -0.069705 -0.073383 -0.11063 -0.19519 -0.081853 0.12833 0.3776 0.31983 0.18387 0.11187 0.037297 0.043642 -0.26399 0.45464 -0.15121 -0.13459 0.20557 -0.088128 0.0051358 0.23876 -0.28264 0.19857 0.40487 -0.41869 0.10714 -0.056957 0.063674 -0.074536 0.047971 -0.3412 -0.43853 0.32059 0.0027302 -0.22631 -0.49707 0.14207 0.073641 0.1553 0.039983 -0.43665 -0.033241 -0.11608 0.11258 0.087873 -0.093589 0.076309 -0.11459 -0.33892 -0.0014276 -0.081799 -0.085309 0.035392 -0.17581 -0.23177 0.33555 -0.025243 0.03535 0.42706 -0.31306 0.13087 -0.04259 0.11849 0.18149 -0.074661 -0.041164 -0.30163 -0.13228 0.28238 0.33227 -0.13406 -0.15603 -0.10158 -0.091655 -0.022859 0.21744 0.12046 -0.17161 -0.022632 0.016788 -0.11944 -0.079786 0.2699 -0.22648 -0.075288 0.40252 0.044635 0.090423 0.13011 -0.12062 0.0031229 0.2813 -0.060983 0.27372 0.10257 -0.10732 0.30947 -0.13009 -0.062859 -0.13303 -0.24528 0.1952 0.046657 -0.013275 -0.361 0.24376 0.12682 0.094732 0.21579 
sex 0.11713 0.33675 -0.052181 0.091633 0.19804 -0.24603 -0.042735 0.080786 0.54435 -0.26585 -0.051876 0.29584 0.042648 0.16654 -0.13852 0.38752 -0.21251 -0.030328 -0.27698 -0.15709 -0.21607 -0.23195 0.59181 -0.19476 -0.11078 -0.3717 0.036353 0.2309 -0.13192 -0.10978 -0.058171 -0.33102 0.27058 -0.077842 0.13944 -0.14369 0.048106 -0.12557 -0.19361 -0.75612 0.066899 -0.12426 0.11129 -0.28037 0.083528 -0.079581 0.047582 0.1646 0.1813 0.074459 -0.18481 -0.43101 -0.36595 0.059927 -0.56491 0.43396 0.045396 -0.28213 -0.2674 0.28965 -0.36734 0.10163 0.37175 -0.17839 0.047095 -0.1165 0.3797 -0.42951 -0.10348 -0.20827 -0.086489 -0.16938 -0.046629 -0.57904 -0.014188 0.1005 -0.037711 0.090737 0.084457 0.23675 0.29325 -0.12728 0.051315 -0.14659 -0.38406 -0.11111 -0.034354 -0.0064545 0.32912 0.20959 0.29068 -0.25655 -0.17539 -0.1666 -0.48235 -0.12065 0.39895 -0.071104 0.086118 -0.20432 0.21078 0.2296 0.25148 -0.073888 0.12476 0.19931 -0.2472 0.0053931 0.045699 -0.02251 0.2027 -0.29468 0.19222 0.29546 0.2613 -0.38482 -0.13154 0.0080895 0.16841 -0.057948 -0.058067 -0.080032 0.013943 0.025103 0.37108 -0.16755 0.011872 -0.23648 0.0023203 -0.17658 0.29547 0.010445 0.33482 -0.18341 -0.28425 -0.6467 0.24077 0.41359 0.25922 -0.009561 0.035433 -0.13262 -0.001687 -0.36471 -0.053271 0.11129 0.27415 -0.21339 0.10293 -0.047992 -0.015368 -0.23 0.21099 -0.032323 -0.0005734 0.042107 0.041902 -0.345 -0.070145 -0.16072 -0.047941 0.29109 -0.0077383 -0.21246 0.031493 -0.39097 -0.52341 0.10177 0.081249 -0.1343 -0.077138 0.11565 -0.10694 0.20407 0.061147 0.19488 0.10165 -0.3422 -0.28862 0.33092 0.26704 0.01531 -0.29105 -0.32165 0.033959 0.3536 -0.017212 -0.23045 0.31279 -0.35819 0.1225 -0.0002669 0.086044 -0.23216 -0.17063 -0.081502 -0.14485 -0.52574 0.18633 0.44955 0.11665 -0.26119 -0.058094 0.041351 -0.1366 0.15439 0.079216 0.16149 -0.040635 0.12508 0.03742 0.26227 -0.49217 0.2537 0.44072 -0.46149 0.26716 -0.070146 0.098541 -0.34388 -0.14763 -0.085121 -0.51967 0.26109 -0.30175 0.41023 -0.3556 -0.39038 -0.081667 -0.21311 0.3247 -0.25 -0.25543 -0.0094707 -0.10471 -0.22747 0.22943 -0.14986 -0.31643 -0.31723 -0.038962 0.33218 -0.26876 -0.26283 -0.28212 -0.12469 0.077424 0.080152 -0.0067672 0.17284 0.14992 0.048122 -0.029457 -0.015924 0.2739 -0.077729 -0.061026 0.12452 0.080364 -0.15555 0.23093 0.066634 0.12767 -0.099051 0.40367 -0.014054 0.51552 -0.0061903 -0.19 -0.46327 0.18283 -0.0063392 -0.067618 0.022457 -0.3766 -0.25345 0.48039 -0.402 0.11096 0.061795 -0.37114 -0.043316 0.15556 -0.62504 0.45242 -0.16104 0.21175 0.28009 -0.025446 -0.29769 0.0024403 -0.097483 0.023525 0.28107 0.037057 -0.31076 -0.070588 -0.098111 -0.0096729 -0.094371 
tiger -0.0074369 -0.22756 0.13542 0.60645 0.18586 -0.044428 0.071685 0.017529 0.09183 0.19035 -0.29745 0.2204 0.13074 -0.095348 -0.22974 0.14167 0.2064 -0.43339 0.092725 0.022915 -0.11317 0.075729 0.45909 0.28286 0.38855 -0.1954 -0.49751 -0.20432 -0.080558 0.22656 -0.10242 0.2849 0.23136 0.1022 0.47412 -0.20093 0.0065387 0.020606 -0.19998 -0.73669 0.28781 0.11852 -0.074324 0.081625 0.40888 0.35873 -0.082959 -0.33791 -0.059045 0.12234 -0.029733 -0.36149 -0.34153 -0.40206 -0.32947 -0.097181 -0.25192 0.21734 0.048119 0.58356 0.090135 0.18942 0.12513 -0.24119 0.032723 -0.35327 0.17371 0.44917 -0.27902 0.24386 -0.099493 0.034458 -0.20993 0.080618 -0.2551 -0.084729 -0.13228 0.1298 0.21816 -0.17876 0.091196 0.010905 -0.14043 -0.29523 0.0019633 -0.07993 -0.1691 0.36308 0.056738 -0.20424 0.18375 0.081682 0.0843 -0.14706 -0.1954 -0.10529 0.19778 0.2318 0.51116 0.21885 0.1095 -0.29 -0.16914 0.12239 0.002501 0.18246 -0.11061 -0.15635 -0.035619 -0.13855 0.17086 0.11991 0.20738 0.0037616 0.21291 -0.30616 0.15533 -0.054063 -0.086241 -0.25367 0.36993 -0.64711 0.067776 0.46364 0.26681 -0.37776 0.22767 -0.17684 0.1711 0.38264 -0.13371 -0.076549 0.029096 -0.15853 0.15744 -0.14032 0.49928 0.16853 -0.17031 -0.20005 0.1606 -0.39779 -0.8036 0.019674 -0.24485 -0.046929 0.28368 -0.26228 0.15836 0.18921 -0.1588 -0.24133 0.063541 0.054006 0.28129 -0.18953 0.056765 -0.15593 0.27593 -0.26214 -0.32496 0.24461 0.014282 0.16166 -0.29087 0.0070931 -0.12394 0.0023868 0.047461 -0.26858 0.28152 -0.12072 0.12763 0.31299 -0.12459 0.062454 -0.010085 -0.23914 0.047874 -0.24383 0.16986 0.057346 -0.19314 -0.26708 -0.13946 0.19368 0.22116 -0.61852 -0.12627 -0.25655 0.23293 -0.22487 0.031619 -0.219 -0.37069 -0.39823 -0.30941 0.093848 0.35509 -0.0082383 0.28598 0.42665 0.27235 0.15112 -0.40318 0.44821 -0.32631 0.2208 0.19754 0.15166 -0.21144 0.098161 0.045002 -0.16217 0.3086 -0.19562 0.05885 -0.2408 0.12827 -0.29301 -0.14245 -0.27291 -0.024245 -0.24088 -0.050928 -0.30427 0.55231 0.059794 0.14373 -0.18636 0.27009 -0.1555 0.16512 -0.13254 -0.18643 -0.36343 0.18805 0.17854 -0.032805 -0.33084 0.47679 -0.10464 0.22928 0.20014 -0.12007 -0.37102 -0.047401 0.2819 0.21996 0.36696 0.098319 -0.41878 -0.073706 -0.0089354 0.037177 0.23306 0.44274 0.17877 0.12127 0.1587 0.19044 0.40424 -0.15078 -0.066348 0.073386 -0.11848 0.083671 0.14538 0.1445 -0.053753 -0.21974 -0.17067 -0.35897 -0.014325 -0.40824 -0.070211 0.3381 0.010288 -0.061343 -0.16899 0.31668 -0.097067 0.099599 0.46875 0.10617 0.026006 -0.25649 0.20248 -0.048813 -0.24324 -0.095063 0.10773 0.21336 0.47584 0.023199 -0.32172 0.05608 -0.093783 0.36848 0.13327 
cat -0.19009 -0.035472 -0.22883 0.60678 0.50026 -0.21324 -0.040099 -0.2054 0.38667 -0.17372 -0.10011 0.17723 0.20799 0.22666 -0.18471 0.35046 0.036177 -0.040073 -0.074463 -0.069083 0.15425 -0.32531 0.09709 -0.10783 0.35671 -0.12836 -0.16932 -0.054806 0.13661 0.24794 0.092654 0.011529 0.16617 0.14683 0.088133 -0.10464 0.15112 -0.067766 0.079096 -0.48954 0.13136 0.010809 -0.21804 0.030701 0.00098501 0.17016 -0.38744 -0.24538 -0.10142 -0.22973 0.23098 -0.49601 -0.32615 0.046251 -0.52624 0.0093232 -0.60511 -0.1587 -0.11241 0.32505 -0.20683 0.09721 0.10086 -0.2013 -0.0091526 -0.021267 0.080743 -0.30252 -0.51143 -0.24914 -0.36297 -0.084929 -0.2211 0.19109 -0.10897 -0.13653 0.36153 0.14172 0.51907 -0.13693 0.18777 -0.23477 -0.090529 0.017309 -0.5691 0.1504 -0.414 0.19422 -0.06042 -0.19067 -0.09045 -0.11588 -0.063366 -0.028139 -0.18607 0.39174 0.12772 0.000903 0.026865 0.43518 -0.16894 -0.14792 -0.025422 0.45334 -0.50347 -0.0083354 -0.05396 -0.34535 -0.024654 0.19779 -0.19428 -0.082666 -0.073634 -0.17349 -0.1645 -0.30798 -0.079671 0.047527 0.090441 0.39109 0.17829 -0.066785 -0.4007 -0.05455 0.51236 -0.42475 0.13606 -0.31558 0.19905 0.19308 0.1669 -0.16119 -0.25787 -0.17924 0.15391 -0.056609 0.0042744 -0.080598 0.32197 0.090001 0.097305 -0.10593 -0.53911 -0.28604 -0.20504 -0.1305 0.0070945 -0.34543 -0.17386 0.033119 0.059148 -0.71106 -0.11714 0.031701 0.41411 -0.16212 0.12431 -0.16588 0.15665 0.39254 -0.41457 0.63169 -0.045432 -0.21634 0.25199 -0.1677 -0.083745 0.28803 0.36773 -0.20214 -0.18044 0.16758 -0.069187 -0.13968 -0.1091 0.019592 -0.28875 -0.1562 -0.32056 -0.082408 -0.098708 0.2887 -0.13338 -0.38962 -0.33013 -0.19891 0.38841 -0.088891 0.37271 -0.28752 0.042792 -0.05802 0.16334 -0.28405 0.22646 -0.15742 -0.11756 -0.1125 0.29584 0.32029 0.030603 0.3154 0.31513 0.38389 -0.30239 0.73367 -0.40165 0.28432 -0.018591 0.37963 0.046252 -0.13296 -0.37146 0.15602 -0.043644 -0.18018 -0.11325 0.20002 0.099414 -0.31169 -0.14673 -0.10004 -0.42962 0.19636 -0.47387 -0.072859 -0.3571 -0.5356 0.45584 -0.38796 0.074689 -0.050118 -0.021247 -0.50709 0.00044009 0.064949 -0.052837 0.35429 0.032692 -0.14138 0.37246 0.24606 0.27281 0.66103 -0.37183 -0.037717 0.19453 0.26967 0.18455 0.43456 -0.10865 -0.19939 -0.053769 0.1183 0.34199 -0.26398 0.16393 0.020391 -0.21702 -0.17507 0.092143 0.24252 0.15133 -0.18659 0.056793 -0.14529 0.1395 0.21656 0.13325 -0.29267 -0.12903 0.25484 -0.3082 0.29895 -0.035681 -0.46145 0.16592 0.2617 -0.34742 0.025107 -0.029679 0.1002 0.20113 0.11705 0.13184 0.19078 -0.11754 -0.17062 -0.4191 0.0053646 -0.3604 0.34821 -0.098452 0.15569 0.012704 -0.23587 -0.18017 -0.028268 0.37379 -0.22167 
tiger -0.0074369 -0.22756 0.13542 0.60645 0.18586 -0.044428 0.071685 0.017529 0.09183 0.19035 -0.29745 0.2204 0.13074 -0.095348 -0.22974 0.14167 0.2064 -0.43339 0.092725 0.022915 -0.11317 0.075729 0.45909 0.28286 0.38855 -0.1954 -0.49751 -0.20432 -0.080558 0.22656 -0.10242 0.2849 0.23136 0.1022 0.47412 -0.20093 0.0065387 0.020606 -0.19998 -0.73669 0.28781 0.11852 -0.074324 0.081625 0.40888 0.35873 -0.082959 -0.33791 -0.059045 0.12234 -0.029733 -0.36149 -0.34153 -0.40206 -0.32947 -0.097181 -0.25192 0.21734 0.048119 0.58356 0.090135 0.18942 0.12513 -0.24119 0.032723 -0.35327 0.17371 0.44917 -0.27902 0.24386 -0.099493 0.034458 -0.20993 0.080618 -0.2551 -0.084729 -0.13228 0.1298 0.21816 -0.17876 0.091196 0.010905 -0.14043 -0.29523 0.0019633 -0.07993 -0.1691 0.36308 0.056738 -0.20424 0.18375 0.081682 0.0843 -0.14706 -0.1954 -0.10529 0.19778 0.2318 0.51116 0.21885 0.1095 -0.29 -0.16914 0.12239 0.002501 0.18246 -0.11061 -0.15635 -0.035619 -0.13855 0.17086 0.11991 0.20738 0.0037616 0.21291 -0.30616 0.15533 -0.054063 -0.086241 -0.25367 0.36993 -0.64711 0.067776 0.46364 0.26681 -0.37776 0.22767 -0.17684 0.1711 0.38264 -0.13371 -0.076549 0.029096 -0.15853 0.15744 -0.14032 0.49928 0.16853 -0.17031 -0.20005 0.1606 -0.39779 -0.8036 0.019674 -0.24485 -0.046929 0.28368 -0.26228 0.15836 0.18921 -0.1588 -0.24133 0.063541 0.054006 0.28129 -0.18953 0.056765 -0.15593 0.27593 -0.26214 -0.32496 0.24461 0.014282 0.16166 -0.29087 0.0070931 -0.12394 0.0023868 0.047461 -0.26858 0.28152 -0.12072 0.12763 0.31299 -0.12459 0.062454 -0.010085 -0.23914 0.047874 -0.24383 0.16986 0.057346 -0.19314 -0.26708 -0.13946 0.19368 0.22116 -0.61852 -0.12627 -0.25655 0.23293 -0.22487 0.031619 -0.219 -0.37069 -0.39823 -0.30941 0.093848 0.35509 -0.0082383 0.28598 0.42665 0.27235 0.15112 -0.40318 0.44821 -0.32631 0.2208 0.19754 0.15166 -0.21144 0.098161 0.045002 -0.16217 0.3086 -0.19562 0.05885 -0.2408 0.12827 -0.29301 -0.14245 -0.27291 -0.024245 -0.24088 -0.050928 -0.30427 0.55231 0.059794 0.14373 -0.18636 0.27009 -0.1555 0.16512 -0.13254 -0.18643 -0.36343 0.18805 0.17854 -0.032805 -0.33084 0.47679 -0.10464 0.22928 0.20014 -0.12007 -0.37102 -0.047401 0.2819 0.21996 0.36696 0.098319 -0.41878 -0.073706 -0.0089354 0.037177 0.23306 0.44274 0.17877 0.12127 0.1587 0.19044 0.40424 -0.15078 -0.066348 0.073386 -0.11848 0.083671 0.14538 0.1445 -0.053753 -0.21974 -0.17067 -0.35897 -0.014325 -0.40824 -0.070211 0.3381 0.010288 -0.061343 -0.16899 0.31668 -0.097067 0.099599 0.46875 0.10617 0.026006 -0.25649 0.20248 -0.048813 -0.24324 -0.095063 0.10773 0.21336 0.47584 0.023199 -0.32172 0.05608 -0.093783 0.36848 0.13327 
tiger -0.0074369 -0.22756 0.13542 0.60645 0.18586 -0.044428 0.071685 0.017529 0.09183 0.19035 -0.29745 0.2204 0.13074 -0.095348 -0.22974 0.14167 0.2064 -0.43339 0.092725 0.022915 -0.11317 0.075729 0.45909 0.28286 0.38855 -0.1954 -0.49751 -0.20432 -0.080558 0.22656 -0.10242 0.2849 0.23136 0.1022 0.47412 -0.20093 0.0065387 0.020606 -0.19998 -0.73669 0.28781 0.11852 -0.074324 0.081625 0.40888 0.35873 -0.082959 -0.33791 -0.059045 0.12234 -0.029733 -0.36149 -0.34153 -0.40206 -0.32947 -0.097181 -0.25192 0.21734 0.048119 0.58356 0.090135 0.18942 0.12513 -0.24119 0.032723 -0.35327 0.17371 0.44917 -0.27902 0.24386 -0.099493 0.034458 -0.20993 0.080618 -0.2551 -0.084729 -0.13228 0.1298 0.21816 -0.17876 0.091196 0.010905 -0.14043 -0.29523 0.0019633 -0.07993 -0.1691 0.36308 0.056738 -0.20424 0.18375 0.081682 0.0843 -0.14706 -0.1954 -0.10529 0.19778 0.2318 0.51116 0.21885 0.1095 -0.29 -0.16914 0.12239 0.002501 0.18246 -0.11061 -0.15635 -0.035619 -0.13855 0.17086 0.11991 0.20738 0.0037616 0.21291 -0.30616 0.15533 -0.054063 -0.086241 -0.25367 0.36993 -0.64711 0.067776 0.46364 0.26681 -0.37776 0.22767 -0.17684 0.1711 0.38264 -0.13371 -0.076549 0.029096 -0.15853 0.15744 -0.14032 0.49928 0.16853 -0.17031 -0.20005 0.1606 -0.39779 -0.8036 0.019674 -0.24485 -0.046929 0.28368 -0.26228 0.15836 0.18921 -0.1588 -0.24133 0.063541 0.054006 0.28129 -0.18953 0.056765 -0.15593 0.27593 -0.26214 -0.32496 0.24461 0.014282 0.16166 -0.29087 0.0070931 -0.12394 0.0023868 0.047461 -0.26858 0.28152 -0.12072 0.12763 0.31299 -0.12459 0.062454 -0.010085 -0.23914 0.047874 -0.24383 0.16986 0.057346 -0.19314 -0.26708 -0.13946 0.19368 0.22116 -0.61852 -0.12627 -0.25655 0.23293 -0.22487 0.031619 -0.219 -0.37069 -0.39823 -0.30941 0.093848 0.35509 -0.0082383 0.28598 0.42665 0.27235 0.15112 -0.40318 0.44821 -0.32631 0.2208 0.19754 0.15166 -0.21144 0.098161 0.045002 -0.16217 0.3086 -0.19562 0.05885 -0.2408 0.12827 -0.29301 -0.14245 -0.27291 -0.024245 -0.24088 -0.050928 -0.30427 0.55231 0.059794 0.14373 -0.18636 0.27009 -0.1555 0.16512 -0.13254 -0.18643 -0.36343 0.18805 0.17854 -0.032805 -0.33084 0.47679 -0.10464 0.22928 0.20014 -0.12007 -0.37102 -0.047401 0.2819 0.21996 0.36696 0.098319 -0.41878 -0.073706 -0.0089354 0.037177 0.23306 0.44274 0.17877 0.12127 0.1587 0.19044 0.40424 -0.15078 -0.066348 0.073386 -0.11848 0.083671 0.14538 0.1445 -0.053753 -0.21974 -0.17067 -0.35897 -0.014325 -0.40824 -0.070211 0.3381 0.010288 -0.061343 -0.16899 0.31668 -0.097067 0.099599 0.46875 0.10617 0.026006 -0.25649 0.20248 -0.048813 -0.24324 -0.095063 0.10773 0.21336 0.47584 0.023199 -0.32172 0.05608 -0.093783 0.36848 0.13327 
book 0.054723 -0.060479 -0.16058 0.0053803 0.15941 -0.01531 -0.098527 -0.10761 0.16174 -0.1388 -0.50455 0.10875 0.19227 0.0026491 -0.20646 0.029938 -0.047017 -0.0061571 -0.046554 -0.24131 0.12781 0.08665 0.32101 0.25281 0.16624 -0.088732 -0.048369 0.093956 -0.28248 0.11315 -0.10096 -0.014344 -0.023324 -0.18344 -0.19706 -0.10241 0.16883 -0.2426 -0.040943 -0.17422 0.25093 0.024567 0.13429 0.073077 0.10731 0.1016 -0.020344 0.041574 0.1186 0.08343 -0.090558 -0.20215 -0.31301 0.22614 -0.083093 0.22393 -0.066658 0.061637 -0.36906 -0.14948 -0.023952 0.026277 -0.20426 -0.2439 -0.28832 -0.093585 0.13882 -0.14075 -0.28436 0.14065 0.038301 0.12216 -0.061987 -0.26627 -0.0035953 -0.38289 0.2818 0.43812 0.4472 -0.10587 0.21709 0.016782 0.07486 -0.1877 -0.15622 0.28851 -0.25097 0.32861 0.4085 -0.20465 0.14697 0.044385 -0.07252 -0.35405 0.027323 0.14328 0.39874 0.13786 0.31446 0.2586 -0.10099 -0.10154 0.029412 0.50308 0.092388 0.055599 -0.14747 0.015838 -0.18108 -0.33033 0.0067651 -0.067827 0.064076 0.11217 -0.066566 -0.31218 -0.18289 -0.22163 -0.064759 -0.075977 0.10263 -0.13594 0.16638 -0.10542 0.23268 -0.19351 0.18109 0.021672 -0.056139 -0.048606 0.011083 0.038573 -0.020079 0.16464 0.25305 0.0035807 0.34783 0.13946 0.21403 -0.32918 0.051574 0.10226 -0.14186 -0.20549 -0.087918 -0.080801 0.34335 0.18218 -0.2629 0.12306 0.19697 -0.18004 -0.13233 -0.33102 -0.022728 0.19078 -0.027351 -0.085727 0.023752 -0.037095 0.18725 0.21731 -0.11121 -0.12555 -0.23933 -0.10533 -0.19502 -0.061291 0.32656 0.02694 -0.074015 0.23905 -0.096623 0.080527 -0.23093 0.31555 0.10317 0.20298 -0.055561 -0.075612 0.10995 0.040057 -0.10617 -0.04249 -0.1942 0.13314 -0.26555 -0.090845 0.063294 0.043592 0.017836 0.016177 0.062226 -0.19002 -0.083758 -0.22262 -0.11492 -0.14862 0.24067 0.012004 0.34754 -0.037647 -0.030207 -0.33464 -0.14903 0.055477 -0.068029 -0.091079 0.28704 0.08722 0.076393 0.060706 -0.17627 0.30257 -0.020268 -0.1299 0.025826 -0.097117 0.022213 -0.34006 0.093061 -0.053207 -0.19193 0.22053 -0.30965 -0.23806 -0.34541 -0.3642 0.045795 0.32157 0.0089265 -0.45182 -0.22471 -0.1485 -0.16791 -0.093423 0.1794 0.23732 0.12296 -0.018074 0.13695 0.12913 -0.17595 0.56335 -0.072316 -0.1248 -0.038093 0.00726 0.25582 0.098612 -0.21745 -0.069171 0.10381 -0.11816 0.43334 0.093501 0.14819 -0.24468 -0.28088 -0.038064 -0.079527 0.26936 0.11422 -0.17226 0.043052 -0.1512 -0.11374 0.22574 0.20857 -0.12294 -0.11691 0.11765 -0.13872 0.3594 0.092837 -0.43027 0.27231 -0.12706 0.1686 0.12587 -0.14885 0.21152 0.20143 -0.30993 -0.039937 0.0078754 0.24699 0.02659 0.089511 0.024154 -0.17923 -0.46181 0.061396 0.25716 0.12843 -0.37256 0.40928 -0.040601 0.015966 -0.16575 
paper 0.052633 0.16387 0.038122 0.011448 0.18488 0.049339 -0.11524 0.12567 0.2282 -0.068284 -0.44253 0.15917 -0.015603 0.049655 -0.30932 0.32877 -0.18053 -0.16475 -0.47503 -0.13724 0.018191 0.037829 0.03668 0.27691 -0.067359 0.065406 -0.11605 0.31109 -0.14287 -0.1181 0.059365 0.14398 0.26556 -0.26904 -0.18225 -0.19809 0.15835 0.044766 -0.12637 -0.018257 0.14538 0.28992 0.11381 0.082465 0.23001 0.16192 -0.18459 -0.14912 -0.12823 -0.13646 -0.18205 -0.22812 0.24345 0.11895 0.020091 0.030245 0.021165 0.10714 -0.38511 0.12405 -0.28534 -0.0026216 0.24571 -0.36594 -0.13826 -0.19333 0.089443 -0.38826 -0.16316 0.065716 0.038256 -0.086889 -0.41233 0.06373 -0.13141 0.09857 0.20223 0.3926 0.28208 -0.16003 0.11101 -0.073656 -0.057705 0.14113 0.13879 0.315 -0.039591 0.13172 0.19503 -0.36184 0.20851 -0.20004 -0.020261 -0.35718 -0.41377 -0.12229 0.22229 -0.026297 0.2063 0.31286 -0.41439 -0.26243 0.087515 0.3661 0.13103 0.10429 0.0088436 0.37407 -0.087102 0.044826 -0.18384 -0.060209 0.03211 -0.052788 0.081817 -0.083016 -0.083813 -0.086281 -0.023746 -0.040803 0.049156 0.12082 0.2095 -0.028957 0.23206 0.013068 0.19215 -0.059899 0.043126 0.021286 -0.2347 -0.095937 0.1907 -0.088437 0.17669 -0.15522 0.5991 0.18577 0.021694 -0.065247 -0.090348 -0.27517 -0.13372 -0.43923 -0.05791 0.035925 0.46847 0.030846 -0.2202 -0.15777 0.16307 -0.11942 -0.1793 0.012251 0.089936 0.028996 -0.021087 0.19902 -0.14546 0.032396 0.12784 0.030525 -0.062023 -0.0773 -0.1619 0.031702 -0.21944 0.13777 -0.044641 0.01699 0.28905 0.16906 0.13174 0.07368 0.32753 0.41626 0.15811 0.0029109 -0.025615 -0.060927 0.010219 -0.23158 0.046025 -0.30437 -0.20004 -0.30054 -0.39893 -0.36087 0.13202 0.042499 0.15762 0.14346 -0.031697 -0.23732 0.17696 -0.27845 -0.094835 -0.071247 0.12358 -0.12143 0.26008 -0.08569 -0.0089215 -0.0045678 -0.45648 0.10446 -0.067147 0.049405 -0.23911 0.053751 -0.092845 0.2804 -0.013202 0.14086 0.056186 -0.081302 -0.057305 0.058284 0.37233 -0.066833 -0.27556 -0.20427 -0.42096 0.029876 -0.19659 0.090748 -0.16366 -0.18699 0.23775 0.0051642 0.29119 -0.5316 -0.25232 -0.21654 -0.11001 -0.25625 0.27949 -0.15245 0.21448 -0.03654 0.16675 0.08989 0.30038 0.62509 0.10123 -0.080231 -0.18594 0.22888 0.22627 0.066083 0.27805 0.12559 0.2174 0.22867 0.22943 0.13644 0.44389 -0.14264 -0.076411 0.12833 -0.11838 0.10476 -0.02017 0.0072837 0.22277 -0.5451 -0.15888 0.387 0.40803 0.1799 0.014358 -0.010734 -0.14738 0.22901 0.087521 -0.37427 0.056493 -0.2469 0.10906 0.097172 -0.098043 -0.013054 0.019847 -0.055434 0.021898 0.0037825 -0.029456 -0.00079753 -0.1068 0.3465 -0.20825 -0.17363 0.21094 0.087508 0.10813 -0.28857 -0.20058 -0.025259 0.21225 -0.21731 
computer 0.018879 0.024899 0.0040208 0.29073 0.24522 0.15487 0.28899 0.020068 0.18782 -0.071507 -0.3598 0.10604 0.23892 0.038617 -0.41705 0.25044 -0.18528 -0.046713 -0.36652 -0.257 0.012707 -0.084114 0.13242 0.054593 0.086003 -0.23102 -0.14134 -0.075131 -0.031697 -0.081686 -0.28723 -0.0021944 0.032588 -0.069086 0.051634 -0.22419 0.19864 -0.35021 -0.34896 -0.2393 0.3714 -0.075213 -0.10174 0.075473 -0.092754 0.32577 -0.097071 0.32044 -0.31308 -0.011099 0.011791 0.19775 -0.10525 0.10517 -0.23884 -0.051305 -0.080455 -0.053433 -0.27344 0.40487 0.099581 0.1265 0.028488 0.058917 -0.12915 -0.19477 -0.020755 -0.00034097 -0.15818 -0.3686 -0.25232 0.078277 0.083182 -0.27888 -0.016757 -0.37522 -0.10657 0.1619 0.19814 0.1288 0.31126 -0.0085921 0.11644 -0.013976 0.12129 0.24829 0.30123 -0.21442 0.039508 -0.10307 0.16814 0.36274 -0.15183 0.27934 -0.38227 -0.1694 0.050948 -0.083043 0.55808 0.08229 -0.3276 -0.5967 0.042857 -0.041203 0.24421 -0.11719 -0.31016 0.32077 -0.48017 -0.2279 -0.48868 -0.15355 -0.27253 0.18386 -0.23725 -0.095859 0.10022 0.14374 -0.15517 -0.018911 0.30731 -0.007828 0.11215 -0.36334 0.2891 -0.18557 0.031324 -0.25312 0.014626 0.042056 0.047253 0.039103 0.29399 -0.13656 0.08454 -0.21816 0.22023 0.28268 0.1882 -0.096571 -0.38911 -0.30353 -0.18726 -0.63785 -0.20926 0.050445 0.37457 -0.23395 -0.025922 -0.23284 -0.19514 -0.37475 -0.26203 -0.16072 0.23149 0.23129 0.12855 0.022302 -0.06701 0.098439 0.14754 0.29007 -0.05128 0.035041 -0.17892 0.1405 -0.35108 -0.070695 0.073316 -0.16557 0.076387 0.40071 0.1975 0.11804 0.018414 -0.12807 0.38826 0.10974 -0.095846 0.029284 0.1473 -0.21188 -0.20876 -0.35181 -0.050062 -0.19323 -0.0082906 -0.02737 -0.04323 -0.25726 0.38013 0.071232 0.01445 -0.041284 -0.17927 0.30852 -0.23313 -0.00016051 0.013319 0.054751 -0.11802 0.071631 0.15197 -0.19786 -0.19156 -0.11694 -0.081172 -0.047288 0.18552 -0.10885 -0.2405 0.55689 0.28096 -0.048805 -0.16879 -0.27632 0.26577 0.0035299 0.52895 -0.27511 -0.040611 -0.060924 -0.48372 -0.16858 -0.22383 0.33324 -0.33038 -0.10746 0.010901 -0.082061 0.1119 0.090014 0.10379 -0.40502 0.30195 0.035667 0.13341 0.090199 0.089256 -0.35378 0.0046523 -0.27705 0.0049025 0.62468 -0.022427 0.16817 0.41756 0.32908 0.2037 0.10835 0.33747 -0.010484 -0.070624 -0.15525 0.38447 -0.19323 0.098434 -0.050466 0.012978 -0.38299 -0.073753 0.3113 0.0035358 0.061422 -0.20456 -0.29422 -0.033307 -0.27672 0.23988 0.016215 -0.16191 -0.30488 -0.12134 0.1224 0.23485 -0.37909 0.55699 0.22563 0.13927 0.063201 -0.38785 0.33532 0.17372 -0.0054624 0.065866 0.036716 0.24096 0.026549 0.13484 0.21433 0.035514 -0.16965 -0.17984 -0.32629 0.12837 -0.14986 -0.07679 0.046597 -0.12711 -0.28746 
keyboard -0.41734 -0.066359 -0.20168 0.74197 -0.38037 -0.42584 -0.1703 -0.23183 0.22265 0.14539 -0.098822 0.020957 -0.021447 0.10675 -0.58563 -0.16884 -0.17266 0.21557 -0.19222 -0.45806 0.09047 -0.65389 -0.0032709 0.2755 0.10829 0.092022 -0.19034 -0.19592 -0.15783 0.21024 -0.21603 -0.12492 0.13424 0.19521 -0.1274 -0.27755 0.20631 -0.16993 -0.33029 -0.026204 0.20243 0.063801 0.30312 -0.088717 0.25159 0.63351 -0.14958 0.31903 -0.18215 0.070015 0.05191 0.0061603 -0.46574 0.47014 -0.36118 -0.0010744 -0.021525 0.20734 -0.11199 0.04361 -0.099062 0.065148 0.33679 0.026053 -0.024821 -0.13762 0.22736 0.48829 0.26258 -0.2872 -0.10257 0.17228 0.16635 -0.26811 -0.066118 -0.11305 -5.5678e-05 0.12994 0.077483 0.3785 -0.075236 0.2482 -0.12022 0.021781 0.32941 0.11469 0.16447 0.12575 0.0087262 -0.37792 0.071243 0.25601 -0.24139 0.1701 0.010651 -0.1996 0.083261 -0.083663 0.46706 -0.12759 -0.33517 -0.22114 0.072098 0.26743 0.10741 -0.20165 0.058613 0.17382 -0.52006 -0.43972 -0.33714 -0.46625 0.026256 0.11769 -0.17748 0.30213 0.10206 0.02523 -0.1674 -0.19041 0.20935 -0.097755 0.02335 0.0094398 0.41938 -0.33866 0.32627 -0.10109 -0.15661 -0.011206 -0.040904 0.11034 -0.24695 0.0025427 -0.11421 -0.29199 0.35353 0.34861 0.42977 -0.34349 -0.45044 -0.12019 -0.25803 -0.39232 -0.071249 0.26201 0.21012 -0.33849 -0.30753 -0.039208 0.14355 0.058719 -0.49573 -0.15056 0.00239 -0.17958 -0.30461 0.12983 -0.015676 0.027389 -0.25393 0.45504 0.1481 -0.29076 -0.15958 0.33335 -0.42161 -0.13836 0.16437 0.22481 -0.15754 0.11391 -0.17744 0.079205 -0.10113 -0.38434 0.38387 0.33357 0.36328 -0.17002 0.043605 0.065419 -0.33969 -0.29083 0.35387 0.019857 0.044689 0.12862 0.22677 -0.3236 -0.025908 -0.10765 0.11422 -0.11932 0.14678 0.37934 -0.084087 0.055804 0.12434 -0.076976 0.35429 -0.43464 0.067393 -0.073602 -0.61955 0.016874 -0.19083 0.37077 0.22266 0.54379 -0.17367 0.56773 0.21462 0.16914 0.0099392 -0.25327 0.17463 -0.069688 0.69879 -0.52545 -0.1674 0.13051 -0.46048 -0.19 -0.2737 0.4246 -0.43059 -0.097537 -0.10453 -0.012714 0.64415 -0.33069 -0.41466 -0.2055 0.15502 0.043538 -0.2313 -0.047549 0.3304 -0.42469 -0.085355 -0.11422 0.39873 0.23161 -0.19935 0.070174 0.27665 0.48493 -0.38044 0.2614 0.19431 0.2905 -0.57756 0.0090602 0.072115 -0.16722 -0.42601 -0.048624 -0.31618 0.22966 0.23329 0.15699 -0.30983 0.14582 -0.2452 -0.28977 -0.040927 -0.28072 0.31839 0.23539 0.26083 -0.2965 -0.068184 0.18796 0.05464 -0.19895 0.035359 0.0010641 0.17968 0.030261 -0.21905 0.22513 0.30219 0.15773 0.32458 -0.071357 0.09181 -0.032173 0.43425 0.2067 -0.23123 -0.24017 -0.16755 0.10804 0.13135 -0.11322 -0.048837 0.045076 -0.20861 -0.030947 
computer 0.018879 0.024899 0.0040208 0.29073 0.24522 0.15487 0.28899 0.020068 0.18782 -0.071507 -0.3598 0.10604 0.23892 0.038617 -0.41705 0.25044 -0.18528 -0.046713 -0.36652 -0.257 0.012707 -0.084114 0.13242 0.054593 0.086003 -0.23102 -0.14134 -0.075131 -0.031697 -0.081686 -0.28723 -0.0021944 0.032588 -0.069086 0.051634 -0.22419 0.19864 -0.35021 -0.34896 -0.2393 0.3714 -0.075213 -0.10174 0.075473 -0.092754 0.32577 -0.097071 0.32044 -0.31308 -0.011099 0.011791 0.19775 -0.10525 0.10517 -0.23884 -0.051305 -0.080455 -0.053433 -0.27344 0.40487 0.099581 0.1265 0.028488 0.058917 -0.12915 -0.19477 -0.020755 -0.00034097 -0.15818 -0.3686 -0.25232 0.078277 0.083182 -0.27888 -0.016757 -0.37522 -0.10657 0.1619 0.19814 0.1288 0.31126 -0.0085921 0.11644 -0.013976 0.12129 0.24829 0.30123 -0.21442 0.039508 -0.10307 0.16814 0.36274 -0.15183 0.27934 -0.38227 -0.1694 0.050948 -0.083043 0.55808 0.08229 -0.3276 -0.5967 0.042857 -0.041203 0.24421 -0.11719 -0.31016 0.32077 -0.48017 -0.2279 -0.48868 -0.15355 -0.27253 0.18386 -0.23725 -0.095859 0.10022 0.14374 -0.15517 -0.018911 0.30731 -0.007828 0.11215 -0.36334 0.2891 -0.18557 0.031324 -0.25312 0.014626 0.042056 0.047253 0.039103 0.29399 -0.13656 0.08454 -0.21816 0.22023 0.28268 0.1882 -0.096571 -0.38911 -0.30353 -0.18726 -0.63785 -0.20926 0.050445 0.37457 -0.23395 -0.025922 -0.23284 -0.19514 -0.37475 -0.26203 -0.16072 0.23149 0.23129 0.12855 0.022302 -0.06701 0.098439 0.14754 0.29007 -0.05128 0.035041 -0.17892 0.1405 -0.35108 -0.070695 0.073316 -0.16557 0.076387 0.40071 0.1975 0.11804 0.018414 -0.12807 0.38826 0.10974 -0.095846 0.029284 0.1473 -0.21188 -0.20876 -0.35181 -0.050062 -0.19323 -0.0082906 -0.02737 -0.04323 -0.25726 0.38013 0.071232 0.01445 -0.041284 -0.17927 0.30852 -0.23313 -0.00016051 0.013319 0.054751 -0.11802 0.071631 0.15197 -0.19786 -0.19156 -0.11694 -0.081172 -0.047288 0.18552 -0.10885 -0.2405 0.55689 0.28096 -0.048805 -0.16879 -0.27632 0.26577 0.0035299 0.52895 -0.27511 -0.040611 -0.060924 -0.48372 -0.16858 -0.22383 0.33324 -0.33038 -0.10746 0.010901 -0.082061 0.1119 0.090014 0.10379 -0.40502 0.30195 0.035667 0.13341 0.090199 0.089256 -0.35378 0.0046523 -0.27705 0.0049025 0.62468 -0.022427 0.16817 0.41756 0.32908 0.2037 0.10835 0.33747 -0.010484 -0.070624 -0.15525 0.38447 -0.19323 0.098434 -0.050466 0.012978 -0.38299 -0.073753 0.3113 0.0035358 0.061422 -0.20456 -0.29422 -0.033307 -0.27672 0.23988 0.016215 -0.16191 -0.30488 -0.12134 0.1224 0.23485 -0.37909 0.55699 0.22563 0.13927 0.063201 -0.38785 0.33532 0.17372 -0.0054624 0.065866 0.036716 0.24096 0.026549 0.13484 0.21433 0.035514 -0.16965 -0.17984 -0.32629 0.12837 -0.14986 -0.07679 0.046597 -0.12711 -0.28746 
internet -0.10216 0.37188 0.095179 0.27036 0.29685 0.15451 0.26069 0.32596 0.1809 0.0044458 -0.036975 -0.096177 0.074542 0.05109 -0.49683 0.24829 0.03964 0.15934 -0.40634 -0.1141 0.0010205 -0.13712 0.22802 0.20482 0.088625 -0.37695 -0.29875 0.26668 -0.072979 -0.37831 -0.28641 -0.022046 0.17949 -0.5313 -0.027705 -0.14493 0.26624 -0.38143 -0.30126 -0.42836 0.12994 -0.061723 0.42145 -0.056044 0.15983 0.029607 0.024316 0.059218 -0.0037262 0.21607 -0.42213 -0.099191 -0.13906 0.24788 0.15008 0.11935 0.016838 0.034642 -0.12727 0.10344 -0.46781 -0.14444 0.36433 -0.36023 -0.23318 -0.077465 0.50049 -0.27535 0.17672 -0.0050561 -0.17895 -0.10404 0.12436 -0.1279 -0.29176 -0.25751 0.073766 -0.14402 0.33625 -0.057495 0.048774 -0.17021 -0.018306 0.081847 -0.093013 0.24594 0.028217 -0.3693 0.26228 0.12335 0.089843 0.37477 -0.194 -0.0070334 -0.40447 -0.054281 0.14718 0.06684 0.45839 0.19682 -0.18897 -0.49302 -0.01031 0.18275 0.075714 0.47062 -0.58184 0.064838 -0.49333 -0.25156 -0.13224 0.269 -0.33533 0.22488 -0.19319 0.048402 -0.23217 0.34078 -0.074458 0.10424 0.11449 -0.12699 -0.43937 -0.19894 -0.20982 -0.21229 0.12175 -0.34909 0.05996 -0.25488 0.37654 0.17115 -0.0012991 0.16267 -0.010142 0.062932 0.019171 0.44597 -0.11068 -0.35264 -0.29033 -0.0082388 -0.19932 -0.26148 -0.13296 -0.1544 0.24571 0.015369 0.036154 -0.086939 -0.32971 -0.042244 0.16397 -0.17444 0.14288 0.30468 0.035949 -0.24933 0.025272 -0.11473 0.029406 0.24722 0.087117 0.24266 -0.24116 0.14895 -0.50801 -0.36572 0.13597 -0.13457 0.078382 0.41967 0.10445 -0.073355 -0.14444 0.28156 -0.20327 0.085156 -0.3788 0.16371 0.24162 0.099693 -0.023742 -0.0084335 0.35974 -0.031139 0.061406 0.043233 0.33574 -0.10702 0.15125 -0.378 -0.013838 0.098802 -0.12427 0.27008 -0.22384 -0.18697 0.16993 -0.0086709 -0.078232 -0.0051067 0.26411 -0.21642 -0.16256 0.18184 -0.18672 0.24634 -0.0053218 0.164 0.076365 0.36473 0.033021 0.015317 -0.1771 -0.36634 0.028344 0.086037 0.26506 -0.26243 0.29053 -0.11722 -0.32527 -0.22816 -0.22143 0.012962 -0.2202 -0.25623 0.18299 -0.16222 -0.10911 0.34344 0.037163 -0.25093 0.028149 -0.10945 0.11881 0.062091 0.13986 -0.32619 0.12715 0.15582 0.05699 0.83133 0.0028481 0.24877 0.23361 0.06741 0.098066 0.12263 0.26691 0.081411 0.24141 0.04665 0.38128 0.12525 0.10657 0.071937 0.17234 -0.26379 0.28432 0.29296 0.18854 0.25071 -0.076525 -0.27696 -0.0075041 0.070277 0.092925 0.091154 -0.11157 -0.1101 0.17249 -0.11702 -0.1662 -0.22911 0.60052 -0.0088034 0.06103 0.22567 -0.087758 0.30389 0.21982 0.012917 -0.11521 -0.11555 0.077083 -0.11711 0.30107 -0.10074 -0.11263 -0.29504 0.10595 0.39991 0.092249 -0.16777 -0.061087 0.042922 0.14688 -0.3582 
plane 0.17085 0.23532 0.068085 0.03782 0.26258 0.21293 0.072826 0.16653 0.35266 -0.61125 -0.12431 0.058723 0.1338 -0.31615 -0.2915 0.30844 -0.40598 0.079948 -0.29361 0.23114 -0.092865 -0.063247 0.15092 -0.036335 0.23688 0.097185 -0.38064 -0.018594 0.12461 -0.32544 0.09102 -0.33844 0.2212 -0.36822 0.42586 -0.16891 0.023182 -0.36471 -0.20048 -0.18061 -0.028991 -0.078618 0.24219 -0.026124 0.17469 -0.032121 0.34492 -0.025757 -0.17102 -0.12203 -0.10112 0.064426 -0.30797 0.15843 -0.24409 0.30512 -0.00073466 -0.19526 -0.43883 0.44114 -0.14045 -0.44191 0.074061 -0.40907 -0.047226 -0.12682 -0.12027 0.31842 0.05499 -0.15293 -0.18605 0.30083 -0.3728 0.014437 0.033632 -0.27232 0.08743 -0.028018 0.22256 0.059688 0.33237 -0.07557 -0.0095929 -0.0081824 -0.0021862 -0.047785 -0.46769 -0.064538 0.19356 -0.13936 -0.084432 0.040614 -0.19075 -0.13272 -0.012812 -0.24472 0.14541 -0.10566 0.24967 0.40934 -0.20265 0.22833 0.22061 0.13165 -0.012547 -0.42852 -0.33185 0.48553 -0.47927 0.062059 -0.23082 0.053537 0.27386 -0.38854 -0.14857 -0.10842 -0.14732 -0.16278 -0.13356 -0.37277 0.36018 -0.0056943 0.46203 -0.22746 -0.069774 -0.086931 0.29917 -0.087457 -0.14009 0.094803 -0.21946 -0.14097 0.28982 0.18287 0.16678 -0.018259 0.34931 0.089951 0.1656 -0.3248 0.28409 -0.0034471 -0.63185 -0.32765 -0.19571 0.33783 0.19809 -0.18409 -0.035434 0.14604 0.18191 -0.12973 -0.16579 -0.21771 -0.10336 -0.2585 -0.16159 0.077507 -0.023447 -0.0062271 -0.10493 -0.0096999 -0.087417 0.1796 0.16197 -0.36596 -0.068077 -0.18597 -0.19933 0.13248 0.13293 -0.41757 0.14311 0.10273 0.21809 0.15907 -0.024409 -0.046609 -0.3522 0.029724 0.18339 0.15706 -0.072057 -0.28671 0.11574 -0.17776 0.24213 0.069175 -0.18068 0.18274 0.0032764 -0.14483 -0.17781 0.28667 0.024444 -0.097803 -0.19975 -0.50873 -0.30225 -0.10516 0.16097 0.022771 0.093664 0.41133 -0.32299 0.15027 -0.43687 -0.15552 0.071626 -0.1664 -0.017842 0.30612 -0.12951 0.28776 -0.085469 -0.31086 0.36891 -0.038512 0.21856 -0.21129 -0.31218 -0.4246 -0.093399 0.038709 0.15453 -0.25936 -0.042635 -0.016167 0.0079913 -0.25258 0.0009238 -0.36147 0.0036813 0.035384 -0.030097 0.085151 0.044708 -0.18154 -0.040006 -0.015469 -0.12 0.073442 0.31654 0.547 0.24002 -0.1809 -0.1177 0.62446 0.16554 0.1605 0.037901 -0.073352 -0.01357 -0.32516 0.20239 -0.63095 -0.038161 -0.018938 -0.2722 -0.24666 0.33826 -0.097424 0.41229 0.01088 -0.24408 -0.048838 0.15823 -0.076699 -0.12345 0.15428 -0.40712 -0.38545 -0.25434 0.3558 0.00080899 -0.065632 0.35615 -0.20308 0.3341 0.012839 -0.3497 0.26054 0.1555 0.28904 -0.029444 0.085813 0.077266 0.48799 -0.24893 0.35178 0.073633 -0.16579 -0.067928 -0.0064235 -0.22355 0.022608 -0.0033932 -0.39823 -0.07972 0.047294 
car 0.0057574 0.091536 -0.099544 0.19401 -0.17392 -0.22582 0.12443 0.0048903 0.31161 0.17633 -0.059421 -0.036354 -0.21355 -0.1299 -0.18381 -0.076901 -0.21547 0.2149 0.079085 0.13177 0.16127 -0.30082 0.83331 0.26853 0.15837 0.244 -0.25325 0.098822 0.18498 -0.099666 -0.11629 -0.20019 -0.23466 -0.28405 0.29238 -0.20667 0.35523 -0.58254 -0.19061 -0.36574 0.40901 0.45431 -0.13157 -0.22878 -0.016284 0.29418 0.11979 0.043995 0.12119 -0.18838 -0.40881 -0.032549 -0.095843 -0.11845 -0.22949 0.14775 -0.064303 -0.097546 -0.43386 0.27469 -0.26068 -0.23528 0.21817 -0.14786 0.049851 -0.17938 -0.1481 -0.047235 -0.37439 0.079039 -0.19418 0.37341 -0.13229 -0.063177 -0.26002 0.085468 -0.1873 0.23631 0.28519 0.082057 0.23734 -0.33473 0.071001 -0.29464 0.13547 0.35547 0.19548 -0.31807 0.13202 -0.17882 0.1026 -0.046378 -0.5088 -0.32697 -0.007574 0.18012 -0.027468 -0.347 0.61748 -0.17972 -0.19343 -0.202 -0.19761 0.15173 -0.29167 -0.0060181 -0.40151 -0.024019 -0.19005 0.083726 0.26014 -0.23968 0.14098 -0.37456 0.039741 -0.086693 -0.028686 0.31335 -0.14175 -0.2103 0.21293 -0.14738 0.22492 0.21373 0.20418 -0.22792 0.14191 -0.39021 0.094438 -0.17118 0.10184 -0.21365 0.19165 -0.11957 -0.033343 -0.047735 0.22463 0.11615 0.023303 -0.10722 0.11027 -0.49593 -0.52883 -0.27978 -0.11053 0.18995 0.21234 -0.14903 -0.16376 0.24029 -0.14059 -0.030103 -0.44097 -0.12549 -0.018898 0.16128 0.27545 -0.017789 0.030857 0.24681 -0.27699 0.37145 -0.11961 -0.073259 -0.0017935 0.10873 -0.20796 -0.2835 0.28557 0.25687 0.014947 0.022054 0.076066 -0.10966 -0.092942 0.3267 -0.13278 -0.067884 -0.60696 0.078486 0.15201 0.26878 0.21203 -0.28321 0.070016 0.013586 0.086829 0.3231 -0.21439 -0.15203 -0.050112 -0.50238 0.069402 -0.28693 0.24652 -0.22425 -0.18295 -0.0696 0.058564 -0.12554 -0.040827 0.016927 0.081475 0.17072 -0.44673 0.35063 -0.2444 0.49173 -0.11069 -0.13484 -0.42064 0.065341 -0.32333 0.06419 0.0066409 -0.51473 0.17098 -0.18055 0.28877 -0.19143 -0.099416 -0.30616 -0.016783 0.16376 -0.1044 -0.064468 -0.074063 -0.19087 0.61631 -0.15634 0.20493 -0.61474 0.1494 -0.090076 -0.090206 -0.10967 -0.11136 0.073793 0.19935 -0.072844 -0.10497 -0.13772 -0.023555 -0.10925 0.031424 -0.24266 0.20036 0.14507 0.23806 0.3249 0.4142 -0.41942 -0.022055 0.38858 0.13088 -0.2008 -0.11281 -0.054262 -0.3483 -0.20347 0.21482 0.30819 -0.012338 -0.12446 -0.075149 0.081156 0.071722 -0.1599 -0.12798 -0.094352 -0.11194 -0.3854 -0.34215 0.51131 0.18419 0.14445 0.25318 -0.12615 0.32808 0.2486 -0.307 0.041699 -0.036929 -0.16066 -0.11605 0.12063 -0.072801 0.15598 -0.39378 0.23624 0.00059174 -0.075886 -0.0029447 -0.11738 0.018029 0.21201 0.10114 -0.028945 -0.37265 -0.052067 
train -0.13058 -0.12882 -0.10806 -0.011742 -0.22843 -0.013672 -0.020747 0.027604 0.001487 0.061252 0.2435 -0.11552 0.034761 -0.45153 -0.19295 0.31843 0.021137 0.26322 -0.19402 0.24791 0.15404 0.086043 0.34199 0.048743 0.16157 0.092849 -0.20713 -0.12155 -0.027523 -0.31794 -0.19988 -0.25812 0.012072 -0.35167 -0.044488 -0.39314 0.058335 -0.33287 -0.35515 -0.26895 0.053366 0.12077 -0.22405 -0.016316 0.24945 -0.14192 0.18984 0.033346 0.10601 -0.07155 -0.068094 0.098892 -0.071277 0.037567 -0.12062 -0.31092 0.11352 0.018722 -0.59502 0.15367 -0.11598 0.067246 -0.0053394 0.071192 0.22711 -0.26088 -0.027382 0.13264 -0.26949 -0.055592 -0.16329 0.076107 -0.008534 0.11203 -0.4039 -0.34854 -0.1489 -0.10008 0.15827 0.020034 0.41614 -0.041862 0.016026 -0.15335 0.2297 0.38313 -0.27686 -0.36153 -0.032766 0.13565 0.094289 0.085841 -0.36396 -0.21892 0.039665 -0.12149 0.06956 -0.34115 0.22187 0.14504 0.28644 -0.14271 -0.295 -0.16728 -0.025579 -0.31223 -0.42372 0.17793 -0.29253 -0.067117 -0.012302 -0.085508 0.16036 -0.020904 -0.13418 -0.13433 0.17043 0.042652 0.10463 -0.28271 0.10934 0.063918 0.21046 0.32948 -0.081577 -0.55289 -0.19508 0.10487 -0.076504 -0.22789 0.2145 -0.18113 0.024475 0.25698 0.0042257 -0.014815 0.31266 0.28857 0.2903 -0.2193 -0.01057 -0.43584 -0.47891 -0.66832 -0.041237 -0.018274 0.1443 -0.16007 -0.10867 0.098817 -0.10004 -0.06688 -0.25626 -0.30392 0.21151 0.12896 0.295 -0.1022 0.17706 0.23922 -0.46186 0.4024 -0.16904 -0.10396 -0.0067836 -0.015062 0.057314 -0.18393 0.099283 -0.078003 0.42111 0.071806 -0.11752 -0.12858 -0.022379 0.24982 -0.11345 -0.26907 -0.6317 -0.092124 0.34271 -0.41627 -0.077596 -0.27377 0.018402 -0.12265 0.088975 -0.22165 -0.1367 -0.11136 0.053118 -0.14523 -0.11726 -0.055868 0.1009 -0.29837 0.068654 0.17419 0.24993 -0.090572 0.17951 0.19352 0.219 0.31011 -0.00036337 0.41162 -0.039969 0.39124 0.041218 -0.028669 -0.065536 0.29287 -0.40943 -0.11485 0.084627 -0.36446 0.27431 0.12577 0.41149 0.032745 -0.23893 -0.51486 -0.039977 0.19042 -0.33184 -0.073944 -0.08865 -0.17505 0.049707 -0.22701 0.11795 -0.62384 0.22389 0.21808 -0.081884 -0.13431 -0.37824 0.045585 0.3411 -0.22297 0.14804 0.11983 0.06863 0.38178 0.26909 0.037007 0.08172 -0.070787 0.017458 0.5291 -0.16438 -0.28977 -0.012702 0.20909 -0.044953 -0.13952 -0.083963 -0.37886 -0.57926 -0.049745 0.62557 0.14499 0.17081 -0.076772 -0.19799 0.10703 -0.039517 0.013273 -0.17426 -0.054886 0.042133 0.074457 -0.063212 0.16178 0.11801 0.17195 0.22027 -0.083924 0.35573 -0.1968 -0.18854 0.081555 -0.19941 -0.062362 0.0030153 0.23023 -0.18984 0.18405 -0.22581 0.33151 -0.19153 -0.42239 -0.13251 -0.12822 -0.082381 -0.17654 0.13651 -0.29844 -0.22141 -0.040671 
car 0.0057574 0.091536 -0.099544 0.19401 -0.17392 -0.22582 0.12443 0.0048903 0.31161 0.17633 -0.059421 -0.036354 -0.21355 -0.1299 -0.18381 -0.076901 -0.21547 0.2149 0.079085 0.13177 0.16127 -0.30082 0.83331 0.26853 0.15837 0.244 -0.25325 0.098822 0.18498 -0.099666 -0.11629 -0.20019 -0.23466 -0.28405 0.29238 -0.20667 0.35523 -0.58254 -0.19061 -0.36574 0.40901 0.45431 -0.13157 -0.22878 -0.016284 0.29418 0.11979 0.043995 0.12119 -0.18838 -0.40881 -0.032549 -0.095843 -0.11845 -0.22949 0.14775 -0.064303 -0.097546 -0.43386 0.27469 -0.26068 -0.23528 0.21817 -0.14786 0.049851 -0.17938 -0.1481 -0.047235 -0.37439 0.079039 -0.19418 0.37341 -0.13229 -0.063177 -0.26002 0.085468 -0.1873 0.23631 0.28519 0.082057 0.23734 -0.33473 0.071001 -0.29464 0.13547 0.35547 0.19548 -0.31807 0.13202 -0.17882 0.1026 -0.046378 -0.5088 -0.32697 -0.007574 0.18012 -0.027468 -0.347 0.61748 -0.17972 -0.19343 -0.202 -0.19761 0.15173 -0.29167 -0.0060181 -0.40151 -0.024019 -0.19005 0.083726 0.26014 -0.23968 0.14098 -0.37456 0.039741 -0.086693 -0.028686 0.31335 -0.14175 -0.2103 0.21293 -0.14738 0.22492 0.21373 0.20418 -0.22792 0.14191 -0.39021 0.094438 -0.17118 0.10184 -0.21365 0.19165 -0.11957 -0.033343 -0.047735 0.22463 0.11615 0.023303 -0.10722 0.11027 -0.49593 -0.52883 -0.27978 -0.11053 0.18995 0.21234 -0.14903 -0.16376 0.24029 -0.14059 -0.030103 -0.44097 -0.12549 -0.018898 0.16128 0.27545 -0.017789 0.030857 0.24681 -0.27699 0.37145 -0.11961 -0.073259 -0.0017935 0.10873 -0.20796 -0.2835 0.28557 0.25687 0.014947 0.022054 0.076066 -0.10966 -0.092942 0.3267 -0.13278 -0.067884 -0.60696 0.078486 0.15201 0.26878 0.21203 -0.28321 0.070016 0.013586 0.086829 0.3231 -0.21439 -0.15203 -0.050112 -0.50238 0.069402 -0.28693 0.24652 -0.22425 -0.18295 -0.0696 0.058564 -0.12554 -0.040827 0.016927 0.081475 0.17072 -0.44673 0.35063 -0.2444 0.49173 -0.11069 -0.13484 -0.42064 0.065341 -0.32333 0.06419 0.0066409 -0.51473 0.17098 -0.18055 0.28877 -0.19143 -0.099416 -0.30616 -0.016783 0.16376 -0.1044 -0.064468 -0.074063 -0.19087 0.61631 -0.15634 0.20493 -0.61474 0.1494 -0.090076 -0.090206 -0.10967 -0.11136 0.073793 0.19935 -0.072844 -0.10497 -0.13772 -0.023555 -0.10925 0.031424 -0.24266 0.20036 0.14507 0.23806 0.3249 0.4142 -0.41942 -0.022055 0.38858 0.13088 -0.2008 -0.11281 -0.054262 -0.3483 -0.20347 0.21482 0.30819 -0.012338 -0.12446 -0.075149 0.081156 0.071722 -0.1599 -0.12798 -0.094352 -0.11194 -0.3854 -0.34215 0.51131 0.18419 0.14445 0.25318 -0.12615 0.32808 0.2486 -0.307 0.041699 -0.036929 -0.16066 -0.11605 0.12063 -0.072801 0.15598 -0.39378 0.23624 0.00059174 -0.075886 -0.0029447 -0.11738 0.018029 0.21201 0.10114 -0.028945 -0.37265 -0.052067 
telephone -0.1981 0.039902 0.88258 0.10521 0.33497 -0.11063 -0.11486 0.2097 0.098456 -0.0862 -0.34196 -0.14897 0.076869 -0.17069 -0.063925 0.21934 -0.095047 0.47117 -0.26046 0.19572 0.17057 -0.12839 0.3104 -0.17301 0.043932 -0.23402 -0.011116 0.04408 -0.18288 -0.11193 -0.032909 -0.23512 0.2747 -0.64687 -0.0057789 -0.12871 0.25707 -0.22572 -0.32758 -0.44818 0.091708 -0.11381 0.50461 -0.031985 0.41974 -0.089627 -0.11989 0.38849 0.097164 0.13074 -0.15384 -0.38229 -0.094354 0.074598 -0.80723 0.062927 0.24755 -0.04435 -0.41255 0.3331 0.1367 -0.040211 0.435 -0.21474 -0.32646 -0.34115 0.59156 -0.41485 0.043242 -0.24437 -0.44497 -0.2248 -0.33585 -0.099977 -0.40042 0.05348 -0.023653 0.36514 0.041585 0.12098 0.1317 -0.35221 -0.26489 0.16513 0.44404 0.22245 -0.12575 -0.49733 0.41385 -0.09703 0.13589 -0.047379 -0.37055 -0.27206 -0.074839 0.052908 0.063813 -0.34629 0.40373 0.025839 -0.13088 -0.245 0.040421 -0.093387 0.084067 0.11109 -0.14058 0.44581 -0.11563 0.009866 -0.16945 0.11724 -0.23791 -0.087286 -0.13555 -0.22534 -0.20605 0.36872 -0.053239 0.11795 0.55163 0.12652 -0.079329 -0.2176 -0.022317 -0.28009 0.13385 -0.35287 0.065427 0.052689 -0.16569 -0.30841 -0.054119 0.038579 0.0072508 -0.046612 0.19423 0.1022 0.1144 -0.14484 -0.3684 -0.29797 -0.33949 -0.75617 0.13798 -0.038481 0.334 0.046505 0.30791 0.13804 -0.38408 -0.38178 0.068721 -0.091484 0.047865 0.19958 0.11339 -0.089459 0.028248 0.096442 -0.43849 0.12606 -0.16964 -0.042053 -0.29576 -0.017175 0.071521 -0.4208 0.076622 0.22104 0.08459 0.51121 0.10736 -0.16172 -0.020108 -0.23803 -0.13134 0.12189 -0.21945 0.045543 0.16582 -0.064705 0.03233 0.047914 0.00074656 -0.040075 0.12052 0.33592 0.035468 0.052092 0.26513 0.048721 -0.045392 -0.31106 0.29509 -0.016053 -0.16541 -0.11161 0.15268 -0.15929 0.21749 -0.14481 0.32822 -0.15298 -0.4087 0.29456 0.2565 0.42804 -0.39315 0.25971 -0.27536 0.21796 0.056765 0.23907 -0.23304 -0.44016 -0.018197 0.18845 0.17531 -0.46978 0.21996 0.072925 -0.39335 0.27538 -0.33345 0.074358 -0.027282 -0.24652 0.18513 -0.015603 0.2639 -0.08329 -0.20013 -0.046848 0.079421 -0.16743 -0.31673 -0.31478 0.083251 -0.18979 0.1715 -0.030305 0.099798 0.36185 0.084085 0.36491 -0.20315 0.1571 -0.27311 0.26695 0.23759 -0.026166 -0.15703 0.072006 0.48054 -0.0084409 -0.12255 0.11384 -0.60682 -0.082464 0.44259 -0.065353 0.19967 -0.10288 -0.13784 -0.36851 0.38711 -0.13758 0.097243 0.055181 0.19677 -0.17454 0.38837 0.10896 0.16048 0.22022 0.37128 0.062434 0.16484 -0.040176 -0.55825 0.16937 0.24903 -0.043406 0.052664 0.13363 0.32019 -0.27536 -0.051623 -0.14529 -0.23749 -0.35752 -0.0057981 0.31411 0.0014695 0.11673 0.19654 0.012685 -0.0012687 -0.13418 
communication 0.0091634 0.20513 0.11159 0.063941 -0.023225 0.17228 0.26924 -0.12668 0.12315 0.15326 -0.39245 0.12578 0.013524 -0.15822 -0.068016 0.27559 -0.1005 0.15382 -0.29511 0.12555 0.0064761 0.18129 0.048222 0.13519 -0.064788 -0.11248 0.28976 0.25785 -0.039158 -0.060625 -0.11733 -0.26744 0.13363 -0.1036 -0.23341 -0.29116 -0.20394 -0.12634 -0.38443 -0.4875 0.27509 -0.18817 0.45199 0.28799 0.17795 -0.052428 -0.049663 0.28355 0.036896 0.13365 -0.07072 0.051189 -0.2898 -0.13231 -0.27214 0.049856 0.23581 -0.12202 -0.33939 0.27894 -0.1886 0.063396 0.37394 -0.27276 -0.17818 -0.25527 0.2604 -0.013847 -0.06728 -0.0065415 -0.14804 -0.061953 0.017876 -0.10566 -0.10503 -0.27778 -0.21878 0.33609 -0.061737 0.31062 0.56945 -0.31358 0.10588 -0.075453 0.038802 0.2253 -0.036611 -0.57501 0.2534 0.06614 0.010005 0.10763 -0.064209 0.050493 -0.25677 -0.26105 0.19136 0.018455 0.17553 0.022823 0.14426 -0.22461 0.12378 0.026739 0.23369 0.13305 -0.40296 0.3629 -0.34095 0.018003 -0.22019 -0.14508 -0.06823 0.042449 -0.42032 -0.14507 0.28613 0.051547 -0.37164 0.30885 -0.16343 0.053921 -0.27162 0.052224 0.020019 -0.091752 -0.12358 -0.59076 -0.057887 0.018667 0.086589 -0.175 -0.14172 -0.12245 0.16403 0.028938 0.053104 0.33749 -0.017089 -0.12113 -0.2076 -0.28413 -0.32987 -0.61122 -0.33318 0.15731 0.20336 0.031838 -0.11872 -0.12281 -0.25177 -0.086813 0.10042 0.020327 0.16763 0.13637 -0.14654 -0.052567 -0.055698 0.11318 -0.02585 0.2549 -0.065811 -0.20839 0.10563 -0.053009 -0.31917 -0.19007 0.11627 -0.17397 -0.080565 0.18753 -0.0064316 0.16173 -0.27853 -0.20765 0.085787 0.2678 0.09464 -0.11298 0.40187 -0.155 -0.14001 -0.098987 0.23334 -0.26847 -0.27836 -0.097633 -0.24422 0.17187 0.29503 -0.02397 -0.22807 -0.37014 -0.031877 0.34532 0.032613 -0.24928 0.14446 -0.12877 0.098213 0.28137 0.15618 0.0083843 -0.2287 0.3944 0.10178 -0.092024 -0.21718 0.15514 0.25627 0.46926 -0.095847 -0.12004 -0.20634 -0.33319 -0.099666 0.3737 0.17352 -0.25703 0.2348 -0.13899 -0.46753 0.083102 -0.21683 -0.14026 0.12036 -0.10118 0.049128 0.053842 0.14732 0.097867 0.13982 -0.041981 0.11214 -0.17098 0.092791 -0.0066759 0.21263 -0.14726 -0.15738 0.057902 0.30201 0.68979 0.096156 0.27044 0.36316 0.19408 -0.15134 0.080572 0.26598 -0.16292 -0.14247 -0.028159 0.57394 -0.36821 0.12582 -0.10159 -0.0097972 -0.039793 0.26414 0.10002 0.13195 0.019415 -0.11153 -0.45295 0.081913 -0.33582 0.1614 -0.15346 0.058165 -0.33649 0.088368 -0.16178 0.34858 -0.005235 0.45438 0.30867 -0.02171 -0.036995 -0.29873 0.33536 0.3577 -0.065448 -0.13391 -0.053485 0.26472 0.093644 -0.30355 -0.00021269 -0.017493 -0.20881 -0.14986 0.22877 0.12269 -0.33612 -0.039541 -0.2578 0.17925 -0.10692 
television -0.15965 0.19725 -0.031103 0.16481 -0.28602 0.093152 0.19708 0.025199 0.35632 -0.21212 0.0014568 0.3514 0.34075 -0.23379 -0.35431 0.38418 -0.040143 0.051371 -0.17913 -0.2671 -0.16481 0.112 0.55491 -0.037542 0.15002 -0.50944 -0.37931 0.18379 -0.071631 -0.0062209 -0.45009 0.16378 -0.018509 -0.24563 0.083953 -0.22154 0.2096 -0.28484 0.093132 -0.23401 0.030187 -0.10533 -0.21099 0.008474 3.5872e-05 0.22935 -0.17907 0.086078 0.063972 0.33352 -0.23268 0.034283 -0.67445 0.13927 -0.3917 0.066973 0.18203 0.24322 -0.22789 0.44353 0.12659 0.12289 0.071201 -0.18052 0.039209 -0.31682 0.18411 -0.16271 -0.18962 0.29408 -0.21771 0.035597 -0.1644 -0.37708 -0.12715 -0.097778 -0.33043 -0.17045 0.50931 0.044619 0.24819 -0.10314 -0.07485 -0.2278 0.10574 -0.005132 0.016807 -0.054105 0.37325 -0.14176 -0.02062 0.43768 -0.18317 0.1183 -0.23485 0.10003 0.21453 -0.041099 0.32806 0.49005 0.086198 -0.38731 -0.11233 0.3262 0.0020137 0.33885 -0.32732 -0.20365 -0.21022 0.1866 0.11014 -0.30382 -0.23997 -0.016505 -0.31991 -0.13578 -0.28851 0.050661 -0.25568 -0.018113 0.20418 -0.12801 0.12734 -0.5045 0.080831 -0.01206 -0.011121 -0.28504 -0.11143 0.002135 0.045354 -0.30832 0.13234 -0.048293 -0.10074 0.082239 -0.057599 0.65703 -0.061169 -0.16194 -0.27816 -0.54155 -0.081105 -0.18044 -0.039187 -0.030378 0.072698 0.085822 0.45682 0.16484 -0.076242 -0.16956 -0.4576 0.02816 0.22684 0.26879 -0.15008 -0.080854 -0.095815 -0.25816 -0.077713 0.28354 0.068385 -0.28607 -0.14917 0.12115 -0.14574 -0.45512 0.085671 0.42639 -0.19029 0.17147 0.22789 -0.25035 -0.10011 0.21812 0.051291 -0.18871 -0.09942 0.24636 0.24628 0.0052998 -0.065848 -0.087487 0.043536 -0.18074 -0.053528 -0.010413 0.11829 0.14932 0.24077 -0.27696 -0.010372 0.17992 -0.32118 -0.1822 -0.43617 -0.30279 0.022465 0.079926 0.10355 0.2863 0.26116 0.21343 0.20782 0.44116 0.28343 0.040341 -0.14381 0.054099 0.21287 0.45443 -0.32974 0.49928 -0.049975 -0.43939 0.0017229 0.40993 0.026934 -0.23698 0.01016 0.3003 -0.26421 0.18183 -0.30605 -0.014948 -0.24198 0.15151 0.18249 0.19323 0.020036 -0.38009 -0.20795 0.1019 -0.11947 -0.11901 0.024493 0.14532 0.007859 0.25374 0.42245 0.086373 0.10188 0.4144 -0.23345 0.62439 0.39212 -0.17614 0.043173 -0.14933 -0.18791 -0.49541 0.23544 -0.092157 0.1275 0.34159 -0.5097 -0.042601 -0.26891 -0.16885 0.071408 0.071326 0.094374 0.040436 0.085168 -0.11228 0.017159 -0.054619 0.2546 0.24656 -0.21054 -0.24512 0.25193 0.041301 0.020558 -0.23985 0.12832 -0.17349 0.19633 0.21127 -0.24331 0.281 -0.084886 -0.084788 0.062383 0.11276 0.047136 0.19516 0.081869 -0.071395 0.13873 -0.13107 0.050088 0.16077 0.40513 -0.098666 0.33364 -0.051223 0.55612 -0.099786 
radio -0.12564 0.36795 -0.04902 0.10001 -0.11289 0.023914 -0.075773 0.23537 0.50616 0.12949 -0.15932 0.045003 0.37325 -0.15737 -0.53275 0.18932 -0.15993 0.124 -0.10109 -0.038714 -0.076961 -0.20027 0.62578 -0.042971 0.040343 -0.38227 0.034786 0.11606 -0.12268 -0.20223 -0.22077 0.1175 0.24744 -0.29973 0.038048 -0.24294 0.11872 -0.3398 -0.25161 -0.15496 0.045672 -0.40161 0.23027 -0.4664 -0.03387 0.17205 -0.17085 -0.013602 0.14455 -0.077222 -0.28113 -0.28437 -0.32184 0.13906 -0.43018 0.091212 0.17023 0.24644 -0.30504 0.00054022 0.13014 0.066689 0.1161 -0.066177 -0.13476 -0.43843 0.16797 -0.4306 -0.10796 0.21427 -0.6156 -0.01843 -0.055111 -0.37241 -0.079479 0.015805 -0.28886 0.0028888 0.32227 0.43891 0.30539 -0.2488 0.075551 0.11397 0.010322 0.24753 -0.22382 0.059776 0.037234 -0.042794 0.2809 0.11891 -0.10992 0.15732 0.12977 0.16016 0.3621 0.10823 0.45714 0.4016 0.23864 -0.46496 -0.13285 0.15322 0.030965 0.30178 -0.16567 -0.042907 -0.37305 0.18315 0.013499 -0.034604 0.081058 0.053235 -0.18992 -0.52896 -0.44835 0.070451 -0.24752 0.19936 0.30391 0.068257 0.074716 -0.1852 0.0051966 -0.23132 0.0067829 -0.22322 0.28348 0.39232 -0.073414 0.019246 0.077056 0.18204 -0.142 -0.1448 -0.0059527 0.52955 -0.28565 -0.2011 -0.25869 -0.15315 -0.31455 -0.17249 0.1318 -0.074717 0.26381 -0.003152 0.22454 -0.089249 -0.13768 -0.094309 -0.22688 -0.0054469 0.060421 0.14866 -0.14573 0.048688 -0.16808 0.00085055 -0.21969 0.42671 -0.13527 -0.10678 0.098543 0.31867 0.073976 -0.38008 0.11144 0.17587 0.036955 0.36542 0.10204 -0.27585 0.083455 0.18414 -0.2945 -0.34152 -0.087673 0.26263 0.42902 -0.06862 0.02156 0.050777 -0.090716 -0.15066 -0.23746 -0.10816 0.058412 0.26031 0.24799 -0.49579 -0.080219 -0.18338 -0.19201 -0.13083 -0.12592 -0.032653 0.048227 -0.019144 0.23296 0.1221 0.25373 0.27326 0.1988 0.51326 0.25914 0.37793 -0.12666 0.25473 0.24732 0.32739 -0.2162 0.29189 -0.0091472 -0.3937 -0.18509 0.381 0.20948 -0.060195 0.056043 0.11905 -0.51748 -0.011571 0.14693 0.11081 0.38679 -0.00019357 0.00019116 0.19488 -0.091109 -0.021521 -0.076402 0.061448 0.32249 0.0062949 -0.059246 -0.11603 -0.10668 0.055021 0.20221 -0.20453 0.42622 0.83289 0.087382 0.63332 0.033248 0.34702 -0.49835 0.078197 -0.23925 -0.15679 0.048425 0.05932 -0.022973 -0.083391 -0.42191 0.06198 -0.15849 -0.1229 0.26339 0.22119 0.16444 -0.13073 0.20126 -0.20851 0.15923 -0.15185 0.29273 -0.12819 -0.1161 -0.41978 -0.063951 -0.053137 0.080595 -0.31812 0.18119 -0.10703 0.14248 0.1497 -0.28877 0.50697 0.060173 -0.15684 0.17987 0.022696 -0.25325 0.058748 -0.23646 0.056506 0.044309 -0.36359 -0.06961 0.1073 0.028322 -0.012923 -0.085705 0.033437 0.34089 0.33526 
media -0.24228 0.26462 -0.2969 -0.15295 0.012723 0.12303 0.38926 -0.056858 0.23711 -0.062798 0.014694 0.26182 0.2033 0.19736 -0.32604 0.14483 -0.16523 -0.36501 -0.4358 -0.27675 0.089288 0.15287 0.099301 0.36218 -0.059972 -0.16342 -0.20428 0.46907 -0.15905 -0.15853 -0.10017 0.068945 -1.8994e-05 -0.37948 -0.043226 -0.11404 0.12749 -0.60204 0.0898 -0.54967 0.076978 -0.20522 0.32754 0.098814 -0.18653 -0.089386 -0.29401 -0.10191 -0.043924 -0.1313 -0.028488 0.052267 -0.21336 0.2393 -0.14539 0.37499 0.010424 0.21373 -0.34996 0.087052 -0.11695 0.010349 0.22705 -0.27135 -0.084099 -0.25846 0.21109 -0.11534 -0.21588 0.10185 0.032279 0.11312 -0.044738 -0.22614 -0.099708 -0.29157 -0.29347 0.19311 0.34061 -0.014043 0.11518 0.3261 -0.1681 0.013705 -0.12812 0.21362 -0.10929 0.12255 0.31028 0.0024565 -0.07449 0.12821 -0.33062 -0.42291 -0.28574 0.015126 0.39347 0.13181 0.079309 0.32349 0.060626 -0.24384 -0.39956 0.17015 -0.013756 0.60908 -0.30494 0.44367 -0.40116 -0.07095 -0.21308 -0.16726 0.10108 0.097384 -0.0056463 -0.46586 -0.12692 0.07084 -0.30198 -0.045953 -0.055394 0.003897 -0.002988 -0.12016 -0.061634 -0.22174 0.17061 -0.014096 0.22134 -0.036893 0.3046 -0.35027 -0.24526 -0.13585 0.053542 -0.16156 0.12438 0.23102 -0.22461 -0.04817 -0.014977 -0.31574 0.008499 -0.22501 -0.26932 0.10593 0.15776 0.047172 -0.036289 -0.032232 0.14996 -0.20392 0.031857 -0.19824 0.37001 0.15254 0.069792 0.12429 -0.19608 -0.29382 0.026914 0.16521 -0.028763 -0.065685 -0.10233 0.0080362 -0.47511 -0.00045472 0.14171 0.079958 0.30126 0.4282 0.46407 -0.39478 -0.172 0.11638 0.048419 0.062353 -0.40573 0.014062 0.22712 0.18909 0.070751 -0.085703 -0.091104 0.41326 -0.10757 -0.45678 0.23341 0.332 0.34712 -0.31419 -0.028885 0.15258 -0.10364 0.2835 -0.14746 -0.15071 -0.054258 0.10171 -0.0792 0.41173 0.092618 -0.073165 -0.050301 0.34778 0.11922 0.069771 -0.37927 0.055962 0.36941 0.28375 -0.2195 0.016163 -0.090944 -0.63088 -0.31362 0.30967 0.16481 -0.054052 0.63834 0.051901 -0.5631 0.055287 0.07951 -0.27215 -0.013362 -0.34372 0.39394 -0.25724 -0.14023 0.24365 -0.35034 0.046433 0.05623 -0.11899 0.090957 0.03506 -0.023219 -0.2533 0.20619 -0.12432 0.33607 0.43162 -0.013885 0.34574 0.33671 0.089206 -0.099752 -0.020004 0.27781 -0.28874 0.10808 -0.083829 0.16352 -0.017262 -0.13164 -0.067126 -0.050382 0.081499 0.36559 0.31302 -0.14881 0.23405 -0.070318 -0.3578 -0.16412 -0.18034 0.39643 0.069839 -0.11584 -0.39347 0.11801 -0.14508 0.15665 -0.14083 -0.11009 -0.1736 -0.15466 0.10926 -0.23068 0.25434 -0.034121 -0.054888 0.068392 0.07188 0.12313 0.26017 0.19828 0.25686 -0.2845 -0.24511 0.15531 0.39438 0.050864 -0.062769 -0.25228 -0.13042 0.45799 -0.11357 
radio -0.12564 0.36795 -0.04902 0.10001 -0.11289 0.023914 -0.075773 0.23537 0.50616 0.12949 -0.15932 0.045003 0.37325 -0.15737 -0.53275 0.18932 -0.15993 0.124 -0.10109 -0.038714 -0.076961 -0.20027 0.62578 -0.042971 0.040343 -0.38227 0.034786 0.11606 -0.12268 -0.20223 -0.22077 0.1175 0.24744 -0.29973 0.038048 -0.24294 0.11872 -0.3398 -0.25161 -0.15496 0.045672 -0.40161 0.23027 -0.4664 -0.03387 0.17205 -0.17085 -0.013602 0.14455 -0.077222 -0.28113 -0.28437 -0.32184 0.13906 -0.43018 0.091212 0.17023 0.24644 -0.30504 0.00054022 0.13014 0.066689 0.1161 -0.066177 -0.13476 -0.43843 0.16797 -0.4306 -0.10796 0.21427 -0.6156 -0.01843 -0.055111 -0.37241 -0.079479 0.015805 -0.28886 0.0028888 0.32227 0.43891 0.30539 -0.2488 0.075551 0.11397 0.010322 0.24753 -0.22382 0.059776 0.037234 -0.042794 0.2809 0.11891 -0.10992 0.15732 0.12977 0.16016 0.3621 0.10823 0.45714 0.4016 0.23864 -0.46496 -0.13285 0.15322 0.030965 0.30178 -0.16567 -0.042907 -0.37305 0.18315 0.013499 -0.034604 0.081058 0.053235 -0.18992 -0.52896 -0.44835 0.070451 -0.24752 0.19936 0.30391 0.068257 0.074716 -0.1852 0.0051966 -0.23132 0.0067829 -0.22322 0.28348 0.39232 -0.073414 0.019246 0.077056 0.18204 -0.142 -0.1448 -0.0059527 0.52955 -0.28565 -0.2011 -0.25869 -0.15315 -0.31455 -0.17249 0.1318 -0.074717 0.26381 -0.003152 0.22454 -0.089249 -0.13768 -0.094309 -0.22688 -0.0054469 0.060421 0.14866 -0.14573 0.048688 -0.16808 0.00085055 -0.21969 0.42671 -0.13527 -0.10678 0.098543 0.31867 0.073976 -0.38008 0.11144 0.17587 0.036955 0.36542 0.10204 -0.27585 0.083455 0.18414 -0.2945 -0.34152 -0.087673 0.26263 0.42902 -0.06862 0.02156 0.050777 -0.090716 -0.15066 -0.23746 -0.10816 0.058412 0.26031 0.24799 -0.49579 -0.080219 -0.18338 -0.19201 -0.13083 -0.12592 -0.032653 0.048227 -0.019144 0.23296 0.1221 0.25373 0.27326 0.1988 0.51326 0.25914 0.37793 -0.12666 0.25473 0.24732 0.32739 -0.2162 0.29189 -0.0091472 -0.3937 -0.18509 0.381 0.20948 -0.060195 0.056043 0.11905 -0.51748 -0.011571 0.14693 0.11081 0.38679 -0.00019357 0.00019116 0.19488 -0.091109 -0.021521 -0.076402 0.061448 0.32249 0.0062949 -0.059246 -0.11603 -0.10668 0.055021 0.20221 -0.20453 0.42622 0.83289 0.087382 0.63332 0.033248 0.34702 -0.49835 0.078197 -0.23925 -0.15679 0.048425 0.05932 -0.022973 -0.083391 -0.42191 0.06198 -0.15849 -0.1229 0.26339 0.22119 0.16444 -0.13073 0.20126 -0.20851 0.15923 -0.15185 0.29273 -0.12819 -0.1161 -0.41978 -0.063951 -0.053137 0.080595 -0.31812 0.18119 -0.10703 0.14248 0.1497 -0.28877 0.50697 0.060173 -0.15684 0.17987 0.022696 -0.25325 0.058748 -0.23646 0.056506 0.044309 -0.36359 -0.06961 0.1073 0.028322 -0.012923 -0.085705 0.033437 0.34089 0.33526 
drug -0.11543 0.11945 0.070101 -0.72078 -0.056588 -0.36128 0.39471 -0.13873 0.079324 -0.012537 0.13824 0.055119 -0.21063 -0.23136 -0.268 -0.011712 -0.11845 0.0097631 -0.19814 -0.53815 0.011144 -0.19872 0.47688 -0.31567 -0.39166 -0.14817 -0.39996 0.16194 -0.34712 -0.34603 -0.23175 -0.55425 0.38489 -0.11085 0.010009 -0.3656 0.11249 -0.10395 -0.080652 0.030124 0.064348 -0.31857 -0.034691 -0.39915 0.10074 -0.38374 -0.13656 -0.2187 -0.010912 0.07034 0.086832 -0.17147 0.075218 0.065073 -0.016451 0.29631 -0.2477 0.31523 -0.5663 0.63244 -0.13461 0.22487 0.16081 -0.051669 -0.38629 0.052415 0.17685 0.030181 -0.2021 0.031971 -0.076782 0.091873 0.068202 -0.73362 -0.090376 0.19026 0.2427 0.083097 0.061436 0.31909 0.16495 -0.46418 0.085564 -0.075154 0.041525 -0.39347 0.048619 -0.33 0.13172 -0.2667 -0.060111 -0.18225 -0.10209 0.42254 -0.29613 -0.15119 0.2256 0.13115 0.29499 -0.21444 -0.14039 -0.20829 0.24722 0.23676 0.094654 -0.0246 -0.2712 0.11573 -0.0069197 0.086542 -0.055895 -0.19134 0.19523 0.31146 0.15042 -0.01635 0.054723 -0.13005 0.345 0.0041792 0.42685 -0.32153 -0.44582 0.070843 0.24331 -0.34411 0.27513 -0.1593 0.25639 -0.27798 0.095659 -0.20776 0.14821 -0.019108 0.15642 0.17584 0.30084 0.29636 0.040703 -0.23162 -0.27043 -0.17073 -0.0525 -0.26899 0.11112 -0.24172 0.063843 -0.023414 0.18787 -0.18775 -0.05974 -0.2353 -0.084428 0.20597 0.32757 -0.0027392 0.36322 -0.12176 -0.11079 -0.31198 -0.16492 -0.010463 -0.33271 -0.14136 0.15247 -0.3752 -0.74413 -0.096059 0.062931 0.15118 -0.012543 0.22521 0.36523 0.21446 -0.19208 0.53167 -0.16848 -0.38452 -0.11629 0.0010895 0.1377 -0.057792 0.11844 -0.19536 -0.29293 -0.036694 0.030758 -0.14204 0.079041 -0.046003 -0.09449 -0.34289 -0.20594 -0.00051991 0.06998 0.17626 -0.52324 -0.20438 -0.18719 0.10001 0.15565 0.079065 0.36381 0.017621 -0.41715 0.14715 0.13884 0.38594 0.071988 -0.10498 0.011481 0.17046 -0.30624 0.18622 -0.072047 -0.31155 0.11471 0.23743 0.10416 -0.57707 -0.028817 -0.27189 -0.24445 0.026807 -0.39109 0.076137 -0.49745 -0.46424 0.41671 0.1502 0.21375 -0.22162 0.11773 -0.20324 -0.23202 -0.39002 0.32512 0.01891 -0.29029 0.30648 0.13292 0.025183 -0.3278 0.15263 0.053266 -0.16227 0.051943 0.29307 0.22332 0.076734 0.37681 0.30027 -0.34746 0.018608 0.088011 -0.19669 -0.0043544 0.002487 0.098189 -0.10865 0.51266 0.11986 -0.25546 -0.019587 -0.15833 0.040546 -0.058091 -0.26056 -0.30386 -0.49794 -0.11215 0.048899 0.057457 0.071871 0.086157 -0.42118 0.098093 -0.2836 0.15795 -0.05393 -0.014075 -0.018883 0.089186 -0.58714 0.11373 -0.31012 -0.031179 0.38548 -0.042032 -0.3118 0.23822 0.15805 0.02305 0.080253 -0.14374 0.1338 -0.24953 -0.0076406 -0.17385 0.27865 
abuse -0.31412 0.28339 0.12944 -0.15289 0.084585 0.044182 0.42574 -0.13492 0.27762 -0.076868 -0.20909 0.19978 -0.1066 0.21562 -0.15436 0.33992 -0.29987 -0.028851 -0.1067 -0.10817 -0.0061107 -0.17126 0.11116 -0.075475 -0.25006 -0.21456 0.06341 0.43613 -0.32723 -0.2271 -0.10332 -0.41608 0.35465 0.1778 0.10782 -0.51931 0.01867 -0.41061 0.0087009 -0.64812 -0.079937 -0.20514 0.034774 -0.21165 0.11297 -0.35201 -0.081595 -0.17046 -0.035862 -0.14635 -0.16321 -0.43216 -0.20801 -0.096823 0.13766 0.35991 0.13241 0.2207 -0.29041 0.3265 0.064693 0.32074 -0.27377 0.0020324 -0.36706 -0.20681 0.4588 0.15289 -0.42401 -0.17226 0.10273 -0.12601 -0.20772 -0.43113 -0.25706 -0.19431 -0.24796 -0.012096 0.04047 0.44842 -0.054122 -0.013249 0.21759 -0.015489 0.16448 -0.049263 -0.016396 -0.3908 0.20992 0.083612 0.069586 0.10052 0.28959 -0.031726 -0.43855 -0.32746 0.32439 0.10479 0.028246 -0.1415 0.3181 0.038767 0.29105 0.010243 0.065454 0.063643 -0.24583 -0.040764 -0.0039988 0.12171 0.19213 -0.37762 -0.10018 -0.069551 0.086327 -0.25966 -0.17824 0.039416 0.030702 0.084355 -0.072042 -0.031518 -0.016014 -0.11553 -0.06002 -0.13711 0.31113 -0.030231 0.10936 -0.19392 0.71173 -0.35245 0.13971 -0.037405 0.25939 -0.13448 0.19753 0.37976 0.014259 -0.27085 -0.53811 0.027802 0.16614 -0.36577 0.048227 -0.29358 -0.041043 0.14284 -0.058417 -0.12067 -0.23174 -0.6077 0.16748 0.21406 0.15742 0.10144 0.044166 -0.29457 0.23161 -0.29058 0.29351 0.17055 0.2931 -0.03711 0.24929 -0.012132 -0.82108 -0.21544 0.066156 0.09944 -0.089498 0.40203 0.011916 -0.07094 0.055124 0.2873 0.10844 -0.037006 -0.22141 -0.012646 0.054961 -0.017828 0.032568 -0.048593 0.27536 0.082632 -0.050503 -0.44014 -0.28325 -0.16515 -0.17619 -0.096658 0.0083653 0.11228 -0.03728 0.33193 -0.26428 -0.58584 -0.1909 0.40425 0.1527 -0.25237 0.39101 0.10672 -0.15376 0.1069 -0.35509 0.1669 0.084755 -0.12578 0.20935 0.30573 -0.33423 0.21779 -0.099934 -0.37394 0.070604 -0.14822 0.094557 -0.49978 0.42442 0.14481 -0.52264 -0.081869 -0.19705 -0.34432 -0.34454 -0.14431 0.39367 0.13269 0.3554 -0.24029 -0.097117 0.027798 -0.092617 -0.39794 0.078008 -0.14693 0.049502 -0.0056195 0.20415 0.31783 -0.051455 -0.014027 0.096228 0.019113 0.0027641 0.51247 -0.14233 0.52005 0.090119 0.40973 -0.18746 -0.27905 0.37422 -0.031897 0.0020409 0.042373 -0.10522 -0.064294 0.035607 0.24529 0.020399 -0.060922 -0.28035 0.21849 -0.027576 -0.18083 -0.27027 -0.25668 0.19594 0.49975 0.053253 0.16593 -0.10428 -0.02175 0.27318 0.026924 -0.12544 -0.17996 -0.13635 -0.17558 0.14795 -0.5508 0.14702 -0.38793 0.12972 0.016504 -0.096316 -0.15437 -0.23659 0.28852 0.2154 0.34381 -0.070787 -0.25627 -0.025416 -0.12007 0.11895 0.091528 
bread 0.058265 0.23517 -0.011272 0.37419 0.046773 0.25285 -0.16154 -0.070313 0.24031 -0.1277 -0.21112 0.1217 -0.10082 -0.15634 -0.17252 0.07491 0.050354 -0.062634 -0.66146 -0.30903 0.2457 -0.25659 0.35901 0.18221 0.065407 0.01037 -0.28954 -0.15502 -0.11762 0.4604 -0.034268 0.15327 -0.18674 -0.033129 -0.33479 -0.25949 -0.05561 -0.072708 0.14944 0.12271 -0.024271 0.072476 0.15315 -0.09212 0.14275 -0.25064 -0.30794 0.055417 0.49691 0.31452 -0.19104 -0.18704 0.050773 0.35944 -0.31521 0.23398 -0.10654 -0.043413 -0.096193 0.52879 -0.29735 0.059274 -0.24335 -0.43826 -0.062288 -0.24801 -0.10421 -0.045709 -0.1656 0.11792 -0.17016 0.16186 0.0050312 -0.28259 0.27334 -0.16647 0.29161 0.1208 0.40041 0.19556 -0.23335 0.14209 0.14339 0.12402 0.066892 0.30351 -0.1499 0.03452 0.18791 -0.69473 0.043382 -0.24712 0.14694 -0.10372 -0.27061 -0.24924 0.16976 0.14184 0.2854 0.098269 -0.002782 0.33514 0.2936 -0.036914 -0.33601 0.11365 -0.162 0.059042 -0.33647 -0.02333 0.16899 -0.17167 -0.12675 0.14375 -0.32308 -0.056019 -0.043297 -0.34745 0.16035 0.39607 0.29856 0.25676 0.024413 -0.17577 0.14633 -0.48472 0.35956 -0.1277 0.085367 -0.22662 -0.13856 -0.16157 -0.07843 0.1391 0.13855 -0.64614 -0.0056691 0.21727 0.14599 -0.38668 0.030276 -0.62291 0.01801 -0.43139 0.043692 0.27393 0.12295 -0.22274 -0.26527 -0.061145 0.06648 -0.17015 -0.16713 -0.48565 0.20422 -0.031012 -0.048388 -0.33522 -0.18127 0.13235 -0.077498 0.15891 -0.20933 -0.16164 0.12975 0.14868 -0.20883 0.034875 -0.20793 0.16139 0.27568 0.14479 0.19363 -0.27486 -0.15996 0.41879 -0.09446 -0.083081 -0.16833 -0.094784 0.31009 -0.34545 0.2287 -0.022708 0.02489 0.065483 0.024385 0.15236 -0.11106 0.048706 -0.094758 -0.0011713 0.069763 0.27846 -0.047195 -0.0087471 0.0078448 -0.35907 -0.047464 0.28434 0.33659 0.12087 0.16901 0.039158 -0.15982 0.33143 0.33028 0.12171 0.09393 0.026988 0.025964 -0.12936 -0.45767 0.47219 0.16825 -0.47276 -0.045776 -0.10813 -0.17664 -0.18504 -0.31693 -0.59664 -0.34829 -0.14617 -0.17686 -0.067655 -0.17419 0.077788 0.21945 0.38234 0.20993 -0.29409 -0.059694 0.19928 -0.082426 -0.090183 0.14826 -0.065017 0.10002 0.076597 0.34404 -0.17162 -0.058379 0.35636 0.068659 -0.23812 0.18008 -0.10108 0.37376 0.66082 0.27908 0.35619 0.098795 0.77208 0.028867 -0.040572 0.44225 0.12997 -0.43922 0.38478 0.087566 0.31111 0.064195 -0.24286 0.085621 -0.08523 0.22804 0.11837 0.3104 0.056776 0.15238 -0.24844 0.035347 0.21141 0.13583 0.12569 0.18096 0.29221 0.23736 -0.049185 0.064015 0.32177 -0.089715 -0.4317 0.068639 0.04156 -0.23958 -0.20047 -0.48089 0.20049 0.065911 -0.40397 0.26626 0.20342 0.28199 -0.32206 0.038867 -0.15795 0.0045284 -0.15249 
butter -0.10266 0.17901 0.022535 0.40866 0.13993 0.32479 -0.036466 -0.066715 0.067969 -0.20497 -0.15323 0.05711 -0.20663 -0.207 -0.30104 -0.17185 0.10077 -0.19334 -0.52814 -0.040272 0.2221 -0.15317 0.31903 0.25906 0.12697 -0.16381 -0.31988 -0.25697 0.0539 0.247 -0.087995 0.065166 -0.035681 -0.3705 -0.17185 -0.13066 0.10403 -0.023363 -0.0021174 0.15083 -0.30235 0.29696 0.085289 -0.12134 -0.066826 -0.16096 -0.24224 -0.31509 0.10393 0.13254 -0.17467 0.014085 -0.062802 0.38865 -0.52837 0.46023 -0.35281 -0.12147 -0.13843 0.66344 -0.46347 -0.16774 -0.068859 0.024088 0.14384 -0.38295 -0.034608 0.096186 -0.084913 0.027731 -0.028609 -0.0040086 0.025068 -0.1866 0.03531 -0.14505 0.37659 0.40815 0.10637 0.25553 -0.14247 0.044995 0.097457 0.023241 -0.10376 0.25399 -0.35312 -0.0066341 0.14325 -0.51645 0.13965 -0.1713 -0.090412 -0.061484 -0.36244 -0.43465 0.19886 0.037088 0.049066 0.26865 -0.050938 0.24646 0.077584 0.18335 -0.39924 0.31755 0.020795 -0.071897 -0.14992 -0.21325 0.081383 0.05675 -0.15583 0.010017 -0.10934 -0.097191 0.099701 -0.14938 0.17665 0.22724 0.45155 0.051573 -0.10935 -0.033959 0.015326 -0.45838 0.24435 -0.094381 0.30515 -0.10256 -0.025178 -0.2832 -0.013702 0.079644 0.029753 -0.57386 -0.025379 0.39528 0.11815 -0.11868 -0.26708 -0.67719 -0.12209 -0.42025 -0.1242 -0.060783 0.26944 -0.20015 -0.13545 -0.16749 0.13063 -0.18164 -0.14429 -0.27658 -0.04978 -0.058597 0.043727 -0.28093 -0.15999 0.091315 -0.22464 0.34404 -0.24794 -0.14124 -0.14581 -0.025866 -0.092245 0.30089 -0.16786 0.1187 0.35593 -0.022373 0.33147 -0.14927 0.036278 0.45783 0.10157 -0.19375 -0.28519 -0.088209 0.36954 -0.44791 -0.078022 0.080225 -0.045106 -0.24021 0.12739 0.15352 -0.049676 0.039951 -0.0056064 -0.092143 0.10406 0.31932 -0.24442 -0.044956 -0.16961 -0.43965 0.10237 0.15827 0.37402 -0.07928 0.1458 0.011261 -0.027108 0.29633 0.18258 0.020563 0.07224 0.068128 -0.0073459 0.16173 -0.41711 0.20758 0.027879 -0.54722 0.0062388 0.13392 -0.20634 -0.4592 -0.31931 -0.33911 -0.31693 -0.32002 0.17422 -0.14763 -0.32265 0.089307 0.22774 0.085919 0.16665 -0.3127 -0.13502 0.42388 -0.21861 -0.15068 0.22273 -0.1306 0.057104 -0.059462 0.4768 -0.31547 -0.056804 0.19481 -0.19844 -0.40558 0.17361 0.094044 0.46721 0.39472 0.13719 0.59718 -0.039783 0.82699 0.046387 -0.08421 0.63313 -0.033466 -0.24559 0.2908 0.41327 0.30658 -0.15487 -0.099498 0.091709 -0.17649 0.18689 0.12386 0.42606 -0.0091721 0.095217 -0.27365 0.026851 0.0082153 0.18569 0.057123 0.059492 0.2933 0.089651 -0.15274 0.34271 0.22372 0.053187 -0.48795 0.02493 0.013124 -0.090765 -0.4142 -0.24988 0.42319 0.0042413 -0.34016 0.26084 0.32826 0.15331 -0.077174 -0.21497 -0.27275 0.099856 -0.024349 
cucumber 0.017622 0.11047 -0.019024 0.58068 -0.065128 -0.070229 -0.071388 -0.26299 0.086755 -0.13529 -0.2655 0.025138 -0.16783 0.30214 -0.099433 0.2715 0.13327 -0.14479 -0.49952 0.0047546 -0.078778 -0.0058499 0.51704 0.16139 0.22015 0.1853 -0.37218 -0.64182 -0.17209 0.11252 0.1681 0.44832 -0.064013 -0.036923 -0.37564 -0.19394 -0.15094 -0.17315 0.013633 0.10164 -0.07413 -0.133 -0.14818 0.1446 0.21347 -0.060756 -0.026366 -0.0069044 0.25287 0.35551 -0.30479 0.025972 -0.27419 0.36449 -0.40342 0.60627 -0.049857 0.18158 -0.067372 0.51494 -0.3931 -0.20247 0.16046 -0.17089 0.30303 -0.54667 0.24282 0.21827 0.034843 0.38591 -0.23888 -0.12544 -0.54113 -0.54095 0.14068 -0.43901 0.49316 0.37017 0.42754 0.073627 0.040474 -0.082728 -0.12903 0.098183 -0.096841 0.1127 -0.18012 0.18129 -0.25545 -0.21119 0.22459 -0.23263 0.14712 0.30036 -0.43754 -0.0094795 0.27261 0.045237 0.60472 0.34824 -0.38733 0.15141 0.13918 -0.1536 -0.21905 0.016006 -0.19323 -0.18603 -0.025551 -0.40613 0.21885 -0.10524 -0.25443 0.060387 -0.0089888 0.012032 0.18129 -0.018714 -0.54237 0.36506 0.0052027 -0.31268 0.30757 0.13897 -0.097864 -0.37201 0.26856 0.040428 0.098453 0.23796 -0.45324 0.0089891 -0.21039 0.27084 -0.087076 -0.56015 0.14189 0.488 0.35302 0.078498 -0.14106 -0.18919 -0.24552 -0.52416 0.13025 0.095525 0.11053 -0.17913 0.078729 -0.21534 0.17855 -0.24285 0.088855 -0.18316 0.26754 0.051845 -0.22568 -0.17136 -0.017704 0.026704 -0.037581 0.20491 -0.041127 0.29952 0.37234 -0.024237 0.017835 0.044745 -0.12733 0.24005 0.022661 0.022758 -0.1724 -0.11803 0.15042 0.54314 -0.20431 -0.056168 -0.35479 -0.12214 0.43083 -0.25581 -0.050804 0.043872 0.025055 -0.058882 0.25065 0.19616 -0.032102 -0.11136 0.085742 0.16384 0.35572 0.43327 0.062458 0.027569 0.064877 -0.38158 0.34864 0.080439 0.17466 -0.14685 0.23542 -0.030402 -0.13245 0.18815 0.090768 0.059183 0.15841 -0.014964 -0.002776 -0.1194 0.0096197 -0.10575 0.27522 -0.75473 0.059549 0.0056255 0.12921 -0.36875 -0.1135 -0.054972 0.041432 -0.15078 -0.1064 -0.08548 -0.18652 -0.084767 0.38364 0.14036 0.14142 0.04414 -0.36481 0.40941 0.033545 -0.37338 0.13172 0.01942 -0.22502 -0.0073175 0.042632 0.053985 0.021824 0.33847 -0.36627 -0.16684 0.3389 0.10059 0.42593 0.71403 0.47499 0.069652 -0.37723 0.37574 0.019367 0.05257 0.44593 0.35082 0.079115 -0.13656 -0.090969 0.43223 -0.045316 -0.113 -0.14317 -0.35406 0.33665 -0.28755 0.17431 -0.088551 0.01611 -0.3422 0.10289 -0.10901 -0.58084 0.17739 0.29872 0.16589 -0.20276 -0.069795 0.19247 0.04663 -0.30568 -0.13207 0.0055233 0.026548 -0.24467 -0.16079 -0.15912 0.1823 -0.024806 -0.21881 0.36974 -0.11257 0.059118 -0.19262 0.051425 -0.063357 0.20143 -0.18714 
potato 0.12607 0.016846 -0.19625 0.39861 0.1147 0.3525 -0.055117 -0.022788 -0.006998 -0.25064 -0.081592 0.10666 -0.17501 -0.019095 -0.057224 -0.27137 0.079618 -0.16371 -0.59771 -0.030148 0.096597 -0.22365 0.57011 -0.12427 0.06275 -0.12326 -0.23455 -0.48766 -0.12508 -0.04808 -0.27003 0.19864 0.00098877 -0.42619 -0.25638 0.10547 0.23439 -0.14515 0.15668 0.18132 -0.15063 0.18968 0.024987 0.034047 0.083021 -0.039311 -0.18243 -0.056011 0.13319 0.31367 0.040277 -0.16306 0.2059 0.42152 -0.15217 0.3263 -0.19334 0.10073 -0.25327 0.38876 -0.10955 -0.025557 -0.076081 -0.24366 0.15543 -0.29148 0.16546 -0.082178 0.06553 0.33534 -0.31435 0.0077123 -0.5136 -0.484 -0.1088 -0.30394 0.2256 0.41161 0.43201 0.21182 -0.10681 0.20682 0.17829 -0.060432 0.25912 0.093791 -0.053632 0.11265 -0.017873 -0.39032 -0.003941 -0.17828 0.1324 -0.049707 -0.61644 -0.23167 0.24228 0.21064 0.21122 0.19039 -0.36787 0.086733 0.069266 0.11535 -0.11194 0.34945 0.032252 -0.26259 -0.35452 -0.074737 0.031422 0.03515 -0.03211 0.18266 -0.21627 0.082797 0.20211 -0.030995 0.15203 0.31944 0.64881 0.067269 0.57525 0.013895 -0.051961 -0.52283 0.10289 -0.11476 -0.096431 -0.053046 -0.31699 -0.020123 0.15948 0.251 -0.001395 -0.5447 0.052668 0.14471 0.15007 -0.011744 -0.17667 -0.60261 -0.16089 -0.63735 -0.14788 -0.16038 0.13985 -0.19727 -0.088498 -0.19976 0.18405 -0.2858 -0.039928 -0.25744 0.24909 -0.19008 -0.19509 -0.1291 0.088254 0.39288 -0.080426 0.33272 -0.16701 0.17598 0.018401 0.13449 0.026943 0.0012668 -0.21783 0.2753 0.32712 -0.0099355 0.063347 -0.17449 0.1156 0.1447 0.053078 0.099345 -0.41172 0.16133 0.29744 -0.23992 0.096318 -0.16006 0.061789 -0.21144 0.28083 0.41445 0.0072744 0.051961 0.31412 0.10934 0.20976 0.23764 0.035687 -0.090019 -0.23214 -0.38867 0.15548 0.18222 0.3735 0.073512 0.18423 0.030269 0.089511 0.28814 0.18115 0.3901 0.42716 -0.11251 0.045347 0.22714 -0.32594 0.17486 -0.03663 -0.57378 -0.1735 0.43678 -0.20297 -0.29922 -0.17841 -0.37688 -0.16698 -0.36331 0.1635 0.016553 -0.13687 0.173 0.39529 -0.07709 -0.020006 0.10926 -0.17006 0.36216 -0.21476 -0.15044 0.012922 -0.24468 -0.17053 -0.021212 0.097295 -0.30634 0.077469 0.46017 -0.2546 -0.1559 0.31975 0.21205 0.48435 0.72592 0.5488 0.31324 -0.11084 0.35782 0.074833 -0.023139 0.52002 0.11858 -0.0051594 -0.004364 0.14057 0.12289 -0.08373 -0.2329 -0.26167 -0.10878 0.071717 -0.14951 0.1621 -0.18745 0.013903 -0.33209 -0.23144 0.02942 -0.23263 0.026671 0.087301 0.18369 0.13992 -0.22113 0.11023 0.34126 -0.21942 -0.54131 0.18269 0.061801 -0.17322 -0.23159 -0.25964 0.12979 0.31544 -0.31064 0.21584 0.10419 0.036671 -0.39481 -0.03128 -0.18357 0.26216 -0.10804 
doctor 0.33867 -0.050972 -0.25518 0.15888 -0.009621 0.10121 -0.072046 0.078713 0.0080401 0.054952 -0.037532 0.31772 -0.019493 -0.30734 -0.144 0.18486 -0.27862 0.038685 -0.0075357 -0.31892 -0.0076651 0.20908 0.30954 -0.054761 -0.12397 -0.30613 -0.2423 0.08953 -0.15834 -0.065254 -0.0014925 -0.020625 0.13983 -0.05375 0.27138 -0.1177 -0.021044 -0.12934 0.092419 0.0061312 0.4541 0.16772 0.086539 0.22005 -0.097026 0.19721 0.05717 -0.17685 -0.029606 0.25886 0.14107 0.094426 -0.041338 0.0058887 -0.30625 0.20283 -0.13101 0.25168 -0.48333 0.37337 0.033799 -0.16538 -0.14063 0.31598 -0.28859 -0.058134 0.054536 -0.24575 -0.59909 -0.27959 -0.085724 0.22234 -0.15033 -0.51678 0.096076 0.038843 0.13324 -0.05594 0.56821 0.29419 0.10998 -0.071299 -0.21685 -0.23811 0.31693 0.26975 0.15133 -0.13071 0.17692 0.0094917 0.19148 0.48037 -0.25175 -0.033886 -0.13071 -0.065515 0.38705 0.14054 0.48557 0.42383 0.11171 -0.0058861 0.12945 0.23228 0.19172 -0.090452 -0.45665 0.28618 0.053472 -0.032437 0.049796 -0.25148 -0.34284 0.15449 0.0075216 -0.17328 0.027166 -0.053256 0.10767 0.081733 0.3758 -0.14223 -0.24758 -0.11241 0.13884 -0.35197 -0.047208 -0.032009 -0.041527 0.30598 -0.092163 0.23878 0.13835 0.098701 0.072349 -0.16372 0.13378 0.066673 0.025266 -0.080509 0.28314 -0.16408 -0.13522 -0.60627 0.21073 0.085029 0.27049 -0.215 0.19694 0.065176 0.17909 -0.45788 0.02654 -0.00054375 0.099672 0.19293 0.070753 0.057492 0.00077395 -0.044947 -0.11413 0.008653 0.11615 0.067082 0.35922 -0.30701 0.14003 -0.15548 0.21824 0.28291 -0.10651 0.10734 -0.60337 -0.22923 -0.02341 0.25741 0.059415 0.22829 -0.095474 0.15708 0.21486 0.095552 0.029936 -0.44435 -0.2672 -0.045095 -0.16943 0.11505 -0.054154 0.041385 -0.0040417 -0.10689 -0.13473 -0.19853 -0.11932 0.29045 -0.0962 -0.14371 -0.1112 0.013736 0.28626 0.31518 0.4921 0.072447 -0.1065 0.58449 -0.19961 0.028449 0.2765 0.3124 0.065129 0.063185 -0.1217 0.20372 0.10592 -0.052555 0.1187 0.25551 -0.11946 -0.1529 -0.20059 0.049762 -0.067409 0.2139 -0.39715 -0.17431 -0.47019 -0.31136 0.015662 0.018834 0.2428 -0.39161 -0.010878 -0.18445 0.31482 0.19346 -0.2223 0.066862 -0.37427 -0.0044972 0.41881 0.093386 0.099377 0.01716 0.21402 0.10525 0.13735 0.27408 0.23591 0.44284 -0.082368 -0.21181 -0.19923 -0.23629 0.31943 -0.13227 -0.21406 -0.42579 -0.17992 -0.014504 0.18472 0.45927 0.26016 0.084224 0.23094 -0.44358 -0.066833 0.0042943 0.28394 -0.29649 -0.14047 0.013366 0.059229 0.1472 0.17398 -0.31244 0.52669 0.22851 -0.0023347 -0.1265 0.0078647 -0.16442 0.34483 -0.14681 0.30122 0.091813 -0.17527 0.52167 -0.13043 0.16931 -0.24768 -0.15494 -0.10447 -0.025307 0.33861 0.043454 0.31058 0.063025 0.10826 0.25132 
nurse 0.36619 0.21203 0.04834 -0.030699 -0.11848 -0.31032 -0.0076045 -0.036338 0.12431 -0.21548 0.28067 0.27795 0.029504 -0.28312 -0.27968 0.47062 -0.32824 -0.10072 -0.16809 -0.079658 0.16051 0.065389 0.11428 -0.39753 0.0027519 -0.31614 -0.44743 0.16607 -0.15252 -0.22101 0.097881 -0.15965 0.16505 -0.0030823 0.19356 0.017166 -0.00096191 0.1675 0.10413 -0.16405 0.52107 0.096976 0.2193 -0.075854 -0.055238 0.11726 0.026314 0.10335 -0.28407 0.23137 0.44083 -0.24651 -0.14828 -0.25752 -0.42873 -0.067703 0.016179 0.4093 -0.25489 0.45549 0.030211 -0.58825 -0.22443 0.15693 0.071306 -0.42941 0.33234 0.0077144 -0.60755 -0.18117 -0.26124 -0.022904 -0.17834 -0.34993 0.10449 0.067715 -0.018005 0.03792 0.14261 0.28474 0.43502 -0.11687 0.05793 -0.2963 0.013879 0.16578 0.27503 -0.16816 0.4666 0.30414 0.25168 0.39878 -0.28081 -0.39273 0.077666 -0.029646 0.39134 -0.027725 0.14827 0.1505 0.15424 0.016509 0.15473 0.11558 -0.035767 -0.045946 0.048691 0.010392 -0.057405 0.021173 0.064987 -0.22798 -0.40956 -0.13299 0.12682 -0.217 -0.055356 0.096284 -0.086776 0.053814 0.36368 -0.20941 -0.059023 -0.022695 0.20855 -0.41983 0.1294 -0.27366 0.18667 -0.006417 0.17707 0.096705 0.19611 0.18206 -0.32686 -0.4039 0.61479 0.083241 0.1732 -0.13263 -0.019465 0.11703 0.019063 -0.63634 0.030647 0.22539 0.066017 0.12025 0.33711 0.070797 0.010064 -0.30874 -0.18784 -0.081722 0.2159 0.017671 -0.16384 -0.027957 -0.0011234 -0.074801 0.018325 0.042386 -0.29308 0.051826 0.2158 -0.62775 0.078863 -0.052234 -0.11282 0.17653 0.023358 -0.15401 -0.26396 -0.27336 -0.098784 0.12813 -0.25452 -0.11353 0.12564 -0.053285 0.57619 -0.29678 -0.22584 -0.27974 0.070423 -0.39551 -0.16588 0.17146 -0.096412 -0.19295 -0.20967 0.2132 -0.032506 -0.23384 -0.14095 0.12173 -0.60422 -0.0036628 -0.02795 0.28875 0.16104 0.35742 0.61844 0.10381 -0.52197 0.27033 -0.19028 0.083184 -0.1415 -0.023231 0.36905 0.14601 -0.20908 -0.072356 -0.15613 -0.4611 0.074008 -0.011307 0.037891 -0.14439 -0.0067046 -0.10249 -0.36041 0.10417 -0.2252 -0.081912 -0.26216 -0.35278 0.019142 -0.077243 -0.10859 -0.45563 0.30001 0.27464 0.11137 0.084229 -0.1871 -0.22642 -0.17337 -0.30054 0.34583 0.20677 0.10907 -0.12441 0.11398 0.048159 -0.058858 0.24114 0.082682 0.33152 0.031169 -0.032229 0.087051 0.16235 -0.016635 -0.030849 0.091466 0.11584 -0.11646 -0.11465 0.16838 0.23286 -0.24975 0.006602 0.011402 -0.3643 -0.047801 0.24979 0.31961 -0.31149 0.11983 -0.020159 -0.027775 0.35975 0.12494 -0.062012 0.4975 -0.039 0.098957 -0.048957 0.093511 -0.21754 0.47214 -0.2759 0.45289 -0.17923 -0.073216 0.097857 -0.12698 0.11323 -0.11307 -0.1653 0.11139 0.45264 0.24056 -0.14428 0.12653 -0.048288 -0.012403 -0.22291 
professor 0.41597 0.015981 -0.60778 -0.080255 -0.25319 -0.042565 -0.24024 -0.26493 0.038586 -0.00096982 0.15678 0.01367 0.32562 -0.12043 -0.43603 0.30195 -0.15567 -0.16286 0.16023 -0.31125 0.06444 0.45333 0.31439 0.12836 0.23047 -0.040537 -0.013145 0.25072 -0.007341 0.017575 -0.15944 -0.0091832 0.14653 0.054183 -0.25938 -0.081621 0.026192 -0.0944 -0.32095 0.084334 0.086835 0.16857 0.17693 -0.096978 0.0088616 -0.31495 0.0027175 0.030518 -0.0075874 0.23884 0.0595 0.17236 0.064498 0.24172 -0.037429 0.15314 -0.024781 0.39155 -0.077463 0.30653 0.25771 0.003247 -0.0076662 -0.11919 0.027026 -0.33622 -0.023273 0.011289 -0.73952 -0.37315 -0.15241 0.012505 -0.16937 -0.18427 0.28206 -0.31309 0.084353 0.44078 0.29757 0.15557 0.23728 -0.09945 0.1351 -0.47039 0.059138 0.056275 -0.048919 -0.23908 0.10482 -0.0027421 0.29938 0.27455 -0.17621 -0.59902 -0.14709 -0.0086736 0.36957 0.060228 0.2635 0.2163 0.20147 -0.42839 -0.12586 0.11188 -0.12448 -0.12429 -0.36349 0.31119 -0.11086 -0.02504 -0.10286 -0.40913 -0.073333 -0.019324 -0.30483 -0.031163 0.11016 -0.25934 0.18468 0.16755 0.19596 -0.050188 -0.053665 -0.55556 0.22781 -0.12343 -0.034435 -0.14781 0.037902 0.17703 -0.0074255 0.28246 0.20242 0.27122 -0.012742 -0.09956 0.093515 -0.27102 0.11361 0.081272 0.1476 -0.042122 -0.096543 -0.63368 -0.38237 0.08654 0.049088 -0.38937 -0.015232 0.14025 0.047234 0.0064135 0.062625 -0.062962 0.12635 -0.14279 -0.32171 0.44299 -0.057876 0.10986 0.25691 -0.066745 0.34395 -0.29099 0.5347 -0.042473 -0.021497 0.059445 0.45035 -0.049767 0.30394 0.12897 -0.6909 0.1245 0.12284 0.17623 -0.0021698 0.16592 -0.16301 0.12272 0.27653 0.069761 -0.0080437 -0.50211 -0.54538 -0.039434 -0.50371 0.16317 -0.11712 -0.2551 0.28399 -0.1627 -0.013911 -0.15188 -0.036954 0.093722 -0.15077 -0.23002 0.1214 0.30379 0.36365 0.19911 0.39397 -0.039552 -0.28648 0.36248 -0.1655 0.1803 0.19047 0.13019 -0.25165 0.43132 -0.066197 0.034948 -0.24175 0.31684 -0.12806 0.091358 0.11868 -0.32663 -0.059891 0.26161 -0.29995 -0.15879 -0.13829 0.1548 -0.084074 0.12492 0.33344 0.37127 0.3417 -0.21983 -0.014117 -0.025925 0.45262 -0.30667 0.050823 -0.15115 -0.10008 -0.083475 0.16659 0.1017 0.1986 0.11213 0.16135 0.17123 0.32325 0.28363 0.038139 0.27393 -0.017038 -0.23903 0.049934 -0.17793 0.08623 -0.074983 0.061393 -0.36061 -0.18019 0.0493 0.033272 0.34855 -0.27298 0.12311 -0.11358 -0.75032 -0.21055 0.24091 0.073599 0.10791 -0.28772 0.26021 -0.11107 0.46626 0.37382 -0.25272 0.47188 0.28336 -0.072728 -0.37274 -0.13585 0.1322 0.1341 -0.025071 0.17358 -0.18272 0.045271 0.12104 0.081267 0.26334 -0.16143 -0.28497 -0.11435 0.073124 0.049023 -0.43329 0.056486 0.29235 -0.080666 0.085266 
doctor 0.33867 -0.050972 -0.25518 0.15888 -0.009621 0.10121 -0.072046 0.078713 0.0080401 0.054952 -0.037532 0.31772 -0.019493 -0.30734 -0.144 0.18486 -0.27862 0.038685 -0.0075357 -0.31892 -0.0076651 0.20908 0.30954 -0.054761 -0.12397 -0.30613 -0.2423 0.08953 -0.15834 -0.065254 -0.0014925 -0.020625 0.13983 -0.05375 0.27138 -0.1177 -0.021044 -0.12934 0.092419 0.0061312 0.4541 0.16772 0.086539 0.22005 -0.097026 0.19721 0.05717 -0.17685 -0.029606 0.25886 0.14107 0.094426 -0.041338 0.0058887 -0.30625 0.20283 -0.13101 0.25168 -0.48333 0.37337 0.033799 -0.16538 -0.14063 0.31598 -0.28859 -0.058134 0.054536 -0.24575 -0.59909 -0.27959 -0.085724 0.22234 -0.15033 -0.51678 0.096076 0.038843 0.13324 -0.05594 0.56821 0.29419 0.10998 -0.071299 -0.21685 -0.23811 0.31693 0.26975 0.15133 -0.13071 0.17692 0.0094917 0.19148 0.48037 -0.25175 -0.033886 -0.13071 -0.065515 0.38705 0.14054 0.48557 0.42383 0.11171 -0.0058861 0.12945 0.23228 0.19172 -0.090452 -0.45665 0.28618 0.053472 -0.032437 0.049796 -0.25148 -0.34284 0.15449 0.0075216 -0.17328 0.027166 -0.053256 0.10767 0.081733 0.3758 -0.14223 -0.24758 -0.11241 0.13884 -0.35197 -0.047208 -0.032009 -0.041527 0.30598 -0.092163 0.23878 0.13835 0.098701 0.072349 -0.16372 0.13378 0.066673 0.025266 -0.080509 0.28314 -0.16408 -0.13522 -0.60627 0.21073 0.085029 0.27049 -0.215 0.19694 0.065176 0.17909 -0.45788 0.02654 -0.00054375 0.099672 0.19293 0.070753 0.057492 0.00077395 -0.044947 -0.11413 0.008653 0.11615 0.067082 0.35922 -0.30701 0.14003 -0.15548 0.21824 0.28291 -0.10651 0.10734 -0.60337 -0.22923 -0.02341 0.25741 0.059415 0.22829 -0.095474 0.15708 0.21486 0.095552 0.029936 -0.44435 -0.2672 -0.045095 -0.16943 0.11505 -0.054154 0.041385 -0.0040417 -0.10689 -0.13473 -0.19853 -0.11932 0.29045 -0.0962 -0.14371 -0.1112 0.013736 0.28626 0.31518 0.4921 0.072447 -0.1065 0.58449 -0.19961 0.028449 0.2765 0.3124 0.065129 0.063185 -0.1217 0.20372 0.10592 -0.052555 0.1187 0.25551 -0.11946 -0.1529 -0.20059 0.049762 -0.067409 0.2139 -0.39715 -0.17431 -0.47019 -0.31136 0.015662 0.018834 0.2428 -0.39161 -0.010878 -0.18445 0.31482 0.19346 -0.2223 0.066862 -0.37427 -0.0044972 0.41881 0.093386 0.099377 0.01716 0.21402 0.10525 0.13735 0.27408 0.23591 0.44284 -0.082368 -0.21181 -0.19923 -0.23629 0.31943 -0.13227 -0.21406 -0.42579 -0.17992 -0.014504 0.18472 0.45927 0.26016 0.084224 0.23094 -0.44358 -0.066833 0.0042943 0.28394 -0.29649 -0.14047 0.013366 0.059229 0.1472 0.17398 -0.31244 0.52669 0.22851 -0.0023347 -0.1265 0.0078647 -0.16442 0.34483 -0.14681 0.30122 0.091813 -0.17527 0.52167 -0.13043 0.16931 -0.24768 -0.15494 -0.10447 -0.025307 0.33861 0.043454 0.31058 0.063025 0.10826 0.25132 
student 0.3731 0.21977 -0.46373 0.085291 -0.15444 -0.053837 -0.0001025 -0.011405 0.018934 0.0099087 -0.15847 0.0041842 -0.20157 -0.16457 -0.12841 0.19657 -0.28212 -0.031765 -0.26982 -0.10835 0.13431 0.476 0.45521 0.46979 0.017891 0.1124 0.12803 0.25431 -0.24686 -0.057224 -0.072678 -0.11463 0.29705 0.15293 -0.12953 -0.22064 -0.28076 -0.043187 -0.1918 -0.5488 0.088688 0.070344 0.27406 0.022317 -0.13585 -0.16453 0.040653 0.1251 -0.070776 -0.10583 0.14188 0.1128 -0.063693 -0.1281 0.11894 -0.091301 0.043177 0.38878 -0.37498 0.22734 -0.11109 0.040365 -0.018751 -0.15058 -0.051223 -0.080269 -0.25719 -0.27176 -0.29523 -0.17759 -0.28674 -0.15532 0.021517 -0.29023 -0.26396 -0.083194 -0.17828 0.11178 0.25781 0.58627 0.1451 -0.23246 0.033222 0.10192 0.12019 0.021795 0.27153 -0.12504 0.36907 0.029296 0.0017575 -0.060226 0.046352 -0.36516 0.092308 0.14821 0.24351 -0.44836 0.13364 0.03178 0.18818 -0.29223 -0.21357 0.11232 -0.24153 -0.10764 -0.26723 -0.28066 -0.2776 0.020509 -0.43229 -0.079799 -0.0099868 0.010631 -0.031014 -0.057233 -0.18402 -0.12868 -0.097756 -0.053716 0.13473 -0.028009 0.0029162 -0.20656 0.14716 -0.4058 -0.076087 -0.028678 0.2528 0.083207 0.20875 0.032404 0.15224 0.070079 0.12145 -0.064697 0.058612 0.014212 -0.027535 0.0077307 0.068263 -0.23993 -0.15929 -0.20075 -0.17651 -0.061246 0.25007 0.0084765 0.073948 0.327 -0.12141 -0.21065 0.11908 -0.22343 0.031548 -0.026311 0.080823 0.13013 -0.12385 0.23653 -0.13238 0.15865 -0.10079 -0.19013 0.13648 -0.041516 -0.42827 -0.38234 -0.0071933 -0.1355 0.33422 -0.078547 0.042487 -0.25981 -0.18705 0.10603 0.0409 0.17223 0.012236 -0.013603 0.56014 -0.2871 -0.092979 -0.22078 -0.25961 0.060249 -0.48834 0.059014 -0.19265 -0.11347 0.051326 -0.032238 -0.020375 -0.43251 0.16672 -0.020567 -0.34842 0.026934 -0.025536 0.54079 0.17619 0.37277 0.43593 -0.1902 -0.24686 0.2192 -0.053068 0.32634 -0.057933 0.30872 -0.14366 0.29295 0.13454 0.50807 0.26819 -0.20042 -0.0010376 -0.17777 0.51889 -0.10104 -0.1297 -0.040743 -0.13185 0.10144 -0.20747 0.016 -0.40493 -0.37599 0.13501 0.06295 0.15755 -0.071333 -0.1046 -0.063578 0.28295 -0.45361 0.010307 -0.24657 0.14241 -0.21952 -0.25725 0.069339 -0.23352 0.44187 0.23961 0.081938 0.14875 0.24149 0.14124 0.030678 -0.13888 -0.16648 0.0024927 -0.15112 -0.096396 0.079481 0.10532 0.12041 -0.042742 -0.076944 0.10892 0.33858 -0.22995 0.021348 0.10704 -0.50199 0.1751 0.20474 0.35284 0.22145 -0.08972 -0.12252 -0.084907 0.15884 -0.00095971 -0.05834 0.1802 -0.14823 0.11648 -0.24006 -0.069319 0.13276 0.30482 0.018498 0.39085 -0.045731 -0.20198 0.31439 0.0067034 0.066309 -0.33628 -0.37079 0.17479 0.071787 0.12216 -0.54708 -0.07404 0.16191 -0.0394 -0.2641 
professor 0.41597 0.015981 -0.60778 -0.080255 -0.25319 -0.042565 -0.24024 -0.26493 0.038586 -0.00096982 0.15678 0.01367 0.32562 -0.12043 -0.43603 0.30195 -0.15567 -0.16286 0.16023 -0.31125 0.06444 0.45333 0.31439 0.12836 0.23047 -0.040537 -0.013145 0.25072 -0.007341 0.017575 -0.15944 -0.0091832 0.14653 0.054183 -0.25938 -0.081621 0.026192 -0.0944 -0.32095 0.084334 0.086835 0.16857 0.17693 -0.096978 0.0088616 -0.31495 0.0027175 0.030518 -0.0075874 0.23884 0.0595 0.17236 0.064498 0.24172 -0.037429 0.15314 -0.024781 0.39155 -0.077463 0.30653 0.25771 0.003247 -0.0076662 -0.11919 0.027026 -0.33622 -0.023273 0.011289 -0.73952 -0.37315 -0.15241 0.012505 -0.16937 -0.18427 0.28206 -0.31309 0.084353 0.44078 0.29757 0.15557 0.23728 -0.09945 0.1351 -0.47039 0.059138 0.056275 -0.048919 -0.23908 0.10482 -0.0027421 0.29938 0.27455 -0.17621 -0.59902 -0.14709 -0.0086736 0.36957 0.060228 0.2635 0.2163 0.20147 -0.42839 -0.12586 0.11188 -0.12448 -0.12429 -0.36349 0.31119 -0.11086 -0.02504 -0.10286 -0.40913 -0.073333 -0.019324 -0.30483 -0.031163 0.11016 -0.25934 0.18468 0.16755 0.19596 -0.050188 -0.053665 -0.55556 0.22781 -0.12343 -0.034435 -0.14781 0.037902 0.17703 -0.0074255 0.28246 0.20242 0.27122 -0.012742 -0.09956 0.093515 -0.27102 0.11361 0.081272 0.1476 -0.042122 -0.096543 -0.63368 -0.38237 0.08654 0.049088 -0.38937 -0.015232 0.14025 0.047234 0.0064135 0.062625 -0.062962 0.12635 -0.14279 -0.32171 0.44299 -0.057876 0.10986 0.25691 -0.066745 0.34395 -0.29099 0.5347 -0.042473 -0.021497 0.059445 0.45035 -0.049767 0.30394 0.12897 -0.6909 0.1245 0.12284 0.17623 -0.0021698 0.16592 -0.16301 0.12272 0.27653 0.069761 -0.0080437 -0.50211 -0.54538 -0.039434 -0.50371 0.16317 -0.11712 -0.2551 0.28399 -0.1627 -0.013911 -0.15188 -0.036954 0.093722 -0.15077 -0.23002 0.1214 0.30379 0.36365 0.19911 0.39397 -0.039552 -0.28648 0.36248 -0.1655 0.1803 0.19047 0.13019 -0.25165 0.43132 -0.066197 0.034948 -0.24175 0.31684 -0.12806 0.091358 0.11868 -0.32663 -0.059891 0.26161 -0.29995 -0.15879 -0.13829 0.1548 -0.084074 0.12492 0.33344 0.37127 0.3417 -0.21983 -0.014117 -0.025925 0.45262 -0.30667 0.050823 -0.15115 -0.10008 -0.083475 0.16659 0.1017 0.1986 0.11213 0.16135 0.17123 0.32325 0.28363 0.038139 0.27393 -0.017038 -0.23903 0.049934 -0.17793 0.08623 -0.074983 0.061393 -0.36061 -0.18019 0.0493 0.033272 0.34855 -0.27298 0.12311 -0.11358 -0.75032 -0.21055 0.24091 0.073599 0.10791 -0.28772 0.26021 -0.11107 0.46626 0.37382 -0.25272 0.47188 0.28336 -0.072728 -0.37274 -0.13585 0.1322 0.1341 -0.025071 0.17358 -0.18272 0.045271 0.12104 0.081267 0.26334 -0.16143 -0.28497 -0.11435 0.073124 0.049023 -0.43329 0.056486 0.29235 -0.080666 0.085266 
smart -0.24796 0.14738 0.042951 0.3121 0.34213 -0.18555 0.088716 -0.11801 -0.023489 0.11102 -0.2117 -0.084125 -0.45397 -0.22748 -0.38344 0.31098 -0.079749 0.19824 -0.21516 -0.1884 0.42375 -0.087501 0.33577 0.069616 0.21021 -0.28949 -0.26729 0.0057693 0.025549 -0.28482 -0.36075 -0.026847 0.23531 -0.14381 0.087849 -0.047448 -0.074731 -0.16912 -0.22321 -0.15258 0.11442 0.039202 0.26624 0.1057 0.077516 0.65052 -0.29718 0.14412 0.1812 0.15676 0.21119 0.057166 -0.12734 -0.28962 -0.26795 -0.072987 -0.0014404 -0.15612 -0.12469 -0.0011227 0.10675 -0.078313 0.26228 -0.18724 -0.23072 -0.37579 0.18718 0.0017442 -0.4785 0.011714 -0.11962 -0.017635 0.13217 -0.12414 -0.23445 -0.1616 -0.029407 0.64155 -0.024618 0.4439 0.26875 -0.14657 0.060342 -0.43226 0.05361 0.068274 -0.045147 -0.032089 0.25644 0.1557 -0.14458 0.048603 0.032156 -0.20438 -0.078001 -0.23019 -0.000774 0.066165 0.37621 0.14656 -0.064946 -0.19816 0.21167 0.083633 -0.072017 0.064827 -0.27915 0.051799 -0.19197 -0.25138 -0.24873 0.088768 -0.095456 -0.073008 0.0075357 -0.13777 0.0081754 0.19223 -0.26408 0.37133 0.4961 -0.15517 -0.24864 0.12764 -0.14737 -0.14086 0.23599 -0.33172 -0.030546 0.0044401 0.23839 -0.27276 0.12847 -0.092155 -0.24762 0.19453 0.29326 0.44968 0.1808 -0.34148 -0.23951 -0.1301 0.049918 -0.50106 -0.16114 -0.11332 0.0070221 0.050423 0.31651 -0.23091 -0.26744 -0.43087 -0.11469 -0.2229 0.068634 0.24855 -0.16241 -0.19272 0.32959 -0.26479 0.050162 0.19625 -0.25799 0.2209 0.21842 0.019378 -0.26517 -0.12551 0.45192 0.020381 0.013808 0.20633 0.22487 0.1081 0.070691 -0.019346 -0.11931 0.024103 0.04883 0.42084 -0.083503 0.14844 0.20063 0.21658 0.12185 0.04109 -0.11537 -0.052984 -0.06648 -0.1479 0.22908 -0.098325 0.042581 -0.23682 0.13234 0.13169 -0.20949 0.30882 0.22027 0.16621 -0.052348 -0.099007 0.16343 0.070421 -0.47165 0.063593 -0.017967 0.12025 -0.28399 0.27961 0.039884 0.1555 -0.13775 -0.0063842 -0.047042 -0.44207 0.13224 0.17233 0.15556 -0.29623 0.058792 -0.073977 -0.22883 0.10732 -0.024315 0.33167 -0.12243 -0.05615 0.45051 -0.046411 0.45924 0.025108 -0.05713 -0.41257 0.16208 -0.14838 0.28171 0.010747 0.16629 -0.090142 -0.36789 -0.23022 0.056558 0.52781 0.04208 0.0075314 0.332 -0.22356 0.046251 0.35959 0.22975 0.21174 0.1029 0.25887 0.39584 0.17511 0.15672 0.16053 -0.048237 -0.070498 0.10461 0.0098631 -0.030512 0.1573 -0.14646 -0.31729 -0.10719 0.070422 0.14793 -0.22794 0.078168 -0.2803 -0.20486 0.21444 -0.075188 -0.17753 0.4147 0.15301 0.20831 0.022614 -0.41056 -0.18538 0.0083262 -0.022518 -0.10149 0.29956 -0.11345 0.19926 0.016998 -0.054623 0.10841 -0.046906 0.015634 0.017234 -0.1214 -0.08845 0.059312 0.11957 -0.061389 0.028363 
