word1 -0.060797 0.30412 -0.22883 0.14161 -0.21612 0.59025 -0.41354 0.15045 0.080343 -0.20566 0.10508 0.010694 0.060761 -0.45948 -0.17426 -0.70121 0.3078 -0.2816 0.08852 -0.046634 -0.05614 -0.09336 0.16448 0.10432 0.073862 -0.45533 0.45919 -0.0044401 -0.49079 -0.11765 0.0081081 0.043384 0.15341 -0.18362 -0.027105 0.098245 0.28716 0.1773 0.15863 0.29484 0.18239 -0.14535 0.32719 -0.38851 0.16255 -0.27754 0.13451 0.13961 0.099076 -0.020369 -0.30005 0.26105 0.23009 0.15685 -0.12913 -0.2623 0.20569 -0.010142 -0.043083 0.13085 0.12642 0.014252 0.18332 -0.12394 0.20993 -0.061073 -0.098437 -0.23434 -0.021861 0.14593 0.080708 0.15966 0.049684 -0.027324 -0.018692 0.12258 0.08668 0.33026 -0.40761 -0.07029 -0.20824 0.17444 -0.083889 -0.20593 0.15845 -0.035019 -0.31945 0.50244 0.28881 0.55602 0.32753 0.077565 0.70907 -0.26815 -0.20805 0.076868 0.038561 -0.19989 0.017545 -0.27806 -0.11781 -0.11509 -0.035676 -0.0027614 -0.31706 0.09833 0.46068 -0.14799 -0.19377 0.1389 0.25374 0.19032 -0.17487 -0.12516 -0.33284 0.3761 -0.007455 -0.23994 0.20592 0.35972 0.068316 0.14109 0.14368 0.12626 -0.3631 -0.058325 0.30561 0.26966 0.27885 0.18838 0.14109 -0.27922 0.16262 -0.46823 -0.088994 -0.36485 -0.19869 -0.096498 0.23077 -0.16734 0.58534 -0.1602 -0.029677 0.082583 -0.35181 0.5001 0.076185 0.16488 -0.16503 -0.031603 -0.13346 -0.088515 -0.38325 0.14786 0.2684 0.45882 -0.26968 -0.49809 0.59498 0.47577 0.048738 0.014036 0.62995 -0.16264 0.13831 0.41859 -0.16006 -0.44904 -0.068975 -0.35165 -0.32971 0.46021 -0.13582 -0.32071 -0.21527 -0.055474 -0.018205 -0.62024 -0.088706 0.25985 0.026037 0.11259 -0.012944 -0.05132 -0.07927 -0.19915 -0.23541 0.22163 0.21996 0.17554 0.31203 0.14052 0.011728 0.098804 -0.39012 0.18652 0.11243 0.12723 -0.04852 -0.95056 
word2 -0.20412 0.4001 -0.12499 -0.25029 -0.13908 0.44866 -0.12542 -0.091439 0.068642 -0.29549 0.13547 0.2057 0.14239 -0.44769 -0.47419 -0.95735 0.0017071 -0.42199 -0.018874 -0.004507 -0.2032 0.0018024 -0.11497 -0.072171 0.30393 -0.3031 0.25892 -0.049397 -0.31558 0.016479 -0.35463 -0.091464 -0.17407 0.074927 -0.051316 0.13821 0.20457 0.1814 0.0076692 0.17538 0.13564 0.028855 0.22279 -0.11256 0.17519 -0.27688 0.045495 0.18328 0.019042 -0.20139 -0.010854 -0.16726 0.288 -0.27046 -0.31237 -0.42442 -0.015627 0.091735 -0.0024561 0.012396 0.33439 -0.077942 0.23007 0.052822 0.23896 -0.55419 0.35537 -0.15837 0.062351 0.17861 -0.11542 0.86569 -0.10072 0.26851 -0.0090352 -0.39842 0.26575 0.31713 -0.1449 0.090491 0.033075 0.42569 -0.075893 -0.071537 0.34431 -0.0059383 -0.46766 0.12647 0.33354 0.6073 0.30413 0.090348 0.62382 -0.012808 -0.46636 -0.33809 -0.20629 -0.47628 0.22778 -0.19555 -0.064778 0.15759 -0.15859 -0.19402 -0.20532 0.012322 0.20208 -0.26016 -0.14132 0.019216 0.36864 0.015394 0.0037084 0.032833 -0.23523 0.15668 0.1758 -0.027282 -0.05775 0.23417 0.17585 -0.022057 -0.052732 0.085778 -0.40814 -0.11672 0.048541 0.03659 0.47716 0.082461 0.25418 -0.17351 0.24798 -0.64472 -0.19636 -0.13021 -0.20041 0.13229 -0.092308 -0.15794 0.35036 -0.019421 0.23692 -0.25869 -0.58998 0.24936 0.014886 0.077484 0.0093517 0.35973 0.097334 0.1483 0.049428 -0.023039 0.17876 0.12531 -0.29872 -0.42347 0.37354 0.4457 -0.56102 -0.052296 0.69749 0.30354 0.27616 0.67831 -0.20474 -0.38811 -0.01143 -0.48141 -0.30937 0.16834 -0.14374 -0.19843 -0.40321 -0.10772 -0.14236 -0.29392 0.013421 0.47595 0.15639 -0.19418 0.2138 -0.051112 -0.30118 -0.14647 -0.38532 0.45773 0.25896 -0.019521 0.085472 0.021476 0.17902 0.059295 -0.012744 0.13964 0.091607 0.011391 -0.10171 -0.69602 
love -0.050443 0.13332 0.074703 0.1108 -0.19089 -0.19687 -0.25542 -0.13942 0.39844 -0.061997 0.15442 0.059373 0.15343 -0.0078496 -0.25605 -0.32487 0.16688 -0.076185 -0.087719 0.081157 0.013746 0.041075 -0.22294 0.13806 0.0074379 -0.24085 0.098917 0.010838 -0.47853 0.23656 -0.040506 0.17031 0.33907 0.1458 -0.11788 0.083362 0.062193 0.11072 -0.011938 0.11001 0.0045214 0.198 0.1654 0.006248 -0.28235 0.070051 0.08188 0.094472 -0.15807 -0.03292 0.40979 -0.22788 0.090555 -0.25192 0.013539 0.16273 -0.048469 -0.071372 -0.18735 -0.3979 0.38167 0.16663 -0.21541 -0.36813 0.14511 0.14883 0.054502 0.2095 0.069712 0.067827 0.052543 0.2294 -0.24735 -0.0024751 0.28958 -0.049898 -0.020194 -0.083087 0.050343 -0.013337 -0.01618 -0.13141 -0.50036 -0.13335 0.23909 -0.043408 -0.32409 0.099499 -0.074883 0.28059 -0.013625 -0.12079 -0.05207 0.11859 -0.55332 -0.23651 0.049933 -0.25937 -0.055317 0.12615 -0.12431 -0.034516 0.12279 0.18423 0.047997 0.13224 -0.025615 0.18646 -0.066261 -0.28728 -0.10347 0.32625 -0.52571 0.13106 0.15378 -0.30169 0.35348 -0.48633 0.093047 0.30186 0.054344 0.35846 -0.040198 -0.4143 -0.69944 -0.20329 0.21999 0.42924 0.1433 0.032427 0.10479 -0.041176 0.1298 -0.24221 -0.49666 0.35078 0.10372 0.23138 0.41396 -0.26224 0.090207 -0.2525 -0.10903 -0.15219 0.0062861 0.18274 0.16466 -0.16329 -0.18869 -0.12657 -0.10384 0.15028 -0.15742 0.076671 -0.22195 -0.076976 0.058025 -0.43199 0.015144 0.015447 0.30162 0.056083 0.28438 -0.068448 -0.089816 0.052433 -0.34344 0.038964 -0.14645 -0.11193 -0.044104 0.46549 -0.44552 -0.12371 -0.34666 -0.33413 0.26388 -0.24149 -0.33615 0.094322 -0.20989 -0.259 -0.29825 0.69823 -0.16489 -0.26367 0.075804 0.075785 0.2468 0.10536 0.06841 -0.5828 -0.18672 0.65757 -0.14233 -0.15605 -0.012261 0.025785 -0.10892 -0.53681 
sex 0.033262 -0.3478 0.36403 0.09583 -0.14062 -0.2672 -0.18929 0.080447 -0.50212 0.0053837 0.49275 -0.26719 -0.044958 0.13368 -0.4831 -0.54596 0.29551 0.50139 0.02476 0.17167 0.21375 0.20526 -0.34343 0.26259 -0.027307 -0.23569 0.13046 0.12002 -0.20587 0.2277 -0.14534 -0.31422 -0.13492 -0.1359 0.051861 0.045169 -0.00097048 0.35711 -0.22983 0.35197 0.23936 -0.19165 -0.10687 -0.16292 0.020282 -0.076957 -0.1189 -0.048905 -0.22472 -0.32174 -0.089026 -0.46271 0.21205 -0.10149 0.11335 -0.26589 -0.42624 -0.37518 0.31141 0.04937 0.24235 -0.05811 -0.30302 -0.27477 -0.18681 -0.1323 0.11098 -0.078492 0.20428 -0.1023 0.18674 0.52946 -0.37763 0.20874 0.75628 0.32196 -0.055634 -0.0081624 0.15555 -0.27286 0.084884 0.19565 -0.11194 -0.15686 0.125 -0.18034 0.18105 0.18692 -0.09655 0.20709 -0.20884 -0.47544 -0.072678 0.12871 -0.119 -0.12661 -0.46931 0.14668 -0.052047 0.14549 -0.10873 -0.093586 -0.17015 0.4583 -0.026068 0.12348 -0.19246 0.16339 0.22308 -0.34489 -0.26857 -0.12432 -0.50559 -0.081393 -0.43253 -0.15502 -0.25272 -0.10367 0.35774 0.38765 0.19717 -0.015358 -0.36007 -0.2709 -0.80836 -0.14931 0.093759 0.32672 0.25463 -0.44524 0.11184 0.092673 0.23248 -0.079944 -0.58727 0.01499 -0.18509 0.026114 0.52747 -0.36818 -0.072632 0.14834 0.17413 -0.080018 -0.15009 0.66655 -0.37544 0.16049 0.11807 -0.69799 -0.15422 -0.2084 -0.39813 -0.082909 -0.27277 -0.046219 0.30844 -0.37425 -0.10731 0.33101 0.081103 -0.19905 0.20165 0.025667 0.091741 0.27541 -0.31991 -0.11272 -0.53624 -0.053894 0.016534 0.52528 -0.065097 -0.022072 -0.16982 -0.29552 0.56878 -0.47003 -0.03027 -0.021999 -0.34198 -0.27027 0.0063239 0.39238 -0.1838 0.074529 0.20486 0.41512 0.22664 0.27582 -0.20179 0.0097333 -0.18523 0.25 -0.52742 0.063675 -0.31386 0.28723 -0.27334 -0.15087 
tiger 0.14569 0.082494 0.32073 -0.0068716 -0.17558 0.13301 -0.2718 0.15688 0.34633 0.20357 -0.27284 0.13248 0.20242 -0.21953 -0.41011 -0.33306 0.1572 0.43161 0.090877 0.22392 0.10387 -0.015865 -0.050386 0.20616 0.26957 -0.08835 -0.27131 0.11002 -0.057047 0.092275 -0.24134 -0.12496 0.56376 -0.14675 0.23051 0.12169 0.19355 -0.1435 -0.14215 -0.17991 0.025195 0.51289 0.38499 -0.082625 -0.52874 -0.35764 -0.15591 -0.062835 -0.0068495 0.08204 0.35358 -0.39767 -0.040881 0.20428 0.086613 -0.16543 -0.80129 -0.40341 0.24715 -0.34148 0.53272 0.22476 0.20665 -0.15613 0.81303 0.24086 0.22149 0.38297 0.16861 -0.021316 -0.040571 -0.10933 -0.15888 0.32672 0.11746 0.0030329 0.18854 0.24205 0.18028 -0.034299 -0.28422 -0.50687 0.1628 0.032118 -0.01219 0.051605 0.26112 -0.037511 0.014417 0.37878 -0.22517 -0.49587 -0.087153 0.064552 -0.29306 -0.06124 0.015731 -0.36049 -0.13653 0.17075 0.062018 -0.33799 0.47247 0.22546 -0.09711 -0.0051529 0.35018 0.043984 -0.25341 -0.47646 0.38842 -0.061235 -0.064721 -0.45067 -0.23664 0.28273 -0.15633 -0.21069 0.27129 0.022944 0.26886 0.40369 -0.59429 -0.42036 -0.11366 0.23986 0.0091475 0.51649 0.014085 -0.13796 0.21326 0.05908 0.19788 0.17044 -0.39706 0.35603 -0.069224 0.33385 0.183 0.43458 0.091655 -0.19044 -0.12448 -0.52831 0.27455 -0.0043873 -0.35574 0.04978 0.20972 0.27002 -0.34525 0.50062 -0.28497 0.46597 0.089596 0.0094312 -0.53412 -0.20102 -0.31066 -0.396 0.33352 0.081724 0.013433 -0.35587 0.33517 -0.13698 -0.026842 -0.61708 -0.29374 -0.27608 -0.10953 0.68987 -0.21424 -0.49335 -0.41293 -0.28255 0.19159 0.15721 0.011833 0.0093581 -0.1059 0.15258 -0.099158 0.2148 0.021902 0.056551 0.44448 0.26304 0.12155 -0.069058 -0.51959 -0.04459 -0.023179 -0.062184 -0.3475 -0.066284 -0.027745 -0.010983 -0.039708 -0.058754 
cat 0.22327 0.14278 0.41222 -0.27338 0.10011 0.26506 -0.33598 -0.24287 -0.060422 0.2671 -0.29793 -0.0735 0.69421 -0.040872 -0.31521 -0.30927 -0.026956 -0.019035 0.020368 -0.13318 0.46968 0.51895 -0.17391 0.38478 -0.11644 -0.6101 -0.016377 0.20598 -0.036949 -0.0047987 -0.13372 -0.12861 0.34785 -0.16307 0.015445 0.066645 0.77983 0.30469 -0.053131 -0.079331 -0.14159 0.34659 0.46939 -0.1976 -0.6688 0.071655 0.27128 0.64551 -0.088712 0.28411 0.18748 -0.11344 0.49696 0.18714 -0.17897 -0.18297 -0.59471 -0.28265 -0.29886 -0.18955 0.34884 0.22095 -0.19219 -0.2364 0.20445 -0.12076 0.2919 0.046165 -0.48639 -0.010272 -0.099737 -0.071915 0.20849 -0.24593 0.44573 0.097853 -0.20644 0.14308 -0.20377 -0.35878 -0.10241 0.41334 0.2898 0.14859 0.54101 0.083428 0.50068 -0.0094103 0.067108 0.018745 -0.074303 -0.28367 -0.47331 0.52293 -0.1606 -0.070165 -0.41358 -0.040954 -0.1733 0.113 0.14296 0.057108 -0.08544 0.39476 -0.2439 0.069906 0.0097664 -0.13137 0.045736 -0.32234 -0.03642 0.062367 -0.49737 -0.054242 -0.38327 0.6547 0.11621 -0.063263 0.38263 -0.053021 0.41821 0.20741 -0.16 -0.12975 -0.060625 -0.16823 0.28033 0.21813 0.39784 -0.24922 0.28616 0.034866 0.30264 -0.2915 -0.29957 0.15772 -0.62241 -0.067903 0.095658 -0.053649 0.31099 -0.44175 -0.15824 -0.33362 -0.00679 0.49218 0.053045 -0.30209 0.08533 0.30102 -0.15126 0.19173 0.096796 0.28536 0.042851 0.1784 -0.61973 0.014816 0.045027 0.34259 0.19238 -0.31417 0.20924 -0.075332 0.40913 0.089918 0.19366 0.032844 -0.55812 -0.080909 -0.16105 0.72812 -0.38375 0.0011663 -0.5553 -0.18603 0.5368 -0.24805 0.089077 0.24469 -0.32867 0.035565 -0.076193 0.19544 0.074514 -0.14364 0.044209 0.3032 0.026294 0.24668 0.084027 0.083029 -0.38807 0.10732 -0.18825 -0.22229 0.21011 0.043547 0.11655 -0.31128 
tiger 0.14569 0.082494 0.32073 -0.0068716 -0.17558 0.13301 -0.2718 0.15688 0.34633 0.20357 -0.27284 0.13248 0.20242 -0.21953 -0.41011 -0.33306 0.1572 0.43161 0.090877 0.22392 0.10387 -0.015865 -0.050386 0.20616 0.26957 -0.08835 -0.27131 0.11002 -0.057047 0.092275 -0.24134 -0.12496 0.56376 -0.14675 0.23051 0.12169 0.19355 -0.1435 -0.14215 -0.17991 0.025195 0.51289 0.38499 -0.082625 -0.52874 -0.35764 -0.15591 -0.062835 -0.0068495 0.08204 0.35358 -0.39767 -0.040881 0.20428 0.086613 -0.16543 -0.80129 -0.40341 0.24715 -0.34148 0.53272 0.22476 0.20665 -0.15613 0.81303 0.24086 0.22149 0.38297 0.16861 -0.021316 -0.040571 -0.10933 -0.15888 0.32672 0.11746 0.0030329 0.18854 0.24205 0.18028 -0.034299 -0.28422 -0.50687 0.1628 0.032118 -0.01219 0.051605 0.26112 -0.037511 0.014417 0.37878 -0.22517 -0.49587 -0.087153 0.064552 -0.29306 -0.06124 0.015731 -0.36049 -0.13653 0.17075 0.062018 -0.33799 0.47247 0.22546 -0.09711 -0.0051529 0.35018 0.043984 -0.25341 -0.47646 0.38842 -0.061235 -0.064721 -0.45067 -0.23664 0.28273 -0.15633 -0.21069 0.27129 0.022944 0.26886 0.40369 -0.59429 -0.42036 -0.11366 0.23986 0.0091475 0.51649 0.014085 -0.13796 0.21326 0.05908 0.19788 0.17044 -0.39706 0.35603 -0.069224 0.33385 0.183 0.43458 0.091655 -0.19044 -0.12448 -0.52831 0.27455 -0.0043873 -0.35574 0.04978 0.20972 0.27002 -0.34525 0.50062 -0.28497 0.46597 0.089596 0.0094312 -0.53412 -0.20102 -0.31066 -0.396 0.33352 0.081724 0.013433 -0.35587 0.33517 -0.13698 -0.026842 -0.61708 -0.29374 -0.27608 -0.10953 0.68987 -0.21424 -0.49335 -0.41293 -0.28255 0.19159 0.15721 0.011833 0.0093581 -0.1059 0.15258 -0.099158 0.2148 0.021902 0.056551 0.44448 0.26304 0.12155 -0.069058 -0.51959 -0.04459 -0.023179 -0.062184 -0.3475 -0.066284 -0.027745 -0.010983 -0.039708 -0.058754 
tiger 0.14569 0.082494 0.32073 -0.0068716 -0.17558 0.13301 -0.2718 0.15688 0.34633 0.20357 -0.27284 0.13248 0.20242 -0.21953 -0.41011 -0.33306 0.1572 0.43161 0.090877 0.22392 0.10387 -0.015865 -0.050386 0.20616 0.26957 -0.08835 -0.27131 0.11002 -0.057047 0.092275 -0.24134 -0.12496 0.56376 -0.14675 0.23051 0.12169 0.19355 -0.1435 -0.14215 -0.17991 0.025195 0.51289 0.38499 -0.082625 -0.52874 -0.35764 -0.15591 -0.062835 -0.0068495 0.08204 0.35358 -0.39767 -0.040881 0.20428 0.086613 -0.16543 -0.80129 -0.40341 0.24715 -0.34148 0.53272 0.22476 0.20665 -0.15613 0.81303 0.24086 0.22149 0.38297 0.16861 -0.021316 -0.040571 -0.10933 -0.15888 0.32672 0.11746 0.0030329 0.18854 0.24205 0.18028 -0.034299 -0.28422 -0.50687 0.1628 0.032118 -0.01219 0.051605 0.26112 -0.037511 0.014417 0.37878 -0.22517 -0.49587 -0.087153 0.064552 -0.29306 -0.06124 0.015731 -0.36049 -0.13653 0.17075 0.062018 -0.33799 0.47247 0.22546 -0.09711 -0.0051529 0.35018 0.043984 -0.25341 -0.47646 0.38842 -0.061235 -0.064721 -0.45067 -0.23664 0.28273 -0.15633 -0.21069 0.27129 0.022944 0.26886 0.40369 -0.59429 -0.42036 -0.11366 0.23986 0.0091475 0.51649 0.014085 -0.13796 0.21326 0.05908 0.19788 0.17044 -0.39706 0.35603 -0.069224 0.33385 0.183 0.43458 0.091655 -0.19044 -0.12448 -0.52831 0.27455 -0.0043873 -0.35574 0.04978 0.20972 0.27002 -0.34525 0.50062 -0.28497 0.46597 0.089596 0.0094312 -0.53412 -0.20102 -0.31066 -0.396 0.33352 0.081724 0.013433 -0.35587 0.33517 -0.13698 -0.026842 -0.61708 -0.29374 -0.27608 -0.10953 0.68987 -0.21424 -0.49335 -0.41293 -0.28255 0.19159 0.15721 0.011833 0.0093581 -0.1059 0.15258 -0.099158 0.2148 0.021902 0.056551 0.44448 0.26304 0.12155 -0.069058 -0.51959 -0.04459 -0.023179 -0.062184 -0.3475 -0.066284 -0.027745 -0.010983 -0.039708 -0.058754 
book 0.17766 -0.37288 0.23503 -0.24822 -0.023621 0.069321 -0.4351 -0.036178 -0.025325 0.00018672 0.19742 0.082224 -0.075519 -0.16281 -0.06965 -0.44051 0.23026 -0.23677 0.09957 -0.0039558 0.06285 0.010153 -0.16017 0.020303 0.0082083 -0.32025 0.23433 0.090315 -0.46726 0.1483 -0.035361 0.30753 0.20169 -0.17636 0.012514 -0.04752 0.24155 0.38622 0.072002 0.23733 0.17332 0.14938 0.077196 0.11774 -0.38583 -0.072003 0.14705 0.044096 0.16643 -0.11313 -0.10873 -0.088355 0.30945 -0.01534 0.27524 0.25156 0.15713 -0.047565 -0.36196 -0.39916 0.058443 0.078498 -0.18854 -0.10666 0.22347 -0.080264 0.13432 0.35838 -0.20924 -0.041288 0.053824 0.22308 -0.21559 -0.015428 0.37769 -0.094165 0.19117 0.21085 -0.13431 0.17879 -0.33793 0.19705 0.29988 -0.091875 0.44732 -0.25315 -0.11892 -0.0001583 0.20236 0.42438 -0.094572 -0.34347 0.32721 0.094345 -0.28629 -0.11188 0.015191 -0.21615 0.066516 0.01501 -0.33487 0.21535 0.030583 0.046087 0.10014 -0.050742 0.085708 -0.052697 -0.24953 -0.30469 -0.15308 0.29538 -0.27646 -0.072551 -0.15782 0.14329 0.12329 -0.089013 0.33859 0.45099 0.080827 0.18177 0.074742 0.27468 -0.30161 0.090438 0.48072 0.33728 -0.11608 -0.12737 0.10399 0.18693 0.34664 -0.21182 -0.22167 0.23266 0.16912 0.095374 0.083837 0.14139 0.45193 -0.24705 -0.10387 -0.38696 -0.043878 0.16457 -0.1822 -0.23101 -0.14978 -0.28839 -0.12361 0.38739 -0.021896 0.086137 -0.068104 0.02253 -0.17053 -0.25851 0.10587 0.37256 -0.11151 -0.06823 0.19925 -0.048401 -0.29078 0.73835 -0.10571 0.012742 -0.45014 -0.65851 -0.22635 0.19643 -0.11073 -0.37717 -0.095249 -0.018691 0.29551 -0.13226 -0.016982 0.046684 0.2651 0.11964 0.29144 0.57954 0.084034 -0.0059594 0.15842 0.059465 0.037588 -0.055537 -0.22658 -0.060012 0.16486 0.016751 -0.1188 -0.27901 -0.19496 -0.28803 -0.15034 -0.29763 
paper 0.051948 -0.31095 0.27459 -0.26047 -0.28222 0.048209 -0.31044 0.1765 0.00011107 0.34109 0.16733 -0.0098473 -0.038366 -0.27363 -0.29846 -0.38666 -0.016697 0.35588 -0.21403 -0.024 0.16368 0.080545 0.15158 0.097606 0.026792 -0.30386 0.54385 -0.063269 -0.25796 -0.15168 0.24985 -0.076515 0.081857 -0.076786 -0.16164 -0.021325 0.12812 -0.038424 0.11794 0.21672 0.15289 0.27666 0.0013029 0.015651 0.16353 -0.046716 0.1891 0.32094 0.33887 -0.16189 -0.035307 0.11333 0.37418 -0.20969 0.045515 -0.18642 -0.037567 -0.048114 0.033479 -0.08385 0.02723 0.016665 0.21581 -0.21466 0.47599 -0.044205 0.39003 0.45868 -0.25679 0.14218 0.14617 0.22299 0.088231 0.33301 0.21811 0.05771 0.22765 0.39572 -0.01819 -0.05587 -0.36385 0.42127 0.23638 0.21469 0.2264 -0.12261 -0.15149 0.25383 0.14987 0.3795 0.20366 -0.21592 0.35614 0.10362 0.13714 0.47077 -0.11531 -0.34067 0.11394 0.13387 -0.087881 0.010739 0.29605 0.16328 0.065367 0.019877 -0.046077 -0.0094095 -0.21568 -0.21372 0.20315 -0.37051 -0.084127 0.090797 0.18065 0.52156 0.36697 -0.13835 0.25836 0.53704 0.11316 0.26959 -0.19564 0.032749 -0.0352 -0.21636 0.41777 0.16332 0.1409 0.15104 0.35392 0.2274 0.31653 -0.21246 -0.34179 0.30256 -0.06849 0.010074 0.031475 0.16875 0.41937 0.030098 -0.26752 -0.29491 -0.27393 0.31152 -0.38613 -0.31616 -0.051961 -0.64632 0.19294 0.45135 0.014931 0.12589 0.056682 -0.14702 -0.060033 -0.29398 0.2364 0.35775 0.0071279 -0.085347 0.1331 -0.27236 0.11298 0.43761 -0.15568 -0.30407 -0.3147 -0.097734 0.031413 0.1008 -0.24889 -0.23428 -0.1477 -0.29725 -0.05498 -0.0072346 0.12694 -0.0011069 0.0084104 0.027209 -0.046771 0.34686 -0.082173 -0.053629 0.097037 0.20241 -0.12048 -0.22547 -0.066757 0.0012482 -0.042073 -0.078197 0.17962 -0.24712 -0.26951 -0.39385 0.2713 -0.17243 
computer -0.065485 0.0091715 0.065147 0.050403 -0.30012 0.18324 -0.41839 0.28706 0.16561 0.26887 0.17693 0.3132 -0.36652 -0.18663 -0.56909 -0.40495 -0.17401 0.051438 -0.1558 0.16864 0.09274 -0.35259 0.15133 0.47577 0.29137 -0.4527 0.35456 0.28154 -0.38148 0.2171 0.093052 0.14611 0.10803 -0.21876 0.0093271 -0.033281 0.19895 -0.095428 0.36616 0.0019397 0.35018 -0.06487 0.48406 -0.37804 -0.11998 -0.3054 0.093847 0.18954 0.19621 0.050595 0.42556 0.28099 0.3851 -0.25637 0.21289 0.29744 0.34257 0.081046 0.16605 0.24091 -0.081569 -0.23023 0.036524 -0.211 0.17379 -0.0053068 0.20208 0.38677 0.5927 0.50742 -0.27609 -0.089337 0.15794 0.35921 0.35842 0.04269 0.057354 0.43937 -0.24844 -0.63551 -0.23371 0.40474 -0.061787 0.042293 -0.42885 -0.12242 0.25018 0.33031 0.25587 -0.12745 0.013133 -0.18317 0.10414 0.13444 -0.32485 0.23057 -0.055265 -0.16962 0.083899 0.056858 -0.24758 0.11353 0.43409 0.22408 -0.18022 -0.10048 -0.017114 -0.083184 -0.27319 -0.22578 0.23245 0.33816 -0.14235 -0.15869 -0.44805 0.16654 -0.059846 -0.09467 0.099285 0.34287 0.35302 0.6186 -0.041276 -0.12404 0.30701 0.41245 0.50606 0.28984 -0.14801 -0.054824 0.39729 0.049397 0.41114 -0.68911 -0.30966 -0.062882 -0.29351 -0.021065 0.085151 -0.0074398 -0.051432 -0.10464 0.038049 -0.041142 -0.1345 0.44104 0.028825 0.10852 0.028161 -0.23534 -0.08932 0.029358 -0.10571 -0.090594 0.22103 0.085386 -0.34993 -0.24576 0.11002 0.22783 -0.15453 -0.48797 -0.068452 -0.14843 0.2142 0.30971 -0.30966 -0.077886 -0.24741 -0.26439 0.090854 -0.01081 -0.055109 -0.20954 -0.2749 -0.16697 0.33405 -0.02032 -0.22454 -0.19133 -0.33524 -0.035496 0.12381 -0.12352 -0.12233 0.11473 0.17019 0.32983 0.48259 -0.033867 0.30943 0.27941 -0.069917 0.37919 -0.4523 -0.27237 -0.1105 -0.24086 0.016772 -0.034707 
keyboard 0.0060057 0.011939 0.041769 0.30862 -0.040096 0.62132 -0.32321 -0.28417 0.20952 0.011291 0.080028 0.3432 -0.025563 -0.29193 -0.45003 0.044848 -0.20079 -0.51091 -0.14923 0.038221 0.19203 -0.35155 0.36632 0.344 0.12762 -0.61356 0.31636 -0.043083 -0.31237 -0.15739 -0.25268 0.094424 -0.073604 0.12206 -0.1137 -0.1301 0.24492 0.026261 0.27979 -0.59183 0.25308 0.33126 0.61379 -0.53669 0.47265 -0.19423 0.45742 -0.14124 0.24711 -0.26014 -0.29748 0.72128 0.44149 -0.22599 -0.1074 0.1485 0.32586 0.024749 -0.0051742 -0.37738 0.17186 -0.11135 -0.30606 -0.3079 0.43822 -0.17982 -0.32201 -0.045393 0.28363 0.33267 -0.41222 0.1821 0.21692 0.3387 0.3645 0.13726 0.12464 0.51652 -0.060256 -0.18337 -0.40162 0.13013 -0.20653 -0.35556 -0.36658 -0.17522 -0.23246 0.074824 0.58528 -0.13566 -0.26017 0.37698 -0.1476 0.070744 -0.27347 0.3398 -0.1915 -0.43321 0.25518 -0.42798 -0.16736 -0.064264 -0.070242 0.24681 -0.19496 0.19476 0.060942 -0.033244 0.34665 -0.68785 0.46812 -0.18388 -0.39758 -0.019008 -0.1472 -0.098293 -0.31074 0.011168 0.11346 0.56986 0.22369 0.27407 0.075526 -0.39629 -0.10848 0.042847 0.49416 0.49797 -0.28284 -0.019638 0.12011 -0.20408 1.0557 -0.77879 -0.1748 -0.035637 0.031518 -0.074832 0.32879 0.0054148 -0.25793 -0.54013 0.25192 0.15083 -0.038148 0.014336 -0.36361 -0.078999 0.041162 -0.057833 0.013789 0.34122 -0.46401 -0.27831 -0.20779 0.0088703 -0.12373 -0.10358 0.13914 -0.13699 0.76467 -0.41674 0.28086 -0.011347 0.20841 0.46015 -0.43329 -0.10447 -0.080604 -0.50868 0.048474 0.36492 -0.24098 -0.23324 -0.020619 -0.37823 0.47449 -0.11158 0.030852 -0.13141 -0.18597 -3.8628e-05 -0.39602 0.082101 0.045462 0.32983 0.38452 0.27522 0.22597 -0.19718 0.023535 0.19137 -0.23826 0.6085 -0.22948 -0.14772 -0.089303 -0.16843 -0.042317 -0.3032 
computer -0.065485 0.0091715 0.065147 0.050403 -0.30012 0.18324 -0.41839 0.28706 0.16561 0.26887 0.17693 0.3132 -0.36652 -0.18663 -0.56909 -0.40495 -0.17401 0.051438 -0.1558 0.16864 0.09274 -0.35259 0.15133 0.47577 0.29137 -0.4527 0.35456 0.28154 -0.38148 0.2171 0.093052 0.14611 0.10803 -0.21876 0.0093271 -0.033281 0.19895 -0.095428 0.36616 0.0019397 0.35018 -0.06487 0.48406 -0.37804 -0.11998 -0.3054 0.093847 0.18954 0.19621 0.050595 0.42556 0.28099 0.3851 -0.25637 0.21289 0.29744 0.34257 0.081046 0.16605 0.24091 -0.081569 -0.23023 0.036524 -0.211 0.17379 -0.0053068 0.20208 0.38677 0.5927 0.50742 -0.27609 -0.089337 0.15794 0.35921 0.35842 0.04269 0.057354 0.43937 -0.24844 -0.63551 -0.23371 0.40474 -0.061787 0.042293 -0.42885 -0.12242 0.25018 0.33031 0.25587 -0.12745 0.013133 -0.18317 0.10414 0.13444 -0.32485 0.23057 -0.055265 -0.16962 0.083899 0.056858 -0.24758 0.11353 0.43409 0.22408 -0.18022 -0.10048 -0.017114 -0.083184 -0.27319 -0.22578 0.23245 0.33816 -0.14235 -0.15869 -0.44805 0.16654 -0.059846 -0.09467 0.099285 0.34287 0.35302 0.6186 -0.041276 -0.12404 0.30701 0.41245 0.50606 0.28984 -0.14801 -0.054824 0.39729 0.049397 0.41114 -0.68911 -0.30966 -0.062882 -0.29351 -0.021065 0.085151 -0.0074398 -0.051432 -0.10464 0.038049 -0.041142 -0.1345 0.44104 0.028825 0.10852 0.028161 -0.23534 -0.08932 0.029358 -0.10571 -0.090594 0.22103 0.085386 -0.34993 -0.24576 0.11002 0.22783 -0.15453 -0.48797 -0.068452 -0.14843 0.2142 0.30971 -0.30966 -0.077886 -0.24741 -0.26439 0.090854 -0.01081 -0.055109 -0.20954 -0.2749 -0.16697 0.33405 -0.02032 -0.22454 -0.19133 -0.33524 -0.035496 0.12381 -0.12352 -0.12233 0.11473 0.17019 0.32983 0.48259 -0.033867 0.30943 0.27941 -0.069917 0.37919 -0.4523 -0.27237 -0.1105 -0.24086 0.016772 -0.034707 
internet -0.058138 0.055168 -0.28989 -0.10837 -0.2182 0.25549 -0.65147 -0.01149 0.085644 0.0033346 0.051031 0.32081 0.25991 0.055447 -0.37595 -0.64433 -0.06623 0.072182 -0.28281 0.018148 0.43672 -0.17586 0.068027 0.11324 0.083347 -0.4832 0.14092 0.31812 -0.12457 0.24133 -0.32476 0.15261 0.25733 -0.30553 -0.039149 -0.076145 0.068471 -0.2244 0.23701 0.25009 0.32463 -0.11715 0.49573 0.108 0.2539 -0.074411 -0.11071 0.32497 -0.28442 0.13063 0.35416 0.11055 0.37106 -0.1778 -0.10486 -0.16729 -0.16317 -0.24707 -0.0073551 0.18272 -0.13195 -0.31168 0.018177 -0.081883 0.1747 -0.079308 0.43057 0.31011 0.13985 0.36983 -0.18666 -0.0095278 -0.23901 0.19774 0.67396 -0.011505 0.30751 0.12302 0.14813 -0.48593 -0.14473 0.45318 -0.061777 0.10085 -0.22736 -0.21231 -0.022924 -0.048182 0.34768 0.025364 -0.26535 -0.14696 0.21243 0.078805 0.020221 -0.17515 0.48379 -0.46159 -0.058931 0.21035 0.20136 0.39597 -0.25435 -0.29021 0.1412 -0.18728 -0.060517 -0.033704 0.14174 -0.2146 0.12478 -0.17367 -0.049242 -0.29554 -0.28131 0.069844 -0.03077 -0.17168 0.24673 0.45302 0.29754 0.40469 0.059711 0.012301 -0.37879 0.23866 0.3017 0.30255 -0.016388 -0.040303 0.077819 0.17971 0.20774 -0.46389 -0.33381 -0.2852 0.20049 0.26845 0.064111 0.16594 0.079994 0.13977 0.37724 -0.12956 -0.268 0.62593 0.05626 -0.10762 0.22619 -0.26988 -0.041253 -0.52346 -0.24251 -0.28614 0.042598 -0.17906 -0.0037709 0.25477 0.018537 0.35466 -0.34391 -0.26501 -0.069497 -0.36761 -0.13798 0.41616 -0.63448 -0.2157 -0.20251 -0.17788 -0.49432 0.23838 -0.12306 -0.081953 -0.58275 -0.39839 0.24789 0.029006 -0.079433 -0.12381 0.018582 -0.15494 0.21095 0.42575 0.1911 0.23294 0.061026 0.29415 0.32139 -0.055054 0.025843 0.34448 0.18893 0.0035217 -0.54147 -0.19494 -0.0512 -0.1769 0.21692 -0.48539 
plane -0.21239 -0.50125 0.35697 -0.38471 -0.49568 0.39988 -0.48735 0.16897 0.44466 0.28421 -0.18593 0.050037 -0.075293 -0.40825 -0.027556 -0.39857 -0.12176 0.17883 -0.35399 0.12555 -0.25645 -0.0094817 -0.17711 0.214 -0.37564 -0.12353 0.32006 -0.35206 -0.15038 0.27597 0.35632 -0.37334 0.38406 0.22734 -0.18916 0.22083 0.10568 -0.24811 0.2564 0.33315 -0.082296 0.033119 0.376 0.013975 -0.25627 0.30166 -0.085574 0.26721 0.081651 0.34623 0.19033 0.25286 0.16909 0.18542 0.33154 -0.27621 0.29703 0.06072 -0.081915 0.25393 -0.05999 -0.25796 -0.010727 -0.38367 0.18722 0.048728 0.22071 -0.03187 0.051233 0.18812 -0.062335 0.012257 -0.11216 0.068901 0.48441 -0.058468 0.023882 -0.1328 -0.24076 0.045194 -0.081017 -0.19418 0.37412 -0.37326 -0.050229 0.10075 0.21637 0.1208 0.35218 -0.14191 0.082227 0.14134 -0.46867 0.045053 -0.38214 -0.013538 -0.2417 -0.17055 -0.22935 0.671 -0.18757 -0.56327 0.54085 0.40026 -0.15288 0.13017 -0.088949 0.40974 0.17973 0.16227 -0.077544 0.042034 -0.47721 -0.22017 0.13623 0.081402 0.73068 -0.21437 0.61963 0.34084 0.083129 0.27843 0.092682 -0.33536 0.11257 0.30212 0.60646 0.33088 0.022517 -0.26156 0.31978 -0.099973 0.18146 -0.24421 -0.14868 0.03768 0.094078 0.038801 0.25978 0.12606 0.17491 -0.4501 -0.041681 -0.038556 -0.48465 -0.060442 -0.17873 -0.15103 0.18189 -0.70105 0.19314 0.080931 0.050533 -0.11255 0.02973 -0.11774 -0.15173 -0.37997 -0.080463 -0.58383 0.33027 0.1357 0.21271 -0.14137 0.010398 0.18316 -0.29094 0.15182 -0.24052 -0.10247 0.19811 0.22228 -0.15706 0.096897 -0.41573 0.39095 0.19548 -0.12206 -0.26665 -0.09122 0.092413 0.43706 -0.12615 0.34706 0.12719 -0.16497 0.67502 -0.14071 -0.0095528 0.16482 0.088138 0.13981 -0.12064 0.10145 -0.38235 -0.1926 -0.22981 0.084271 0.41706 0.020789 
car -0.24341 -0.41641 0.13211 -0.33719 -0.15078 -0.17087 -0.58066 0.17073 0.22642 0.26997 0.15596 -0.12556 0.016809 -0.051474 -0.46129 -0.078282 0.40106 0.30125 -0.69965 0.34024 0.3119 0.11827 0.19907 0.10934 0.42092 -0.50727 0.53062 0.33884 -0.48373 0.16265 -0.13616 -0.078403 0.4771 0.21853 -0.173 0.2069 0.41589 -0.10907 0.3704 0.29722 -0.022472 0.0078051 0.55706 -0.23813 -0.44317 0.4501 0.28736 0.25189 -0.28389 -0.009562 0.079559 -0.098402 0.40729 0.16786 0.05139 0.11355 -0.070674 -0.22725 0.070866 -0.25352 -0.23212 -0.14684 -0.38555 -0.28799 0.17529 0.11668 -0.026834 0.016448 -0.09994 0.14431 0.10665 0.030149 -0.41325 0.19092 0.49902 0.11874 0.12885 0.013776 -0.10713 -0.19851 0.13413 -0.14401 0.047842 -0.32853 -0.044501 -0.16057 0.063725 0.28448 0.49774 -0.18771 0.38767 -0.24324 0.071966 -0.31006 -0.35628 0.44107 0.13634 -0.41221 -0.29097 0.41693 0.24649 -0.26263 0.10103 0.50979 -0.023716 0.58668 0.1026 0.45104 -0.12902 -0.8006 0.05779 -0.060608 -0.25594 0.079736 0.0087781 -0.07748 -0.0063249 -0.34794 0.33111 -0.15074 0.34643 -0.034001 -0.25538 -0.0060474 0.11801 0.19721 0.55226 0.47549 -0.57158 0.0025093 0.14434 -0.085994 0.23507 0.42978 -0.096406 -0.11656 -0.091984 -0.23916 0.25203 -0.027886 -0.082618 -0.38485 0.076972 -0.047485 -0.14113 0.04864 0.081989 0.045039 0.23042 -0.18565 -0.1624 0.015091 0.06202 -0.035575 -0.2849 -0.13271 0.065784 -0.20786 0.1516 -0.33366 0.1919 -0.067566 0.2637 -0.13118 -0.10154 0.19609 0.011369 0.034104 -0.46261 -0.3626 0.13084 0.45151 -0.40341 -0.14325 -0.063028 -0.29921 0.25197 -0.14802 -0.15202 -0.030273 -0.469 -0.1091 -0.20865 0.48293 -0.083679 -0.031946 0.22626 -0.11007 -0.31782 0.2354 0.23078 0.32072 -0.07038 -0.25002 -0.65641 -0.055201 0.096627 -0.45578 0.19824 0.045071 
train 0.016541 -0.14336 -0.18631 -0.06135 -0.11082 -0.062248 -0.40391 0.28258 0.33475 -0.098935 -0.0039672 -0.051292 -0.094811 -0.059 -0.20492 -0.11881 0.30793 0.22212 -0.47383 0.085565 -0.079408 -0.06478 0.20642 0.34818 -0.19342 -0.52876 0.48255 0.21996 -0.40435 0.18016 0.0787 0.20228 0.34195 -0.14736 -0.51062 0.11721 0.028215 0.19977 0.19049 0.13382 0.13853 -0.010971 0.21754 0.019244 -0.32861 0.26364 0.034984 0.55984 -0.22307 0.31498 0.20754 0.01495 0.31598 -0.20915 0.30737 -0.0070912 -0.184 -0.1392 0.12395 -0.15722 -0.13429 -0.059838 -0.19774 -0.031646 0.11084 -0.049027 0.07639 0.10491 -0.20753 0.366 -0.068573 -0.52463 0.045049 0.2352 0.46102 0.22266 0.029483 0.25531 -0.22318 -0.082409 -0.0362 -0.26672 0.17305 -0.28622 0.20276 -0.34204 0.028862 0.086586 0.12543 -0.14419 0.23866 -0.19133 -0.71804 0.02829 -0.25472 0.21993 0.13675 0.15867 -0.047075 0.21383 0.3326 -0.35065 0.60371 0.42303 0.28999 0.057395 0.30386 0.11146 0.0090572 -0.36198 0.20895 -0.16435 0.063508 -0.10409 0.21307 -0.14058 0.47911 -0.43731 0.28967 -0.024457 0.042209 0.25895 0.12738 -0.42608 0.15426 -0.013959 0.54163 0.43736 -0.10231 -0.027776 0.089166 -0.13509 0.40031 0.3485 0.15713 -0.16721 -0.12214 0.12106 0.16859 -0.29388 0.037686 -0.52653 0.4217 -0.22962 0.15488 -0.16893 0.073774 0.25178 0.56693 -0.48362 0.05095 -0.14267 0.013304 0.09466 -0.31696 -0.41912 -0.15616 -0.31997 0.074919 -0.15761 0.51975 -0.083751 -0.20918 -0.30116 -0.032269 0.13644 0.34783 -0.16313 0.16403 -0.41396 0.098292 0.59719 -0.25936 -0.34325 -0.029853 0.023326 0.3778 -0.26219 -0.12578 -0.051877 -0.28141 -0.13415 -0.13105 0.64023 0.019704 -0.082844 0.0056371 -0.30364 -0.13524 0.61227 -0.067361 -0.2253 -0.0041283 -0.18213 -0.56029 -0.38361 -0.20167 -0.052604 0.17377 -0.13693 
car -0.24341 -0.41641 0.13211 -0.33719 -0.15078 -0.17087 -0.58066 0.17073 0.22642 0.26997 0.15596 -0.12556 0.016809 -0.051474 -0.46129 -0.078282 0.40106 0.30125 -0.69965 0.34024 0.3119 0.11827 0.19907 0.10934 0.42092 -0.50727 0.53062 0.33884 -0.48373 0.16265 -0.13616 -0.078403 0.4771 0.21853 -0.173 0.2069 0.41589 -0.10907 0.3704 0.29722 -0.022472 0.0078051 0.55706 -0.23813 -0.44317 0.4501 0.28736 0.25189 -0.28389 -0.009562 0.079559 -0.098402 0.40729 0.16786 0.05139 0.11355 -0.070674 -0.22725 0.070866 -0.25352 -0.23212 -0.14684 -0.38555 -0.28799 0.17529 0.11668 -0.026834 0.016448 -0.09994 0.14431 0.10665 0.030149 -0.41325 0.19092 0.49902 0.11874 0.12885 0.013776 -0.10713 -0.19851 0.13413 -0.14401 0.047842 -0.32853 -0.044501 -0.16057 0.063725 0.28448 0.49774 -0.18771 0.38767 -0.24324 0.071966 -0.31006 -0.35628 0.44107 0.13634 -0.41221 -0.29097 0.41693 0.24649 -0.26263 0.10103 0.50979 -0.023716 0.58668 0.1026 0.45104 -0.12902 -0.8006 0.05779 -0.060608 -0.25594 0.079736 0.0087781 -0.07748 -0.0063249 -0.34794 0.33111 -0.15074 0.34643 -0.034001 -0.25538 -0.0060474 0.11801 0.19721 0.55226 0.47549 -0.57158 0.0025093 0.14434 -0.085994 0.23507 0.42978 -0.096406 -0.11656 -0.091984 -0.23916 0.25203 -0.027886 -0.082618 -0.38485 0.076972 -0.047485 -0.14113 0.04864 0.081989 0.045039 0.23042 -0.18565 -0.1624 0.015091 0.06202 -0.035575 -0.2849 -0.13271 0.065784 -0.20786 0.1516 -0.33366 0.1919 -0.067566 0.2637 -0.13118 -0.10154 0.19609 0.011369 0.034104 -0.46261 -0.3626 0.13084 0.45151 -0.40341 -0.14325 -0.063028 -0.29921 0.25197 -0.14802 -0.15202 -0.030273 -0.469 -0.1091 -0.20865 0.48293 -0.083679 -0.031946 0.22626 -0.11007 -0.31782 0.2354 0.23078 0.32072 -0.07038 -0.25002 -0.65641 -0.055201 0.096627 -0.45578 0.19824 0.045071 
telephone -0.010901 0.10055 -0.30279 0.071759 -0.13946 -0.29409 -0.15636 0.17951 -0.045826 0.00029955 -0.052803 0.23205 0.22889 -0.089322 -0.23818 -0.52608 0.12377 0.38153 -0.57788 0.12592 -0.16805 -0.29321 -0.3102 0.22438 0.17584 -0.38223 0.38221 0.4458 -0.33144 0.0076295 -0.075005 -0.070906 0.24265 -0.45896 -0.49687 -0.17326 0.3751 -0.12592 0.39675 0.31321 0.20348 -0.20237 0.2544 -0.071998 0.12971 0.01344 -0.14678 0.066287 0.13452 0.049421 0.091782 0.27317 0.33618 -0.22423 -0.22933 -0.3715 0.54383 0.090368 0.033251 0.29976 -0.10597 -0.32557 -0.40063 0.048438 -0.049483 -0.013168 0.16904 -0.011817 -0.18828 0.11795 -0.13807 0.10738 -0.32877 0.39097 0.50573 0.277 0.19046 0.53354 -0.1184 -0.45413 0.20718 0.26965 -0.021062 0.041671 -0.31607 -0.35954 0.30119 -0.16129 0.29415 -0.16833 0.046642 -0.37143 -0.31467 0.099237 -0.074105 0.068755 0.10108 -0.36581 -0.13068 0.30013 0.75756 0.33419 0.018601 0.099026 -0.08095 0.35066 -0.24702 -0.10609 0.22932 -0.26994 -0.01215 -0.15545 0.22953 0.11338 -0.20129 0.085715 0.22983 -0.45881 0.026372 0.4271 0.46898 0.18096 -0.043476 0.20912 0.026319 -0.42693 0.51987 0.53457 0.014474 0.066529 0.11097 0.40964 0.49937 -0.19723 -0.32898 -0.14002 -0.057061 0.1583 0.52377 -0.042721 0.31302 0.095081 0.30185 -0.26329 -0.051454 0.16303 -0.19749 0.14796 0.18301 -0.295 0.4175 -0.30256 -0.0011984 -0.42167 0.028865 -0.47181 -0.14517 0.16505 0.59451 0.2284 0.67042 -0.31811 0.18731 -0.21877 0.049499 0.52561 -0.18253 0.025388 -0.44921 0.29008 0.21777 0.47472 -0.5888 -0.5025 -0.37386 -0.34823 0.46898 -0.033882 -0.16716 0.2225 -0.25818 -0.19769 0.028834 0.26412 0.25658 0.25403 0.41498 0.15252 0.33824 -0.11514 0.093298 0.21175 0.082531 0.083731 -0.56159 -0.24435 -0.27383 -0.2545 0.35236 -0.29143 
communication 0.063907 -0.14708 0.015063 -0.15753 0.095522 0.13169 -0.21472 -0.034528 0.20451 0.24838 0.077227 0.27256 -0.27331 -0.036988 -0.18866 -0.41254 0.070246 -0.069992 -0.21096 -0.1578 -0.12257 -0.2914 0.19456 0.35767 -0.030152 -0.16745 0.51245 0.3234 -0.63427 0.29884 0.11985 -0.16599 0.26682 -0.35802 -0.2702 -0.48837 0.067675 -0.071891 0.13631 -0.059997 0.29586 -0.16314 0.12107 0.16522 -0.16186 0.035382 0.14549 0.11873 -0.095177 0.00025462 0.19161 0.16105 0.17145 -0.26387 0.24861 -0.28926 0.28565 -0.25262 0.066238 0.43438 -0.10446 -0.14583 0.083775 -0.11119 -0.037712 -0.11299 0.070219 0.17202 -0.040538 0.40149 -0.21293 0.2299 -0.34068 0.18785 0.44276 0.21778 0.061416 0.28713 -0.1285 -0.20333 -0.24758 0.26867 -0.30614 0.1346 -0.21861 -0.25066 -0.041523 -0.022712 0.00032341 -0.16172 -0.15311 -0.31473 -0.036041 0.1882 -0.29653 -0.26805 0.12174 0.075906 0.12247 0.15815 0.45185 -0.050585 0.39083 -0.065095 -0.21131 0.39849 0.043879 -0.10565 -0.029563 0.051957 0.15751 0.11154 0.098078 -0.18871 -0.45424 0.34949 -0.15872 0.028138 0.12551 0.11756 0.36639 0.77125 -0.033446 0.075956 0.10153 0.091136 0.27578 0.27057 -0.018527 -0.47251 0.23625 0.073274 0.68885 -0.071228 -0.063361 0.092282 -0.32929 0.30713 0.037036 -0.072032 -0.24868 0.23168 0.34134 -0.19221 -0.32065 0.55288 0.089037 0.082566 0.14389 -0.41109 0.056833 -0.12973 0.058439 -0.17285 -0.20829 -0.074104 -0.16295 -0.024952 0.35151 0.33328 0.15199 -0.49863 -0.032807 -0.37512 0.31691 0.29831 -0.51515 -0.0069483 0.17495 0.058285 -0.23631 -0.070053 -0.064262 -0.13197 -0.22311 0.1463 0.32549 -0.0075167 -0.30859 0.017304 -0.31382 -0.054112 -0.18181 0.35348 -0.084829 0.056689 -0.26149 0.20069 0.36458 -0.080111 0.093529 0.24896 0.005914 0.35468 -0.37689 -0.22463 -0.17415 -0.054222 0.28603 -0.5019 
television -0.51535 -0.085543 0.10617 0.016855 -0.29262 0.17156 -0.38133 -0.032279 0.010802 -0.09942 0.09108 0.18834 0.057996 -0.12278 -0.49048 -0.39495 0.3245 -0.0019373 -0.22409 -0.1799 -0.18876 0.066916 0.03432 0.080482 0.0059505 -0.34105 0.14298 0.46803 -0.42997 0.31749 -0.44841 0.10553 0.29151 -0.15053 0.069414 -0.37655 0.38017 -0.39797 -0.0067048 0.40768 -0.15836 -0.00038287 0.13454 0.19955 -0.46324 -0.059762 0.20163 0.27328 0.33506 0.074987 0.28827 -0.47736 0.36068 -0.22943 0.10127 -0.18574 0.031493 -0.053622 -0.00058718 0.045499 0.091438 -0.33244 -0.45816 -0.042008 0.22877 -0.45566 0.12996 0.10941 0.08843 0.33541 -0.040774 0.31206 -0.19657 -0.33578 0.55194 0.093625 -0.29026 0.26123 -0.12793 -0.24674 0.26643 0.22346 -0.22867 0.054091 0.081942 -0.13037 0.56234 0.18773 0.51784 -0.29407 0.0036785 0.047061 0.037637 0.13833 0.19477 -0.0087687 0.59832 -0.41719 -0.22651 0.30505 -0.3249 -0.033477 -0.00727 -0.09365 0.14808 0.23337 0.28967 -0.15876 -0.02264 0.028142 -0.28043 0.19513 0.10447 -0.033583 -0.17725 0.28439 -0.23632 -0.23146 -0.065868 -0.029262 0.13792 -0.065075 0.16976 -0.25666 -0.27185 0.30158 0.66341 0.42809 0.21363 -0.23786 -0.19609 0.28859 0.19583 0.1077 -0.36777 0.50333 0.15925 0.096003 0.31528 0.17581 -0.1038 0.53508 0.16811 0.086511 0.15362 0.24957 -0.25204 0.074226 -0.0080207 -0.37501 -0.14354 -0.0099522 -0.10413 -0.2714 0.21131 -0.31278 -0.23963 0.0057279 0.22105 0.088286 -0.11827 0.11469 -0.52506 -0.61882 -0.048697 0.21102 0.022847 0.05331 0.04086 -0.5994 0.084901 0.36591 0.052561 0.14045 -0.5677 -0.49368 0.68311 -0.24666 -0.17427 -0.31994 -0.052201 0.072744 -0.28921 0.64326 -0.10684 0.055158 0.47911 0.50406 0.17816 -0.14273 0.16548 -0.10336 0.1386 0.43283 -0.27229 -0.16053 -0.11295 -0.31274 -0.21759 -0.43083 
radio -0.36163 -0.0063056 -0.046695 0.16435 -0.099504 0.14812 -0.52381 0.059996 0.39597 -0.31343 0.0034933 0.34466 0.30675 -0.31466 -0.011723 -0.49591 0.387 0.0019361 -0.69701 -0.22825 -0.15164 -0.043346 -0.22008 0.18422 0.16556 -0.47205 0.27749 0.14963 -0.12743 0.064593 -0.26072 0.20441 0.33892 -0.21583 -0.46282 -0.46013 -0.030597 -0.34647 0.29604 0.44607 -0.058832 -0.075264 0.10623 0.11088 -0.097811 0.15651 0.30904 0.40183 -0.13537 0.0014997 0.11539 -0.40464 0.42052 -0.25079 0.1233 -0.29591 0.0744 -0.044044 0.25135 0.11031 0.025721 -0.16421 -0.45221 0.13468 0.072803 -0.22047 -0.091854 -0.060642 -0.068394 0.042696 -0.078029 0.32538 0.0057234 -0.42449 0.41318 0.023539 -0.26989 0.36898 0.0028232 -0.36605 0.37445 0.3176 -0.1369 0.046186 -0.078857 0.18688 0.099103 0.0056032 0.081085 0.077436 -0.18316 -0.20605 -0.345 0.22639 0.20789 0.10017 0.23408 -0.48955 -0.12341 -0.17717 0.22652 0.11254 0.27974 0.098733 -0.064991 0.2098 0.05761 -0.17997 0.0056286 -0.15786 0.15111 -0.17983 0.068904 0.080638 -0.018139 0.1578 -0.19183 -0.10125 -0.065856 0.067571 -0.050625 0.18729 0.058969 -0.25382 -0.11164 0.23705 0.54286 0.24452 0.12108 -0.010143 0.017785 -0.21107 0.57283 -0.3368 -0.21839 0.0983 0.059647 0.33995 0.24775 -0.0046219 -0.0046757 0.31032 0.34727 -0.47299 0.065872 0.63025 -0.13782 0.065327 0.065405 -0.41204 -0.081651 0.089228 -0.095347 -0.3142 -0.20765 -0.33072 -0.13513 0.1196 0.29319 -0.077562 0.09336 0.21203 -0.38713 -0.40268 0.18014 0.3126 0.092375 0.045816 -0.32379 -0.52423 0.04121 0.18913 0.09987 0.1355 -0.78586 -0.39189 0.52914 0.1183 -0.52824 -0.0027979 -0.1627 -0.15817 -0.047472 0.579 0.24176 -0.024294 0.19931 0.39015 0.082125 -0.41446 0.41573 -0.14206 0.34637 0.51669 -0.24995 -0.26784 -0.39255 -0.1358 0.069104 -0.49996 
media -0.23082 -0.30121 -0.0030293 -0.14437 -0.21447 0.11512 -0.531 0.010011 0.097478 -0.11339 -0.01215 -0.01174 -0.17839 -0.29181 -0.090613 -0.56589 0.30012 0.21688 -0.1964 -0.28308 0.11545 0.23355 0.15209 0.52357 0.002626 -0.3883 0.18928 0.04691 -0.63579 0.38806 -0.34406 -0.12738 0.35182 0.071813 -0.26936 -0.28247 0.47149 -0.41457 -0.044137 -0.023454 0.32613 -0.091137 -0.014766 0.2547 -0.24808 -0.055064 0.2401 0.26288 -0.2249 0.054699 0.28921 -0.21203 0.60952 0.17622 -0.18135 -0.24532 -0.16803 0.02263 -0.16438 0.1862 0.072037 -0.13878 0.10894 0.052551 0.23685 -0.3173 0.33381 0.38163 -0.13516 0.25953 -0.15608 0.49673 -0.14799 -0.020252 0.63012 0.35055 0.034944 0.54951 0.076163 -0.15946 -0.015434 0.70346 -0.12808 0.42669 -0.018835 0.074368 -0.0073895 -0.12883 0.18676 -0.22141 -0.099682 -0.30231 0.13315 -0.14776 -0.060317 0.24041 0.19956 -0.053281 -0.18334 0.052982 0.14251 0.33292 0.33549 -0.2852 -0.14674 -0.082975 -0.0079578 0.12335 -0.23191 -0.27798 -0.019476 0.26827 -0.33133 -0.28748 -0.19227 -0.0091159 -0.5482 -0.13714 -0.012973 0.20917 0.11675 0.37189 -0.090573 -0.02619 -0.49738 0.21307 0.52064 0.040766 0.050956 -0.26602 0.044793 -0.23356 0.48345 -0.15461 -0.411 -0.080776 0.16558 0.25683 -0.16367 0.37992 -0.090969 0.31867 0.067738 0.034951 -0.063428 0.17129 -0.11586 0.010448 -0.16767 -0.68325 0.27176 0.16894 0.025478 0.10214 0.18749 -0.32812 0.16903 0.28147 0.42381 0.092873 -0.2605 0.16742 -0.23045 -0.33985 0.24779 0.18834 -0.49617 -0.29886 0.036089 -0.30141 -0.13836 0.090613 0.37235 -0.070544 -0.42249 -0.3666 0.14679 0.15955 0.13282 -0.13856 -0.0075117 0.13084 0.40223 0.49692 0.31538 -0.10705 -0.042225 0.33396 0.11028 0.022342 0.081504 -0.12905 0.0092963 0.096427 -0.29008 -0.45429 0.014475 -0.078568 0.18504 -0.24637 
radio -0.36163 -0.0063056 -0.046695 0.16435 -0.099504 0.14812 -0.52381 0.059996 0.39597 -0.31343 0.0034933 0.34466 0.30675 -0.31466 -0.011723 -0.49591 0.387 0.0019361 -0.69701 -0.22825 -0.15164 -0.043346 -0.22008 0.18422 0.16556 -0.47205 0.27749 0.14963 -0.12743 0.064593 -0.26072 0.20441 0.33892 -0.21583 -0.46282 -0.46013 -0.030597 -0.34647 0.29604 0.44607 -0.058832 -0.075264 0.10623 0.11088 -0.097811 0.15651 0.30904 0.40183 -0.13537 0.0014997 0.11539 -0.40464 0.42052 -0.25079 0.1233 -0.29591 0.0744 -0.044044 0.25135 0.11031 0.025721 -0.16421 -0.45221 0.13468 0.072803 -0.22047 -0.091854 -0.060642 -0.068394 0.042696 -0.078029 0.32538 0.0057234 -0.42449 0.41318 0.023539 -0.26989 0.36898 0.0028232 -0.36605 0.37445 0.3176 -0.1369 0.046186 -0.078857 0.18688 0.099103 0.0056032 0.081085 0.077436 -0.18316 -0.20605 -0.345 0.22639 0.20789 0.10017 0.23408 -0.48955 -0.12341 -0.17717 0.22652 0.11254 0.27974 0.098733 -0.064991 0.2098 0.05761 -0.17997 0.0056286 -0.15786 0.15111 -0.17983 0.068904 0.080638 -0.018139 0.1578 -0.19183 -0.10125 -0.065856 0.067571 -0.050625 0.18729 0.058969 -0.25382 -0.11164 0.23705 0.54286 0.24452 0.12108 -0.010143 0.017785 -0.21107 0.57283 -0.3368 -0.21839 0.0983 0.059647 0.33995 0.24775 -0.0046219 -0.0046757 0.31032 0.34727 -0.47299 0.065872 0.63025 -0.13782 0.065327 0.065405 -0.41204 -0.081651 0.089228 -0.095347 -0.3142 -0.20765 -0.33072 -0.13513 0.1196 0.29319 -0.077562 0.09336 0.21203 -0.38713 -0.40268 0.18014 0.3126 0.092375 0.045816 -0.32379 -0.52423 0.04121 0.18913 0.09987 0.1355 -0.78586 -0.39189 0.52914 0.1183 -0.52824 -0.0027979 -0.1627 -0.15817 -0.047472 0.579 0.24176 -0.024294 0.19931 0.39015 0.082125 -0.41446 0.41573 -0.14206 0.34637 0.51669 -0.24995 -0.26784 -0.39255 -0.1358 0.069104 -0.49996 
drug -0.10736 -0.47089 0.2004 -0.21183 0.044872 -0.48845 -0.19951 0.22199 -0.089154 -0.21133 0.30453 -0.17086 0.20116 -0.2069 -0.36257 -0.10167 0.11922 0.25009 -0.58036 -0.13103 0.34525 0.3029 -0.21549 0.28137 0.24242 -0.077775 0.019273 0.62494 -0.22829 0.46509 -0.45511 -0.40882 0.055058 -0.099056 0.2409 0.34438 0.15865 0.14343 0.28122 -0.28977 0.47949 -0.50668 0.43822 0.09361 0.067453 0.27611 -0.16235 -0.060107 -0.11971 -0.042023 -0.054219 -0.68926 0.27243 -0.0038926 0.030274 0.12003 -0.018536 -0.5083 0.14613 0.053951 0.31192 -0.060277 -0.51042 -0.47328 -0.044724 -0.016528 0.15829 -0.12789 0.27052 0.50115 0.065071 0.25856 -0.077348 0.39722 0.23154 0.21676 -0.00084354 0.077122 -0.48517 -0.60291 -0.046532 0.25362 -0.41631 0.1168 0.15621 -0.14991 0.15953 0.1485 0.34782 0.14424 0.071424 -0.34148 -0.12357 0.018826 0.1189 -0.0058694 -0.63595 -0.51995 0.54059 0.29766 -0.119 0.20215 0.12475 -0.069037 -0.65361 0.37048 -0.24043 -0.38393 0.48714 -0.039702 -0.23496 -0.079165 -0.55129 -0.065996 -0.42608 -0.11079 0.4871 0.10556 0.29534 -0.087137 -0.1299 -0.0073717 -0.38659 -0.16769 -0.48172 0.2782 0.44942 0.27312 0.13507 0.2021 0.26297 0.11754 0.25473 0.039834 -0.34734 0.079923 -0.14395 0.052947 -0.016584 -0.030181 -0.30989 -0.11375 0.4107 -0.60707 -0.56558 0.061403 0.15652 0.020414 0.11022 -0.42341 -0.074216 -0.083978 -0.15842 0.4633 -0.32957 0.070877 -0.12889 -0.03203 -0.37659 0.28482 -0.17306 -0.31628 0.050362 -0.15529 -0.043226 0.14256 -0.54852 -0.0034702 -0.41079 -0.096059 0.11461 0.2975 0.12722 -0.35173 -0.19295 -0.061037 0.14646 -0.56507 0.031206 -0.15812 -0.2615 -0.53522 -0.0485 0.30415 0.20124 -0.15013 0.05209 0.39878 -0.1322 0.090764 -0.053526 -0.3283 -0.16681 -0.46506 -0.12175 -0.48707 -0.30433 -0.057472 -0.0949 0.019763 
abuse 0.12341 -0.51224 -0.30625 -0.12456 -0.096638 -0.41816 -0.35295 0.051116 -0.11875 0.0090724 0.15297 0.17627 -0.065489 -0.20761 -0.22891 -0.63122 0.24329 -0.26801 -0.33527 0.0083815 0.1803 0.078994 0.071026 0.47773 -0.057339 -0.32323 0.29766 0.18073 0.15583 0.73159 -0.14019 -0.24011 0.14656 -0.0050016 0.14974 -0.071751 0.21564 -0.024085 -0.10622 -0.062204 0.14412 -0.46501 0.00053767 -0.50534 0.10505 -0.20796 -0.03899 -0.10745 -0.25428 0.2007 -0.23244 -0.24168 0.22852 -0.4084 0.028511 -0.011354 0.080538 -0.45097 0.040809 0.27892 -0.18872 -0.025422 -0.078246 -0.42559 -0.1869 -0.20191 0.31274 -0.41071 -0.00011189 0.58539 -0.10203 0.37948 -0.34733 0.34896 0.34377 0.59696 -0.25102 0.16429 -0.3673 -0.18126 0.18837 0.034595 -0.2768 -0.15496 -0.22342 -0.19555 0.034558 -0.064029 0.12841 0.086542 -0.016462 -0.10968 -0.3019 -0.006979 -0.38563 -0.23317 -0.17136 0.098716 -0.052023 0.20152 0.0027928 -0.059609 -0.06619 -0.1672 -0.22571 0.36983 -0.046045 -0.31419 0.30781 -0.20043 -0.41178 0.17745 -0.49266 -0.16859 -0.34495 -0.043469 0.20027 0.029769 0.42052 0.062638 0.061345 0.22976 -0.25972 -0.18651 -1.0657 -0.20631 0.18963 0.14718 0.13759 -0.37232 0.52948 -0.080051 -0.16712 0.1361 -0.55527 0.2489 -0.14922 -0.067644 -0.34586 -0.015364 -0.29514 0.54726 0.10828 -0.46173 -0.10877 0.21582 0.050835 -0.071982 -0.14835 -0.16552 -0.24212 -0.45368 -0.059124 0.37899 -0.21077 0.099792 -0.25875 0.16232 -0.068378 0.54191 3.953e-05 0.31783 0.062439 -0.2479 -0.073243 0.43952 -0.68187 -0.12303 -0.19382 -0.10952 -0.28634 0.27739 -0.11087 -0.63512 -0.28276 -0.012101 0.21028 -0.30086 0.0021313 -0.31563 -0.27965 -0.32773 0.27351 0.26258 0.20005 0.16128 -0.13562 0.34658 0.09989 0.10805 -0.55503 -0.099252 -0.23214 0.12178 -0.066421 -0.29101 -0.059901 0.06932 -0.3325 -0.28458 
bread -0.030221 -0.020673 0.39529 -0.24401 -0.10321 0.23205 -0.27286 0.55833 -0.34649 0.021242 -0.022796 -0.44772 -0.091323 0.19499 -0.21232 -0.19306 0.045317 -0.012244 -0.17936 0.29952 0.42969 0.099929 -0.28101 0.0031788 -0.24521 -0.25124 0.0097718 0.034009 -0.44857 0.58583 0.34031 0.01601 0.25236 0.16813 -0.10869 -0.030005 0.081907 0.14044 0.21592 0.090002 -0.29178 0.37124 0.15559 0.025536 -0.0093085 0.10354 0.33198 0.17079 -0.34065 -0.089214 -0.23553 -0.42039 0.5734 0.029176 -0.039715 0.046114 0.25981 -0.11753 0.11984 -0.63423 0.27357 -0.18981 0.0962 -0.30936 -0.20099 -0.2716 0.34046 0.030032 0.07904 0.23001 -0.072487 0.41135 -0.41793 0.17313 0.078321 0.10835 0.033063 0.79567 -0.78354 0.020195 -0.22482 0.33462 -0.25695 0.047492 0.355 0.0061567 0.063131 0.6241 0.32512 0.21271 0.3553 0.084014 -0.043119 0.44022 -0.28439 0.21179 -0.15586 -0.58553 0.11198 0.019857 0.43177 -0.18767 -0.029757 0.22107 -0.052332 -0.2085 -0.14076 0.28991 0.089107 0.12966 0.26665 -0.33072 -0.05062 0.44205 -0.050583 0.4934 0.052293 -0.24645 0.20983 0.29669 0.11023 0.33809 -0.11313 0.045769 -0.63572 -0.10893 0.36652 0.23976 -0.056012 0.0026509 0.33623 0.0075354 0.099968 -0.20222 -0.5248 0.42669 0.025607 0.097019 0.22695 0.010389 0.37441 -0.25701 0.34624 -0.2329 -0.11968 0.042168 0.15447 0.13715 0.2186 -0.19183 0.17556 0.17346 -0.097879 0.32996 0.26512 -0.25496 0.10714 -0.25654 0.2961 -0.10914 0.074139 0.37336 -0.059294 0.12702 -0.022883 0.58481 0.24536 0.21306 0.13208 -0.13295 -0.18056 0.19242 -0.51874 -0.5818 0.18729 -0.16201 0.22846 -0.19921 -0.37449 -0.013399 0.22491 -0.30221 -0.16128 0.84215 -0.18297 -0.35015 0.089551 0.068625 0.16503 0.11263 0.31369 0.096734 0.14141 -0.014617 0.21821 -0.38234 -0.14081 -0.10401 -0.24064 -0.4133 
butter 0.21237 0.12803 0.41159 -0.058721 -0.20912 0.13794 -0.45474 0.55745 -0.25235 -0.13516 0.12491 -0.47849 -0.086462 0.042717 0.11629 -0.099568 -0.03779 -0.03874 -0.10483 0.11173 0.70876 0.26249 -0.24438 0.1305 -0.23118 -0.23834 -0.013288 -0.019475 -0.26461 0.65986 0.17397 -0.026551 0.41269 0.21388 -0.15251 0.096136 -0.037829 0.039668 0.31871 -0.00098412 -0.24981 0.32975 0.1795 0.11737 0.1043 0.1667 0.1575 0.18577 -0.020585 -0.088382 -0.17129 -0.42446 0.72345 -0.19055 -0.022877 -0.3069 0.030095 -0.025093 0.28741 -0.42478 0.3714 -0.020949 -0.041928 -0.26521 0.11529 -0.019299 0.35185 0.0075331 0.27537 0.12123 -0.12097 0.32886 -0.49585 0.2185 0.013317 0.068821 0.068119 0.62957 -0.60319 -0.32212 -0.41801 0.080978 -0.384 0.27288 0.402 -0.037672 0.34297 0.68551 0.28232 0.15644 0.43229 0.14636 0.076904 0.58849 -0.2724 0.039468 -0.076903 -0.45062 0.28121 -0.036311 0.2969 -0.38701 0.025419 -0.029298 -0.30986 -0.17754 -0.14302 0.15534 0.25398 -0.14717 0.57514 -0.30861 -0.19871 0.46781 -0.071517 0.39495 0.080308 -0.32314 0.3313 0.36476 0.11608 0.11048 -0.19817 0.13133 -0.229 -0.47523 0.4737 0.18067 0.020609 0.069213 0.39615 -0.18584 -0.036162 -0.065962 -0.59773 0.37047 -0.06338 0.028054 -0.031959 0.202 0.5798 -0.22687 0.014273 -0.09969 -0.11333 -0.087063 -0.088566 0.27566 0.17934 -0.57065 -0.059041 0.027769 -0.18831 0.42451 0.31211 -0.11227 0.26438 -0.02489 0.16294 -0.17225 -0.038744 0.38817 -0.1727 0.36453 0.38515 0.33564 0.22278 -0.15284 -0.055474 0.069344 -0.44229 0.49939 -0.44704 -0.47042 -0.28408 -0.34923 0.13535 -0.29516 -0.28014 -0.036337 0.22616 -0.17719 -0.16203 0.47327 -0.14033 -0.1459 0.34888 0.11068 0.12192 0.23623 0.24021 0.10698 -0.03864 -0.025676 -0.11686 -0.47149 0.07731 0.024766 -0.037523 -0.41004 
cucumber 0.014857 0.40736 0.056137 -0.35125 -0.098768 0.34597 -0.62915 0.72186 0.19991 0.087274 -0.10493 -0.1697 0.11119 0.23233 -0.17423 -0.075964 -0.45802 0.25835 0.40272 0.15551 0.45189 0.35812 0.13679 0.062615 -0.14184 -0.31348 0.042482 0.23239 -0.6004 0.48858 -0.022088 -0.012176 0.09685 0.37655 -0.3621 -0.28623 -0.065261 0.20759 0.37222 0.22612 -0.57326 0.27456 0.42562 0.063655 -0.031762 -0.19499 0.16303 -0.082379 0.17463 -0.13498 -0.044774 -0.59113 0.34195 -0.13834 -0.34283 -0.2298 -0.4424 0.12345 0.61771 -0.47973 0.5328 0.071318 0.013744 -0.0024312 0.21644 -0.051269 0.59444 -0.059589 0.26328 0.1436 -0.28714 0.29857 -0.43073 0.22001 0.16984 -0.0091968 0.3083 0.56264 -0.25225 -0.042379 -0.46049 0.20456 -0.14851 0.21319 0.22294 -0.30317 0.013415 0.38754 0.37257 -0.069419 0.08132 0.14037 0.025871 -0.14021 -0.42707 0.13422 -0.50314 -0.58545 0.16546 -0.21961 0.13293 -0.61294 -0.13752 0.36808 0.19869 0.13918 -0.15033 0.45784 0.015273 -0.090574 0.34419 -0.44136 -0.091974 0.181 -0.12632 0.36437 -0.0063608 0.047783 -0.024733 0.23312 -0.3209 0.28418 -0.24548 -0.14264 -0.12481 -0.0053988 0.030901 0.39577 0.28421 -0.16133 0.31501 -0.035313 0.0776 -0.28507 -0.68914 0.055974 -0.4328 -0.106 -0.019856 0.35579 0.64304 -0.16619 0.15706 0.38357 -0.15524 0.014738 0.071826 0.0035076 0.3358 -0.079887 -0.10264 0.10873 -0.34491 0.2692 0.2834 0.33917 -0.34882 -0.06619 0.0008991 -0.17614 -0.10097 0.35653 0.13133 0.086956 0.30394 0.27695 -0.019558 -0.0095085 -0.14598 -0.23017 -0.078927 0.17126 -0.43413 -0.12646 -0.35419 -0.04622 0.31352 -0.21703 -0.21249 0.14867 -0.013266 0.019354 -0.23005 0.33507 0.22851 0.038435 0.25629 0.080566 0.4739 0.24451 -0.12404 -0.082813 0.59766 0.057695 -0.33099 -0.36367 -0.16047 0.28315 -0.12302 -0.79094 
potato -0.17329 0.26527 0.11796 -0.3309 0.0084657 0.30026 -0.4819 0.69687 -0.0025738 -0.038316 0.10985 -0.17959 -0.1272 -0.19478 0.034325 -0.11891 -0.13084 0.066631 -0.58559 0.26271 0.52412 0.22547 -0.17975 0.278 -0.23187 -0.33896 0.30128 0.14318 -0.2677 0.50959 0.21243 -0.030632 0.49171 0.15658 -0.31734 -0.1871 -0.21434 0.19376 -0.062545 0.15441 -0.17538 0.21912 0.53262 0.17027 0.098175 -0.14261 0.049625 0.24461 0.087541 -0.17358 0.10668 -0.72509 0.33146 -0.044097 -0.1863 -0.098506 -0.081425 0.34381 0.70208 -0.31339 0.22921 0.016048 -0.13657 -0.0033313 0.20638 0.071315 0.68099 0.14848 0.10129 0.14483 -0.25424 0.38315 -0.27561 0.44224 0.16736 -0.11755 0.00037141 0.68838 -0.46627 -0.30331 -0.16408 0.088728 -0.23219 0.31722 0.36958 -0.27053 0.2658 0.64961 0.25003 0.052954 0.13966 -0.14785 -0.073773 0.3042 -0.48938 0.23722 -0.46724 -0.48386 0.2498 -0.093444 -0.035477 -0.31022 -0.016256 -0.099074 -0.025249 0.19901 -0.10269 -0.024856 -0.037624 0.066997 0.30656 -0.28342 0.076312 0.16586 -0.26066 0.62879 0.16175 -0.26668 -0.084787 0.4729 -0.31849 0.18481 -0.20681 0.019944 -0.069518 0.1384 0.24032 0.23678 0.15037 0.32245 0.33366 0.17726 -0.22789 -0.31566 -0.68998 0.024824 -0.37651 0.047401 0.203 0.14662 0.55985 -0.13411 0.31324 0.11501 -0.17307 0.20428 -0.096222 0.07204 0.24875 -0.18087 0.022329 0.1598 -0.15088 0.28176 0.26008 0.22249 0.14937 -0.05004 0.24277 -0.369 -0.033765 0.31169 -0.068379 0.26069 0.44832 0.3255 0.21243 0.14464 0.10199 0.039892 -0.059374 0.38358 -0.52634 -0.35472 -0.32195 -0.16467 0.23286 -0.15407 -0.36668 0.010863 0.13477 -0.052303 -0.30336 0.46024 0.021393 0.032735 0.2887 -0.12002 0.029167 0.50569 0.15066 0.21005 0.4738 -0.069969 0.065529 -0.20433 -0.024671 0.15472 -0.2509 -0.34294 
doctor -0.086781 0.034601 -0.00063468 0.017511 0.084807 -0.2494 -0.43926 0.056677 0.13374 0.069428 0.22758 0.05914 -0.0081908 -0.25385 -0.11049 -0.35097 -0.12092 0.029087 -0.063912 0.50201 -0.17672 -0.083194 0.17013 0.35128 -0.28158 -0.28086 0.18603 0.18495 -0.27581 0.46942 -0.074191 0.35247 0.076987 -0.45709 0.24503 0.024919 0.034149 0.23901 0.50888 0.068065 -0.059393 0.011979 0.092979 -0.10384 -0.63519 0.21598 -0.013089 -0.092578 -0.29768 -0.08994 0.14114 -0.38645 0.39702 -0.035297 0.14524 0.34752 0.22525 0.26846 -0.24078 0.34317 0.22587 0.23989 -0.20178 -0.26139 0.050432 0.11398 -0.093427 -0.14804 0.19054 0.020555 0.11711 -0.1011 0.1418 0.15421 0.32421 0.011137 0.13443 0.32491 -0.37413 -0.2817 -0.27935 -0.029277 0.29617 -0.24966 0.23839 -0.12095 0.34353 0.37439 0.26667 -0.24208 -0.1096 -0.054525 -0.20326 0.42776 -0.023529 -0.13102 -0.20887 -0.35559 -0.12845 0.1565 -0.40574 -0.080156 -0.14316 0.1618 -0.16394 0.34723 0.092757 -0.17764 -0.29325 -0.12189 -0.52512 0.40823 -0.14181 -0.056581 -0.2387 0.038018 0.18621 0.084525 0.088206 0.097085 0.13939 0.49316 0.084266 -0.13841 0.017838 0.14001 0.6705 0.34729 0.084351 -0.14704 0.096073 0.069467 0.4082 -0.33216 -0.61143 -0.089073 -0.28193 -0.023258 0.098141 -0.1293 0.043196 0.27089 -0.010001 0.081498 0.4673 0.44565 -0.22869 -0.17375 0.029156 0.082507 0.1337 0.47726 -0.16508 0.18651 -0.60423 -0.21994 -0.20249 -0.20488 0.31034 0.13956 -0.063074 -0.068595 0.094011 -0.1578 -0.092108 0.27226 0.0025205 -0.047377 -0.041615 -0.31057 0.011916 0.092929 -0.40374 -0.18383 -0.26277 -0.40339 0.73341 -0.38582 -0.23809 0.041263 -0.14754 -0.043282 -0.28006 0.78079 0.39023 -0.53103 0.14807 0.11077 0.023899 -0.086593 -0.10514 -0.57037 -0.10958 -0.21592 -0.20861 -0.42164 -0.26777 -0.21047 -0.14856 -0.20424 
nurse -0.22367 0.0047113 0.028326 0.28512 -0.098691 -0.28267 -0.36896 -0.31735 0.18139 0.13627 0.1103 -0.1249 0.45235 -0.040667 -0.23826 -0.67689 0.24495 0.24816 0.059705 0.21799 -0.036675 -0.059955 -0.29181 0.12416 -0.3442 -0.20127 0.30778 0.056347 -0.14215 0.39771 0.27783 0.2196 -0.11794 -0.23417 0.21698 -0.095355 0.21992 0.424 0.25704 0.072987 -0.044803 0.065208 -0.23212 0.29411 -0.44474 -0.013145 -0.16722 -0.19686 0.12907 -0.15 0.22675 -0.33954 0.41671 -0.063997 -0.030085 0.24943 -0.15839 -0.14816 -0.27627 0.30146 0.12838 0.016336 -0.0090946 -0.23735 0.40874 0.24687 0.11005 -0.1934 0.053766 -0.14093 -0.11377 0.0032042 -0.50383 0.14521 0.62186 0.20314 0.17345 0.55984 -0.26787 -0.14371 -0.46505 -0.19906 -0.050062 -0.34892 0.13828 0.0014706 -0.16137 0.5692 0.17257 -0.014923 0.29419 -0.12691 -0.53136 0.28969 -0.05136 -0.043097 -0.34969 -0.019579 0.12331 0.18781 -0.15685 -0.15238 0.069676 0.30013 -0.31585 0.58145 -0.29124 -0.31082 0.23595 -0.1595 -0.1925 0.045973 -0.28024 -0.0070161 -0.11797 0.14849 0.14719 0.035305 -0.22053 0.09632 0.30283 0.30881 -0.0026332 -0.40745 0.11012 -0.16595 0.48142 0.55503 0.02935 0.040713 0.425 0.2045 0.19379 0.17912 -0.3233 -0.20254 -0.045877 0.37541 0.25672 -0.12626 -0.20024 0.56962 -0.22028 -0.095461 0.29507 0.020402 -0.19747 -0.15384 -0.23656 0.082732 -0.0055125 0.1387 -0.086037 0.057049 -0.20237 -0.47931 -0.40128 -0.07281 0.028188 0.32927 0.26541 0.21338 0.037645 -0.031902 -0.059279 0.19902 -0.2484 -0.23684 -0.13236 -0.083675 -0.21363 -0.13085 -0.37474 -0.23575 -0.35698 -0.15491 0.44776 -0.50771 -0.18297 -0.50025 -0.31001 -0.41602 -0.27794 0.81045 -0.090248 -0.18042 0.4122 0.23401 0.44692 0.18884 -0.20394 -0.4074 -0.12754 -0.14921 -0.57007 0.0062483 -0.23267 0.10949 0.044862 0.13089 
professor 0.17099 0.12362 0.016067 -0.013986 -0.016522 0.29818 -0.49246 -0.27661 -0.10108 0.41329 0.12721 0.43556 -0.019196 -0.35885 -0.0021848 -0.61235 -0.37377 0.16295 0.10093 -0.04008 -0.2114 0.25845 0.34464 0.34319 -0.037113 -0.45279 0.23066 0.29878 -0.080912 0.52253 0.24311 0.24862 -0.16247 0.049689 0.13715 0.013888 0.03949 0.26083 0.27353 -0.13503 -0.035447 -0.12634 -0.16082 -0.096486 -0.55417 0.2356 0.11782 -0.11741 -0.011711 -0.36278 0.20185 0.029715 0.33943 -0.33847 0.3813 0.3287 0.25084 0.062817 -0.35905 0.094113 0.11385 0.45436 -0.48783 0.018136 0.35052 -0.052365 0.19871 -0.032343 0.1032 0.27563 0.48327 0.041725 0.052776 0.47422 0.49854 0.085527 0.44379 0.34322 -0.18751 -0.039472 -0.46969 -0.066569 0.23874 -0.30103 0.054199 -0.23585 -0.35011 0.49558 -0.13565 -0.063106 -0.23764 -0.20436 -0.14625 -0.021198 0.085037 -0.016569 -0.5423 -0.17133 -0.3 0.32146 -0.23041 -0.17112 0.54083 -0.0047448 0.1754 0.14048 0.2 -0.49464 -0.11873 -0.25771 0.0099966 0.31875 0.021899 -0.31263 -0.25317 0.097292 0.11419 0.20522 -0.11255 0.10181 0.062903 0.28194 0.038165 -0.20118 0.18433 0.17808 0.6087 0.048542 -0.30841 -0.32478 0.2386 0.08072 0.26209 -0.44325 -0.27699 0.05227 -0.2309 -0.11079 -0.32171 -0.15839 -0.015396 -0.076192 0.1038 -0.28282 0.078915 0.33788 -0.43828 0.027871 -0.24164 0.093531 -0.078017 0.69939 0.039172 -0.043658 -0.25454 -0.052631 0.22026 -0.31058 0.76465 0.39419 -0.36409 0.12036 -0.061593 -0.16555 0.25752 0.26495 -0.033072 0.37483 0.28869 -0.25497 0.027618 -0.14286 -0.4989 -0.17368 -0.27937 -0.16481 0.39857 -0.17435 -0.21452 -0.26797 -0.10863 -0.14656 -0.50025 0.24398 0.13377 -0.71237 -0.11181 0.13319 0.17871 -0.24094 0.23992 -0.23723 -0.035052 0.082892 -0.25004 -0.4726 -0.17217 -0.23017 -0.16175 -0.024945 
doctor -0.086781 0.034601 -0.00063468 0.017511 0.084807 -0.2494 -0.43926 0.056677 0.13374 0.069428 0.22758 0.05914 -0.0081908 -0.25385 -0.11049 -0.35097 -0.12092 0.029087 -0.063912 0.50201 -0.17672 -0.083194 0.17013 0.35128 -0.28158 -0.28086 0.18603 0.18495 -0.27581 0.46942 -0.074191 0.35247 0.076987 -0.45709 0.24503 0.024919 0.034149 0.23901 0.50888 0.068065 -0.059393 0.011979 0.092979 -0.10384 -0.63519 0.21598 -0.013089 -0.092578 -0.29768 -0.08994 0.14114 -0.38645 0.39702 -0.035297 0.14524 0.34752 0.22525 0.26846 -0.24078 0.34317 0.22587 0.23989 -0.20178 -0.26139 0.050432 0.11398 -0.093427 -0.14804 0.19054 0.020555 0.11711 -0.1011 0.1418 0.15421 0.32421 0.011137 0.13443 0.32491 -0.37413 -0.2817 -0.27935 -0.029277 0.29617 -0.24966 0.23839 -0.12095 0.34353 0.37439 0.26667 -0.24208 -0.1096 -0.054525 -0.20326 0.42776 -0.023529 -0.13102 -0.20887 -0.35559 -0.12845 0.1565 -0.40574 -0.080156 -0.14316 0.1618 -0.16394 0.34723 0.092757 -0.17764 -0.29325 -0.12189 -0.52512 0.40823 -0.14181 -0.056581 -0.2387 0.038018 0.18621 0.084525 0.088206 0.097085 0.13939 0.49316 0.084266 -0.13841 0.017838 0.14001 0.6705 0.34729 0.084351 -0.14704 0.096073 0.069467 0.4082 -0.33216 -0.61143 -0.089073 -0.28193 -0.023258 0.098141 -0.1293 0.043196 0.27089 -0.010001 0.081498 0.4673 0.44565 -0.22869 -0.17375 0.029156 0.082507 0.1337 0.47726 -0.16508 0.18651 -0.60423 -0.21994 -0.20249 -0.20488 0.31034 0.13956 -0.063074 -0.068595 0.094011 -0.1578 -0.092108 0.27226 0.0025205 -0.047377 -0.041615 -0.31057 0.011916 0.092929 -0.40374 -0.18383 -0.26277 -0.40339 0.73341 -0.38582 -0.23809 0.041263 -0.14754 -0.043282 -0.28006 0.78079 0.39023 -0.53103 0.14807 0.11077 0.023899 -0.086593 -0.10514 -0.57037 -0.10958 -0.21592 -0.20861 -0.42164 -0.26777 -0.21047 -0.14856 -0.20424 
student 0.17468 -0.44853 -0.17057 -0.084061 0.22913 0.0038534 -0.18032 0.0035028 0.038217 0.30031 0.12475 0.011494 0.075158 0.0048253 -0.39535 -0.63991 -0.019243 0.022682 -0.032776 0.19933 -0.10144 0.1012 -0.051635 0.25974 0.12783 -0.62402 0.1412 0.22362 0.071671 0.24647 0.11063 -0.12768 -0.24953 -0.08309 -0.12658 0.18795 0.40675 0.37408 0.22706 -0.15872 0.092552 0.17374 -0.31024 -0.14219 -0.21249 0.048888 0.26365 0.16892 -0.32075 0.034156 0.41832 0.039712 0.37981 0.08218 0.092826 0.2678 0.23858 -0.06618 -0.011108 0.10873 0.175 0.37458 0.15021 -0.055486 0.21204 -0.075437 -0.086713 0.014607 -0.041152 0.21263 0.054602 0.13161 -0.0764 0.45757 0.78071 -0.28029 0.17069 0.41798 0.37761 -0.30694 0.051442 0.10361 0.33489 0.13196 -0.074113 -0.19187 -0.25573 0.23835 -0.16036 0.25671 0.15819 -0.13884 -0.27914 -0.27861 0.054514 -0.051418 -0.14498 -0.33149 -0.026232 0.21309 0.19508 -0.10131 0.43574 0.13008 -0.27474 0.065801 0.070089 -0.2231 -0.2006 -0.38928 0.33746 -0.075675 0.052037 -0.046878 -0.071092 0.095534 -0.19788 0.093749 0.090335 0.30124 0.084201 0.49424 0.11679 -0.18631 -0.40063 0.21103 0.25535 0.57633 -0.044585 -0.25333 0.2538 0.25982 0.15792 -0.31052 0.14479 0.11165 -0.36262 -0.21769 -0.11883 -0.18402 -0.24452 0.11599 0.19855 -0.29676 0.2761 0.29064 -0.044447 -0.056215 -0.093195 -0.44441 0.19633 0.30484 0.29716 -0.36779 -0.098356 -0.34168 0.4027 -0.2124 0.211 0.26611 -0.0050548 -0.040041 -0.13006 -0.1925 -0.034054 0.31088 -0.16724 -0.55906 -0.0334 -0.43596 0.017191 -0.073404 -0.12112 -0.0058669 -0.36397 0.010789 0.22539 -0.080181 -0.16857 -0.24475 -0.28188 -0.40047 -0.24418 0.71357 -0.064282 -0.24465 0.21915 0.25019 0.2872 0.20757 0.061814 -0.14701 -0.083232 -0.073017 -0.13356 -0.34447 -0.21969 -0.036619 -0.0075796 0.069149 
professor 0.17099 0.12362 0.016067 -0.013986 -0.016522 0.29818 -0.49246 -0.27661 -0.10108 0.41329 0.12721 0.43556 -0.019196 -0.35885 -0.0021848 -0.61235 -0.37377 0.16295 0.10093 -0.04008 -0.2114 0.25845 0.34464 0.34319 -0.037113 -0.45279 0.23066 0.29878 -0.080912 0.52253 0.24311 0.24862 -0.16247 0.049689 0.13715 0.013888 0.03949 0.26083 0.27353 -0.13503 -0.035447 -0.12634 -0.16082 -0.096486 -0.55417 0.2356 0.11782 -0.11741 -0.011711 -0.36278 0.20185 0.029715 0.33943 -0.33847 0.3813 0.3287 0.25084 0.062817 -0.35905 0.094113 0.11385 0.45436 -0.48783 0.018136 0.35052 -0.052365 0.19871 -0.032343 0.1032 0.27563 0.48327 0.041725 0.052776 0.47422 0.49854 0.085527 0.44379 0.34322 -0.18751 -0.039472 -0.46969 -0.066569 0.23874 -0.30103 0.054199 -0.23585 -0.35011 0.49558 -0.13565 -0.063106 -0.23764 -0.20436 -0.14625 -0.021198 0.085037 -0.016569 -0.5423 -0.17133 -0.3 0.32146 -0.23041 -0.17112 0.54083 -0.0047448 0.1754 0.14048 0.2 -0.49464 -0.11873 -0.25771 0.0099966 0.31875 0.021899 -0.31263 -0.25317 0.097292 0.11419 0.20522 -0.11255 0.10181 0.062903 0.28194 0.038165 -0.20118 0.18433 0.17808 0.6087 0.048542 -0.30841 -0.32478 0.2386 0.08072 0.26209 -0.44325 -0.27699 0.05227 -0.2309 -0.11079 -0.32171 -0.15839 -0.015396 -0.076192 0.1038 -0.28282 0.078915 0.33788 -0.43828 0.027871 -0.24164 0.093531 -0.078017 0.69939 0.039172 -0.043658 -0.25454 -0.052631 0.22026 -0.31058 0.76465 0.39419 -0.36409 0.12036 -0.061593 -0.16555 0.25752 0.26495 -0.033072 0.37483 0.28869 -0.25497 0.027618 -0.14286 -0.4989 -0.17368 -0.27937 -0.16481 0.39857 -0.17435 -0.21452 -0.26797 -0.10863 -0.14656 -0.50025 0.24398 0.13377 -0.71237 -0.11181 0.13319 0.17871 -0.24094 0.23992 -0.23723 -0.035052 0.082892 -0.25004 -0.4726 -0.17217 -0.23017 -0.16175 -0.024945 
smart -0.087564 -0.01116 0.23243 -0.063716 -0.33701 -0.20689 -0.286 0.11462 0.29752 0.15882 0.43744 0.4991 -0.072488 0.12652 -0.20452 -0.41854 -0.15242 -0.10542 -0.18812 -0.10424 0.053138 0.033779 0.12404 0.1412 0.22322 -0.2897 0.20413 0.49306 -0.54761 -0.20209 -0.040916 0.25421 0.21157 -0.36859 -0.075358 0.17158 -0.010926 -0.063724 0.2957 -0.081338 0.53724 0.02012 0.48096 -0.24144 -0.040133 -0.077049 0.10877 0.20936 0.11946 0.042743 0.57844 0.13449 0.1158 -0.0041997 -0.048758 -0.18115 0.24705 -0.20617 -0.17068 -0.24473 -0.085477 0.11343 -0.18284 -0.14842 0.11077 0.1349 0.20244 0.22348 -0.14577 -0.17867 -0.055952 0.061654 -0.46479 0.22433 0.46555 0.16255 0.18514 0.48583 -0.30844 -0.5131 -0.067559 0.47233 -0.29258 0.1813 -0.2888 -0.20256 0.22429 0.26318 0.1277 -0.21489 -0.11041 -0.39037 0.0079879 -0.19922 -0.43638 -0.032923 -0.034765 -0.3745 -0.091546 -0.042605 0.17924 0.21173 -0.073441 -0.12477 -0.37892 0.53839 -0.025385 -0.010323 0.11625 -0.1338 0.10365 -0.2288 -0.052696 0.03211 -0.021588 0.28237 0.13814 -0.33667 -0.068571 0.38507 0.13188 0.53945 -0.49311 0.0095202 -0.42755 0.11587 0.16715 0.43756 -0.24037 0.066246 0.1406 -0.22548 0.24922 -0.18067 -0.24905 -0.043301 0.0043245 0.032012 0.14753 -0.34695 -0.053521 0.14698 -0.084665 -0.28745 0.069813 0.078666 0.1111 -0.088769 0.74041 0.20347 -0.1662 0.082628 0.15007 0.06058 0.16514 0.077244 -0.39384 -0.089688 0.016352 0.32153 0.20385 -0.25636 0.08049 -0.13245 0.31851 0.2984 -0.34138 -0.42181 -0.41332 -0.14664 -0.33692 0.13181 -0.11555 -0.19222 -0.56941 -0.33703 0.1122 -0.16255 -0.20234 -0.21127 -0.32041 -0.11359 -0.19848 0.25464 -0.093388 -0.0087093 -0.12494 0.26048 -0.033365 -0.10232 0.20375 -0.11093 -0.16023 0.12293 -0.54113 0.14773 -0.042365 -0.088348 -0.1676 -0.39465 
student 0.17468 -0.44853 -0.17057 -0.084061 0.22913 0.0038534 -0.18032 0.0035028 0.038217 0.30031 0.12475 0.011494 0.075158 0.0048253 -0.39535 -0.63991 -0.019243 0.022682 -0.032776 0.19933 -0.10144 0.1012 -0.051635 0.25974 0.12783 -0.62402 0.1412 0.22362 0.071671 0.24647 0.11063 -0.12768 -0.24953 -0.08309 -0.12658 0.18795 0.40675 0.37408 0.22706 -0.15872 0.092552 0.17374 -0.31024 -0.14219 -0.21249 0.048888 0.26365 0.16892 -0.32075 0.034156 0.41832 0.039712 0.37981 0.08218 0.092826 0.2678 0.23858 -0.06618 -0.011108 0.10873 0.175 0.37458 0.15021 -0.055486 0.21204 -0.075437 -0.086713 0.014607 -0.041152 0.21263 0.054602 0.13161 -0.0764 0.45757 0.78071 -0.28029 0.17069 0.41798 0.37761 -0.30694 0.051442 0.10361 0.33489 0.13196 -0.074113 -0.19187 -0.25573 0.23835 -0.16036 0.25671 0.15819 -0.13884 -0.27914 -0.27861 0.054514 -0.051418 -0.14498 -0.33149 -0.026232 0.21309 0.19508 -0.10131 0.43574 0.13008 -0.27474 0.065801 0.070089 -0.2231 -0.2006 -0.38928 0.33746 -0.075675 0.052037 -0.046878 -0.071092 0.095534 -0.19788 0.093749 0.090335 0.30124 0.084201 0.49424 0.11679 -0.18631 -0.40063 0.21103 0.25535 0.57633 -0.044585 -0.25333 0.2538 0.25982 0.15792 -0.31052 0.14479 0.11165 -0.36262 -0.21769 -0.11883 -0.18402 -0.24452 0.11599 0.19855 -0.29676 0.2761 0.29064 -0.044447 -0.056215 -0.093195 -0.44441 0.19633 0.30484 0.29716 -0.36779 -0.098356 -0.34168 0.4027 -0.2124 0.211 0.26611 -0.0050548 -0.040041 -0.13006 -0.1925 -0.034054 0.31088 -0.16724 -0.55906 -0.0334 -0.43596 0.017191 -0.073404 -0.12112 -0.0058669 -0.36397 0.010789 0.22539 -0.080181 -0.16857 -0.24475 -0.28188 -0.40047 -0.24418 0.71357 -0.064282 -0.24465 0.21915 0.25019 0.2872 0.20757 0.061814 -0.14701 -0.083232 -0.073017 -0.13356 -0.34447 -0.21969 -0.036619 -0.0075796 0.069149 
smart -0.087564 -0.01116 0.23243 -0.063716 -0.33701 -0.20689 -0.286 0.11462 0.29752 0.15882 0.43744 0.4991 -0.072488 0.12652 -0.20452 -0.41854 -0.15242 -0.10542 -0.18812 -0.10424 0.053138 0.033779 0.12404 0.1412 0.22322 -0.2897 0.20413 0.49306 -0.54761 -0.20209 -0.040916 0.25421 0.21157 -0.36859 -0.075358 0.17158 -0.010926 -0.063724 0.2957 -0.081338 0.53724 0.02012 0.48096 -0.24144 -0.040133 -0.077049 0.10877 0.20936 0.11946 0.042743 0.57844 0.13449 0.1158 -0.0041997 -0.048758 -0.18115 0.24705 -0.20617 -0.17068 -0.24473 -0.085477 0.11343 -0.18284 -0.14842 0.11077 0.1349 0.20244 0.22348 -0.14577 -0.17867 -0.055952 0.061654 -0.46479 0.22433 0.46555 0.16255 0.18514 0.48583 -0.30844 -0.5131 -0.067559 0.47233 -0.29258 0.1813 -0.2888 -0.20256 0.22429 0.26318 0.1277 -0.21489 -0.11041 -0.39037 0.0079879 -0.19922 -0.43638 -0.032923 -0.034765 -0.3745 -0.091546 -0.042605 0.17924 0.21173 -0.073441 -0.12477 -0.37892 0.53839 -0.025385 -0.010323 0.11625 -0.1338 0.10365 -0.2288 -0.052696 0.03211 -0.021588 0.28237 0.13814 -0.33667 -0.068571 0.38507 0.13188 0.53945 -0.49311 0.0095202 -0.42755 0.11587 0.16715 0.43756 -0.24037 0.066246 0.1406 -0.22548 0.24922 -0.18067 -0.24905 -0.043301 0.0043245 0.032012 0.14753 -0.34695 -0.053521 0.14698 -0.084665 -0.28745 0.069813 0.078666 0.1111 -0.088769 0.74041 0.20347 -0.1662 0.082628 0.15007 0.06058 0.16514 0.077244 -0.39384 -0.089688 0.016352 0.32153 0.20385 -0.25636 0.08049 -0.13245 0.31851 0.2984 -0.34138 -0.42181 -0.41332 -0.14664 -0.33692 0.13181 -0.11555 -0.19222 -0.56941 -0.33703 0.1122 -0.16255 -0.20234 -0.21127 -0.32041 -0.11359 -0.19848 0.25464 -0.093388 -0.0087093 -0.12494 0.26048 -0.033365 -0.10232 0.20375 -0.11093 -0.16023 0.12293 -0.54113 0.14773 -0.042365 -0.088348 -0.1676 -0.39465 
stupid -0.15576 0.16964 0.24066 -0.076589 -0.33581 -0.082689 -0.50626 0.18091 -0.0019075 -0.12924 0.15873 0.22358 0.15832 -0.11152 -0.44488 -0.28061 -0.054583 -0.18096 0.0094484 0.097696 0.18452 -0.32467 0.33393 0.1911 -0.058707 -0.47839 0.10731 0.00039242 -0.31877 0.35592 -0.048603 0.10805 0.10066 -0.34776 0.068852 0.047636 0.095333 -0.17643 0.0090805 0.41014 0.036222 -0.12456 0.15734 -0.65325 -0.29454 -0.030876 0.10137 0.37528 -0.088149 -0.11119 0.28211 -0.1603 0.23827 -0.11953 -0.31804 -0.19324 -0.10994 -0.17891 -0.21255 -0.17333 0.05989 0.23302 -0.14219 -0.32218 -0.033195 -0.2632 0.074048 0.061134 -0.02925 0.24321 0.044491 0.18104 0.0083013 0.14286 0.094969 0.13418 0.16948 0.046803 -0.18286 -0.29369 -0.052238 0.042831 -0.12878 -0.22097 -0.06788 0.017991 0.092498 0.32614 0.034721 0.49986 0.12478 0.018677 0.21473 -0.0059614 -0.43822 0.01417 -0.12345 -0.27215 -0.16695 0.14551 -0.17795 0.13616 0.11541 0.053351 -0.10039 0.15065 0.11949 -0.11836 0.077623 -0.079874 0.14798 0.08493 -0.33508 -0.16286 -0.16145 0.054039 0.033449 -0.46732 0.03194 0.18222 -0.11516 0.15932 -0.065593 -0.12754 -0.78842 -0.12308 0.037598 0.39215 0.18788 -0.36603 0.088548 -0.24955 -0.32261 -0.60514 -0.14867 -0.10052 -0.12548 0.43299 0.060069 -0.12256 0.30637 0.025871 -0.043854 0.063094 -0.014768 0.48549 0.19414 -0.12936 0.33073 -0.16233 -0.28876 -0.093641 -0.14815 0.057421 0.12774 0.21951 -0.31641 -0.20198 0.17024 -0.068109 0.24592 0.19271 0.17786 0.15899 0.17382 0.4188 -0.15666 -0.42919 -0.14673 -0.074619 -0.19137 0.38671 -0.34257 -0.39381 -0.23599 -0.097297 0.23277 -0.45659 -0.15862 0.21697 -0.13704 -0.16166 0.0174 0.30528 0.18543 -0.12694 0.018727 0.10899 -0.080003 0.037871 0.10355 -0.20278 -0.2465 0.35561 -0.070146 0.13599 0.13279 -0.032278 -0.1076 -0.48321 
company -0.11001 0.05968 0.69544 -0.05667 -0.16705 -0.1767 0.020858 -0.1343 0.094726 -0.067562 0.0045496 -0.022802 -0.20143 0.13602 -0.123 -0.37528 0.27028 0.43085 -0.3393 -0.020171 0.37032 0.069068 -0.056415 0.14826 0.25381 -0.35157 0.28683 0.017315 -0.27302 0.19723 0.094119 0.09316 0.095418 0.19729 -0.27177 -0.31051 0.53383 -0.22979 0.29338 0.050789 0.09712 0.022819 0.41849 0.19028 -0.17373 0.24877 -0.18192 0.23315 0.16165 0.18344 0.19642 0.22307 0.2618 -0.25441 0.23026 -0.26663 -0.12066 -0.19543 -0.18684 0.033225 -0.082978 -0.23344 0.065996 0.17136 0.23038 0.0075437 0.14165 0.20389 0.1563 0.048045 0.10271 -0.087943 -0.26 0.33744 0.23462 -0.12132 -0.06532 0.61883 -0.49442 -0.20181 0.24174 0.0061082 -0.0032417 0.31214 0.16327 -0.30228 -0.010695 0.044642 0.17439 -0.020214 0.29836 -0.34768 -0.18186 -0.21898 -0.46876 0.047257 0.060716 0.012979 0.19853 0.14142 -0.20935 -0.61081 0.14299 -0.33184 0.25952 0.054207 0.35544 -0.1583 0.24868 -0.45205 0.13817 0.21182 0.13223 0.0050888 -0.02081 0.21989 -0.10183 -0.085287 -0.10631 0.14447 0.34133 0.3948 -0.28054 -0.10407 0.020089 -0.10768 0.79809 0.47193 -0.31713 0.35073 -0.20755 -0.036852 0.3143 -0.039803 -0.053397 -0.038786 -0.11711 -0.0020217 0.15253 -0.17692 0.11212 -0.34981 0.10963 -0.36582 -0.0080736 -0.08793 -0.45834 -0.15915 0.0021852 -0.52674 0.14999 -0.099615 0.13524 -0.088075 0.1537 -0.23324 -0.13469 0.096719 0.33334 0.018815 0.071521 0.095421 -0.1449 -0.30086 0.042746 0.40694 -0.16828 -0.23769 0.037404 -0.1437 -0.20685 0.37695 -0.14732 -0.10376 -0.23303 -0.63642 -0.063124 0.11002 0.12271 -0.050222 -0.2811 0.085808 -0.14621 0.19932 0.15111 -0.065155 0.13373 0.27483 0.10158 -0.17877 -0.082569 -0.24154 0.15317 -0.30535 0.062456 -0.47279 0.0067021 -0.29466 0.16021 -0.37505 
stock -0.0029423 -0.14132 0.23742 -0.37674 -0.30612 -0.17498 -0.30126 0.47594 0.21965 -0.13987 0.14604 -0.14208 0.083504 -0.2128 -0.59264 -0.094816 0.21539 0.34483 -0.55448 -0.10788 0.45042 0.4886 0.1026 0.075195 0.055049 -0.39616 0.034074 0.20851 -0.25669 0.29354 -0.00031157 0.14966 0.15175 -0.032059 -0.37046 0.31326 0.16117 -0.30855 0.18451 0.0017762 -0.092395 0.34824 0.80001 0.17091 -0.15038 0.016843 0.19417 0.052414 -0.091698 0.20825 0.14494 0.25737 0.32986 0.086436 0.22676 -0.6369 -0.18138 -0.0077526 -0.25121 -0.2679 0.11254 -0.25254 -0.62807 -0.32486 0.38494 -0.090874 0.27059 0.55579 -0.14072 0.17101 0.34964 0.02143 -0.36971 0.27206 0.1016 0.25814 0.071647 0.60925 -0.29186 0.0051344 0.14127 0.18603 -0.077405 0.28111 0.35395 -0.3168 -0.077559 0.23848 0.13775 -0.090792 0.20308 -0.11176 -0.083778 -0.25163 -0.55612 0.099744 0.26771 0.1161 0.035577 0.29187 0.27279 -0.6479 -0.081785 -0.096586 0.26451 -0.055898 0.24202 0.043742 -0.027384 -0.65465 0.13194 -0.17636 0.42416 0.04594 0.035198 0.19745 0.061926 0.028827 0.27557 0.19608 0.36392 -0.10805 -0.27935 0.050399 0.14702 0.23992 0.30276 0.37681 -0.47048 0.3679 0.24029 0.030607 -0.079536 -0.05128 -0.26789 -0.050643 -0.088277 0.059606 0.11465 -0.16325 0.0074771 -0.42808 -0.024022 -0.22678 -0.18809 0.25599 -0.33142 -0.016731 0.21501 -0.46527 0.56685 -0.079292 -0.26965 0.039045 -0.13936 -0.45867 -0.13979 0.027693 0.13557 -0.0080612 -0.15508 0.10216 0.10512 -0.11933 0.035199 0.48812 -0.18775 -0.1392 0.086496 -0.2267 0.47 0.37541 -0.092983 -0.43754 -0.11083 -0.54986 0.12576 0.062305 0.086796 -0.11966 -0.59759 0.29989 -0.22003 0.44732 0.0026231 0.035188 0.26912 0.13104 -0.50186 0.19364 -0.065954 0.10789 0.084213 -0.28716 -0.2463 -0.37432 -0.22437 -0.075476 0.055407 -0.13386 
stock -0.0029423 -0.14132 0.23742 -0.37674 -0.30612 -0.17498 -0.30126 0.47594 0.21965 -0.13987 0.14604 -0.14208 0.083504 -0.2128 -0.59264 -0.094816 0.21539 0.34483 -0.55448 -0.10788 0.45042 0.4886 0.1026 0.075195 0.055049 -0.39616 0.034074 0.20851 -0.25669 0.29354 -0.00031157 0.14966 0.15175 -0.032059 -0.37046 0.31326 0.16117 -0.30855 0.18451 0.0017762 -0.092395 0.34824 0.80001 0.17091 -0.15038 0.016843 0.19417 0.052414 -0.091698 0.20825 0.14494 0.25737 0.32986 0.086436 0.22676 -0.6369 -0.18138 -0.0077526 -0.25121 -0.2679 0.11254 -0.25254 -0.62807 -0.32486 0.38494 -0.090874 0.27059 0.55579 -0.14072 0.17101 0.34964 0.02143 -0.36971 0.27206 0.1016 0.25814 0.071647 0.60925 -0.29186 0.0051344 0.14127 0.18603 -0.077405 0.28111 0.35395 -0.3168 -0.077559 0.23848 0.13775 -0.090792 0.20308 -0.11176 -0.083778 -0.25163 -0.55612 0.099744 0.26771 0.1161 0.035577 0.29187 0.27279 -0.6479 -0.081785 -0.096586 0.26451 -0.055898 0.24202 0.043742 -0.027384 -0.65465 0.13194 -0.17636 0.42416 0.04594 0.035198 0.19745 0.061926 0.028827 0.27557 0.19608 0.36392 -0.10805 -0.27935 0.050399 0.14702 0.23992 0.30276 0.37681 -0.47048 0.3679 0.24029 0.030607 -0.079536 -0.05128 -0.26789 -0.050643 -0.088277 0.059606 0.11465 -0.16325 0.0074771 -0.42808 -0.024022 -0.22678 -0.18809 0.25599 -0.33142 -0.016731 0.21501 -0.46527 0.56685 -0.079292 -0.26965 0.039045 -0.13936 -0.45867 -0.13979 0.027693 0.13557 -0.0080612 -0.15508 0.10216 0.10512 -0.11933 0.035199 0.48812 -0.18775 -0.1392 0.086496 -0.2267 0.47 0.37541 -0.092983 -0.43754 -0.11083 -0.54986 0.12576 0.062305 0.086796 -0.11966 -0.59759 0.29989 -0.22003 0.44732 0.0026231 0.035188 0.26912 0.13104 -0.50186 0.19364 -0.065954 0.10789 0.084213 -0.28716 -0.2463 -0.37432 -0.22437 -0.075476 0.055407 -0.13386 
market 0.02655 -0.25736 0.36603 -0.42973 -0.15989 -0.20242 -0.089646 0.10625 -0.11345 0.19991 0.24594 -0.25455 -0.37016 -0.17118 -0.40145 0.018594 0.44713 0.18968 -0.22941 0.092295 0.45558 0.42064 -0.095547 0.29812 0.22536 -0.25518 -0.039143 0.37403 -0.20817 0.28894 -0.27323 0.1521 0.16965 0.12327 -0.3134 0.21147 -0.019542 0.084961 0.35942 0.028062 0.15171 -0.2097 0.53654 0.2801 0.2136 0.13122 0.17453 0.3173 0.20424 0.23608 0.20624 -0.23654 0.62152 0.26691 0.0059018 -0.41434 -0.011426 -0.19436 0.13217 -0.0644 0.19111 -0.29299 -0.47768 -0.30598 -0.25563 0.070155 0.42065 0.10935 -0.088614 5.2154e-05 -0.084339 0.038968 -0.48758 -0.037936 0.11664 -0.013387 -0.066251 0.33275 0.0052581 -0.30101 0.21039 0.26002 0.033717 0.32748 -0.0049892 -0.27099 0.16908 0.66646 0.020606 0.22951 -0.038638 -0.3477 -0.042891 0.097719 -0.22737 0.14486 0.10562 -0.52803 0.030629 0.017586 0.18494 -0.61525 0.45211 -0.23945 0.14255 0.24813 -0.066773 0.12773 0.13801 -0.23128 0.056479 -0.21672 0.35217 -0.1903 -0.12132 -0.072513 -0.056591 -0.16193 0.2382 0.02923 0.1316 0.31215 -0.49279 -0.0024294 -0.057287 0.04695 0.36746 0.35605 -0.34627 0.59517 -0.0037919 0.10419 0.56146 -0.20491 -0.12276 0.14119 -0.012792 0.28155 0.21273 0.042188 -0.20659 -0.12233 0.003084 -0.18175 -0.12251 -0.18626 -0.29966 -0.31154 -0.32882 -0.36856 0.40466 0.051743 -0.42216 -0.088902 0.0093811 -0.091492 -0.077932 0.16758 0.10173 0.2167 -0.38201 -0.061023 -0.15822 -0.46637 0.35339 0.29704 -0.11615 -0.05719 0.040239 -0.53307 0.055532 0.13356 -0.29609 -0.21433 -0.013006 -0.49742 0.057466 0.074672 -0.23534 0.19341 -0.28013 -0.11921 0.087646 0.32122 0.20801 -0.092022 0.267 -0.021327 0.0050717 0.13821 0.10719 -0.046502 0.12067 0.27043 -0.098399 -0.59205 -0.0068903 -0.0085039 0.16982 -0.28098 
stock -0.0029423 -0.14132 0.23742 -0.37674 -0.30612 -0.17498 -0.30126 0.47594 0.21965 -0.13987 0.14604 -0.14208 0.083504 -0.2128 -0.59264 -0.094816 0.21539 0.34483 -0.55448 -0.10788 0.45042 0.4886 0.1026 0.075195 0.055049 -0.39616 0.034074 0.20851 -0.25669 0.29354 -0.00031157 0.14966 0.15175 -0.032059 -0.37046 0.31326 0.16117 -0.30855 0.18451 0.0017762 -0.092395 0.34824 0.80001 0.17091 -0.15038 0.016843 0.19417 0.052414 -0.091698 0.20825 0.14494 0.25737 0.32986 0.086436 0.22676 -0.6369 -0.18138 -0.0077526 -0.25121 -0.2679 0.11254 -0.25254 -0.62807 -0.32486 0.38494 -0.090874 0.27059 0.55579 -0.14072 0.17101 0.34964 0.02143 -0.36971 0.27206 0.1016 0.25814 0.071647 0.60925 -0.29186 0.0051344 0.14127 0.18603 -0.077405 0.28111 0.35395 -0.3168 -0.077559 0.23848 0.13775 -0.090792 0.20308 -0.11176 -0.083778 -0.25163 -0.55612 0.099744 0.26771 0.1161 0.035577 0.29187 0.27279 -0.6479 -0.081785 -0.096586 0.26451 -0.055898 0.24202 0.043742 -0.027384 -0.65465 0.13194 -0.17636 0.42416 0.04594 0.035198 0.19745 0.061926 0.028827 0.27557 0.19608 0.36392 -0.10805 -0.27935 0.050399 0.14702 0.23992 0.30276 0.37681 -0.47048 0.3679 0.24029 0.030607 -0.079536 -0.05128 -0.26789 -0.050643 -0.088277 0.059606 0.11465 -0.16325 0.0074771 -0.42808 -0.024022 -0.22678 -0.18809 0.25599 -0.33142 -0.016731 0.21501 -0.46527 0.56685 -0.079292 -0.26965 0.039045 -0.13936 -0.45867 -0.13979 0.027693 0.13557 -0.0080612 -0.15508 0.10216 0.10512 -0.11933 0.035199 0.48812 -0.18775 -0.1392 0.086496 -0.2267 0.47 0.37541 -0.092983 -0.43754 -0.11083 -0.54986 0.12576 0.062305 0.086796 -0.11966 -0.59759 0.29989 -0.22003 0.44732 0.0026231 0.035188 0.26912 0.13104 -0.50186 0.19364 -0.065954 0.10789 0.084213 -0.28716 -0.2463 -0.37432 -0.22437 -0.075476 0.055407 -0.13386 
phone -0.45616 -0.11917 -0.16048 0.046303 0.094977 0.011648 -0.40066 -0.025521 -0.0025595 0.0912 0.1264 0.37967 0.11792 -0.047271 -0.35185 -0.39451 0.17908 0.2689 -0.20377 0.13827 0.0033017 -0.16843 -0.17629 0.25674 0.34558 -0.4962 0.64797 0.1605 -0.24034 -0.00867 -0.24135 -0.0070143 0.16143 -0.39449 -0.25167 0.056734 0.2915 -0.25873 0.41994 0.0052421 0.3509 -0.36104 0.348 0.095335 0.041987 0.20637 0.33559 0.12813 -0.22984 -0.078361 0.29346 0.15385 0.46479 -0.15468 0.036567 -0.031539 0.43656 0.099246 0.14007 0.17992 -0.004374 -0.22341 -0.19323 -0.0088342 -0.031268 0.12103 0.19727 -0.014486 -0.030483 0.34108 -0.22882 -0.066485 -0.44923 0.39995 0.60717 0.09991 0.049316 0.55519 -0.037106 -0.65594 0.0053566 0.39655 0.0018828 -0.067141 -0.40298 -0.46225 0.20162 -0.05393 0.43096 -0.1658 0.054468 -0.25578 -0.02895 -0.09032 -0.33929 -0.039327 -0.081615 -0.55796 -0.31103 0.059634 0.39573 0.29764 -0.13171 0.089733 -0.30575 0.26806 -0.30883 0.053473 0.29448 -0.60211 0.079316 -0.052296 -0.045017 0.055633 -0.039675 -0.12355 0.0075132 -0.36287 -0.053268 0.31559 0.41413 0.13981 -0.10073 0.037937 -0.31082 -0.42153 0.60679 0.54343 -0.017912 0.012302 0.099033 0.20241 0.3827 -0.29561 -0.67743 -0.20337 0.23088 -0.064811 0.41037 0.18046 0.12314 0.064655 0.040524 -0.24444 -0.29822 0.064068 0.020019 -0.032023 0.48373 0.1441 0.15775 -0.28771 -0.38023 -0.094903 0.01567 -0.27028 -0.18087 0.073282 0.14266 0.32427 0.51799 -0.35847 0.26699 -0.14786 0.094782 0.38734 -0.401 -0.20871 -0.58636 -0.016295 0.0081839 0.46578 -0.55321 -0.37342 -0.48732 -0.32361 0.36589 -0.12872 -0.13619 0.020084 -0.24117 -0.094771 0.017781 0.2191 0.31124 0.13711 0.37881 0.13724 0.39472 -0.17217 0.1526 0.29607 0.034304 0.25981 -0.49896 -0.23164 -0.12451 -0.093058 0.51903 -0.43624 
stock -0.0029423 -0.14132 0.23742 -0.37674 -0.30612 -0.17498 -0.30126 0.47594 0.21965 -0.13987 0.14604 -0.14208 0.083504 -0.2128 -0.59264 -0.094816 0.21539 0.34483 -0.55448 -0.10788 0.45042 0.4886 0.1026 0.075195 0.055049 -0.39616 0.034074 0.20851 -0.25669 0.29354 -0.00031157 0.14966 0.15175 -0.032059 -0.37046 0.31326 0.16117 -0.30855 0.18451 0.0017762 -0.092395 0.34824 0.80001 0.17091 -0.15038 0.016843 0.19417 0.052414 -0.091698 0.20825 0.14494 0.25737 0.32986 0.086436 0.22676 -0.6369 -0.18138 -0.0077526 -0.25121 -0.2679 0.11254 -0.25254 -0.62807 -0.32486 0.38494 -0.090874 0.27059 0.55579 -0.14072 0.17101 0.34964 0.02143 -0.36971 0.27206 0.1016 0.25814 0.071647 0.60925 -0.29186 0.0051344 0.14127 0.18603 -0.077405 0.28111 0.35395 -0.3168 -0.077559 0.23848 0.13775 -0.090792 0.20308 -0.11176 -0.083778 -0.25163 -0.55612 0.099744 0.26771 0.1161 0.035577 0.29187 0.27279 -0.6479 -0.081785 -0.096586 0.26451 -0.055898 0.24202 0.043742 -0.027384 -0.65465 0.13194 -0.17636 0.42416 0.04594 0.035198 0.19745 0.061926 0.028827 0.27557 0.19608 0.36392 -0.10805 -0.27935 0.050399 0.14702 0.23992 0.30276 0.37681 -0.47048 0.3679 0.24029 0.030607 -0.079536 -0.05128 -0.26789 -0.050643 -0.088277 0.059606 0.11465 -0.16325 0.0074771 -0.42808 -0.024022 -0.22678 -0.18809 0.25599 -0.33142 -0.016731 0.21501 -0.46527 0.56685 -0.079292 -0.26965 0.039045 -0.13936 -0.45867 -0.13979 0.027693 0.13557 -0.0080612 -0.15508 0.10216 0.10512 -0.11933 0.035199 0.48812 -0.18775 -0.1392 0.086496 -0.2267 0.47 0.37541 -0.092983 -0.43754 -0.11083 -0.54986 0.12576 0.062305 0.086796 -0.11966 -0.59759 0.29989 -0.22003 0.44732 0.0026231 0.035188 0.26912 0.13104 -0.50186 0.19364 -0.065954 0.10789 0.084213 -0.28716 -0.2463 -0.37432 -0.22437 -0.075476 0.055407 -0.13386 
cd -0.11433 0.1293 0.34499 -0.67653 -0.22084 -0.079604 -0.3244 0.0039057 0.020159 -0.23966 0.13207 0.11567 0.43113 -0.51937 -0.49775 0.26623 0.25955 -0.34396 -0.60051 -0.0010648 0.38279 -0.061405 -0.38606 0.50628 0.081396 -0.054608 0.40624 -0.029502 -0.54532 -0.074591 -0.18369 0.21459 0.61817 0.019035 0.17473 0.18935 0.053852 -0.26298 0.27172 -0.063898 0.21522 0.14795 0.26478 -0.11199 -0.080568 -0.29807 0.11927 0.54543 -0.09385 -0.47124 0.30134 -0.44773 -0.14305 -0.16021 0.22826 -0.0022037 0.18137 -0.031996 -0.43451 0.097358 0.27424 -0.092524 -0.34991 -0.47677 -0.043533 0.43254 -0.34248 0.43286 -0.3886 -0.3273 -0.14339 0.32293 0.34509 -0.029055 0.44313 -0.06926 -0.040211 0.18304 0.006603 0.00037837 -0.15236 0.18915 -0.12774 -0.073405 0.27764 0.24816 -0.14231 0.21696 0.24668 -0.0036747 -0.3719 -0.12596 -0.69008 0.25748 -0.08322 -0.097065 0.23666 -0.028992 0.10242 -0.21663 0.055962 -0.10727 0.21814 0.4083 0.16671 0.070416 0.10155 0.13393 0.08943 -0.53977 -0.005571 -0.20564 -0.59184 0.12239 -0.10595 -0.44483 -0.16512 -0.25933 0.14217 -0.077215 0.060354 0.42795 -0.021779 0.24812 -0.59188 0.14923 0.27645 0.28314 -0.10853 0.10495 0.64646 -0.1517 0.35378 -0.17717 -0.5973 -0.18843 -0.13138 0.15801 0.1989 0.25024 0.46189 -0.30848 -0.12503 0.23375 -0.062186 0.13433 -0.11393 -0.44692 -0.11391 -0.76368 -0.179 0.34426 -0.41192 -0.019022 0.21463 0.28008 0.19839 0.35321 -0.11467 0.40043 0.37048 -0.12144 -0.2634 0.15467 0.33712 -0.14469 0.01084 0.11903 -0.070441 -0.59197 -0.032067 -0.090817 0.073805 -0.18486 -0.26092 -0.2262 0.65401 -0.24224 -0.24446 0.61342 -0.20372 -0.28351 -0.014834 -0.17441 0.21839 0.031032 0.78935 0.41639 0.27823 0.2683 -0.17138 -0.23488 -0.22428 0.78531 -0.030783 -0.58165 0.051418 -0.17777 -0.051865 -0.5416 
stock -0.0029423 -0.14132 0.23742 -0.37674 -0.30612 -0.17498 -0.30126 0.47594 0.21965 -0.13987 0.14604 -0.14208 0.083504 -0.2128 -0.59264 -0.094816 0.21539 0.34483 -0.55448 -0.10788 0.45042 0.4886 0.1026 0.075195 0.055049 -0.39616 0.034074 0.20851 -0.25669 0.29354 -0.00031157 0.14966 0.15175 -0.032059 -0.37046 0.31326 0.16117 -0.30855 0.18451 0.0017762 -0.092395 0.34824 0.80001 0.17091 -0.15038 0.016843 0.19417 0.052414 -0.091698 0.20825 0.14494 0.25737 0.32986 0.086436 0.22676 -0.6369 -0.18138 -0.0077526 -0.25121 -0.2679 0.11254 -0.25254 -0.62807 -0.32486 0.38494 -0.090874 0.27059 0.55579 -0.14072 0.17101 0.34964 0.02143 -0.36971 0.27206 0.1016 0.25814 0.071647 0.60925 -0.29186 0.0051344 0.14127 0.18603 -0.077405 0.28111 0.35395 -0.3168 -0.077559 0.23848 0.13775 -0.090792 0.20308 -0.11176 -0.083778 -0.25163 -0.55612 0.099744 0.26771 0.1161 0.035577 0.29187 0.27279 -0.6479 -0.081785 -0.096586 0.26451 -0.055898 0.24202 0.043742 -0.027384 -0.65465 0.13194 -0.17636 0.42416 0.04594 0.035198 0.19745 0.061926 0.028827 0.27557 0.19608 0.36392 -0.10805 -0.27935 0.050399 0.14702 0.23992 0.30276 0.37681 -0.47048 0.3679 0.24029 0.030607 -0.079536 -0.05128 -0.26789 -0.050643 -0.088277 0.059606 0.11465 -0.16325 0.0074771 -0.42808 -0.024022 -0.22678 -0.18809 0.25599 -0.33142 -0.016731 0.21501 -0.46527 0.56685 -0.079292 -0.26965 0.039045 -0.13936 -0.45867 -0.13979 0.027693 0.13557 -0.0080612 -0.15508 0.10216 0.10512 -0.11933 0.035199 0.48812 -0.18775 -0.1392 0.086496 -0.2267 0.47 0.37541 -0.092983 -0.43754 -0.11083 -0.54986 0.12576 0.062305 0.086796 -0.11966 -0.59759 0.29989 -0.22003 0.44732 0.0026231 0.035188 0.26912 0.13104 -0.50186 0.19364 -0.065954 0.10789 0.084213 -0.28716 -0.2463 -0.37432 -0.22437 -0.075476 0.055407 -0.13386 
jaguar 0.19236 -0.21616 0.64128 -0.12181 -0.32638 0.36325 0.12728 0.24093 0.23143 0.045777 0.030363 -0.063948 -0.025456 -0.29581 -0.48803 0.013508 0.35217 0.026598 -0.095449 0.095428 0.21413 0.1294 -0.14891 0.31312 0.32476 -0.42823 0.14339 0.17758 -0.25325 0.1538 -0.026968 0.10389 0.71554 0.38704 0.21991 -0.21363 0.56931 -0.16738 0.18095 0.1258 -0.20032 0.12994 0.85997 -0.22729 -0.62147 0.14115 -0.15744 0.0078361 -0.1712 0.066627 -0.34838 0.016397 0.29333 0.36431 -0.16235 0.22391 -0.42044 -0.29235 0.14494 -0.54166 0.14697 0.41674 0.070651 -0.30138 0.21114 0.08815 0.2139 0.37027 -0.1699 0.030705 -0.069069 -0.093146 -0.42552 0.3952 0.30885 -0.022717 0.55688 0.079472 0.095797 -0.19167 -0.41815 -0.19374 0.033595 0.070428 0.10019 -0.06674 0.21142 -0.002533 0.16911 -0.012874 -0.39798 -0.17078 0.091077 -0.079524 -0.36604 0.1417 0.21982 -0.4063 0.343 0.1317 -0.286 -0.26068 0.14953 0.28667 -0.43429 0.49078 0.14596 0.38801 0.33089 -0.32313 0.35401 -0.038139 -0.11448 -0.39632 -0.35921 -0.25369 -0.50386 -0.43006 0.27905 -0.38299 0.37349 -0.25547 -0.60189 -0.28855 0.33622 0.1926 0.26644 0.24522 -0.25474 -0.080039 0.44484 -0.092704 0.2535 0.13808 -0.16406 -0.40425 -0.34347 0.34913 0.40199 0.3774 -0.20109 -0.19796 0.035191 -0.25095 0.20814 0.26148 -0.31266 -0.37706 0.10155 -0.090999 -0.57028 0.43724 -0.18005 0.48322 0.07636 0.10409 -0.31492 -0.062852 0.30554 0.13166 -0.1504 0.0534 0.099268 -0.24933 0.40662 -0.012159 -0.1346 -0.088714 -0.27702 -0.44702 0.44932 0.61045 -0.086403 -0.19301 -0.22706 -0.24258 0.10284 0.19757 -0.08523 0.25738 0.0051577 0.32828 -0.43268 0.17156 -0.050412 0.014341 0.17191 0.16701 0.18613 0.0047895 0.20749 0.12602 -0.11174 0.27093 -0.5249 0.392 0.33283 -0.044824 0.13635 0.29096 
stock -0.0029423 -0.14132 0.23742 -0.37674 -0.30612 -0.17498 -0.30126 0.47594 0.21965 -0.13987 0.14604 -0.14208 0.083504 -0.2128 -0.59264 -0.094816 0.21539 0.34483 -0.55448 -0.10788 0.45042 0.4886 0.1026 0.075195 0.055049 -0.39616 0.034074 0.20851 -0.25669 0.29354 -0.00031157 0.14966 0.15175 -0.032059 -0.37046 0.31326 0.16117 -0.30855 0.18451 0.0017762 -0.092395 0.34824 0.80001 0.17091 -0.15038 0.016843 0.19417 0.052414 -0.091698 0.20825 0.14494 0.25737 0.32986 0.086436 0.22676 -0.6369 -0.18138 -0.0077526 -0.25121 -0.2679 0.11254 -0.25254 -0.62807 -0.32486 0.38494 -0.090874 0.27059 0.55579 -0.14072 0.17101 0.34964 0.02143 -0.36971 0.27206 0.1016 0.25814 0.071647 0.60925 -0.29186 0.0051344 0.14127 0.18603 -0.077405 0.28111 0.35395 -0.3168 -0.077559 0.23848 0.13775 -0.090792 0.20308 -0.11176 -0.083778 -0.25163 -0.55612 0.099744 0.26771 0.1161 0.035577 0.29187 0.27279 -0.6479 -0.081785 -0.096586 0.26451 -0.055898 0.24202 0.043742 -0.027384 -0.65465 0.13194 -0.17636 0.42416 0.04594 0.035198 0.19745 0.061926 0.028827 0.27557 0.19608 0.36392 -0.10805 -0.27935 0.050399 0.14702 0.23992 0.30276 0.37681 -0.47048 0.3679 0.24029 0.030607 -0.079536 -0.05128 -0.26789 -0.050643 -0.088277 0.059606 0.11465 -0.16325 0.0074771 -0.42808 -0.024022 -0.22678 -0.18809 0.25599 -0.33142 -0.016731 0.21501 -0.46527 0.56685 -0.079292 -0.26965 0.039045 -0.13936 -0.45867 -0.13979 0.027693 0.13557 -0.0080612 -0.15508 0.10216 0.10512 -0.11933 0.035199 0.48812 -0.18775 -0.1392 0.086496 -0.2267 0.47 0.37541 -0.092983 -0.43754 -0.11083 -0.54986 0.12576 0.062305 0.086796 -0.11966 -0.59759 0.29989 -0.22003 0.44732 0.0026231 0.035188 0.26912 0.13104 -0.50186 0.19364 -0.065954 0.10789 0.084213 -0.28716 -0.2463 -0.37432 -0.22437 -0.075476 0.055407 -0.13386 
egg -0.30701 0.083136 0.42956 -0.41323 -0.32569 0.28227 -0.4365 0.055583 -0.27579 0.16565 0.16147 -0.28269 0.1459 0.23235 -0.24841 -0.23108 -0.28495 0.47926 0.34943 0.40244 0.53843 0.11593 -0.30306 0.24128 -0.12913 0.097342 0.36573 -0.010534 0.073406 0.29482 -0.18744 -0.17144 0.41906 -0.0010067 -0.04976 -0.044319 -0.12651 -0.037072 -0.29024 0.16736 -0.38024 0.15031 0.17102 0.2383 0.22775 -0.032482 0.46542 -0.070433 0.0087268 -0.063351 -0.1376 -0.30329 0.1557 -0.011051 -0.091273 0.083881 -0.39508 -0.34364 0.46709 -0.17641 0.32642 -0.022865 0.038893 -0.0083119 -0.0037512 0.24035 0.25808 -0.40981 0.049827 -0.091599 -0.32128 0.31332 -0.50026 0.50974 0.68572 -0.0080128 -0.03445 0.2712 -0.044029 -0.19293 -0.43818 0.30305 -0.23092 0.039752 0.2031 -0.023873 -0.089905 0.86172 -0.03706 0.13114 0.25942 0.046169 -0.002892 0.17424 -0.77804 0.13763 -0.12042 -0.085633 0.32513 -0.015744 0.31005 -0.39363 -0.32696 0.42189 -0.31492 -0.2667 -0.3017 0.40259 0.17778 0.32231 0.28747 -0.51628 0.0063467 0.40856 -0.10733 0.15711 0.10026 -0.41886 0.23485 -0.0045941 0.27111 0.20068 -0.39851 -0.094925 0.15217 0.029602 0.11301 0.13178 0.44741 -0.25726 0.17531 -0.050915 -0.18749 -0.032142 -0.58831 -0.10887 -0.30808 -0.059285 0.21399 0.35978 0.5233 0.0047117 -0.24007 0.15305 -0.54658 0.021943 -0.12551 0.13584 0.48035 -0.43366 -0.27095 0.50028 -0.31254 0.27727 0.34408 -0.28423 -0.34228 -0.35038 0.27941 -0.11484 0.063812 0.26383 -0.033509 -0.14322 0.16658 0.38678 0.045029 -0.027022 -0.15333 -0.27487 -0.087266 0.15815 -0.38648 -0.55226 -0.47151 -0.045468 0.42276 -0.32096 -0.18707 0.050248 0.16178 -0.15079 -0.17124 0.19635 -0.22662 0.014178 0.27911 0.061389 0.19912 0.33002 0.18487 -0.080032 -0.048077 -0.10535 -0.095494 -0.29372 -0.27489 0.11973 -0.099487 -0.37644 
fertility 0.38179 -0.15399 0.18987 -0.1793 -0.31232 -0.026505 0.053477 0.26767 -0.1161 0.48412 0.35993 -0.094881 -0.15073 0.11197 -0.4008 -0.13897 0.12605 0.18177 0.13558 0.16426 0.20751 0.38112 -0.76273 0.16273 -0.15008 -0.026174 0.27415 0.2509 -0.58618 0.44262 -0.069884 -0.34046 0.071857 -0.28271 -0.0047876 0.2407 -0.19384 0.32169 -0.30246 0.4653 0.17882 -0.14283 0.43802 0.14685 -0.15113 0.11385 -0.30344 -0.22415 0.30177 -0.34818 -0.020143 -0.68472 0.40023 -0.0069696 0.22339 -0.096012 -0.39677 -0.51666 0.60225 -0.14886 0.040867 0.090097 -0.30999 -0.4133 0.17387 0.24726 0.51144 -0.11232 0.031055 0.11675 0.17834 0.33884 -0.76303 -0.045267 0.77726 0.25787 -0.057571 0.43839 -0.19399 0.31802 -0.15705 0.11676 -0.31315 -0.0014321 0.26759 0.43308 -0.014683 0.6993 -0.014424 -0.18594 -0.10813 0.022488 -0.52717 0.54064 -0.46227 -0.43476 -0.30931 0.20114 0.67055 0.19761 -0.29296 0.0066794 0.047477 0.52409 -0.51339 0.016453 -0.23121 -0.10064 0.36207 0.1338 -0.29226 -0.0045641 -0.082222 -0.39995 0.019233 -0.031843 -0.016039 -0.1769 0.4489 -0.40698 0.35549 0.22791 -0.15922 -0.41891 -0.43299 -0.4938 -0.12481 -0.4184 -0.18394 0.040376 0.22927 0.10945 0.28761 -0.17567 -0.31592 0.29334 -0.11323 0.11055 0.19192 -0.02367 -0.056316 0.10332 0.082154 -0.015885 0.26149 0.62404 -0.69437 -0.16651 -0.33131 -0.035753 -0.016402 0.54449 -0.32745 0.26628 -0.29539 0.035109 0.16342 0.073886 0.097934 0.53709 -0.21705 -0.24218 -0.069852 0.38801 -0.031088 0.71518 -0.49133 0.33173 0.29864 -0.14377 -0.042041 0.35445 -0.037928 -0.31017 -0.49643 -0.20042 0.15978 -0.27416 -0.26448 -0.053657 -0.38971 -0.043173 -0.26316 0.64452 -0.11175 -0.033797 0.028802 0.14716 0.28776 0.32807 -0.27548 0.13587 0.13749 -0.015273 -0.16497 -0.29773 -0.1173 0.30415 -0.15136 0.12615 
egg -0.30701 0.083136 0.42956 -0.41323 -0.32569 0.28227 -0.4365 0.055583 -0.27579 0.16565 0.16147 -0.28269 0.1459 0.23235 -0.24841 -0.23108 -0.28495 0.47926 0.34943 0.40244 0.53843 0.11593 -0.30306 0.24128 -0.12913 0.097342 0.36573 -0.010534 0.073406 0.29482 -0.18744 -0.17144 0.41906 -0.0010067 -0.04976 -0.044319 -0.12651 -0.037072 -0.29024 0.16736 -0.38024 0.15031 0.17102 0.2383 0.22775 -0.032482 0.46542 -0.070433 0.0087268 -0.063351 -0.1376 -0.30329 0.1557 -0.011051 -0.091273 0.083881 -0.39508 -0.34364 0.46709 -0.17641 0.32642 -0.022865 0.038893 -0.0083119 -0.0037512 0.24035 0.25808 -0.40981 0.049827 -0.091599 -0.32128 0.31332 -0.50026 0.50974 0.68572 -0.0080128 -0.03445 0.2712 -0.044029 -0.19293 -0.43818 0.30305 -0.23092 0.039752 0.2031 -0.023873 -0.089905 0.86172 -0.03706 0.13114 0.25942 0.046169 -0.002892 0.17424 -0.77804 0.13763 -0.12042 -0.085633 0.32513 -0.015744 0.31005 -0.39363 -0.32696 0.42189 -0.31492 -0.2667 -0.3017 0.40259 0.17778 0.32231 0.28747 -0.51628 0.0063467 0.40856 -0.10733 0.15711 0.10026 -0.41886 0.23485 -0.0045941 0.27111 0.20068 -0.39851 -0.094925 0.15217 0.029602 0.11301 0.13178 0.44741 -0.25726 0.17531 -0.050915 -0.18749 -0.032142 -0.58831 -0.10887 -0.30808 -0.059285 0.21399 0.35978 0.5233 0.0047117 -0.24007 0.15305 -0.54658 0.021943 -0.12551 0.13584 0.48035 -0.43366 -0.27095 0.50028 -0.31254 0.27727 0.34408 -0.28423 -0.34228 -0.35038 0.27941 -0.11484 0.063812 0.26383 -0.033509 -0.14322 0.16658 0.38678 0.045029 -0.027022 -0.15333 -0.27487 -0.087266 0.15815 -0.38648 -0.55226 -0.47151 -0.045468 0.42276 -0.32096 -0.18707 0.050248 0.16178 -0.15079 -0.17124 0.19635 -0.22662 0.014178 0.27911 0.061389 0.19912 0.33002 0.18487 -0.080032 -0.048077 -0.10535 -0.095494 -0.29372 -0.27489 0.11973 -0.099487 -0.37644 
stock -0.0029423 -0.14132 0.23742 -0.37674 -0.30612 -0.17498 -0.30126 0.47594 0.21965 -0.13987 0.14604 -0.14208 0.083504 -0.2128 -0.59264 -0.094816 0.21539 0.34483 -0.55448 -0.10788 0.45042 0.4886 0.1026 0.075195 0.055049 -0.39616 0.034074 0.20851 -0.25669 0.29354 -0.00031157 0.14966 0.15175 -0.032059 -0.37046 0.31326 0.16117 -0.30855 0.18451 0.0017762 -0.092395 0.34824 0.80001 0.17091 -0.15038 0.016843 0.19417 0.052414 -0.091698 0.20825 0.14494 0.25737 0.32986 0.086436 0.22676 -0.6369 -0.18138 -0.0077526 -0.25121 -0.2679 0.11254 -0.25254 -0.62807 -0.32486 0.38494 -0.090874 0.27059 0.55579 -0.14072 0.17101 0.34964 0.02143 -0.36971 0.27206 0.1016 0.25814 0.071647 0.60925 -0.29186 0.0051344 0.14127 0.18603 -0.077405 0.28111 0.35395 -0.3168 -0.077559 0.23848 0.13775 -0.090792 0.20308 -0.11176 -0.083778 -0.25163 -0.55612 0.099744 0.26771 0.1161 0.035577 0.29187 0.27279 -0.6479 -0.081785 -0.096586 0.26451 -0.055898 0.24202 0.043742 -0.027384 -0.65465 0.13194 -0.17636 0.42416 0.04594 0.035198 0.19745 0.061926 0.028827 0.27557 0.19608 0.36392 -0.10805 -0.27935 0.050399 0.14702 0.23992 0.30276 0.37681 -0.47048 0.3679 0.24029 0.030607 -0.079536 -0.05128 -0.26789 -0.050643 -0.088277 0.059606 0.11465 -0.16325 0.0074771 -0.42808 -0.024022 -0.22678 -0.18809 0.25599 -0.33142 -0.016731 0.21501 -0.46527 0.56685 -0.079292 -0.26965 0.039045 -0.13936 -0.45867 -0.13979 0.027693 0.13557 -0.0080612 -0.15508 0.10216 0.10512 -0.11933 0.035199 0.48812 -0.18775 -0.1392 0.086496 -0.2267 0.47 0.37541 -0.092983 -0.43754 -0.11083 -0.54986 0.12576 0.062305 0.086796 -0.11966 -0.59759 0.29989 -0.22003 0.44732 0.0026231 0.035188 0.26912 0.13104 -0.50186 0.19364 -0.065954 0.10789 0.084213 -0.28716 -0.2463 -0.37432 -0.22437 -0.075476 0.055407 -0.13386 
live -0.1348 -0.035814 0.36647 -0.16486 0.039087 0.1547 -0.64538 -0.1509 0.095817 0.12238 -0.1676 0.12559 -0.14415 0.041395 -0.69549 0.092525 0.097039 0.21184 -0.63102 -0.48379 -0.0024817 -0.011144 0.12458 -0.1319 -0.045268 0.13946 0.1756 0.1854 -0.47697 1.9041e-05 -0.070925 -0.18539 0.2598 0.16582 0.038744 0.070846 -0.12301 -0.1771 -0.28517 0.051232 -0.091984 0.18574 -0.21773 -0.051583 0.023611 0.14601 0.12785 0.12121 -0.21852 -0.13179 0.67686 -0.28824 0.24191 -0.18205 -0.0010712 -0.030271 -0.1731 -0.12337 -0.1905 -0.2529 0.40086 -0.15336 -0.11438 -0.22372 0.13595 -0.20096 0.159 0.17882 -0.067326 0.1861 -0.18625 -0.070803 0.0011709 -0.24882 0.43171 0.42907 0.075084 0.25902 0.35002 -0.26199 0.17125 0.13462 -0.065045 -0.091678 0.24077 0.011787 0.10973 -0.10538 0.23484 -0.070672 -0.1739 0.14119 -0.3973 0.059342 -0.36593 -0.32776 0.47288 -0.28166 -0.24073 -0.18354 -0.11901 -0.22907 0.065958 0.30301 -0.13744 -0.043097 -0.22951 0.052368 -0.03652 -0.36459 0.18993 -0.12892 0.11616 0.048647 0.059017 0.032182 -0.46179 -0.12481 -0.052515 0.14886 -0.016671 0.35831 0.1817 -0.070744 -0.27451 -0.075013 0.47102 0.079722 0.0026461 -0.3399 0.20001 -0.037536 0.066108 -0.16627 -0.42453 -0.15654 -0.12519 0.29388 0.37273 0.090143 0.1488 -0.21956 0.14867 0.031117 0.51152 0.57539 -0.15555 -0.27618 0.14032 -0.50907 0.0048856 -0.014172 -0.22433 0.17989 -0.021511 -0.36623 -0.28192 0.28827 -0.34149 0.050365 0.44238 0.42095 0.013883 -0.20268 0.32425 0.18555 -0.020222 -0.11852 -0.079772 -0.63181 -0.066057 0.40688 -0.014197 -0.1571 -0.017476 -0.51968 0.33725 0.15767 -0.36686 0.13944 -0.21212 -0.1763 0.011824 0.58975 0.15544 -0.51062 -0.11961 0.27657 0.12901 0.028025 0.033027 -0.40861 0.24865 0.78192 -0.14485 -0.075679 -0.30527 0.05523 0.0095621 -0.18608 
stock -0.0029423 -0.14132 0.23742 -0.37674 -0.30612 -0.17498 -0.30126 0.47594 0.21965 -0.13987 0.14604 -0.14208 0.083504 -0.2128 -0.59264 -0.094816 0.21539 0.34483 -0.55448 -0.10788 0.45042 0.4886 0.1026 0.075195 0.055049 -0.39616 0.034074 0.20851 -0.25669 0.29354 -0.00031157 0.14966 0.15175 -0.032059 -0.37046 0.31326 0.16117 -0.30855 0.18451 0.0017762 -0.092395 0.34824 0.80001 0.17091 -0.15038 0.016843 0.19417 0.052414 -0.091698 0.20825 0.14494 0.25737 0.32986 0.086436 0.22676 -0.6369 -0.18138 -0.0077526 -0.25121 -0.2679 0.11254 -0.25254 -0.62807 -0.32486 0.38494 -0.090874 0.27059 0.55579 -0.14072 0.17101 0.34964 0.02143 -0.36971 0.27206 0.1016 0.25814 0.071647 0.60925 -0.29186 0.0051344 0.14127 0.18603 -0.077405 0.28111 0.35395 -0.3168 -0.077559 0.23848 0.13775 -0.090792 0.20308 -0.11176 -0.083778 -0.25163 -0.55612 0.099744 0.26771 0.1161 0.035577 0.29187 0.27279 -0.6479 -0.081785 -0.096586 0.26451 -0.055898 0.24202 0.043742 -0.027384 -0.65465 0.13194 -0.17636 0.42416 0.04594 0.035198 0.19745 0.061926 0.028827 0.27557 0.19608 0.36392 -0.10805 -0.27935 0.050399 0.14702 0.23992 0.30276 0.37681 -0.47048 0.3679 0.24029 0.030607 -0.079536 -0.05128 -0.26789 -0.050643 -0.088277 0.059606 0.11465 -0.16325 0.0074771 -0.42808 -0.024022 -0.22678 -0.18809 0.25599 -0.33142 -0.016731 0.21501 -0.46527 0.56685 -0.079292 -0.26965 0.039045 -0.13936 -0.45867 -0.13979 0.027693 0.13557 -0.0080612 -0.15508 0.10216 0.10512 -0.11933 0.035199 0.48812 -0.18775 -0.1392 0.086496 -0.2267 0.47 0.37541 -0.092983 -0.43754 -0.11083 -0.54986 0.12576 0.062305 0.086796 -0.11966 -0.59759 0.29989 -0.22003 0.44732 0.0026231 0.035188 0.26912 0.13104 -0.50186 0.19364 -0.065954 0.10789 0.084213 -0.28716 -0.2463 -0.37432 -0.22437 -0.075476 0.055407 -0.13386 
