sana1 0.49176 -0.41859 -0.30754 -0.029747 0.28721 0.070911 -0.21988 0.5744 0.29473 -0.2777 0.10732 0.27746 -0.38494 -0.1541 -0.0115 0.18419 0.27672 0.0079613 0.11406 -0.52791 0.35285 0.25611 -0.048779 -0.18155 -0.39288 0.17687 -0.18142 -0.041576 -0.1438 -0.15405 -0.040671 0.25262 0.079364 -0.058736 -0.14909 0.20181 -0.19853 -0.3602 0.33953 0.1237 0.34204 0.21228 -0.30201 0.023744 0.026766 0.38822 -0.49475 0.0027074 -0.013432 0.036917 0.23906 0.19254 -0.052764 -0.18504 -0.44963 0.3988 0.23396 -0.17807 0.5304 0.57615 0.30362 0.25416 0.20199 0.0042512 0.38418 -0.0233 -0.088169 0.23615 0.051794 0.07172 -0.068158 0.025648 0.2708 0.49596 -0.020186 0.13572 0.31052 0.1926 0.58649 0.15435 0.19149 0.034527 -0.27701 -0.09108 0.002348 0.056655 0.34778 -0.028794 -0.034195 -0.00016198 0.37509 0.10479 0.0041467 -0.30134 -0.20919 -0.288 0.25669 -0.14432 -0.41262 0.13888 
sana2 0.50097 -0.42835 -0.32458 -0.014971 0.29249 0.084321 -0.23209 0.5899 0.27952 -0.27228 0.096787 0.26947 -0.39297 -0.14408 -0.0071297 0.19269 0.28753 -0.0022551 0.124 -0.52827 0.3679 0.25552 -0.052959 -0.18186 -0.39093 0.17461 -0.19797 -0.042421 -0.13383 -0.15179 -0.041936 0.26483 0.07403 -0.049382 -0.1571 0.19174 -0.18217 -0.36303 0.35987 0.1312 0.35435 0.20757 -0.32832 0.0058704 0.024392 0.39267 -0.48343 0.0041884 -0.015673 0.040575 0.24681 0.19766 -0.035381 -0.17103 -0.46315 0.38721 0.2226 -0.16122 0.52029 0.58532 0.31856 0.23843 0.19596 -0.0077286 0.39226 -0.026554 -0.091063 0.22081 0.037335 0.074591 -0.068735 0.016322 0.27487 0.50652 -0.010397 0.13308 0.29147 0.19968 0.59299 0.16405 0.20926 0.052295 -0.27827 -0.089593 -0.013123 0.066773 0.35845 -0.0089 -0.041995 -0.01891 0.37622 0.11166 0.01528 -0.29562 -0.22062 -0.29881 0.2724 -0.13612 -0.4209 0.14189 
energia -0.63814 -0.1274 -0.27936 -0.42716 -0.10985 -0.094399 0.17838 0.22445 0.77568 -0.18097 -0.064491 -0.30894 -0.86494 0.18398 0.26825 -0.044786 -0.5266 -0.0084657 0.2978 -0.64462 0.44262 -0.18375 0.25743 0.30466 -0.16829 0.68119 -0.065142 0.47212 -0.6588 -0.22553 0.32892 0.86314 -0.32975 -0.64465 -0.33978 -0.2871 0.20693 0.21006 0.35919 0.11322 -0.12703 0.083486 -0.28447 -0.17573 0.60654 -0.055068 -0.38581 -0.12501 -0.14576 -0.42734 0.077051 0.44004 0.14317 -0.3022 -0.021916 -0.08491 0.20674 0.16079 0.62195 0.26368 0.39695 0.19076 0.59067 -0.22718 0.15622 0.18275 -0.45914 -0.019883 -0.19795 0.043031 0.13111 -0.059356 -0.0047643 0.39174 0.04752 0.31016 0.11671 0.99681 0.42648 -0.43592 -0.19954 -0.029043 -0.17556 0.069766 -0.62228 -0.2398 0.14036 0.25276 0.1633 -0.15471 -0.16572 0.092382 0.68108 -0.21489 -0.27876 0.26351 0.21022 -0.28559 -0.75769 -0.16981 
sihteeri 0.25976 -0.42867 -0.36906 -0.11431 0.29445 0.27013 0.1092 0.45514 0.34731 -0.3666 -0.1766 0.1229 -0.19238 0.054012 0.020171 0.0088352 0.16848 -0.017542 0.22184 -0.41185 0.043509 -0.16581 -0.39393 -0.21252 -0.09415 -0.0067386 0.028423 0.061834 -0.097945 -0.25216 -0.12309 0.37747 0.05599 -0.11918 -0.31723 -0.14424 -0.078206 -0.037421 0.27083 0.32274 0.12536 -0.018882 -0.23767 -0.06823 0.19274 0.44151 -0.2768 0.10627 0.024097 -0.045539 0.26231 0.19388 0.18848 -0.15005 -0.13774 -0.22932 0.33179 0.15576 0.023847 0.28802 0.19766 0.22212 0.12452 -0.18828 0.33663 -0.071697 -0.18324 -0.15222 0.043444 -0.27353 -0.04376 0.13506 0.23347 0.1111 -0.042359 -0.060606 0.10414 0.50435 0.38976 -0.061846 0.067537 0.26556 -0.19059 0.053326 0.041715 0.18239 0.24878 0.018363 -0.028972 0.060108 0.23885 0.046693 0.17937 -0.080507 -0.46142 -0.092725 0.23693 -0.20416 -0.045155 0.058957 
sihteeri 0.25976 -0.42867 -0.36906 -0.11431 0.29445 0.27013 0.1092 0.45514 0.34731 -0.3666 -0.1766 0.1229 -0.19238 0.054012 0.020171 0.0088352 0.16848 -0.017542 0.22184 -0.41185 0.043509 -0.16581 -0.39393 -0.21252 -0.09415 -0.0067386 0.028423 0.061834 -0.097945 -0.25216 -0.12309 0.37747 0.05599 -0.11918 -0.31723 -0.14424 -0.078206 -0.037421 0.27083 0.32274 0.12536 -0.018882 -0.23767 -0.06823 0.19274 0.44151 -0.2768 0.10627 0.024097 -0.045539 0.26231 0.19388 0.18848 -0.15005 -0.13774 -0.22932 0.33179 0.15576 0.023847 0.28802 0.19766 0.22212 0.12452 -0.18828 0.33663 -0.071697 -0.18324 -0.15222 0.043444 -0.27353 -0.04376 0.13506 0.23347 0.1111 -0.042359 -0.060606 0.10414 0.50435 0.38976 -0.061846 0.067537 0.26556 -0.19059 0.053326 0.041715 0.18239 0.24878 0.018363 -0.028972 0.060108 0.23885 0.046693 0.17937 -0.080507 -0.46142 -0.092725 0.23693 -0.20416 -0.045155 0.058957 
senaatti 0.33957 -0.82076 -0.35187 0.16316 0.38886 0.0344 -0.11249 0.7195 0.33544 -0.39964 -0.3818 0.32772 -0.25262 0.27057 0.076952 -0.088834 0.44004 -0.1081 -0.030149 -0.16823 0.20257 0.087796 -0.37661 0.021678 -0.080756 0.18397 -0.06581 0.050023 0.10558 -0.16418 0.076373 0.51963 0.1176 -0.24258 -0.43485 -0.0021021 -0.16493 -0.33621 0.30117 0.48545 0.16718 0.07632 -0.156 -0.067765 0.29396 0.70124 -0.31538 -0.22274 0.15212 -0.22574 0.15267 0.5107 0.052971 -0.34528 -0.20448 -0.097467 0.22107 0.32949 0.41472 0.33398 0.47061 0.16168 0.29764 -0.1608 0.21358 0.09718 -0.061851 -0.11846 -0.11928 0.31528 0.062578 -0.048501 -0.0054743 0.37322 0.16496 0.06724 0.50029 0.28319 0.81371 -0.19695 -0.27782 0.10459 -0.2262 0.16301 -0.16867 0.020071 0.14185 0.11938 0.22946 -0.020838 0.029571 0.28674 0.2259 -0.13657 -0.51913 0.064849 0.34587 -0.38993 -0.16252 -0.019016 
energia -0.63814 -0.1274 -0.27936 -0.42716 -0.10985 -0.094399 0.17838 0.22445 0.77568 -0.18097 -0.064491 -0.30894 -0.86494 0.18398 0.26825 -0.044786 -0.5266 -0.0084657 0.2978 -0.64462 0.44262 -0.18375 0.25743 0.30466 -0.16829 0.68119 -0.065142 0.47212 -0.6588 -0.22553 0.32892 0.86314 -0.32975 -0.64465 -0.33978 -0.2871 0.20693 0.21006 0.35919 0.11322 -0.12703 0.083486 -0.28447 -0.17573 0.60654 -0.055068 -0.38581 -0.12501 -0.14576 -0.42734 0.077051 0.44004 0.14317 -0.3022 -0.021916 -0.08491 0.20674 0.16079 0.62195 0.26368 0.39695 0.19076 0.59067 -0.22718 0.15622 0.18275 -0.45914 -0.019883 -0.19795 0.043031 0.13111 -0.059356 -0.0047643 0.39174 0.04752 0.31016 0.11671 0.99681 0.42648 -0.43592 -0.19954 -0.029043 -0.17556 0.069766 -0.62228 -0.2398 0.14036 0.25276 0.1633 -0.15471 -0.16572 0.092382 0.68108 -0.21489 -0.27876 0.26351 0.21022 -0.28559 -0.75769 -0.16981 
laboratorio -0.031529 -0.13244 -0.38457 -0.026243 0.24642 0.20568 0.26436 0.1354 0.84226 -0.02174 -0.086867 0.54294 -0.42742 0.38111 -0.4101 0.3818 -0.087413 0.031865 0.12384 -0.70955 0.019251 -0.23508 -0.43883 0.25387 0.061774 0.25595 0.067901 0.18534 -0.078969 -0.38963 0.41201 0.58993 0.08826 -0.13847 -0.35755 -0.030901 0.35723 -0.28596 0.028602 0.56143 0.12958 -0.072986 -0.090444 0.34053 0.89503 0.21815 -0.60464 -0.03805 0.25249 -0.022103 -0.090582 0.56588 0.31623 -0.90492 -0.18499 -0.15049 -0.059501 -0.087104 0.80609 0.21053 -0.14368 0.6884 0.50625 -0.2769 0.4826 0.22911 -0.38644 0.27845 -0.030438 -0.12952 0.34908 -0.13597 -0.19236 0.64181 0.47905 0.56637 0.21812 0.50085 0.33615 -0.68932 -0.41399 -0.029224 -0.0034882 0.31319 0.23928 0.040609 0.30979 0.35288 0.58465 -0.14633 0.015796 0.19099 0.14839 -0.12253 -0.40918 -0.061112 0.3798 -0.70849 0.045683 0.3978 
tietokone 0.26711 -0.39941 -0.21601 -0.074455 0.34201 0.19239 -0.065656 0.21745 0.5331 -0.41204 -0.3245 0.40434 -0.30292 0.19196 0.05658 -0.12799 0.23482 0.14469 0.22435 -0.56399 0.20871 0.19599 -0.32984 0.0080947 -0.058512 0.2911 -0.064609 0.22772 -0.16604 -0.2112 0.0077205 0.25466 -0.18849 -0.16763 -0.47837 -0.018621 0.17505 -0.18169 0.25646 0.37358 0.17133 -0.060912 -0.23405 -0.0058469 0.21724 0.29258 -0.30944 0.038834 -0.046072 0.057212 0.23769 0.16857 0.16005 -0.22033 -0.38782 0.088883 0.35607 0.099791 0.35304 0.50583 0.4034 0.12154 0.34537 -0.18437 0.24803 0.051385 -0.26 -0.057362 -0.077788 -0.1226 -0.021476 0.01751 0.23906 0.27092 -0.295 0.10802 0.23692 0.5226 0.33522 -0.052534 -0.23696 0.16813 0.016236 0.44112 -0.37862 -0.029794 0.082829 0.078076 -0.08277 -0.067031 0.1596 0.10974 0.29524 -0.24353 -0.51054 -0.21666 0.44754 -0.45063 -0.11785 0.09131 
laboratorio -0.031529 -0.13244 -0.38457 -0.026243 0.24642 0.20568 0.26436 0.1354 0.84226 -0.02174 -0.086867 0.54294 -0.42742 0.38111 -0.4101 0.3818 -0.087413 0.031865 0.12384 -0.70955 0.019251 -0.23508 -0.43883 0.25387 0.061774 0.25595 0.067901 0.18534 -0.078969 -0.38963 0.41201 0.58993 0.08826 -0.13847 -0.35755 -0.030901 0.35723 -0.28596 0.028602 0.56143 0.12958 -0.072986 -0.090444 0.34053 0.89503 0.21815 -0.60464 -0.03805 0.25249 -0.022103 -0.090582 0.56588 0.31623 -0.90492 -0.18499 -0.15049 -0.059501 -0.087104 0.80609 0.21053 -0.14368 0.6884 0.50625 -0.2769 0.4826 0.22911 -0.38644 0.27845 -0.030438 -0.12952 0.34908 -0.13597 -0.19236 0.64181 0.47905 0.56637 0.21812 0.50085 0.33615 -0.68932 -0.41399 -0.029224 -0.0034882 0.31319 0.23928 0.040609 0.30979 0.35288 0.58465 -0.14633 0.015796 0.19099 0.14839 -0.12253 -0.40918 -0.061112 0.3798 -0.70849 0.045683 0.3978 
ase -0.55456 -0.1439 -0.13619 0.36406 0.21792 0.45295 0.041077 -0.32617 0.35122 -0.25182 -0.35421 -0.0595 -0.3871 0.63949 0.084788 0.14603 -0.50566 0.60954 -0.16265 -0.66124 0.077753 -0.4984 -0.10214 0.35702 0.37408 0.05295 0.17441 0.58984 -0.72188 -0.507 0.019472 0.24763 -0.51107 -0.44654 -0.084176 -0.63667 0.5 0.1077 -0.2111 -0.57915 0.059053 0.023845 -0.25952 -0.1647 0.64008 -0.39322 0.31012 0.16141 0.0097438 -0.23006 -0.08566 -0.022096 0.48968 -0.29159 -0.071539 -0.053763 0.31998 0.29584 0.66358 0.56317 0.25677 0.20273 0.80755 -0.55782 0.70147 -0.14053 -1.2174 -0.4393 -0.42504 -0.25145 0.2754 -0.59382 -0.39614 0.47567 0.057606 0.29359 0.24159 0.88532 -0.25175 -0.14577 0.090295 0.28738 0.42653 0.06698 -0.38874 -0.16916 0.38818 0.17218 0.039827 0.17581 -0.14622 0.30051 0.70194 -0.054366 -0.49817 -0.59991 0.64013 0.26777 0.061129 0.93299 
salaisuus 0.38518 -0.4391 -0.48992 -0.10201 0.39485 0.044447 0.097278 0.31597 0.077804 -0.22992 -0.19859 0.045968 -0.62548 0.051715 -0.31996 -0.13066 0.22832 -0.090054 -0.088301 -0.77253 -0.086284 -0.16437 -0.1019 0.032441 -0.07068 0.18511 0.062007 0.10451 -0.025667 -0.24922 0.13894 0.70881 0.058328 -0.26704 0.024518 0.26404 -0.26258 -0.16277 0.54355 0.42333 0.16318 0.066983 -0.2532 -0.30297 0.34114 0.40664 -0.4044 0.0012039 0.12015 0.28188 0.098906 0.44659 0.29174 -0.13095 -0.19347 -0.045619 0.30971 0.029103 0.1829 0.58262 0.71041 0.30669 0.31572 -0.36723 0.45915 0.16038 0.056078 -0.17083 0.02785 0.26424 0.19239 0.063651 0.19946 0.064688 0.0026019 -0.048134 0.33578 0.12003 0.65589 -0.14158 0.099136 0.41577 -0.33209 -0.10756 -0.20905 0.35985 0.39477 0.13011 0.11152 -0.0045271 0.13006 0.066154 0.44551 -0.36543 -0.29005 0.025314 0.30441 -0.24509 -0.47122 0.1456 
FBI 0.013127 0.051188 0.021137 -0.0013155 -0.034521 -0.1192 -0.085847 -0.13358 0.11496 -0.083089 0.054323 0.016586 -0.16112 0.057542 -0.040922 0.022493 -0.11104 0.055648 -0.04924 -0.039227 -0.085781 0.0083647 -0.093694 0.025239 -0.0077754 0.042748 -0.041526 0.041098 0.051804 -0.11399 -0.059305 0.11958 -0.057788 -0.060079 -0.044984 0.019354 -0.0088353 0.016567 -0.1335 0.050364 -0.0040241 0.077245 -0.07315 0.06473 0.11142 0.019964 0.067108 0.060654 0.015195 0.04812 0.052929 -0.046357 -0.021061 -0.077456 -0.10224 0.093194 -0.034107 -0.049653 0.056875 0.036557 -0.061608 0.0016516 0.14686 -0.046777 -0.039575 0.040538 -0.13 0.044124 0.04063 -0.099849 -0.12669 -0.06954 0.07828 -0.11922 -0.074999 -0.061045 -0.13918 -0.0098499 0.029188 0.036966 0.068544 -0.055315 0.036365 0.030205 -0.035777 0.097265 -0.11401 -0.00033502 -0.065835 -0.0024947 0.082755 -0.044683 0.10593 0.14405 0.10569 -0.18232 -0.067674 -0.012296 -0.088429 -0.02226 
sormenjälki 0.16774 -0.25442 -0.2807 -0.16152 0.29997 0.086165 -0.03148 0.48878 0.30236 -0.38746 -0.30719 0.11446 -0.29761 0.19182 -0.032167 0.062917 0.0453 0.17516 0.18789 -0.3154 0.29256 0.024562 -0.10947 -0.060529 -0.17431 0.043204 -0.034433 0.18587 0.0016898 -0.31153 0.045262 0.10821 -0.10537 0.1008 -0.043845 -0.064207 0.039724 -0.0098352 0.023954 0.3103 0.13001 -0.064666 -0.36468 -0.080668 0.1924 0.23527 -0.027322 0.053434 0.19544 0.098786 0.029311 0.2829 0.07857 -0.24652 -0.13863 0.046368 0.14332 0.13726 0.19508 0.21517 0.2631 0.11019 0.048346 -0.19291 0.20009 0.060492 -0.35044 -0.043786 -0.17004 -0.059349 0.13731 0.068026 0.22946 0.23998 -0.019487 0.072525 0.30071 0.28704 0.29575 -0.13869 0.023625 0.33995 0.063701 0.28584 -0.082227 0.16699 0.11798 0.035983 -0.0065552 -0.2101 0.064762 -0.06107 0.060359 -0.18559 -0.38251 -0.080891 0.19766 -0.091116 -0.2635 0.085028 
FBI 0.013127 0.051188 0.021137 -0.0013155 -0.034521 -0.1192 -0.085847 -0.13358 0.11496 -0.083089 0.054323 0.016586 -0.16112 0.057542 -0.040922 0.022493 -0.11104 0.055648 -0.04924 -0.039227 -0.085781 0.0083647 -0.093694 0.025239 -0.0077754 0.042748 -0.041526 0.041098 0.051804 -0.11399 -0.059305 0.11958 -0.057788 -0.060079 -0.044984 0.019354 -0.0088353 0.016567 -0.1335 0.050364 -0.0040241 0.077245 -0.07315 0.06473 0.11142 0.019964 0.067108 0.060654 0.015195 0.04812 0.052929 -0.046357 -0.021061 -0.077456 -0.10224 0.093194 -0.034107 -0.049653 0.056875 0.036557 -0.061608 0.0016516 0.14686 -0.046777 -0.039575 0.040538 -0.13 0.044124 0.04063 -0.099849 -0.12669 -0.06954 0.07828 -0.11922 -0.074999 -0.061045 -0.13918 -0.0098499 0.029188 0.036966 0.068544 -0.055315 0.036365 0.030205 -0.035777 0.097265 -0.11401 -0.00033502 -0.065835 -0.0024947 0.082755 -0.044683 0.10593 0.14405 0.10569 -0.18232 -0.067674 -0.012296 -0.088429 -0.02226 
tutkimus 0.067963 -0.018539 -0.53058 -0.094833 0.48733 -0.31311 0.24443 0.30513 0.073572 -0.20518 -0.45574 -0.23 -0.45901 -0.19605 -0.24373 -0.087715 0.25769 0.07448 0.089602 -0.38964 0.05279 -0.31231 0.1689 -0.18608 -0.19235 0.062159 0.0085119 0.11366 0.048197 -0.48221 0.18734 0.60409 -0.16133 -0.29369 0.25523 0.30112 -0.25858 0.10975 0.32306 0.45191 -0.071435 0.0068707 -0.19914 -0.26168 0.24653 0.83544 -0.31257 -0.17436 0.27331 0.40246 0.12026 0.54248 0.1254 -0.39055 -0.14084 -0.3127 0.1628 0.43514 0.11842 0.38865 0.50265 0.41612 0.19442 -0.65742 0.16211 -0.011852 -0.12991 0.052526 -0.16386 0.13238 0.28871 0.11114 0.15191 0.011025 0.059737 -0.066895 0.47827 0.12191 0.56959 -0.1229 0.21575 0.63663 -0.37644 0.31475 -0.24786 0.045269 0.19585 0.10156 0.078379 -0.33299 -0.0043576 -0.054751 0.44655 -0.20964 -0.22318 0.23245 0.45369 -0.45725 -0.38687 0.17166 
tutkimus 0.067963 -0.018539 -0.53058 -0.094833 0.48733 -0.31311 0.24443 0.30513 0.073572 -0.20518 -0.45574 -0.23 -0.45901 -0.19605 -0.24373 -0.087715 0.25769 0.07448 0.089602 -0.38964 0.05279 -0.31231 0.1689 -0.18608 -0.19235 0.062159 0.0085119 0.11366 0.048197 -0.48221 0.18734 0.60409 -0.16133 -0.29369 0.25523 0.30112 -0.25858 0.10975 0.32306 0.45191 -0.071435 0.0068707 -0.19914 -0.26168 0.24653 0.83544 -0.31257 -0.17436 0.27331 0.40246 0.12026 0.54248 0.1254 -0.39055 -0.14084 -0.3127 0.1628 0.43514 0.11842 0.38865 0.50265 0.41612 0.19442 -0.65742 0.16211 -0.011852 -0.12991 0.052526 -0.16386 0.13238 0.28871 0.11114 0.15191 0.011025 0.059737 -0.066895 0.47827 0.12191 0.56959 -0.1229 0.21575 0.63663 -0.37644 0.31475 -0.24786 0.045269 0.19585 0.10156 0.078379 -0.33299 -0.0043576 -0.054751 0.44655 -0.20964 -0.22318 0.23245 0.45369 -0.45725 -0.38687 0.17166 
vaivannäkö 0.17086 -0.2113 -0.1746 -0.10067 0.27589 0.088355 0.027664 0.21764 0.34082 -0.23133 -0.12434 0.17149 -0.18245 0.17476 -0.018988 -0.087999 -0.0093374 -0.012781 0.0939 -0.19845 0.16652 0.027448 -0.085018 0.018285 -0.059008 0.23076 -0.0033886 0.15387 0.058328 -0.072996 0.077306 0.14899 -0.076921 -0.064622 -0.165 -0.038961 -0.11662 -0.003596 0.015469 0.12715 0.22845 -0.028646 -0.069985 0.053173 0.28924 0.17612 -0.15656 -0.037427 -0.018909 -0.075423 0.17748 0.28937 0.14549 -0.16463 -0.089335 -0.01145 0.28391 0.08813 0.29459 0.23731 0.23811 0.10229 0.23304 -0.065062 0.11277 -0.02463 -0.17912 -0.078968 -0.12678 0.0071592 0.10276 0.1392 0.047715 0.23919 -0.049888 0.074503 0.26325 0.13484 0.24447 -0.12487 -0.089177 0.0070808 0.016492 0.23369 -0.070495 0.042493 0.11545 0.073424 -0.036959 -0.084351 0.12986 0.013185 0.1799 -0.23475 -0.18711 -0.13161 0.11098 -0.26328 -0.15582 0.076081 
Mars 0.18963 -0.29804 0.07408 -0.27433 0.020981 0.092338 0.072654 0.15903 0.42727 -0.095967 0.24566 -0.059 -0.17687 0.27344 -0.033312 -0.5343 -0.43553 -0.21239 -0.047558 -0.058691 -0.10881 -0.23829 -0.44552 0.10154 0.15841 0.27431 0.061972 0.40985 -0.14679 -0.35876 -0.20398 0.37685 -0.010454 -0.11032 -0.44796 -0.2361 0.55498 -0.10646 -0.099909 0.27773 -0.2271 0.029431 -0.35609 0.02796 0.31929 -0.040982 -0.020223 0.32802 -0.25505 0.068479 0.034871 0.355 0.094831 -0.025869 -0.083994 -0.16758 0.27791 0.084274 0.19906 0.12189 0.17247 0.23593 0.23162 -0.14149 -0.073024 0.054249 -0.0034603 0.099863 -0.032669 0.085899 0.30839 -0.098594 0.29726 -0.17449 -0.45749 -0.050657 0.0064327 0.24425 -0.08658 -0.014436 0.20965 0.019237 0.26954 0.44411 -0.05642 0.31822 0.29547 0.37364 -0.09557 -0.060065 0.11712 0.25558 0.42447 0.0069112 -0.38353 -0.19422 0.16053 0.13491 -0.073951 0.092379 
vesi 0.21571 -0.47127 -0.44512 -0.036348 0.33963 0.52512 0.20304 0.78747 0.15463 -0.54223 -0.20193 0.29853 -0.76512 0.22233 0.089899 0.14838 0.24833 0.12208 0.051582 -0.56997 0.25301 -0.28096 0.14925 0.032017 0.043397 0.26588 -0.044624 0.32984 -0.24122 -0.4643 0.22558 0.79267 0.15531 -0.26166 0.021027 0.17924 0.053507 -0.5716 0.44605 0.40427 0.28388 0.3559 -0.66743 -0.32493 0.17639 0.29114 -0.65744 -0.13816 0.023474 0.098671 0.1139 0.87157 0.1433 -0.56119 -0.47824 -0.1199 0.069791 -0.20006 0.65516 0.5532 0.57967 0.32464 0.21329 -0.16091 0.62389 -0.00017803 -0.45086 0.038621 -0.18091 0.0089347 0.052432 -0.28935 -0.19448 0.40897 0.51192 0.34891 0.17712 0.51697 0.50916 0.043419 0.28427 0.48047 -0.13557 -0.23717 -0.19147 0.15108 0.51648 0.5057 -0.33511 0.083042 0.048422 0.050811 0.23544 -0.55456 -0.32031 -0.12567 0.23247 -0.068406 -0.35677 0.044285 
Mars 0.18963 -0.29804 0.07408 -0.27433 0.020981 0.092338 0.072654 0.15903 0.42727 -0.095967 0.24566 -0.059 -0.17687 0.27344 -0.033312 -0.5343 -0.43553 -0.21239 -0.047558 -0.058691 -0.10881 -0.23829 -0.44552 0.10154 0.15841 0.27431 0.061972 0.40985 -0.14679 -0.35876 -0.20398 0.37685 -0.010454 -0.11032 -0.44796 -0.2361 0.55498 -0.10646 -0.099909 0.27773 -0.2271 0.029431 -0.35609 0.02796 0.31929 -0.040982 -0.020223 0.32802 -0.25505 0.068479 0.034871 0.355 0.094831 -0.025869 -0.083994 -0.16758 0.27791 0.084274 0.19906 0.12189 0.17247 0.23593 0.23162 -0.14149 -0.073024 0.054249 -0.0034603 0.099863 -0.032669 0.085899 0.30839 -0.098594 0.29726 -0.17449 -0.45749 -0.050657 0.0064327 0.24425 -0.08658 -0.014436 0.20965 0.019237 0.26954 0.44411 -0.05642 0.31822 0.29547 0.37364 -0.09557 -0.060065 0.11712 0.25558 0.42447 0.0069112 -0.38353 -0.19422 0.16053 0.13491 -0.073951 0.092379 
tiedemies 0.33207 -0.62218 -0.20819 -0.12669 0.16532 -0.029477 0.058574 0.39671 0.49284 -0.4992 -0.1508 0.39385 -0.12319 0.19366 -0.17358 -0.46985 -0.039817 -0.10034 0.28766 -0.29124 0.23847 -0.016065 -0.34747 -0.11616 -0.040728 0.30338 0.079763 0.18151 0.22599 -0.15744 -0.14993 0.47162 -0.29148 -0.24669 -0.48389 -0.21073 0.26677 -0.17209 -0.088737 0.48255 0.014681 -0.23207 -0.36332 -0.082347 0.76577 0.16478 -0.056685 -0.013174 0.07213 0.13392 0.25512 0.39549 0.030344 -0.33494 -0.18832 -0.030407 0.21865 0.26715 0.31148 0.2377 0.51791 0.086062 0.142 -0.20311 0.066176 0.14739 -0.15033 -0.1775 0.16253 0.024453 0.18452 0.012586 0.44052 0.20903 -0.31601 -0.17 0.32648 0.53151 0.39135 -0.40026 -0.27807 0.25951 0.054306 0.67666 -0.28381 -0.05978 0.11369 0.13975 -0.096452 -0.20524 0.11594 -0.12804 0.2105 -0.15446 -0.59061 -0.10251 0.19077 -0.39032 -0.10189 0.14173 
uutiset 0.0054043 -0.31661 -0.28862 -0.0011084 0.34509 0.19901 -0.13389 0.20397 0.47401 0.025791 -0.26817 0.19951 -0.023959 0.57571 -0.17814 -0.12058 0.07321 0.056438 0.2839 -0.29954 0.056895 0.19783 -0.13297 -0.091457 0.19886 0.3135 0.14565 0.35092 -0.032301 -0.092337 0.028052 0.25891 -0.1474 -0.37309 -0.35547 -0.070989 0.16078 0.07198 0.079033 0.16941 0.21219 -0.17696 -0.10863 0.11445 0.3534 -0.0034802 0.15687 -0.10621 0.12135 -0.091297 0.093376 0.22632 0.1933 -0.32202 -0.12718 0.047296 0.29221 0.091694 0.11781 0.32586 0.34549 0.47345 0.43197 -0.34354 0.23397 -0.24931 -0.22857 -0.17317 -0.202 -0.1855 0.29355 0.020188 0.25929 0.049703 -0.098865 0.045582 0.096947 0.17162 0.20139 -0.31985 -0.17914 0.17683 0.026197 0.26983 -0.29851 0.098034 0.13813 0.072489 -0.23583 0.066767 -0.18449 0.11005 0.16626 -0.16758 -0.27632 -0.28574 0.36053 -0.25651 0.094377 0.31901 
raportti 0.34919 -0.69632 -0.40174 -0.094984 0.3911 0.085114 -0.1508 0.49885 0.57891 -0.50102 -0.24671 0.27831 -0.45598 0.2606 -0.13469 0.092007 0.20296 0.12666 0.21617 -0.45231 -0.0087707 0.17816 -0.36526 0.11463 -0.22582 0.12559 -0.082087 -0.075192 -0.032161 -0.21225 0.12262 0.39131 0.047552 -0.07158 -0.51749 -0.061872 -0.11927 -0.18955 0.33806 0.25593 0.49971 -0.21871 -0.17205 0.045643 0.42926 0.38887 -0.32581 0.061126 -0.05564 -0.035701 0.11998 0.54564 0.26434 -0.47819 -0.50921 0.22965 0.16354 0.16576 0.42589 0.25741 0.51226 0.1768 0.36938 -0.23237 0.14 0.078484 0.056429 -0.052248 0.04334 0.064341 -0.013689 -0.1692 -0.16755 0.51958 0.012395 0.24698 0.4705 0.44237 0.58536 -0.31195 -0.28484 0.22176 -0.071869 0.32371 -0.26318 0.01413 0.16001 0.11573 0.14841 0.080244 0.25784 0.27957 0.11088 -0.1719 -0.49304 0.031261 0.18108 -0.48913 -0.21089 0.19469 
kanjoni 0.3149 -0.28509 -0.61198 -0.11231 0.56367 0.2218 -0.21898 0.50882 0.48298 -0.45971 -0.42503 0.56235 -0.42045 0.14932 0.13729 0.012691 0.21759 0.28229 0.18578 -0.30225 0.0071498 -0.092595 -0.20019 -0.043325 -0.21326 0.23754 -0.329 0.10896 0.051997 -0.26826 0.09911 0.3607 -0.15162 0.021153 -0.3114 -0.13983 -0.040438 -0.26116 0.17117 0.29108 0.53267 0.28031 -0.53983 -0.13277 0.17028 0.51053 -0.19961 0.1829 0.29035 -0.11539 0.25457 0.42239 0.3597 -0.14803 -0.49586 0.0051356 0.33403 0.018782 0.30416 0.48607 0.10336 0.15261 0.13528 -0.024745 0.24708 0.051183 -0.20919 -0.16513 -0.17793 0.0033415 -0.085288 0.02127 0.051197 0.54004 0.013183 -0.032332 0.4336 0.80207 0.64433 0.0057208 0.20229 -0.0007321 -0.17748 -0.044852 -0.019579 -0.040066 -0.012085 0.17319 -0.13771 -0.46585 0.41523 0.063546 0.31274 -0.090493 -0.68561 -0.15281 0.63776 -0.2791 -0.40551 0.038562 
maisema 0.19076 -0.50665 -0.34981 0.24382 0.39778 0.49344 -0.15247 0.58056 0.49129 -0.38646 -0.27461 0.24246 -0.16923 0.48109 -0.29209 -0.023804 0.34805 0.10185 0.036138 -0.47978 0.24663 -0.025246 -0.36744 0.077411 -0.056067 0.25844 0.19647 0.22811 0.032691 -0.24748 -0.070233 0.4472 -0.10188 -0.15894 -0.13785 -0.16648 -0.048358 -0.45144 0.1735 0.49562 0.22812 -0.14814 -0.23392 -0.028719 0.41679 0.14124 -0.006613 -0.23162 0.13142 0.06701 0.067073 0.3548 0.25391 -0.28575 -0.046566 0.053413 0.19847 0.1529 0.20658 0.31831 0.66319 0.13477 0.31634 -0.11921 0.54882 -0.066913 -0.2245 -0.21843 -0.1164 0.057743 0.27651 0.19022 0.060467 0.11213 0.047953 0.19539 0.3413 0.0026845 0.24669 -0.24317 0.036618 0.45772 -0.20925 0.11087 -0.21898 0.1989 0.79727 0.10008 0.013836 0.21616 0.12446 0.23184 0.11807 -0.61069 -0.18207 -0.24906 0.30508 -0.088699 -0.34657 0.25266 
kuva 0.39955 -0.68885 -0.56635 -0.13291 0.41791 0.37015 -0.22667 0.88353 0.5203 -0.68339 -0.15699 0.35272 -0.4251 -0.18769 0.32289 0.20288 0.49119 -0.04671 0.24019 -0.7472 -0.0034811 0.05353 -0.022485 -0.23748 -0.18759 0.11764 -0.11666 -0.067404 -0.19312 -0.11304 -0.025282 0.52107 0.029803 0.15092 -0.26776 -0.49099 -0.17391 -0.30785 0.26812 0.097871 0.55282 -0.03629 -0.54022 -0.13002 0.43161 0.0023053 -0.17197 0.080875 -0.026438 -0.22838 0.61843 0.46628 0.28086 -0.20499 -0.59637 0.14077 0.44806 -0.024275 0.22769 0.60252 -0.15464 -0.098135 -0.12193 0.0040982 0.46342 0.24083 -0.69475 -0.37985 0.045849 -0.022082 -0.15034 -0.042887 0.23929 0.60195 -0.086405 0.018501 0.43048 0.94089 0.81249 0.3722 0.057376 0.06379 -0.45397 0.050841 -0.27616 -0.18307 0.13899 0.016253 0.17915 -0.095201 0.48935 0.0095653 0.38215 -0.21169 -0.5431 -0.33419 0.10547 -0.22929 -0.66952 0.050717 
pinta 0.061665 -0.56386 -0.30803 -0.015668 0.48862 0.0036301 -0.31288 0.35277 0.33094 -0.092037 -0.15544 0.21106 -1.1365 0.12251 0.0048599 -0.14761 0.75418 -0.21027 0.11581 -0.86167 0.069195 0.28346 -0.35528 -0.12985 -0.29465 0.18608 -0.19557 -0.20207 -0.28578 -0.085823 0.068646 0.62784 0.19867 -0.49087 -0.44813 -0.14732 0.040432 -0.3739 0.7996 0.51166 0.3184 0.31459 -0.68143 -0.35196 0.18792 0.33521 -0.57308 -0.10666 0.26159 0.28303 0.0070793 0.24274 0.44452 -0.56072 -0.6525 0.33704 -0.26029 -0.05677 0.48887 0.44202 0.59149 0.24309 0.43839 -0.44256 0.41453 -0.11787 0.29254 -0.30751 0.15304 0.089771 -0.037116 -0.11367 -0.44143 0.90971 0.0019492 0.22166 0.43326 0.14064 0.59306 0.14067 0.21109 0.14512 -0.43339 -0.077867 -0.35543 0.13694 0.52968 0.084032 -0.096007 0.052058 -0.0098024 -0.022592 0.60771 -0.77844 -0.53127 -0.14617 0.50515 -0.49011 -0.38436 -0.076583 
löydös -0.046464 -0.0025278 0.019282 0.011353 -0.011877 -0.010324 -0.0062711 -0.057402 0.022059 0.042046 0.019904 0.015397 0.017054 0.033995 -0.019465 0.00037921 -0.0028591 -0.047746 -0.066251 0.054493 -0.012749 -0.042259 -0.04968 -0.00017588 0.082549 0.047416 -0.014225 0.055831 -0.040023 0.0028798 -0.01257 0.012009 -0.097942 -0.047649 -0.019071 -0.019315 0.0085017 -0.070998 -0.033645 -0.047871 -0.047092 0.032039 0.0097909 0.06512 0.042825 -0.064259 0.077027 0.018674 -0.018883 -0.024145 -0.037925 -0.070912 -0.052535 -0.023492 0.04025 0.010384 -0.016661 -0.0092537 0.031598 0.089042 0.021638 -0.037386 0.055504 -0.0091062 0.046475 0.056865 0.012877 0.0208 -0.040555 0.037298 -0.0064483 -0.013213 0.007972 0.010409 0.051709 0.019038 0.022369 0.0039747 0.04254 0.064978 0.028603 -0.02657 -0.036838 -0.01397 -0.0093938 0.013117 0.067646 -0.0076399 -0.05312 0.042768 -0.01563 0.035958 0.029819 -0.013222 -0.028813 -0.074756 0.021815 -0.038941 -0.016866 0.041152 
avaruus 0.19799 -0.17506 -0.60825 -0.3926 0.16438 -0.24385 0.36586 0.43787 -0.11948 -0.61225 -0.31014 -0.16403 -0.70735 -0.11757 -0.12513 -0.22996 0.29186 -0.0175 0.1583 -0.6692 0.12852 -0.29035 0.11429 -0.19924 -0.036614 0.21179 -0.18455 0.23269 -0.15967 -0.37941 0.071472 0.58521 -0.11496 -0.0483 0.16843 0.052277 -0.33933 -0.036358 0.36782 0.31449 0.12644 -0.0066658 -0.41947 -0.48058 0.39376 0.60093 -0.24139 -0.15907 0.38993 0.29022 0.21629 0.37608 0.25021 -0.073319 -0.20498 -0.35322 0.59692 0.52364 0.26076 0.57458 0.62465 0.28465 0.2205 -0.55091 0.40736 0.14899 -0.11248 -0.013863 -0.029582 0.14441 0.25291 0.27465 0.12357 -0.011326 -0.0051897 -0.31887 0.26819 0.34959 0.91003 0.134 0.41212 0.50416 -0.36559 0.32417 -0.26821 0.32323 0.34845 0.050608 0.036616 -0.48578 0.074693 0.065912 0.45009 -0.28104 -0.48762 0.031936 0.3672 -0.24792 -0.688 0.0027589 
vesi 0.21571 -0.47127 -0.44512 -0.036348 0.33963 0.52512 0.20304 0.78747 0.15463 -0.54223 -0.20193 0.29853 -0.76512 0.22233 0.089899 0.14838 0.24833 0.12208 0.051582 -0.56997 0.25301 -0.28096 0.14925 0.032017 0.043397 0.26588 -0.044624 0.32984 -0.24122 -0.4643 0.22558 0.79267 0.15531 -0.26166 0.021027 0.17924 0.053507 -0.5716 0.44605 0.40427 0.28388 0.3559 -0.66743 -0.32493 0.17639 0.29114 -0.65744 -0.13816 0.023474 0.098671 0.1139 0.87157 0.1433 -0.56119 -0.47824 -0.1199 0.069791 -0.20006 0.65516 0.5532 0.57967 0.32464 0.21329 -0.16091 0.62389 -0.00017803 -0.45086 0.038621 -0.18091 0.0089347 0.052432 -0.28935 -0.19448 0.40897 0.51192 0.34891 0.17712 0.51697 0.50916 0.043419 0.28427 0.48047 -0.13557 -0.23717 -0.19147 0.15108 0.51648 0.5057 -0.33511 0.083042 0.048422 0.050811 0.23544 -0.55456 -0.32031 -0.12567 0.23247 -0.068406 -0.35677 0.044285 
vuoto 0.24939 -0.57584 -0.52904 0.034803 0.36808 -0.030918 -0.13885 0.61956 0.19095 -0.48434 -0.11568 0.44973 -0.374 0.081581 0.037386 0.24769 0.31773 0.074892 0.20801 -0.37518 0.19439 0.05453 -0.27552 -0.19462 -0.26765 0.18005 -0.094966 -0.042005 -0.11513 -0.28962 0.07838 0.19752 -0.18004 -0.14847 -0.16256 -0.24363 -0.29984 -0.39586 0.25843 0.26331 0.52445 0.13597 -0.46517 -0.185 0.13392 0.29536 0.11815 -0.13605 0.26602 -0.099901 0.060136 0.19501 0.30863 -0.33451 -0.48968 0.060222 0.33494 0.030265 0.27195 0.73265 0.31768 0.11398 0.38197 -0.039874 0.32314 0.23874 -0.26152 -0.22026 -0.25833 0.053114 -0.044736 0.078796 0.075803 0.37609 0.13141 0.030151 0.2916 0.34408 0.47204 0.23039 0.21469 0.11652 -0.09814 0.17054 -0.22106 -0.26688 0.27781 0.10815 0.090428 -0.42314 0.21559 0.38499 0.34226 -0.16255 -0.44874 -0.30832 0.41894 -0.42297 -0.34935 0.14049 
merkki 0.14079 -0.39857 -0.41033 -0.12272 0.54546 0.31832 0.027403 0.50597 0.23491 -0.57833 -0.40374 0.43038 -0.066092 0.16994 0.096925 0.07615 0.082072 0.12084 0.44343 -0.37176 0.087002 0.090709 -0.17687 0.20725 -0.26481 0.30428 0.089407 0.34401 -0.027497 -0.11557 0.16628 0.2561 -0.2824 0.074082 -0.20691 -0.2894 0.096021 -0.44687 0.28396 0.095217 0.35947 -0.18954 -0.2114 -0.071664 0.26205 0.34062 0.027619 0.12612 0.36514 -0.29355 0.16818 0.2184 0.13812 -0.19984 -0.21358 0.11762 0.31896 0.20229 0.21164 0.45746 0.15556 -0.11824 0.30588 -0.093763 0.41431 0.33808 -0.24073 -0.29081 -0.21112 -0.01854 -0.13735 0.23062 0.1051 0.42223 0.08595 0.29595 0.51639 0.66371 0.27956 -0.067201 -0.18793 0.063111 0.095958 0.34054 -0.18393 0.014639 -0.061293 0.13077 -0.056031 -0.27641 0.34694 -0.12222 0.17826 -0.20899 -0.72427 -0.33357 0.3251 -0.39013 -0.16692 -0.018335 
välitunti 0.24346 -0.24894 -0.1183 0.048256 0.37101 0.06802 -0.005229 0.33734 0.34618 -0.13311 -0.31598 0.26216 -0.041975 0.23625 -0.12458 -0.010251 -0.056814 0.062972 0.26313 -0.16521 0.035014 0.078525 -0.17237 -0.016625 -0.0024409 0.2504 -0.050353 0.16985 -0.17559 -0.21025 -0.03177 0.28375 -0.10392 -0.14203 -0.17772 -0.084559 -0.049266 -0.20873 -0.071754 0.11834 0.14818 -0.10028 -0.2142 0.14932 0.28429 0.19847 -0.031167 -0.15319 0.069265 -0.023894 0.15376 0.33762 0.20823 -0.33037 -0.14586 0.076527 0.075971 0.024643 0.31093 0.33856 0.24734 0.21766 0.36891 -0.084695 0.22822 -0.016102 -0.14673 -0.011496 -0.12218 0.0235 0.21204 0.061694 0.084307 0.15372 -0.035088 0.069629 0.24542 0.22643 0.41534 -0.1476 -0.0012609 0.084145 -0.20809 0.31173 -0.27095 0.092156 0.12144 0.018832 -0.1637 -0.036099 0.036095 0.19982 0.12583 -0.14191 -0.2575 -0.19051 0.25114 -0.32621 -0.33459 0.27794 
keskiviikko 0.2293 -0.39442 -0.36455 -0.1148 0.38775 0.15958 -0.073517 0.31185 0.29803 -0.2837 -0.38231 0.36138 -0.094062 0.096335 -0.15184 -0.11138 0.16994 0.0428 0.26975 -0.2597 0.076798 0.11148 -0.12844 0.005731 -0.074581 0.13144 -0.063257 0.14587 0.026182 -0.017515 -0.0010159 0.21789 -0.1363 -0.098714 -0.38662 -0.16225 0.094902 -0.026563 0.1506 0.13874 0.17812 -0.20945 -0.14509 0.016388 0.12964 0.22474 0.011159 0.15791 0.055173 -0.026483 0.26067 0.18151 0.085354 -0.24437 -0.15173 0.10293 0.28875 0.070704 0.0747 0.35694 0.15129 0.045588 0.27516 -0.095304 0.099676 0.11374 -0.16624 -0.15694 -0.14178 -0.011793 0.025764 0.039717 0.14904 0.34598 -0.092492 0.11245 0.35168 0.45014 0.28842 -0.12783 -0.091987 0.029716 -0.0081905 0.29668 -0.2555 -0.048213 -0.095607 0.033013 -0.03269 -0.14991 0.051966 -0.027688 0.23023 -0.16482 -0.50192 -0.13222 0.3562 -0.48609 -0.17646 0.070568 
uutiset 0.0054043 -0.31661 -0.28862 -0.0011084 0.34509 0.19901 -0.13389 0.20397 0.47401 0.025791 -0.26817 0.19951 -0.023959 0.57571 -0.17814 -0.12058 0.07321 0.056438 0.2839 -0.29954 0.056895 0.19783 -0.13297 -0.091457 0.19886 0.3135 0.14565 0.35092 -0.032301 -0.092337 0.028052 0.25891 -0.1474 -0.37309 -0.35547 -0.070989 0.16078 0.07198 0.079033 0.16941 0.21219 -0.17696 -0.10863 0.11445 0.3534 -0.0034802 0.15687 -0.10621 0.12135 -0.091297 0.093376 0.22632 0.1933 -0.32202 -0.12718 0.047296 0.29221 0.091694 0.11781 0.32586 0.34549 0.47345 0.43197 -0.34354 0.23397 -0.24931 -0.22857 -0.17317 -0.202 -0.1855 0.29355 0.020188 0.25929 0.049703 -0.098865 0.045582 0.096947 0.17162 0.20139 -0.31985 -0.17914 0.17683 0.026197 0.26983 -0.29851 0.098034 0.13813 0.072489 -0.23583 0.066767 -0.18449 0.11005 0.16626 -0.16758 -0.27632 -0.28574 0.36053 -0.25651 0.094377 0.31901 
maili 0.25791 -0.88923 -0.59305 0.23107 0.88144 0.084885 -0.3671 0.57001 0.44537 -0.28456 -0.20274 0.12595 0.027158 0.46159 -0.12533 0.059895 0.35276 0.15589 -0.097476 0.0085792 -0.27253 -0.22016 -0.51309 -0.043925 0.18764 0.30111 0.19519 0.42028 -0.54354 -0.47869 -0.1063 0.58825 -0.31856 -0.32641 -0.10414 -0.1187 -0.15576 -0.78804 -0.21201 0.055297 0.32485 -0.043329 -0.38704 0.54395 0.87097 0.1377 0.20718 0.060189 0.58122 -0.20483 0.11812 0.71828 -0.16391 -0.5385 -0.16842 0.42504 -0.013268 0.39001 -0.1031 0.89055 0.82084 0.29427 0.6024 0.013046 1.0827 0.10638 -0.49636 0.16167 0.038041 0.50061 -0.14957 -0.51722 0.14613 0.09252 -0.10164 0.18822 0.76299 0.067677 0.47212 -0.23095 -0.020746 0.41943 0.015659 0.31582 -0.16324 -0.077075 0.74959 -0.048299 -0.13384 0.1448 0.68797 0.55796 0.60364 -0.32521 -0.49824 -0.612 0.53575 -0.12698 -0.59548 0.49315 
kilometri 0.11656 -0.25679 -0.29848 0.022524 0.51565 0.3062 0.25153 0.24012 0.82993 -0.34237 0.23597 0.31218 -0.55479 -0.17624 -0.27325 -0.31061 0.07057 -0.10297 0.20118 -0.79904 -0.29537 0.55566 -0.24669 -0.36902 0.37536 0.30154 -0.53695 0.35104 -0.28902 -0.16837 -0.072708 0.73549 0.29725 -0.29817 -0.3506 -0.59022 -0.033429 0.056697 0.6662 -0.24722 0.13903 0.6908 -0.28254 0.13476 1.0781 -0.24405 -0.12141 0.62698 -0.30114 -0.39728 0.39774 0.092122 0.22118 -0.2198 -0.45616 -0.56599 0.51105 -0.40542 0.090943 0.74119 0.48442 0.55297 0.4758 -0.21218 -0.49708 -0.31037 -0.2497 -0.24693 -0.15454 0.29623 0.14422 -0.06861 0.3532 0.21703 -0.36786 0.25429 0.42477 1.1072 0.87451 0.0018735 -0.24947 -0.20496 -0.69564 0.21282 -1.0459 0.30491 0.3735 0.27367 0.082499 0.35442 0.17322 0.11966 0.24239 0.13802 -0.73782 -0.78336 0.31271 -0.53909 -0.39399 0.36645 
tietokone 0.26711 -0.39941 -0.21601 -0.074455 0.34201 0.19239 -0.065656 0.21745 0.5331 -0.41204 -0.3245 0.40434 -0.30292 0.19196 0.05658 -0.12799 0.23482 0.14469 0.22435 -0.56399 0.20871 0.19599 -0.32984 0.0080947 -0.058512 0.2911 -0.064609 0.22772 -0.16604 -0.2112 0.0077205 0.25466 -0.18849 -0.16763 -0.47837 -0.018621 0.17505 -0.18169 0.25646 0.37358 0.17133 -0.060912 -0.23405 -0.0058469 0.21724 0.29258 -0.30944 0.038834 -0.046072 0.057212 0.23769 0.16857 0.16005 -0.22033 -0.38782 0.088883 0.35607 0.099791 0.35304 0.50583 0.4034 0.12154 0.34537 -0.18437 0.24803 0.051385 -0.26 -0.057362 -0.077788 -0.1226 -0.021476 0.01751 0.23906 0.27092 -0.295 0.10802 0.23692 0.5226 0.33522 -0.052534 -0.23696 0.16813 0.016236 0.44112 -0.37862 -0.029794 0.082829 0.078076 -0.08277 -0.067031 0.1596 0.10974 0.29524 -0.24353 -0.51054 -0.21666 0.44754 -0.45063 -0.11785 0.09131 
uutiset 0.0054043 -0.31661 -0.28862 -0.0011084 0.34509 0.19901 -0.13389 0.20397 0.47401 0.025791 -0.26817 0.19951 -0.023959 0.57571 -0.17814 -0.12058 0.07321 0.056438 0.2839 -0.29954 0.056895 0.19783 -0.13297 -0.091457 0.19886 0.3135 0.14565 0.35092 -0.032301 -0.092337 0.028052 0.25891 -0.1474 -0.37309 -0.35547 -0.070989 0.16078 0.07198 0.079033 0.16941 0.21219 -0.17696 -0.10863 0.11445 0.3534 -0.0034802 0.15687 -0.10621 0.12135 -0.091297 0.093376 0.22632 0.1933 -0.32202 -0.12718 0.047296 0.29221 0.091694 0.11781 0.32586 0.34549 0.47345 0.43197 -0.34354 0.23397 -0.24931 -0.22857 -0.17317 -0.202 -0.1855 0.29355 0.020188 0.25929 0.049703 -0.098865 0.045582 0.096947 0.17162 0.20139 -0.31985 -0.17914 0.17683 0.026197 0.26983 -0.29851 0.098034 0.13813 0.072489 -0.23583 0.066767 -0.18449 0.11005 0.16626 -0.16758 -0.27632 -0.28574 0.36053 -0.25651 0.094377 0.31901 
alue -0.32631 -0.3704 0.023575 -0.29434 0.48593 0.16677 -0.29756 -0.38742 0.88607 0.26705 -0.12681 0.45462 0.0030175 0.61845 0.30611 -0.0021229 -0.12662 0.12593 -0.050739 -0.26872 -0.1387 0.1986 -0.47334 0.13622 -0.23536 0.35743 0.047895 0.46218 -0.098875 -0.30164 0.076977 0.2204 -0.46976 -0.67736 -0.83143 -0.59646 -0.023897 0.18177 0.29486 -0.055544 0.35831 -0.2015 -0.37045 0.013347 0.53352 -0.1216 0.06494 0.4145 -0.020592 -0.27737 0.011909 0.094282 0.37342 0.055345 -0.03173 0.031324 -0.012271 -0.13082 0.72968 0.51439 0.67215 0.23677 0.46887 -0.23945 0.20837 -0.11619 -0.20935 -0.47844 -0.33102 -0.066465 0.24474 -0.3278 0.07702 0.496 -0.36816 0.18927 -0.011876 0.26418 0.10853 -0.49493 -0.097656 0.040066 0.41905 0.29373 -0.23939 0.71271 0.13637 0.12581 -0.10298 -0.0020149 0.43105 0.030952 0.76843 -0.0013066 -0.70411 -0.33487 0.7276 -0.1203 0.074023 0.61841 
pinta 0.061665 -0.56386 -0.30803 -0.015668 0.48862 0.0036301 -0.31288 0.35277 0.33094 -0.092037 -0.15544 0.21106 -1.1365 0.12251 0.0048599 -0.14761 0.75418 -0.21027 0.11581 -0.86167 0.069195 0.28346 -0.35528 -0.12985 -0.29465 0.18608 -0.19557 -0.20207 -0.28578 -0.085823 0.068646 0.62784 0.19867 -0.49087 -0.44813 -0.14732 0.040432 -0.3739 0.7996 0.51166 0.3184 0.31459 -0.68143 -0.35196 0.18792 0.33521 -0.57308 -0.10666 0.26159 0.28303 0.0070793 0.24274 0.44452 -0.56072 -0.6525 0.33704 -0.26029 -0.05677 0.48887 0.44202 0.59149 0.24309 0.43839 -0.44256 0.41453 -0.11787 0.29254 -0.30751 0.15304 0.089771 -0.037116 -0.11367 -0.44143 0.90971 0.0019492 0.22166 0.43326 0.14064 0.59306 0.14067 0.21109 0.14512 -0.43339 -0.077867 -0.35543 0.13694 0.52968 0.084032 -0.096007 0.052058 -0.0098024 -0.022592 0.60771 -0.77844 -0.53127 -0.14617 0.50515 -0.49011 -0.38436 -0.076583 
ilmapiiri 0.12526 -0.3697 -0.22468 0.017479 0.34446 0.10438 0.084922 0.39648 0.37597 -0.36254 -0.10011 0.15226 -0.28152 0.17598 -0.12099 0.10246 0.12627 -0.0046144 0.20754 -0.40016 0.18213 -0.042129 -0.062665 -0.10286 -0.066822 0.20369 -0.18094 0.15689 -0.13434 -0.24643 0.012448 0.18213 -0.22472 -0.064279 -0.15267 -0.26505 -0.021457 -0.20729 0.11166 0.042647 0.070519 0.12736 -0.35477 -0.0031816 0.064588 0.2455 -0.10885 0.02073 -0.010364 -0.048922 0.058606 0.055715 0.26025 -0.16857 -0.21029 -0.037725 0.24996 0.047746 0.086477 0.33904 0.1915 0.12629 0.13109 -0.15462 0.33907 0.087412 -0.11489 -0.099422 0.12624 -0.071713 0.095322 -0.018605 -0.11077 0.28397 0.15142 0.06271 0.31416 0.2434 0.473 0.12279 0.080823 0.08148 -0.23459 0.14511 -0.05607 0.10937 0.20929 0.067374 0.14302 -0.19306 0.20441 -0.089478 0.25492 -0.12084 -0.40157 -0.21844 0.24221 -0.25895 -0.28337 0.13458 
maisema 0.19076 -0.50665 -0.34981 0.24382 0.39778 0.49344 -0.15247 0.58056 0.49129 -0.38646 -0.27461 0.24246 -0.16923 0.48109 -0.29209 -0.023804 0.34805 0.10185 0.036138 -0.47978 0.24663 -0.025246 -0.36744 0.077411 -0.056067 0.25844 0.19647 0.22811 0.032691 -0.24748 -0.070233 0.4472 -0.10188 -0.15894 -0.13785 -0.16648 -0.048358 -0.45144 0.1735 0.49562 0.22812 -0.14814 -0.23392 -0.028719 0.41679 0.14124 -0.006613 -0.23162 0.13142 0.06701 0.067073 0.3548 0.25391 -0.28575 -0.046566 0.053413 0.19847 0.1529 0.20658 0.31831 0.66319 0.13477 0.31634 -0.11921 0.54882 -0.066913 -0.2245 -0.21843 -0.1164 0.057743 0.27651 0.19022 0.060467 0.11213 0.047953 0.19539 0.3413 0.0026845 0.24669 -0.24317 0.036618 0.45772 -0.20925 0.11087 -0.21898 0.1989 0.79727 0.10008 0.013836 0.21616 0.12446 0.23184 0.11807 -0.61069 -0.18207 -0.24906 0.30508 -0.088699 -0.34657 0.25266 
presidentti 0.43895 -0.94011 -0.18649 0.23769 0.85308 -0.13163 -0.21507 0.80357 0.7244 -0.25562 -0.39988 0.26199 -0.2214 0.17986 0.079503 -0.17986 0.57534 -0.47794 -0.067701 -0.031123 0.43849 0.31929 -0.30489 0.081485 -0.084617 0.080416 -0.082061 0.24153 0.15316 0.015063 -0.25474 0.60548 0.43356 -0.55341 -0.51237 -0.1825 -0.029157 -0.25888 0.14443 0.47566 0.030933 -0.033258 -0.053136 -0.01444 0.20701 0.74013 -0.30666 0.084571 0.29566 -0.038625 -0.033453 0.61501 -0.2438 -0.33994 -0.36222 0.081585 0.16752 0.3583 0.86811 0.21277 0.3563 -0.095118 0.43464 -0.45676 0.38849 0.074515 -0.50046 -0.20599 -0.28982 0.15381 0.034019 -0.43746 -0.11327 0.44507 0.067026 0.12937 0.24491 0.3547 0.64839 -0.54877 -0.68805 0.50162 -0.26057 -0.093822 -0.06093 -0.48245 0.19063 0.050246 0.32715 -0.18206 0.16766 0.28698 0.49054 -0.1576 -0.41486 0.02616 0.24367 -0.68448 0.33556 0.12099 
mitali 0.3607 -0.57065 -0.37033 -0.023355 0.47005 0.083932 -0.15915 0.61215 0.57343 -0.36176 -0.048113 0.34934 -0.47609 0.21838 0.31089 0.23113 0.11607 0.21615 -0.0056914 -0.52724 0.089961 -0.12692 -0.53573 0.32647 -0.23156 0.088887 -0.023363 0.070262 -0.16427 -0.19355 0.071871 0.65002 -0.19471 -0.04778 -0.16406 -0.039712 -0.33121 -0.44793 -0.050176 0.64537 0.41004 -0.15793 -0.34335 0.13361 0.66383 0.17366 -0.10173 -0.21747 0.1566 -0.042543 0.10469 0.52143 0.29099 -0.22833 -0.5482 -0.36649 0.68891 0.055252 0.49453 0.74195 0.32285 0.37906 0.10235 -0.13987 0.48454 -0.21002 -0.25129 -0.27137 -0.10919 -0.0026944 -0.19214 -0.010103 0.070034 0.51795 0.053799 -0.11244 0.33079 0.49008 0.85695 -0.064669 0.10128 0.39074 0.15719 0.23259 0.11135 0.12388 0.21138 0.28842 -0.4497 -0.15582 0.57965 0.28514 -0.051667 -0.01785 -0.19454 -0.3789 0.063253 -0.15408 -0.38222 0.22021 
sota -0.19027 -0.45969 -0.3319 -0.27137 0.57337 -0.44591 -0.084677 0.581 0.45121 -0.084861 -0.22915 0.27736 -0.64011 -0.058225 0.26083 -0.10617 0.51834 -0.14961 0.15062 -1.2663 0.28956 0.19793 -0.16493 -0.13346 -0.31534 0.87863 0.022171 -0.15846 -0.14976 -0.39049 0.2617 0.42823 0.27686 -0.71454 -0.69554 -0.0076432 0.091811 -0.14877 0.66115 0.018635 0.16587 0.12566 -0.37571 -0.2925 0.20763 0.76042 -0.2169 -0.37406 -0.10022 -0.26981 0.10112 0.41473 0.26487 -0.50469 -0.3553 0.073596 0.22179 0.33254 0.64757 0.64097 0.6581 0.21797 0.35708 -0.018538 0.13468 0.35105 -0.3167 0.37402 0.21848 0.43625 0.21573 -0.14031 -0.23197 1.0865 -0.045276 0.16577 0.55612 -0.0017279 0.64019 -0.31274 -0.46321 -0.35422 -0.56311 0.16441 -0.5102 -0.044028 0.46301 -0.26559 0.024246 -0.30611 -0.11237 0.039532 0.50742 -0.42581 -0.53418 -0.23219 0.51981 -0.3388 -0.66634 0.001934 
sotajoukot 0.18694 -0.30276 -0.15067 -0.05415 0.31507 0.084745 -0.0030086 0.25663 0.3814 -0.17231 -0.21136 0.18952 -0.10845 0.18125 0.010207 -0.068124 0.11391 -0.0080396 0.18524 -0.4166 0.18903 0.068802 -0.17392 0.061233 0.053679 0.25655 0.0058157 0.18393 -0.15644 -0.16455 0.0032879 0.25391 -0.010028 -0.20256 -0.34058 -0.095341 0.10351 -0.017249 0.22292 0.093845 0.061166 -0.010134 -0.3167 0.016922 0.26202 0.20424 -0.055197 -0.054764 -0.1008 -0.17714 0.1866 0.26679 0.17496 -0.14051 -0.1203 -0.051005 0.27847 0.23504 0.25007 0.29705 0.37649 0.065828 0.2515 -0.088975 0.14906 0.18823 -0.24344 0.034457 0.0017828 0.15114 0.16064 -0.084691 0.097947 0.33029 -0.1874 0.10986 0.2538 0.18697 0.21729 -0.23142 -0.22672 -0.013239 -0.14977 0.27828 -0.25732 0.12548 0.26197 0.00040524 -0.017281 -0.092538 0.054736 0.1641 0.21991 -0.078031 -0.37468 -0.17221 0.2916 -0.27307 -0.23936 0.13127 
ennätys 0.10863 -0.22425 -0.13421 0.030079 0.20629 0.059635 0.10489 0.17727 0.22835 -0.25046 -0.15829 0.011595 0.0074176 0.11487 -0.067227 -0.12413 -0.0095728 0.12157 0.16261 -0.1668 0.12503 0.0064725 -0.12667 -0.019745 -0.10571 0.12442 -0.022059 0.12242 -0.1325 -0.089144 -0.049202 0.18844 -0.047418 -0.13806 -0.27467 -0.0052195 0.074815 0.014297 0.14822 0.24229 -0.0096792 -0.10897 -0.23149 0.035993 0.1789 0.19795 -0.02384 0.05322 -0.0058051 0.010662 0.12775 0.11935 0.058616 -0.059964 0.13584 -0.082656 0.22055 0.13399 0.089734 0.10739 0.40597 0.092789 0.23595 -0.1628 0.066593 0.046813 -0.0042128 0.054538 -0.13865 0.021943 0.16947 0.11667 0.11256 0.15427 -0.10261 -0.082217 0.22792 0.13075 0.12584 -0.18045 -0.16139 -0.033375 0.031266 0.31491 -0.16037 0.081134 0.17682 0.17864 0.14489 -0.05139 0.045531 0.055573 0.054929 -0.12334 -0.23353 -0.078694 0.23012 -0.25218 -0.092184 0.12307 
numero 0.47621 -0.41831 -0.2775 0.30534 0.56349 -0.21717 -0.58852 0.57068 0.28632 -0.46929 -0.33289 0.82308 -0.27132 0.38857 -0.13308 0.17835 0.065165 -0.18595 -0.11546 -0.39109 -0.097524 0.2153 -0.40148 -0.72882 -0.11213 0.6767 -0.44624 0.081288 -0.25996 -0.674 -0.29131 0.77117 -0.39742 -0.38916 -0.28599 -0.17905 -0.076283 -0.67634 0.11787 0.16511 0.14746 -0.19521 -0.5733 0.13056 0.83631 0.3162 -0.158 -0.29296 0.076932 0.080055 -0.22155 0.55525 0.52429 -0.39301 0.054242 -0.068362 0.48836 0.17682 0.54732 0.42188 0.51475 -0.16102 0.65293 -0.16302 0.32597 0.086921 -0.32802 0.23949 -0.08547 0.4536 0.041533 -0.097235 -0.12946 0.53993 -0.11419 0.39306 -0.12423 0.31786 0.74681 -0.23808 0.014401 -0.4025 0.31175 0.22783 -0.063497 0.39371 0.46722 -0.0016032 -0.053799 -0.045046 0.31359 0.3737 -0.10651 0.063343 -0.69869 -0.66186 0.41665 -0.62976 -0.36498 0.087133 
iho 0.0694 -0.61767 -0.70143 0.04872 0.2123 0.28962 -0.20361 0.51016 0.11987 -0.39112 0.078689 0.73786 -0.34157 0.059897 -0.0037848 0.065517 -0.036437 -0.059202 0.10262 -0.34272 0.00037075 -0.17715 -0.49527 -0.0077107 -0.015444 0.24907 0.15 0.045568 -0.32452 -0.075577 0.18468 0.72003 -0.13749 -0.093457 -0.50156 -0.48358 -0.18081 -0.69444 0.090664 -0.29179 0.78205 0.11518 -0.35027 -0.034288 0.52619 -0.33137 0.14735 -0.24703 -0.018389 -0.30057 0.27624 0.35164 0.054833 -0.35228 -0.20508 0.014301 0.32643 -0.074466 0.59168 0.66057 0.047327 0.13232 0.41751 -0.14727 0.64357 0.18274 -0.87545 -0.53376 -0.06701 -0.081489 -0.35758 -0.4274 0.16036 0.97628 0.082042 -0.11919 0.29977 0.7291 0.63025 0.012903 -0.28262 0.17394 -0.25609 -0.22941 -0.21437 -0.11086 0.27376 -0.15677 0.42133 0.20392 0.40369 0.36264 0.70839 -0.24665 -0.81695 -0.59144 0.3413 -0.44316 -0.17755 0.58216 
silmä 0.20036 -0.14617 0.094451 -0.26897 -0.0075549 0.12371 0.22147 0.084763 0.4819 -0.33291 -0.099536 -0.019265 -0.19658 0.30499 0.16035 -0.0026028 -0.016979 0.14723 0.33215 -0.4131 0.30952 0.26618 -0.070543 0.070872 -0.16257 -0.14583 -0.33792 0.35941 -0.16027 -0.23567 0.051547 0.31021 -0.24306 -0.080169 -0.11225 -0.27096 0.28511 -0.10575 0.10079 0.42582 -0.11982 -0.093801 -0.52399 -0.13586 0.074811 0.31832 -0.35477 0.10726 -0.054235 0.10795 -0.024924 -0.0048868 0.31433 0.13096 -0.10344 -0.087448 0.34928 0.17269 0.38124 0.17388 0.25049 0.14272 0.13783 -0.094297 0.32965 0.22563 -0.086741 -0.044603 0.0025805 -0.0043695 0.11622 0.07566 0.17182 0.031626 0.091138 0.098142 0.24232 0.55393 0.25217 0.15872 0.14987 0.07095 0.13278 0.42119 0.1031 0.33132 0.2061 0.19034 -0.0567 -0.11817 0.37868 -0.16216 0.30587 0.045846 -0.39292 -0.19189 0.12373 -0.27496 -0.086587 0.17844 
japanilainen 0.19522 -0.29085 -0.52997 0.02208 0.13141 0.26172 -0.18688 0.53082 0.46075 -0.68838 -0.23513 0.51468 -0.29412 -0.024357 0.16628 -0.14629 0.22715 -0.028013 0.23088 -0.67578 0.17697 0.13011 -0.44164 0.063247 -0.29933 0.12901 -0.10443 0.19284 -0.10443 -0.29268 0.041665 0.1903 -0.077329 -0.17632 -0.35026 0.12837 0.10643 -0.34717 0.37315 0.38043 0.69835 -0.098751 -0.43748 -0.012965 0.19931 0.30187 -0.27972 0.19124 0.36604 0.035611 0.26564 0.43124 0.090248 -0.24919 -0.68233 0.27955 0.44057 0.13777 0.25193 0.65405 0.45774 0.18206 0.33243 -0.13272 0.37416 0.20983 -0.21746 -0.18305 0.13784 -0.22566 -0.19695 0.10594 0.1827 0.41979 -0.20325 0.139 0.3967 0.39403 0.45151 -0.13733 -0.23597 0.16582 -0.017419 0.29359 -0.22834 -0.065368 0.047716 0.026433 -0.013227 -0.16521 0.41664 0.058288 0.29388 -0.17986 -0.56061 -0.13926 0.27161 -0.34145 -0.0032736 0.048957 
amerikkalainen 0.29249 -0.50422 -0.53249 0.13036 0.50815 0.20775 0.049929 0.54771 0.36442 -0.44295 -0.30883 0.33118 -0.11657 0.17759 0.067123 -0.25233 0.020532 -0.069833 0.50753 -0.31194 0.11239 0.15779 -0.24561 0.15985 -0.18914 0.20492 0.08256 0.18159 -0.074599 -0.34219 -0.060658 0.19399 -0.13672 -0.010919 -0.37298 -0.12154 0.22693 -0.056542 0.39714 0.22306 0.37997 -0.070682 -0.37467 -0.21306 0.25107 0.29825 -0.19769 0.22435 0.12584 -0.18413 0.24673 0.36668 0.17322 -0.074761 -0.31142 0.064131 0.50756 0.21412 0.098106 0.44778 0.40004 0.11475 0.26844 -0.18249 0.16807 0.11937 -0.26353 -0.17482 0.016449 -0.062695 0.020478 0.10252 0.16659 0.40559 -0.082004 0.05017 0.35831 0.33647 0.33164 -0.23909 -0.30413 0.21152 -0.00072708 0.41988 -0.28167 0.10602 0.065301 0.10186 0.054026 -0.19946 0.26579 -0.027171 0.41286 -0.15586 -0.50427 0.037181 0.27923 -0.21027 -0.039017 0.12795 
teatteri -0.077243 -0.059789 -0.34285 -0.048188 0.26069 0.35211 0.06012 0.22747 0.58774 -0.26487 -0.33679 0.061055 -0.71911 0.30816 -0.050508 0.13028 0.089658 -0.014776 0.25055 -0.63735 0.10356 -0.26807 -0.35282 0.14391 -0.24417 0.017057 -0.015444 0.098498 -0.096618 -0.32101 0.083976 0.23069 -0.012149 -0.17863 -0.05263 -0.11838 0.26021 0.079788 0.50215 0.46613 0.11575 0.083372 -0.61502 -0.14119 0.12709 0.38331 -0.28866 0.31081 0.023333 0.022328 0.26621 0.44339 0.31239 -0.44085 -0.23554 0.21429 0.29837 -0.09824 0.59126 0.071664 0.53883 0.46527 0.46145 -0.14258 0.35649 -0.080485 -0.21661 -0.30194 -0.085802 -0.1902 0.018711 0.17562 -0.16751 0.34931 0.28088 0.31245 0.17486 0.53252 0.32487 -0.35535 0.26302 0.3379 0.039501 -0.10382 -0.27447 0.076616 0.26997 0.32196 0.075309 0.04281 0.27282 -0.02803 0.29333 -0.32063 -0.40351 0.26734 0.51774 -0.23033 -0.3267 0.13615 
historia 0.40274 -0.69833 -0.35216 0.33869 0.45397 -0.042348 0.37706 0.45476 0.14292 -0.21195 -0.49639 0.25815 -0.27996 0.40702 -0.15297 -0.075221 0.20291 -0.13135 0.35336 -0.16844 -0.021772 0.66009 -0.056936 -0.15436 -0.025363 0.17351 -0.31013 0.2454 -0.31575 0.038298 0.33586 0.44016 -0.015973 -0.74176 0.27721 -0.17703 -0.15822 -0.1017 0.40511 0.13163 0.33093 -0.16254 -0.25114 -0.21887 0.71707 0.33753 -0.17565 -0.57207 0.12213 0.041001 0.47967 0.64291 0.22308 -0.1693 -0.34656 0.10822 0.23383 0.15867 0.37717 0.13621 0.58473 0.59298 0.68846 0.10472 0.50445 0.060276 0.35832 0.29517 0.30563 0.61532 0.86777 -0.092322 -0.17649 0.42926 0.33247 0.17462 0.40717 0.23877 0.67837 0.014433 0.21623 0.41405 -0.37165 0.77405 -0.48946 -0.017326 0.31954 0.16685 0.33435 -0.18058 -0.089338 -0.051337 -0.21403 -0.63521 -0.70556 0.20316 0.83052 -0.89559 -0.19576 0.60462 
vapaaehtoinen 0.099008 -0.16174 -0.31901 0.0057202 0.12588 0.23949 0.17085 0.24575 0.3226 -0.3824 -0.24153 0.27516 -0.23012 0.16084 -0.0031963 -0.14494 0.039039 0.030959 0.35851 -0.29668 0.23396 0.046946 -0.19795 0.17043 -0.073314 0.093654 0.0026277 0.21257 -0.013234 -0.14991 0.23178 0.1545 0.0013243 -0.096363 -0.22226 -0.065225 0.18642 -0.053718 0.28235 0.17507 0.16068 -0.066324 -0.25373 -0.074464 0.17508 0.17451 -0.1348 0.074916 0.10419 -0.063739 0.19635 0.28763 0.079926 -0.033527 -0.18014 0.063416 0.16822 0.045181 0.14348 0.26484 0.32637 0.054658 0.2717 -0.17357 0.16521 0.086571 -0.23008 -0.17911 -0.029986 -0.09727 0.053683 0.093708 0.11222 0.25156 0.043255 0.12729 0.24762 0.23592 0.11563 -0.20655 -0.11713 0.18548 0.083125 0.098622 -0.15529 0.12369 0.13942 0.17423 0.078656 0.043296 0.18159 -0.077702 0.26981 -0.27761 -0.37615 0.024688 0.14036 -0.13524 -0.1357 0.010718 
motto 0.17781 -1.0121 -0.54894 -0.31775 0.4636 0.064749 0.1271 0.17063 0.40353 -0.077581 -0.319 0.25684 0.11673 0.060638 -0.19149 -0.013257 0.26201 -0.17585 0.14955 -0.57528 0.33636 0.031307 -0.09741 0.06192 -0.54739 0.55848 0.3994 -0.38666 -0.25425 0.14433 -0.24421 0.70783 -0.15995 -0.38873 -0.52185 -0.38818 -0.4784 -0.81438 0.46309 0.68507 0.084153 0.12937 -0.34672 -0.44183 0.22976 0.059255 0.097061 0.1745 -0.38155 -0.53053 0.22291 0.22194 0.25457 -0.013423 0.1314 -0.095156 0.50562 -0.012777 0.55155 0.27424 0.50764 0.051691 0.31308 -0.23731 0.66363 -0.32497 -0.29438 -0.39717 -0.3644 0.18499 0.19245 0.09056 0.4908 0.14221 -0.05107 -0.033435 0.016127 0.10517 0.46937 -0.28873 -0.14529 0.14972 -0.093092 0.46231 -0.16254 0.35721 0.55108 0.038403 -0.42105 -0.43534 0.30594 0.48302 0.29118 -0.89118 -0.23568 -0.021222 0.294 -0.63279 -0.31307 -0.031611 
ennakkoluulo 0.15805 -0.28824 -0.28423 -0.0042463 0.26784 0.1725 -0.033334 0.26053 0.3146 -0.27794 -0.12644 0.18685 -0.28577 0.13356 -0.0058211 -0.0075445 0.13267 0.13825 0.077718 -0.39378 0.06972 -0.0076022 -0.089013 -0.010183 0.057579 0.23858 -0.098589 0.16403 -0.14808 -0.043123 0.13424 0.3498 -0.014841 -0.1182 -0.20823 -0.11357 -0.035345 -0.15158 0.18695 0.14309 0.20667 0.055625 -0.34987 -0.034389 0.35188 0.099349 -0.17251 -0.030205 0.011197 0.045833 0.10122 0.28774 0.11144 -0.17957 -0.15232 -0.020416 0.22864 -0.016772 0.17089 0.29061 0.3261 0.13975 0.25392 -0.10372 0.3228 0.06178 -0.31045 -0.08562 0.0041609 0.072796 0.094059 -0.032747 0.10624 0.24142 -0.0066713 0.041425 0.29405 0.29388 0.34713 -0.13154 -0.036121 0.0057526 -0.10327 0.080766 -0.24915 0.10088 0.21047 0.15281 0.15791 -0.051479 0.053855 0.07181 0.23779 -0.1035 -0.29351 -0.07808 0.12192 -0.16941 -0.25571 0.1151 
tunnistaminen 0.079487 -0.25042 -0.35851 -0.01681 0.3268 0.16931 0.12459 0.28603 0.69227 -0.33648 -0.14202 0.191 -0.71372 0.25209 0.095481 0.012992 -0.054524 0.022973 0.3502 -0.3503 0.034664 -0.074751 -0.094873 0.087936 0.057704 -0.21719 0.11359 0.38138 -0.1507 -0.27275 0.15572 0.066342 -0.24255 -0.28854 -0.49675 -0.18753 0.11101 0.16256 0.089485 0.30567 0.1654 -0.25304 -0.50593 0.053483 0.55834 0.075773 -0.17573 0.10646 0.10013 0.061685 0.31056 0.49476 0.18398 -0.41613 -0.64588 -0.01787 0.18525 -0.10294 0.4345 0.6144 0.2702 0.43967 0.27224 -0.382 0.35257 0.067768 -0.49225 -0.18746 0.12181 -0.09235 -0.096792 -0.3499 0.062645 0.068311 -0.079051 0.025455 0.42821 0.50066 0.321 0.040788 -0.040879 0.59673 0.26997 0.16517 -0.06088 -0.046457 0.005991 0.32581 0.00044373 0.18991 0.33538 0.19527 0.45465 0.14223 -0.49232 0.10164 0.15049 -0.24539 -0.32672 0.13163 
koriste 0.40547 -0.70796 -0.65167 0.16814 0.70793 0.6975 0.11043 0.74557 0.43087 -0.71828 -0.16721 0.42236 0.10524 0.26125 0.058877 0.1182 0.41682 0.10137 0.33859 -0.33311 0.12231 -0.048801 -0.54696 0.2536 -0.060487 0.23245 -0.082827 0.049807 0.089986 -0.054666 0.15367 0.48973 0.33705 -0.062198 -0.47095 -0.060248 -0.2671 -0.68101 0.44359 0.45594 0.56031 -0.32286 -0.17399 0.24603 0.68319 0.19422 -0.29024 0.022533 0.46506 -0.14915 0.56068 0.6263 0.34897 -0.13511 -0.38851 -0.022967 0.49948 0.38725 0.24532 0.55693 0.35538 0.16798 0.23557 0.053577 0.51777 0.043987 -0.23703 -0.54921 -0.25478 0.10285 0.081944 -0.068874 0.058506 0.65415 0.27347 0.15103 0.47288 0.35729 0.49153 -0.45874 -0.34317 0.45745 0.10243 0.27628 0.004553 -0.048656 0.24126 0.3548 0.043813 0.0085259 0.2505 0.13127 -0.094826 -0.23811 -0.76051 0.10055 0.39185 -0.45214 0.038051 0.059031 
urheus 0.04848 -0.26397 -0.80365 -0.49801 0.019027 -0.0040965 0.90529 0.30831 0.15062 -0.73169 -0.48571 -0.46019 -0.9011 -0.41088 0.095471 -0.014345 0.057262 -0.023955 0.1965 -1.0734 0.063154 -0.43202 0.50384 -0.45233 0.12385 0.027132 -0.01799 0.40043 -0.14884 -0.60787 0.16854 0.77434 -0.37362 -0.45437 0.71399 0.29517 -0.22478 -0.062465 0.61647 0.41045 -0.14302 -0.12367 -0.2068 -0.45378 0.41058 0.82605 -0.15437 -0.49959 0.30144 0.4915 0.23335 0.25412 -0.099591 -0.30126 0.072363 -0.92067 0.35145 0.27341 0.10938 0.70684 0.74421 0.53077 0.36574 -0.8749 0.19977 0.14671 -0.15567 0.25728 -0.11725 0.22214 0.48304 0.34932 0.13392 -0.60951 0.016872 -0.22392 0.59567 0.12364 1.1235 0.20056 0.32354 0.64328 -0.52824 0.3095 -0.46723 0.18304 0.3848 0.084721 0.13831 -0.40094 -0.095424 -0.25011 0.60682 -0.41635 -0.66753 0.24402 0.1762 -0.25842 -0.68395 0.041775 
vuosisata -0.14065 -0.22203 -0.29661 -0.081553 0.26121 0.22098 -0.032554 0.35135 0.5484 -0.23226 0.038039 0.13891 -0.62567 0.31472 -0.050657 0.1492 -0.12099 0.30693 0.33613 -0.54112 -0.084744 -0.20459 0.01961 -0.079608 -0.20714 0.32538 0.084642 0.0078847 -0.11267 -0.43265 0.18508 0.49272 -0.36143 -0.078762 -0.10543 -0.21773 0.050259 -0.02871 0.022547 0.17277 0.025711 0.17322 -0.32498 0.048104 0.48102 0.12559 -0.079238 -0.41416 0.071717 0.21877 0.17596 0.23287 0.29146 -0.63759 -0.47902 -0.048994 0.16313 -0.11871 0.4223 0.68934 0.24787 0.33309 0.22093 -0.37309 0.33294 -0.21696 -0.42192 -0.20757 0.19818 -0.23265 0.010192 -0.094285 0.29156 0.088183 0.081044 -0.01423 0.092835 0.60949 0.43205 -0.07814 0.3386 0.49212 0.028175 0.1437 -0.16345 -0.16299 0.36869 0.14707 -0.31663 -0.034001 -0.033259 0.078814 0.42941 -0.24833 -0.22927 -0.26586 0.3178 -0.041417 -0.47647 0.29186 
vuosi 0.049169 -0.42853 -0.39465 0.039981 0.31152 0.23494 -0.096703 0.31159 0.38 -0.40544 -0.2454 0.37517 -0.53812 0.48751 -0.23124 0.17915 -0.084343 0.14339 0.30657 -0.35155 0.016548 -0.18608 -0.088531 0.051785 -0.18818 0.069452 -0.02267 0.22167 0.15081 -0.29983 0.18234 0.49743 -0.2989 0.022956 -0.32542 -0.048584 0.15825 -0.25091 0.021272 0.36315 0.23232 -0.1157 -0.24144 0.033912 0.44888 0.18746 -0.03401 -0.14916 0.12523 -0.10204 -0.07022 0.55289 0.30673 -0.40888 -0.2221 0.0053787 0.17179 0.083217 0.36726 0.24589 0.24887 0.1363 0.40451 -0.25489 0.12183 -0.11825 -0.2271 -0.041993 -0.13655 -0.010486 -0.041141 -0.11986 -0.063861 0.50897 0.25897 0.22302 0.21212 0.51923 0.38792 -0.19582 0.18129 0.33516 0.20021 0.17966 0.021954 0.029507 0.23409 0.11744 -0.16411 0.047466 0.16767 0.12036 0.30061 -0.30709 -0.30459 -0.064895 0.28805 -0.27601 -0.39559 0.17648 
vuosisata -0.14065 -0.22203 -0.29661 -0.081553 0.26121 0.22098 -0.032554 0.35135 0.5484 -0.23226 0.038039 0.13891 -0.62567 0.31472 -0.050657 0.1492 -0.12099 0.30693 0.33613 -0.54112 -0.084744 -0.20459 0.01961 -0.079608 -0.20714 0.32538 0.084642 0.0078847 -0.11267 -0.43265 0.18508 0.49272 -0.36143 -0.078762 -0.10543 -0.21773 0.050259 -0.02871 0.022547 0.17277 0.025711 0.17322 -0.32498 0.048104 0.48102 0.12559 -0.079238 -0.41416 0.071717 0.21877 0.17596 0.23287 0.29146 -0.63759 -0.47902 -0.048994 0.16313 -0.11871 0.4223 0.68934 0.24787 0.33309 0.22093 -0.37309 0.33294 -0.21696 -0.42192 -0.20757 0.19818 -0.23265 0.010192 -0.094285 0.29156 0.088183 0.081044 -0.01423 0.092835 0.60949 0.43205 -0.07814 0.3386 0.49212 0.028175 0.1437 -0.16345 -0.16299 0.36869 0.14707 -0.31663 -0.034001 -0.033259 0.078814 0.42941 -0.24833 -0.22927 -0.26586 0.3178 -0.041417 -0.47647 0.29186 
kansakunta 0.14244 -0.49053 -0.30699 -0.18982 0.41693 0.0052207 -0.45725 0.7097 0.62003 -0.31929 -0.15329 0.68864 -0.33082 -0.10498 0.081545 -0.27234 0.39522 0.20305 0.33766 -0.50192 -0.031573 0.089836 -0.27074 -0.16531 -0.3835 0.46024 -0.099335 0.041355 -0.01745 -0.17361 0.10919 0.28543 -0.065948 -0.23201 -0.28789 -0.30804 -0.025644 -0.23169 0.080452 0.19295 0.51748 0.14879 -0.24777 -0.14711 0.19664 0.34908 -0.022226 -0.08381 0.13303 -0.18136 0.29201 0.16014 0.044413 -0.28329 -0.6188 0.2475 0.24766 0.13201 0.29042 0.8194 0.10526 -0.057501 0.14947 0.01002 0.42588 0.019475 -0.40997 -0.21233 0.041237 0.051981 -0.049928 0.0023226 0.03198 0.77696 -0.13705 -0.04441 0.63138 0.50496 0.58301 0.047835 -0.20298 -0.21272 -0.39617 0.19754 -0.46052 -0.21375 0.0097823 -0.055436 -0.15711 -0.1362 0.12845 0.12623 0.36353 -0.02562 -0.72535 -0.18996 0.6855 -0.43672 -0.29337 -0.040725 
viive 0.084016 -0.12286 -0.22511 0.020636 0.50762 0.13464 0.090715 0.16109 0.48457 -0.60251 -0.21576 0.31671 -0.16512 0.38526 -0.31646 -0.083159 -0.32945 0.33924 0.21814 -0.29413 0.46434 0.29841 -0.49339 0.33349 0.089705 0.21448 -0.12527 0.5041 -0.17766 -0.14988 -0.12479 0.06354 -0.11002 -0.3607 -0.60659 -0.13969 0.0085559 0.10568 0.1006 0.36149 -0.0024932 -0.12253 -0.054727 0.079663 0.076463 0.004365 0.022933 0.076704 -0.16215 -0.017045 0.089937 0.11468 -0.048361 -0.12064 0.06153 0.033992 0.48256 0.34884 0.63835 0.27145 0.45912 0.31899 0.4748 -0.48617 0.18154 -0.1194 -0.19029 -0.11162 -0.27651 -0.21111 -0.067718 0.23342 0.23122 0.17031 -0.29849 0.019562 -0.056538 0.3817 0.12453 -0.32465 -0.089698 0.32084 0.025002 0.69654 -0.23312 0.050152 0.28901 0.14134 -0.21242 -0.02451 -0.11498 0.27041 0.13554 -0.33534 -0.22972 -0.32019 0.35139 -0.36795 0.053519 0.19853 
rasismi 0.18277 -0.3024 -0.22279 0.11357 0.5041 0.1953 -0.21136 0.40532 0.65652 -0.56707 -0.088105 0.094604 -0.39496 0.21656 -0.08283 0.27834 -0.24246 0.23504 0.31359 -0.13058 0.23583 -0.036904 -0.18225 0.12774 -0.34283 -0.012494 0.068172 0.23119 -0.057721 -0.44888 -0.0094754 0.092283 -0.44982 0.12022 -0.14466 -0.29315 0.052154 0.099591 -0.10954 0.072977 0.20254 -0.12936 -0.27128 0.17234 0.47495 0.029508 0.027663 -0.094439 -0.19381 -0.12729 0.30581 0.47951 0.074562 -0.50728 -0.35459 -0.052323 0.28377 0.13267 0.71789 0.34722 0.1533 0.30261 0.039494 -0.46263 0.50899 -0.13293 -0.36706 -0.49619 0.01951 -0.25497 0.12169 0.093339 0.24666 0.14732 -0.096546 -0.13981 0.10433 0.62171 0.23221 -0.029585 -0.036707 0.6106 0.025742 0.20696 -0.031929 -0.028743 -0.084949 0.1711 -0.23384 -0.16776 0.14682 0.30719 0.30895 -0.25451 -0.42341 0.012711 0.33493 -0.013507 -0.22269 0.30915 
viive 0.084016 -0.12286 -0.22511 0.020636 0.50762 0.13464 0.090715 0.16109 0.48457 -0.60251 -0.21576 0.31671 -0.16512 0.38526 -0.31646 -0.083159 -0.32945 0.33924 0.21814 -0.29413 0.46434 0.29841 -0.49339 0.33349 0.089705 0.21448 -0.12527 0.5041 -0.17766 -0.14988 -0.12479 0.06354 -0.11002 -0.3607 -0.60659 -0.13969 0.0085559 0.10568 0.1006 0.36149 -0.0024932 -0.12253 -0.054727 0.079663 0.076463 0.004365 0.022933 0.076704 -0.16215 -0.017045 0.089937 0.11468 -0.048361 -0.12064 0.06153 0.033992 0.48256 0.34884 0.63835 0.27145 0.45912 0.31899 0.4748 -0.48617 0.18154 -0.1194 -0.19029 -0.11162 -0.27651 -0.21111 -0.067718 0.23342 0.23122 0.17031 -0.29849 0.019562 -0.056538 0.3817 0.12453 -0.32465 -0.089698 0.32084 0.025002 0.69654 -0.23312 0.050152 0.28901 0.14134 -0.21242 -0.02451 -0.11498 0.27041 0.13554 -0.33534 -0.22972 -0.32019 0.35139 -0.36795 0.053519 0.19853 
uutiset 0.0054043 -0.31661 -0.28862 -0.0011084 0.34509 0.19901 -0.13389 0.20397 0.47401 0.025791 -0.26817 0.19951 -0.023959 0.57571 -0.17814 -0.12058 0.07321 0.056438 0.2839 -0.29954 0.056895 0.19783 -0.13297 -0.091457 0.19886 0.3135 0.14565 0.35092 -0.032301 -0.092337 0.028052 0.25891 -0.1474 -0.37309 -0.35547 -0.070989 0.16078 0.07198 0.079033 0.16941 0.21219 -0.17696 -0.10863 0.11445 0.3534 -0.0034802 0.15687 -0.10621 0.12135 -0.091297 0.093376 0.22632 0.1933 -0.32202 -0.12718 0.047296 0.29221 0.091694 0.11781 0.32586 0.34549 0.47345 0.43197 -0.34354 0.23397 -0.24931 -0.22857 -0.17317 -0.202 -0.1855 0.29355 0.020188 0.25929 0.049703 -0.098865 0.045582 0.096947 0.17162 0.20139 -0.31985 -0.17914 0.17683 0.026197 0.26983 -0.29851 0.098034 0.13813 0.072489 -0.23583 0.066767 -0.18449 0.11005 0.16626 -0.16758 -0.27632 -0.28574 0.36053 -0.25651 0.094377 0.31901 
ministeri 0.41925 -0.42935 -0.7161 0.61541 0.6228 0.66581 -0.23169 0.94965 0.61598 -0.65735 -0.40135 0.10877 -0.29657 0.28119 0.21156 -0.20165 0.3553 -0.37295 0.17541 -0.45265 0.79887 0.23419 -0.38131 0.56722 0.22156 0.18114 -0.08218 0.056651 -0.025114 0.10647 -0.008765 0.52727 0.5497 -0.44061 -0.30048 -0.056382 -0.23446 -0.18691 0.021778 0.16794 -0.10596 0.19033 -0.072894 0.38489 0.49035 0.48795 -0.95864 0.62127 0.00076185 0.27738 0.45686 0.89001 -0.28848 -0.20251 -0.3278 0.22964 0.278 0.31356 0.56841 0.54898 0.36212 0.59571 -0.15038 -0.38317 0.50438 -0.38186 -0.81133 -0.7166 0.31838 -0.29239 -0.038132 -0.6777 0.67885 -0.38479 0.27645 0.36841 0.42812 0.53992 0.26365 -0.77375 -0.4876 1.003 -0.78377 -0.20417 0.17471 -0.17391 -0.19579 0.46508 0.095153 -0.094154 0.16401 -0.068326 -0.06827 0.088561 -0.47591 0.0044926 0.28805 -0.27501 0.13053 0.84856 
puolue -0.12724 -0.16079 -0.11071 -0.18941 0.17104 0.25253 -0.065903 -0.16837 0.48296 -0.19448 -0.097713 0.12969 -0.37745 0.26661 0.065404 0.019582 0.1116 0.064118 0.16319 -0.50909 0.046862 0.20093 -0.125 0.057692 -0.13352 0.1161 0.088594 0.16184 -0.11379 -0.26839 0.059601 0.26597 -0.15343 -0.30697 -0.26311 -0.27589 0.20047 0.16819 0.4748 0.056616 0.15397 0.16446 -0.49756 -0.12005 0.21892 0.031702 -0.058449 0.1251 -0.0023502 -0.06622 0.15614 0.14486 0.29328 -0.23785 -0.14127 0.15327 -0.0020043 -0.038963 0.37044 0.26321 0.43243 0.28219 0.27295 -0.15688 0.19254 -0.067881 -0.29266 -0.095606 -0.14286 -0.053258 0.15027 -0.095443 0.05125 0.19625 -0.14454 0.23112 0.059651 0.086068 0.09585 -0.20021 -0.089155 0.088801 0.072023 0.26066 -0.24971 0.34706 0.35384 0.10189 0.0023583 0.030476 0.044578 0.13793 0.36492 -0.20196 -0.39403 -0.16135 0.4499 -0.17698 -0.2318 0.028173 
rauha 0.39246 -0.46442 -0.52693 -0.089388 0.33242 0.28408 -0.03579 0.78701 0.47837 -0.64505 -0.19445 0.36037 -0.2293 0.072208 -0.031068 -0.043674 0.30859 0.12439 0.38497 -0.17094 0.13299 0.060041 -0.35994 0.23069 -0.28939 0.054569 0.11058 0.0047538 -0.062977 -0.33505 0.017011 0.28 -0.11162 0.17443 -0.39943 -0.18256 -0.29916 -0.25696 0.36546 0.19837 0.56111 -0.18534 -0.36869 -0.00039063 0.44739 0.26145 -0.086972 0.006507 0.060653 -0.18239 0.50798 0.44919 0.26516 -0.28011 -0.1801 0.10288 0.39718 0.10264 0.38006 0.1331 0.23434 0.021876 0.34568 -0.18529 0.47055 0.4108 -0.34736 -0.3176 0.013983 -0.14018 -0.15072 0.011952 0.14112 0.57438 0.096979 0.077136 0.38897 0.50707 0.47745 -0.01115 -0.19571 0.42189 -0.33717 0.08306 0.035777 0.10892 0.059228 -0.01257 0.074655 -0.061139 0.4546 0.084143 0.011518 -0.35429 -0.62882 -0.01531 0.27608 -0.1175 -0.14859 0.0549 
suunnitelma 0.18624 -0.39846 -0.031364 -0.15626 0.3294 0.020825 0.037109 0.25601 0.54856 -0.27898 -0.19255 0.1297 -0.29796 0.10565 0.061035 -0.03486 0.05377 0.05407 0.29076 -0.38669 0.10334 0.13518 -0.11776 0.012448 -0.26522 0.24682 -0.096282 0.21962 -0.08236 -0.25807 -0.093284 0.020988 -0.13868 -0.32107 -0.4034 -0.14948 0.045982 0.046577 0.14794 0.28722 -0.06094 -0.1039 -0.28037 0.052751 0.31334 0.22289 -0.15122 0.050903 0.053852 -0.13373 0.17701 0.20506 0.21928 -0.23127 -0.36486 0.03201 0.18667 0.17597 0.26409 0.39755 0.31314 0.12769 0.33856 -0.20654 0.090235 0.051053 -0.16361 0.0095794 -0.11308 0.0040019 -0.077948 0.03758 -0.15048 0.30932 -0.11495 0.26936 0.25941 0.27393 0.31193 0.009807 -0.087755 0.041158 -0.030743 0.32541 -0.24221 -0.021682 0.060939 -0.0648 -0.007507 -0.01963 0.14695 -0.12028 0.2788 -0.16652 -0.46595 -0.14355 0.35528 -0.20492 -0.26583 0.16037 
vähemmistö 0.14568 -0.25491 -0.14641 0.048388 0.42707 0.15247 0.027981 0.17168 0.28418 -0.15006 -0.18306 -0.014941 -0.14475 0.045118 -0.032913 -0.055989 0.086914 -0.097709 0.20553 -0.20362 0.11316 0.14807 -0.090182 -0.015764 -0.065643 -0.014456 0.1209 0.13013 -0.011616 -0.031552 -0.12037 0.020729 -0.1183 -0.059188 -0.22159 -0.089822 0.10378 0.06969 0.17864 0.25487 0.040494 -0.12329 -0.068592 0.0047374 0.21682 0.21462 -0.09917 -0.052762 0.10096 -0.087516 0.089554 0.1779 0.19037 -0.1209 -0.15665 -0.056641 0.18286 0.22635 0.22399 0.10187 0.27533 0.2418 0.21616 -0.054129 0.10953 -0.035096 -0.021869 -0.055841 -0.0038442 0.06088 0.089803 -0.077728 0.1234 0.067325 -0.17957 0.080987 0.15904 0.061154 0.13552 -0.16491 -0.27176 0.33853 0.085843 0.25558 -0.11017 -0.076231 -0.043172 0.080221 0.054734 -0.065243 -0.0098112 -0.0049619 0.08626 0.069773 -0.49393 0.07985 0.20032 -0.19449 0.09521 0.14705 
rauha 0.39246 -0.46442 -0.52693 -0.089388 0.33242 0.28408 -0.03579 0.78701 0.47837 -0.64505 -0.19445 0.36037 -0.2293 0.072208 -0.031068 -0.043674 0.30859 0.12439 0.38497 -0.17094 0.13299 0.060041 -0.35994 0.23069 -0.28939 0.054569 0.11058 0.0047538 -0.062977 -0.33505 0.017011 0.28 -0.11162 0.17443 -0.39943 -0.18256 -0.29916 -0.25696 0.36546 0.19837 0.56111 -0.18534 -0.36869 -0.00039063 0.44739 0.26145 -0.086972 0.006507 0.060653 -0.18239 0.50798 0.44919 0.26516 -0.28011 -0.1801 0.10288 0.39718 0.10264 0.38006 0.1331 0.23434 0.021876 0.34568 -0.18529 0.47055 0.4108 -0.34736 -0.3176 0.013983 -0.14018 -0.15072 0.011952 0.14112 0.57438 0.096979 0.077136 0.38897 0.50707 0.47745 -0.01115 -0.19571 0.42189 -0.33717 0.08306 0.035777 0.10892 0.059228 -0.01257 0.074655 -0.061139 0.4546 0.084143 0.011518 -0.35429 -0.62882 -0.01531 0.27608 -0.1175 -0.14859 0.0549 
yritys 0.022818 -0.51503 -0.22524 -0.011439 0.28643 -0.066071 -0.0504 0.072917 0.48527 -0.17063 -0.19956 0.037981 -0.12477 0.35877 -0.015912 -0.24396 -0.11997 0.086347 0.22002 -0.20818 0.047004 0.0446 -0.24876 0.01945 -0.1727 0.25107 -0.13942 0.20905 -0.20253 -0.21094 -0.096655 0.28658 -0.31041 -0.24183 -0.40548 -0.1229 0.097246 0.069857 0.089967 0.19551 -0.10179 -0.091006 -0.31721 0.034088 0.46919 -0.006465 -0.11017 0.065089 -0.1561 0.022944 0.22956 0.22764 0.19574 -0.25955 0.0018821 -0.0088062 0.20452 -0.1199 0.51184 0.31362 0.40957 0.24549 0.48139 -0.2632 0.2545 -0.095647 -0.24865 -0.21634 -0.11019 -0.034425 0.18661 -0.04078 0.35318 -0.10473 -0.33176 -0.26748 0.16082 0.35172 0.26706 -0.16647 0.11285 0.19152 -0.031307 0.46235 -0.31364 0.11538 0.15487 0.2977 -0.25948 0.07071 0.10105 0.074871 0.32804 -0.17829 -0.38191 -0.12942 0.15909 -0.27439 -0.089815 0.38544 
rauha 0.39246 -0.46442 -0.52693 -0.089388 0.33242 0.28408 -0.03579 0.78701 0.47837 -0.64505 -0.19445 0.36037 -0.2293 0.072208 -0.031068 -0.043674 0.30859 0.12439 0.38497 -0.17094 0.13299 0.060041 -0.35994 0.23069 -0.28939 0.054569 0.11058 0.0047538 -0.062977 -0.33505 0.017011 0.28 -0.11162 0.17443 -0.39943 -0.18256 -0.29916 -0.25696 0.36546 0.19837 0.56111 -0.18534 -0.36869 -0.00039063 0.44739 0.26145 -0.086972 0.006507 0.060653 -0.18239 0.50798 0.44919 0.26516 -0.28011 -0.1801 0.10288 0.39718 0.10264 0.38006 0.1331 0.23434 0.021876 0.34568 -0.18529 0.47055 0.4108 -0.34736 -0.3176 0.013983 -0.14018 -0.15072 0.011952 0.14112 0.57438 0.096979 0.077136 0.38897 0.50707 0.47745 -0.01115 -0.19571 0.42189 -0.33717 0.08306 0.035777 0.10892 0.059228 -0.01257 0.074655 -0.061139 0.4546 0.084143 0.011518 -0.35429 -0.62882 -0.01531 0.27608 -0.1175 -0.14859 0.0549 
hallitus 0.095826 0.049684 -0.32656 -0.26399 0.46256 -0.095033 0.3184 0.10221 0.27352 -0.16385 -0.80399 -0.38783 -0.73195 0.15356 0.010673 -0.026577 -0.28763 -0.046073 0.18571 -0.87357 0.14497 -0.38403 0.41277 -0.10398 -0.0043486 0.15142 0.062086 0.52171 0.0015377 -0.78305 0.13413 0.50093 -0.14512 -0.44367 0.45166 -0.12814 0.048365 0.27765 0.24029 0.40808 -0.16289 -0.15451 -0.29383 -0.2886 0.66232 0.75558 -0.052624 -0.38803 0.41971 0.65231 0.23656 0.79194 0.31637 -0.52 -0.021188 -0.59057 0.18062 0.15824 0.34279 0.43959 0.56265 0.64005 0.34838 -0.61293 0.26941 -0.23524 -0.49947 -0.058343 -0.26749 0.30442 0.60408 0.16131 0.39966 -0.25257 0.12169 0.087204 0.15727 0.32385 0.67277 -0.13526 0.58627 0.71862 -0.19388 0.49206 -0.49913 -0.07531 0.095792 0.064897 -0.10102 -0.15724 -0.34181 0.10415 0.55721 -0.26257 -0.35409 0.43813 0.396 -0.086855 -0.6673 0.61228 
kriisi 0.32528 -0.69144 -0.55997 0.030157 0.31654 0.37692 -0.060433 0.48122 0.18603 -0.57623 -0.23136 0.45841 -0.2965 0.090468 0.0054743 0.12938 0.10055 -0.040209 0.30212 -0.49244 0.066923 -0.06492 -0.0069221 0.0344 -0.20126 0.14653 0.0098325 0.23272 0.032954 -0.045363 0.0016814 0.50372 -0.066652 0.33727 -0.22856 -0.19801 -0.064818 -0.55873 0.21915 0.14114 0.49858 -0.21861 -0.28785 -0.070543 0.51409 0.23219 0.13114 0.093209 0.30012 -0.026577 0.27583 0.53382 0.20064 -0.28669 -0.31533 0.081886 0.46512 0.16091 0.15953 0.25866 0.042841 0.095003 0.14261 0.043296 0.23471 0.34949 -0.37931 -0.14834 0.034807 0.076832 0.032743 0.011402 0.055808 0.5505 0.17544 -0.17976 0.39059 0.59324 0.68522 -0.039738 -0.14469 0.17149 0.0093917 0.16073 -0.20553 0.093931 -0.010413 0.26439 0.083952 -0.10088 0.28087 -0.043063 0.25825 -0.09127 -0.49561 -0.13624 0.088426 -0.15213 -0.39375 0.21494 
käyttöönotto 0.08718 -0.19662 -0.19564 0.010231 0.10383 0.079098 -0.015167 0.061703 0.11357 -0.094131 -0.15504 0.079397 -0.12052 0.11314 -0.043761 0.05528 0.066203 0.0087203 0.050222 -0.13314 0.099322 0.034124 -0.028427 -0.031475 -0.028151 0.11903 0.047961 0.041213 0.01355 0.016394 0.11909 0.1889 -0.048407 -0.05079 -0.11242 -0.016638 -0.075546 -0.20955 0.12347 0.215 0.13555 -0.021373 -0.068095 -0.077242 0.088593 0.15388 0.0082865 0.024465 0.11713 -0.04833 0.033192 0.093967 0.10363 -0.051781 -0.04413 -0.08038 0.089132 0.051182 0.17202 0.082491 0.20129 -0.0027694 0.13455 -0.013066 0.092794 -0.070917 -0.010934 -0.013427 -0.14749 0.061347 0.12249 0.09788 0.065261 0.080722 0.020781 0.085821 0.015851 0.14013 0.16527 -0.12404 0.02163 0.039364 0.063198 0.14535 -0.05583 0.085276 0.019115 0.097821 -0.089592 -0.10664 0.033987 0.020711 0.084998 -0.18008 -0.1234 0.064705 0.12596 -0.18932 -0.077662 0.00070239 
lähtö -0.00046298 -0.0038137 -0.011916 0.0019985 0.0097701 -0.0013312 0.00014013 0.0041986 0.0024431 0.00050757 -0.0016791 -0.0051437 -0.0041667 0.0029666 -0.00053374 -0.0047682 -0.0030145 0.0014815 0.0050667 -0.0057304 -0.0019072 -0.0058825 0.0052644 -0.0036543 0.0050274 0.0046268 -0.0017244 0.00056769 -0.0054176 -0.010768 -0.004865 0.0010961 -0.00071849 0.00041189 0.002947 -0.0013484 0.0024759 0.0019229 -0.0030537 -0.0073792 -0.0018628 0.006808 -0.006994 0.0002852 0.0028618 -0.0074202 0.0030551 0.0023879 -0.0017769 0.0021972 -0.0067101 0.0027743 0.0032961 -0.003722 -0.0099151 -0.0028025 -0.0050314 -0.0003685 0.0064947 0.0090722 0.0022082 0.0072836 -0.0016924 0.0015602 0.0063917 -0.0039942 -0.0056435 -0.0053203 0.0086135 0.00428 -0.0017416 -0.007932 0.010308 -0.0018582 -0.005839 -0.0038431 -0.0058675 -0.001936 0.0070044 0.0011405 0.0067936 0.0074665 -0.0033916 -0.001923 -0.0027827 -0.0046257 0.0027263 0.0005288 0.00263 -0.002021 0.00076681 -0.0011327 0.0042167 0.0024103 0.0010069 -0.0042275 0.0045578 0.0032858 -0.0037489 0.0011216 
käyttöönotto 0.08718 -0.19662 -0.19564 0.010231 0.10383 0.079098 -0.015167 0.061703 0.11357 -0.094131 -0.15504 0.079397 -0.12052 0.11314 -0.043761 0.05528 0.066203 0.0087203 0.050222 -0.13314 0.099322 0.034124 -0.028427 -0.031475 -0.028151 0.11903 0.047961 0.041213 0.01355 0.016394 0.11909 0.1889 -0.048407 -0.05079 -0.11242 -0.016638 -0.075546 -0.20955 0.12347 0.215 0.13555 -0.021373 -0.068095 -0.077242 0.088593 0.15388 0.0082865 0.024465 0.11713 -0.04833 0.033192 0.093967 0.10363 -0.051781 -0.04413 -0.08038 0.089132 0.051182 0.17202 0.082491 0.20129 -0.0027694 0.13455 -0.013066 0.092794 -0.070917 -0.010934 -0.013427 -0.14749 0.061347 0.12249 0.09788 0.065261 0.080722 0.020781 0.085821 0.015851 0.14013 0.16527 -0.12404 0.02163 0.039364 0.063198 0.14535 -0.05583 0.085276 0.019115 0.097821 -0.089592 -0.10664 0.033987 0.020711 0.084998 -0.18008 -0.1234 0.064705 0.12596 -0.18932 -0.077662 0.00070239 
vetäytyminen 0.095928 -0.27514 -0.3066 0.059022 0.1356 0.14424 0.10205 0.25212 0.1955 -0.1905 -0.2518 0.16774 -0.046331 0.16664 0.090475 -0.069558 0.11518 0.0084309 0.21152 -0.20432 0.044634 0.032463 -0.12397 0.20262 -0.057796 -0.011829 0.16813 0.1474 0.030458 -0.10971 0.088348 0.0059962 -0.031609 -0.22463 -0.28766 -0.055491 0.098616 -0.16905 0.25669 0.2391 0.20115 -0.1582 -0.1908 -0.14581 0.083224 0.22753 -0.12312 0.07695 0.14075 -0.036912 0.25002 0.3164 0.10253 -0.20398 -0.21098 0.0096329 0.22864 0.030412 0.060028 0.24443 0.20285 0.0048957 0.23086 -0.14712 0.11769 0.13492 -0.21263 -0.083217 0.035429 -0.028823 -0.012062 -0.059961 0.068334 0.13187 0.10382 0.033833 0.18 0.14841 0.10844 -0.052853 -0.079708 0.24401 0.16125 0.099733 0.090495 0.12558 0.0092093 0.1037 0.01527 0.03853 0.17961 -0.074199 0.22307 -0.077604 -0.26589 0.040571 0.061522 -0.17342 0.017246 -0.022492 
energia -0.63814 -0.1274 -0.27936 -0.42716 -0.10985 -0.094399 0.17838 0.22445 0.77568 -0.18097 -0.064491 -0.30894 -0.86494 0.18398 0.26825 -0.044786 -0.5266 -0.0084657 0.2978 -0.64462 0.44262 -0.18375 0.25743 0.30466 -0.16829 0.68119 -0.065142 0.47212 -0.6588 -0.22553 0.32892 0.86314 -0.32975 -0.64465 -0.33978 -0.2871 0.20693 0.21006 0.35919 0.11322 -0.12703 0.083486 -0.28447 -0.17573 0.60654 -0.055068 -0.38581 -0.12501 -0.14576 -0.42734 0.077051 0.44004 0.14317 -0.3022 -0.021916 -0.08491 0.20674 0.16079 0.62195 0.26368 0.39695 0.19076 0.59067 -0.22718 0.15622 0.18275 -0.45914 -0.019883 -0.19795 0.043031 0.13111 -0.059356 -0.0047643 0.39174 0.04752 0.31016 0.11671 0.99681 0.42648 -0.43592 -0.19954 -0.029043 -0.17556 0.069766 -0.62228 -0.2398 0.14036 0.25276 0.1633 -0.15471 -0.16572 0.092382 0.68108 -0.21489 -0.27876 0.26351 0.21022 -0.28559 -0.75769 -0.16981 
kriisi 0.32528 -0.69144 -0.55997 0.030157 0.31654 0.37692 -0.060433 0.48122 0.18603 -0.57623 -0.23136 0.45841 -0.2965 0.090468 0.0054743 0.12938 0.10055 -0.040209 0.30212 -0.49244 0.066923 -0.06492 -0.0069221 0.0344 -0.20126 0.14653 0.0098325 0.23272 0.032954 -0.045363 0.0016814 0.50372 -0.066652 0.33727 -0.22856 -0.19801 -0.064818 -0.55873 0.21915 0.14114 0.49858 -0.21861 -0.28785 -0.070543 0.51409 0.23219 0.13114 0.093209 0.30012 -0.026577 0.27583 0.53382 0.20064 -0.28669 -0.31533 0.081886 0.46512 0.16091 0.15953 0.25866 0.042841 0.095003 0.14261 0.043296 0.23471 0.34949 -0.37931 -0.14834 0.034807 0.076832 0.032743 0.011402 0.055808 0.5505 0.17544 -0.17976 0.39059 0.59324 0.68522 -0.039738 -0.14469 0.17149 0.0093917 0.16073 -0.20553 0.093931 -0.010413 0.26439 0.083952 -0.10088 0.28087 -0.043063 0.25825 -0.09127 -0.49561 -0.13624 0.088426 -0.15213 -0.39375 0.21494 
ilmoitus -0.058498 -0.070224 -0.38125 -0.18869 0.2509 -0.18396 0.35112 0.26565 0.047561 -0.30141 -0.53019 -0.26088 -0.6573 0.01918 -0.092243 0.064036 -0.13261 0.025559 0.36999 -0.78444 0.42504 -0.21402 0.21285 -0.24778 -0.067488 -0.067035 -0.042143 0.2385 -0.061987 -0.5192 0.23208 0.58757 -0.18885 -0.4338 0.26107 -0.041353 -0.1293 0.16254 0.45673 0.39778 -0.13499 -0.063674 -0.10315 -0.24053 0.32987 0.64758 -0.31115 -0.42192 0.36545 0.59301 0.06761 0.59254 0.22544 -0.27447 0.028797 -0.37533 0.1243 0.37258 0.2949 0.30609 0.64099 0.41061 0.33902 -0.63983 0.32916 -0.10547 -0.087865 0.052768 -0.039748 0.32659 0.55106 0.16036 -0.0055966 -0.056013 0.091074 0.060002 0.47026 0.045123 0.76148 -0.0024817 0.39492 0.66071 -0.37498 0.35871 -0.2551 -0.021571 0.21282 0.080131 0.21239 -0.12711 -0.27344 0.074172 0.45388 -0.34659 -0.21852 0.22204 0.35616 -0.39507 -0.51191 0.32849 
uutiset 0.0054043 -0.31661 -0.28862 -0.0011084 0.34509 0.19901 -0.13389 0.20397 0.47401 0.025791 -0.26817 0.19951 -0.023959 0.57571 -0.17814 -0.12058 0.07321 0.056438 0.2839 -0.29954 0.056895 0.19783 -0.13297 -0.091457 0.19886 0.3135 0.14565 0.35092 -0.032301 -0.092337 0.028052 0.25891 -0.1474 -0.37309 -0.35547 -0.070989 0.16078 0.07198 0.079033 0.16941 0.21219 -0.17696 -0.10863 0.11445 0.3534 -0.0034802 0.15687 -0.10621 0.12135 -0.091297 0.093376 0.22632 0.1933 -0.32202 -0.12718 0.047296 0.29221 0.091694 0.11781 0.32586 0.34549 0.47345 0.43197 -0.34354 0.23397 -0.24931 -0.22857 -0.17317 -0.202 -0.1855 0.29355 0.020188 0.25929 0.049703 -0.098865 0.045582 0.096947 0.17162 0.20139 -0.31985 -0.17914 0.17683 0.026197 0.26983 -0.29851 0.098034 0.13813 0.072489 -0.23583 0.066767 -0.18449 0.11005 0.16626 -0.16758 -0.27632 -0.28574 0.36053 -0.25651 0.094377 0.31901 
ilmoitus -0.058498 -0.070224 -0.38125 -0.18869 0.2509 -0.18396 0.35112 0.26565 0.047561 -0.30141 -0.53019 -0.26088 -0.6573 0.01918 -0.092243 0.064036 -0.13261 0.025559 0.36999 -0.78444 0.42504 -0.21402 0.21285 -0.24778 -0.067488 -0.067035 -0.042143 0.2385 -0.061987 -0.5192 0.23208 0.58757 -0.18885 -0.4338 0.26107 -0.041353 -0.1293 0.16254 0.45673 0.39778 -0.13499 -0.063674 -0.10315 -0.24053 0.32987 0.64758 -0.31115 -0.42192 0.36545 0.59301 0.06761 0.59254 0.22544 -0.27447 0.028797 -0.37533 0.1243 0.37258 0.2949 0.30609 0.64099 0.41061 0.33902 -0.63983 0.32916 -0.10547 -0.087865 0.052768 -0.039748 0.32659 0.55106 0.16036 -0.0055966 -0.056013 0.091074 0.060002 0.47026 0.045123 0.76148 -0.0024817 0.39492 0.66071 -0.37498 0.35871 -0.2551 -0.021571 0.21282 0.080131 0.21239 -0.12711 -0.27344 0.074172 0.45388 -0.34659 -0.21852 0.22204 0.35616 -0.39507 -0.51191 0.32849 
vaivannäkö 0.17086 -0.2113 -0.1746 -0.10067 0.27589 0.088355 0.027664 0.21764 0.34082 -0.23133 -0.12434 0.17149 -0.18245 0.17476 -0.018988 -0.087999 -0.0093374 -0.012781 0.0939 -0.19845 0.16652 0.027448 -0.085018 0.018285 -0.059008 0.23076 -0.0033886 0.15387 0.058328 -0.072996 0.077306 0.14899 -0.076921 -0.064622 -0.165 -0.038961 -0.11662 -0.003596 0.015469 0.12715 0.22845 -0.028646 -0.069985 0.053173 0.28924 0.17612 -0.15656 -0.037427 -0.018909 -0.075423 0.17748 0.28937 0.14549 -0.16463 -0.089335 -0.01145 0.28391 0.08813 0.29459 0.23731 0.23811 0.10229 0.23304 -0.065062 0.11277 -0.02463 -0.17912 -0.078968 -0.12678 0.0071592 0.10276 0.1392 0.047715 0.23919 -0.049888 0.074503 0.26325 0.13484 0.24447 -0.12487 -0.089177 0.0070808 0.016492 0.23369 -0.070495 0.042493 0.11545 0.073424 -0.036959 -0.084351 0.12986 0.013185 0.1799 -0.23475 -0.18711 -0.13161 0.11098 -0.26328 -0.15582 0.076081 
aivohalvaus 0.15905 -0.29356 -0.35191 -0.087949 0.14067 0.24569 0.26029 0.28472 0.13856 -0.18926 -0.21932 0.072935 -0.41627 0.16216 -0.073056 -0.16794 0.19705 -0.046317 0.13275 -0.51143 -0.025635 -0.24245 0.1554 0.09767 0.075271 0.29229 0.15422 0.20345 -0.08413 -0.19521 0.055967 0.47528 0.083514 -0.23672 -0.13627 0.0031301 -0.062358 -0.25119 0.39458 0.26761 0.12563 -0.034525 -0.11459 -0.11773 0.52338 0.2359 -0.11938 -0.16351 0.15793 0.19789 0.29127 0.38489 0.14702 -0.25292 -0.12779 -0.29087 0.22471 0.25112 0.3031 0.31003 0.32765 0.17248 0.36622 -0.32038 0.17543 -0.097911 -0.091589 -0.10381 -0.018251 0.086596 0.24053 0.0081979 0.086302 0.15131 0.033965 0.066987 0.25433 0.28024 0.44177 -0.19218 0.082058 0.25228 -0.14952 0.17276 -0.28313 -0.083383 0.20978 0.31486 0.080668 -0.055315 0.054586 -0.085131 0.32576 -0.12894 -0.32419 0.15681 0.055001 -0.12807 -0.30147 0.076308 
sairaala 0.40712 -0.70867 -0.55213 -0.076894 0.28754 0.35023 0.17678 0.65422 0.5373 -0.62932 0.012215 0.37329 -0.19814 -0.12473 0.051385 -0.19244 0.58102 -0.074404 -0.0056841 -0.77539 0.022453 -0.0085816 -0.32417 -0.04518 -0.21021 0.31005 -0.30395 0.0069758 -0.47871 -0.11948 -0.067552 0.54528 0.27397 -0.14312 -0.38551 0.018285 -0.090479 -0.40459 0.61824 -0.022336 0.31063 0.12143 -0.41014 -0.23061 0.2969 0.30003 -0.38122 0.050777 -0.13722 0.068184 0.23098 0.34879 0.13194 -0.28389 -0.58633 0.21822 0.7548 -0.11713 0.06277 0.65402 0.48676 0.30071 0.52635 -0.13473 0.50447 -0.022773 -0.13365 -0.097933 0.0278 -0.092154 0.063736 -0.019893 0.043686 0.44457 0.059294 -0.04062 0.37213 0.55132 0.58424 0.097708 -0.057273 0.015833 -0.44198 0.036456 -0.33341 -0.092895 0.41559 0.14649 0.1207 -0.023623 0.2819 0.051845 0.1893 -0.30753 -0.52527 -0.36026 0.27305 -0.088196 -0.48219 0.19667 
vamma -0.081913 -0.15402 -0.32311 -0.2539 0.14773 0.19583 0.039892 0.70222 0.56247 -0.44354 -0.33157 0.093157 -0.51966 0.42039 0.14886 0.27454 -0.032535 0.27773 0.13379 -0.33529 0.37063 -0.28472 0.064405 -0.096656 -0.28374 0.0028284 -0.26545 0.5201 -0.19688 -0.67655 0.11709 0.31044 -0.12651 -0.16813 -0.041642 -0.51849 0.15558 0.094104 0.23155 0.22556 0.15084 -0.29362 -0.7231 -0.025492 0.48152 0.020149 0.080945 -0.045198 0.16769 -0.12076 0.065833 0.36738 0.14518 -0.4773 -0.19443 -0.21188 0.2373 0.10744 0.51202 0.27553 0.20686 0.33061 0.10631 -0.25726 0.34397 -0.11104 -0.59411 -0.1736 -0.23985 -0.15812 0.38345 0.012897 0.077095 0.36726 0.55328 0.14076 0.16849 0.88711 0.31255 0.17356 0.35545 0.28911 -0.30396 0.088055 -0.3328 -0.00020257 0.43297 0.1129 -0.032208 -0.071091 0.47289 -0.040874 0.3627 -0.50694 -0.65662 -0.38655 0.42348 0.22441 -0.54388 0.47517 
kuolema 0.23458 -0.36571 -0.16162 -0.078259 0.49907 0.26172 -0.1948 0.45687 0.60163 -0.43992 -0.12596 0.0843 -0.42248 0.11523 0.091187 -0.055151 0.098958 -0.15963 0.094832 -0.43271 0.20237 0.078199 -0.12526 -0.23613 0.11686 0.15304 -0.10317 0.31077 -0.049939 -0.12023 0.011091 0.43792 -0.30013 -0.074241 -0.13074 -0.23675 -0.12249 -0.14065 -0.090323 0.23453 0.33108 -0.12786 -0.34354 0.016579 0.35498 0.15321 -0.044911 -0.18241 0.072654 0.061227 0.2038 0.28888 0.058719 -0.23478 -0.31802 -0.19244 0.43298 0.23416 0.38521 0.43138 0.06991 0.10914 0.041492 -0.24095 0.57824 -0.071485 -0.55631 -0.24422 -0.071926 0.10487 0.019618 0.040886 0.27999 0.17152 -0.1704 -0.061356 0.21814 0.63567 0.62498 0.062076 0.0871 0.36713 -0.20797 0.19654 -0.21912 -0.14149 0.23316 0.0056633 -0.20809 0.024213 0.054575 0.20639 0.26596 -0.15751 -0.37253 -0.078514 0.27281 -0.22111 -0.40841 0.25403 
uhri 0.22883 -0.49822 -0.49351 0.036436 0.58803 0.10323 -0.25264 0.83577 0.28409 -0.65164 -0.32981 0.61742 -0.39601 0.062124 -0.024529 0.2065 0.0014888 -0.028492 0.10988 -0.40199 0.17712 -0.20386 -0.080982 0.059187 -0.37378 0.046827 -0.19316 0.21063 0.10542 -0.45371 0.041988 0.40214 -0.19524 0.026525 -0.16976 -0.27043 -0.22145 -0.33508 0.12905 0.12747 0.55644 0.01832 -0.31625 -0.0090969 0.36805 0.48805 -0.081811 0.22437 0.14633 0.12085 0.25329 0.57264 0.25183 -0.26758 -0.1935 0.019182 0.44161 0.16237 0.31032 0.45653 -0.019285 0.13459 0.066164 -0.074648 0.43254 0.12591 -0.52393 -0.26706 0.034972 -0.08014 -0.088042 0.15298 0.054669 0.41263 0.26742 -0.073108 0.43327 0.57789 0.80846 0.047901 0.1615 0.2994 -0.31649 0.021864 -0.091464 -0.10097 0.051782 -0.078165 0.15502 -0.080569 0.56321 0.16723 0.17164 -0.21362 -0.4608 -0.14988 0.29115 -0.097965 -0.35326 0.45145 
hätätilanne 0.10955 -0.19815 -0.13141 -0.024981 0.25811 0.25201 0.070627 0.22153 0.29891 -0.27096 -0.16306 0.096935 -0.2142 0.14205 -0.12001 -0.085982 0.17214 0.14095 0.14764 -0.37555 0.13536 0.062856 -0.203 0.064662 -0.094214 0.12225 0.011676 0.18482 -0.15158 -0.088054 0.080322 0.20212 -0.098473 -0.14366 -0.25539 0.11575 0.055588 0.078679 0.21406 0.12906 0.11906 -0.19661 -0.10411 -0.0082044 0.17576 0.065212 -0.20493 0.065824 -0.05787 0.22123 0.10585 0.21106 0.1138 -0.2004 -0.14573 0.021797 0.21737 0.20524 -0.00068662 0.16667 0.35844 0.027613 0.26144 -0.14176 0.14041 -0.11789 -0.030156 -0.13718 0.082172 -0.035817 -0.017307 0.10689 -0.019023 0.16145 -0.074294 0.16861 0.29393 0.18092 0.28333 -0.18121 -0.1903 0.38371 -0.046497 0.12323 -0.10926 -0.0074573 0.15874 0.20551 0.057845 0.13524 0.059355 -0.11408 0.071916 -0.17423 -0.098443 -0.026085 0.28552 -0.28425 -0.057167 -0.0052708 
hoito 0.23775 -0.76779 -0.58159 -0.052826 -0.036814 0.067573 -0.21971 0.70746 0.40343 -0.57124 -0.21605 0.4697 -0.56005 0.069255 -0.23085 -0.0031425 0.65998 -0.058418 0.066725 -0.62788 0.31084 -0.012799 -0.7561 -0.080165 -0.33461 0.34009 -0.033433 -0.28355 -0.021741 -0.13832 0.046261 0.37321 -0.023533 -0.060734 -0.51042 0.20391 -0.32412 -0.56063 0.57531 0.52379 0.61654 0.14001 -0.33435 -0.27051 -0.079014 0.46581 -0.47309 -0.15871 0.31748 -0.0058466 0.13922 0.44509 0.14374 -0.49863 -0.32154 0.14164 0.41886 0.12955 0.58218 0.44544 0.67202 -0.014449 0.37284 -0.23252 0.28934 -0.065847 -0.090487 -0.022609 -0.2004 -0.051544 -0.19196 -0.0069522 -0.16591 0.65273 0.18758 0.30319 0.24265 0.41974 0.64575 -0.019455 -0.06475 0.18382 -0.036467 -0.011482 -0.11696 -0.11197 0.36626 -0.023298 -0.10109 -0.36732 0.19728 0.10878 0.27018 -0.52559 -0.37095 -0.17727 0.60787 -0.41888 -0.11124 -0.22741 
paraneminen 0.16025 -0.47302 -0.31092 0.027259 0.26291 0.19163 0.14862 0.45805 0.47896 -0.4105 -0.23265 0.0053662 -0.41881 0.37455 -0.032468 0.06124 -0.058704 0.063208 0.47521 -0.39628 0.19912 -0.0075983 -0.15549 0.14047 -0.23455 0.16422 -0.039302 0.19242 0.02059 -0.33543 -0.0078589 0.14342 -0.10626 -0.1785 -0.36796 -0.20964 0.06833 -0.093628 0.42987 0.38193 0.29947 -0.16928 -0.29548 -0.0037744 0.3425 0.22708 -0.2833 -0.07333 0.29277 0.10199 0.34596 0.44184 0.24036 -0.4123 -0.47877 -0.037634 0.40197 -0.0012415 0.26476 0.34511 0.40966 0.2587 0.18992 -0.2161 0.26087 -0.057205 -0.31077 -0.067688 0.26115 -0.19023 0.10698 0.0022959 0.073703 0.25387 0.20765 0.071004 0.24925 0.37851 0.25879 -0.11386 -0.11084 0.45829 0.18228 0.30017 -0.04158 0.07879 0.17278 0.20664 0.001376 -0.02923 0.25456 0.014196 0.29744 -0.2359 -0.51779 0.021051 0.30262 -0.278 -0.17961 -0.0093943 
lehti 0.4243 -0.42971 -0.45289 0.033597 0.51403 0.13873 0.11195 0.62886 0.25577 -0.45115 -0.30048 0.47026 -0.15016 0.15612 -0.078263 -0.01777 0.46195 -0.12561 0.38867 -0.46352 0.17525 0.047953 -0.26838 0.2107 -0.28216 0.065176 0.046226 -0.0136 -0.045762 -0.072727 0.10086 0.46425 -0.0021164 0.068984 -0.28029 -0.0056038 -0.094845 -0.12852 0.39719 0.24464 0.25697 -0.38502 -0.28451 -0.018621 0.41203 0.54384 -0.17893 -0.057893 0.06361 -0.092722 0.3179 0.47965 0.33749 -0.24929 -0.16734 0.1281 0.24998 0.19815 0.14591 0.32821 0.22384 0.12453 0.17588 -0.065742 0.14615 0.23718 -0.045758 -0.07072 0.012962 0.10005 0.05073 -0.036379 -0.18338 0.55744 0.072853 0.19812 0.56507 0.43118 0.60682 -0.11674 -0.2683 0.10657 -0.23025 0.34983 -0.20916 0.090283 0.053326 0.068013 0.26492 -0.079597 0.21194 0.081906 0.12645 -0.34881 -0.45235 -0.0058001 0.1612 -0.37285 -0.27384 0.15613 
yhdistys 0.1986 -0.33991 -0.053219 -0.077007 0.16704 0.07656 -0.020979 0.20888 0.41504 -0.16538 -0.19642 -0.071422 -0.21062 0.12398 -0.095052 -0.23049 0.1267 0.023681 0.32302 -0.20191 0.033879 0.078908 -0.32631 -0.046756 -0.13711 0.14429 0.0081642 0.13937 -0.04919 -0.21549 -0.17287 0.19416 -0.11416 -0.075898 -0.31812 -0.21398 0.0062822 0.074783 0.17546 0.32002 -0.042566 -0.054891 -0.19599 0.014464 0.17244 0.2321 -0.12008 0.079 0.053563 -0.076235 0.3565 0.25159 0.11344 -0.18439 -0.10821 0.032301 0.20257 0.1092 0.21379 0.09368 0.4171 0.24564 0.24465 -0.28446 0.038658 -0.10261 0.016169 -0.086074 -0.086688 -0.097655 0.034083 0.014396 0.11333 0.14631 -0.22411 0.047403 0.12727 0.25133 0.1693 -0.16236 -0.036544 0.10685 -0.021296 0.42535 -0.36968 0.20656 0.026977 0.085466 -0.11762 -0.15267 0.18132 0.066982 0.31306 -0.12991 -0.51588 -0.012491 0.35597 -0.24386 -0.073641 0.014879 
lääkäri 0.015105 -0.056752 -0.13776 0.034991 0.1416 0.051871 -0.04943 0.15208 0.0080429 -0.15536 -0.015996 0.081711 -0.097373 -0.0098824 0.0097756 0.070736 0.042952 -0.012015 -0.066582 -0.065546 0.022522 -0.097078 -0.067654 -0.045191 0.0059461 -0.043026 -0.11935 0.048377 -0.00056165 -0.062211 -0.0018914 0.10284 -0.0047403 0.014396 -0.043695 -0.049136 -0.12518 -0.10853 0.029228 0.01031 0.12647 0.098073 -0.12029 0.03399 0.051686 0.073461 -0.020663 0.087442 0.0013739 -0.0085615 0.015007 0.051535 0.0075154 0.023026 -0.074921 -0.064916 0.1332 0.020864 0.029632 0.14287 -0.10441 0.044607 -0.063417 -0.016121 0.1147 0.052385 -0.090993 -0.027983 0.012418 -0.017094 -0.086886 0.056152 0.050633 0.042903 0.076923 -0.06781 0.056165 0.18346 0.22813 0.06637 0.098135 0.069911 -0.10599 -0.096607 -0.0048193 -0.018668 0.066009 0.030476 -0.006291 -0.045655 0.18359 0.063545 0.067183 0.0095196 -0.084585 -0.05167 0.01838 0.044412 -0.067528 0.0035135 
henkilökunta 0.20824 -0.34739 -0.33205 -0.034075 0.30278 0.074573 -0.039557 0.3752 0.37852 -0.25257 -0.20381 0.20591 -0.32677 -0.0034682 -0.013391 -0.22498 0.27327 -0.074967 0.25483 -0.34854 0.084937 0.087072 -0.032397 -0.13299 -0.067066 0.29365 -0.010434 0.066923 -0.054691 0.013067 0.18918 0.27394 0.098654 -0.079071 -0.23037 -0.055408 -0.080044 -0.22285 0.23019 0.29597 0.18054 -0.067511 -0.1494 -0.13488 0.22976 0.19503 -0.1012 -0.22753 0.078193 -0.083067 0.33637 0.1243 0.11762 -0.14401 -0.12595 -0.023407 0.22965 0.087993 0.22537 0.20797 0.1954 0.080157 0.13911 -0.13421 0.19826 0.018827 -0.27856 -0.21997 -0.011989 0.024515 0.082029 -0.025573 0.13359 0.37037 -0.033888 -0.013956 0.30344 0.481 0.37464 -0.0044896 -0.12982 0.063198 -0.18606 0.12554 -0.31246 0.035726 0.031976 0.093407 -0.041925 -0.10004 0.012565 -0.12426 0.23521 -0.064383 -0.36729 -0.038055 0.16241 -0.32311 -0.19085 -0.0058428 
lääkäri 0.015105 -0.056752 -0.13776 0.034991 0.1416 0.051871 -0.04943 0.15208 0.0080429 -0.15536 -0.015996 0.081711 -0.097373 -0.0098824 0.0097756 0.070736 0.042952 -0.012015 -0.066582 -0.065546 0.022522 -0.097078 -0.067654 -0.045191 0.0059461 -0.043026 -0.11935 0.048377 -0.00056165 -0.062211 -0.0018914 0.10284 -0.0047403 0.014396 -0.043695 -0.049136 -0.12518 -0.10853 0.029228 0.01031 0.12647 0.098073 -0.12029 0.03399 0.051686 0.073461 -0.020663 0.087442 0.0013739 -0.0085615 0.015007 0.051535 0.0075154 0.023026 -0.074921 -0.064916 0.1332 0.020864 0.029632 0.14287 -0.10441 0.044607 -0.063417 -0.016121 0.1147 0.052385 -0.090993 -0.027983 0.012418 -0.017094 -0.086886 0.056152 0.050633 0.042903 0.076923 -0.06781 0.056165 0.18346 0.22813 0.06637 0.098135 0.069911 -0.10599 -0.096607 -0.0048193 -0.018668 0.066009 0.030476 -0.006291 -0.045655 0.18359 0.063545 0.067183 0.0095196 -0.084585 -0.05167 0.01838 0.044412 -0.067528 0.0035135 
luotettavuus 0.1549 -0.15275 -0.38106 -0.18633 0.40675 0.039424 0.25728 0.27927 0.19524 -0.17509 -0.36751 -0.0032236 -0.35382 0.12752 -0.014369 -0.051869 0.17649 0.0753 0.19545 -0.46363 -0.060217 -0.045617 0.072178 0.015679 -0.029505 0.17298 -0.054108 0.13178 -0.034395 -0.23229 0.17445 0.48211 -0.039594 -0.2064 0.077581 0.034777 -0.011505 -0.064674 0.26684 0.35701 0.0032629 -0.093784 -0.23734 -0.25879 0.34969 0.50132 -0.068021 -0.14106 0.25883 0.22916 0.28432 0.36235 0.27429 -0.15289 -0.16587 -0.21946 0.17649 0.31965 0.13215 0.3191 0.4988 0.2938 0.39311 -0.29742 0.079126 0.031686 -0.15757 -0.0002644 -0.13274 0.16257 0.24503 0.10469 0.064819 0.10733 0.05841 0.0025243 0.30947 0.3379 0.51534 -0.24012 0.11634 0.20755 -0.18413 0.35196 -0.31397 0.13921 0.23139 0.15999 0.011998 -0.15364 -0.0057094 0.11476 0.23487 -0.19759 -0.36834 0.034948 0.34719 -0.43577 -0.42846 0.084953 
luotettavuus 0.1549 -0.15275 -0.38106 -0.18633 0.40675 0.039424 0.25728 0.27927 0.19524 -0.17509 -0.36751 -0.0032236 -0.35382 0.12752 -0.014369 -0.051869 0.17649 0.0753 0.19545 -0.46363 -0.060217 -0.045617 0.072178 0.015679 -0.029505 0.17298 -0.054108 0.13178 -0.034395 -0.23229 0.17445 0.48211 -0.039594 -0.2064 0.077581 0.034777 -0.011505 -0.064674 0.26684 0.35701 0.0032629 -0.093784 -0.23734 -0.25879 0.34969 0.50132 -0.068021 -0.14106 0.25883 0.22916 0.28432 0.36235 0.27429 -0.15289 -0.16587 -0.21946 0.17649 0.31965 0.13215 0.3191 0.4988 0.2938 0.39311 -0.29742 0.079126 0.031686 -0.15757 -0.0002644 -0.13274 0.16257 0.24503 0.10469 0.064819 0.10733 0.05841 0.0025243 0.30947 0.3379 0.51534 -0.24012 0.11634 0.20755 -0.18413 0.35196 -0.31397 0.13921 0.23139 0.15999 0.011998 -0.15364 -0.0057094 0.11476 0.23487 -0.19759 -0.36834 0.034948 0.34719 -0.43577 -0.42846 0.084953 
vakuutus 0.097286 -0.11893 -0.45214 -0.38306 0.21579 -0.22777 0.28673 0.18113 -0.20382 -0.35409 -0.39206 -0.15179 -0.76114 -0.10539 0.051245 -0.13931 0.0915 -0.14372 0.099896 -0.57767 0.039129 -0.30872 0.18172 -0.27545 -0.052325 0.11242 -0.16473 0.25113 0.012275 -0.41072 0.038548 0.61276 -0.18259 -0.35003 0.3309 0.037437 -0.20595 -0.020837 0.22728 0.33545 0.014067 0.047123 -0.18998 -0.37986 0.26582 0.62781 -0.27715 -0.24985 0.33751 0.25861 0.15166 0.51333 0.15904 -0.26148 -0.099987 -0.34554 0.24781 0.23582 0.22268 0.61016 0.42185 0.31584 0.29012 -0.53742 0.22642 0.11794 -0.26083 0.081929 -0.11989 0.25467 0.28674 0.17986 0.2654 -0.076456 0.046795 -0.16231 0.28929 0.17855 0.80142 0.04832 0.37622 0.55309 -0.20985 0.36934 -0.41539 0.066867 0.15873 0.10427 -0.067258 -0.46632 -0.029868 0.047007 0.58545 -0.21679 -0.34397 0.11766 0.32627 -0.2987 -0.55954 0.1311 
koulu 0.26607 -0.6452 -0.60744 -0.021526 0.20908 0.32478 -0.018081 0.53788 0.77641 -0.81837 -0.11553 0.57411 -0.0084278 -0.19759 -0.083284 -0.095276 0.317 0.036757 0.56371 -0.79551 -0.04603 -0.10168 -0.46486 -0.15649 -0.14026 0.36941 -0.18738 0.075228 -0.044516 -0.098073 -0.25853 0.40429 0.049896 -0.032173 -0.55975 -0.18174 0.20068 -0.28369 0.59757 0.16113 0.64858 -0.099047 -0.49179 0.084961 0.32859 0.12137 -0.10205 0.48982 0.078647 -0.26575 0.39042 0.33663 0.1803 -0.329 -0.45221 0.27009 0.38992 -0.015766 0.23698 0.69248 0.18417 -0.096552 0.31305 0.036236 0.11338 0.18293 -0.50364 -0.22308 0.033549 -0.046721 -0.21159 0.303 0.2358 0.62617 -0.090836 0.27775 0.47285 0.81655 0.69963 0.019394 -0.069719 -0.14184 -0.15427 0.27685 -0.55323 -0.3032 0.061595 -0.057289 -0.0032346 -0.15075 0.27372 0.25751 0.13137 0.0077057 -0.78931 -0.21123 0.54383 -0.56088 -0.3195 0.086117 
keskus 0.10486 -0.1433 -0.63443 -0.2232 0.39075 -0.12979 0.26574 0.19143 -0.089929 -0.184 -0.64539 -0.076767 -0.37118 -0.21464 -0.06934 -0.13726 0.49976 -0.09917 0.23595 -0.63873 -0.13972 -0.36613 0.37209 -0.024756 -0.19486 0.070322 -0.1291 0.21142 0.063327 -0.29889 0.045874 0.53468 -0.19612 -0.36517 0.16958 0.089907 0.10199 0.079304 0.49892 0.2158 -0.035617 -0.15548 -0.26247 -0.29912 0.32939 0.72492 -0.1517 0.011464 0.40903 0.36806 0.29706 0.40088 0.17327 -0.48592 -0.011305 -0.12464 0.066846 0.12221 -0.070373 0.62355 0.33813 0.38833 0.30059 -0.53405 0.1354 0.16049 -0.1182 -0.096846 -0.13844 0.12924 0.27798 0.035588 -0.07771 0.058355 0.11547 -0.036247 0.41452 0.39574 0.53539 -0.06018 0.31521 0.29882 -0.3161 0.16413 -0.37595 0.048986 -0.14292 0.074011 -0.017313 -0.43363 -0.02462 -0.12414 0.71285 -0.38659 -0.66425 0.18595 0.51664 -0.59289 -0.47648 0.12237 
syy -0.024775 -0.33076 -0.31636 0.16357 0.46723 0.45581 -0.29877 0.47019 0.26113 -0.10798 -0.24709 0.26072 0.091192 0.5365 -0.11871 0.06343 -0.069142 -0.053674 0.25942 -0.27293 0.015452 -0.040525 -0.17858 0.018188 -0.19123 0.27102 0.18993 0.094395 0.2481 -0.17652 -0.027066 0.48131 -0.050293 -0.022401 -0.12407 -0.3162 0.37774 -0.299 0.056298 0.032044 0.15315 -0.12366 -0.34911 0.12251 0.52805 0.3514 0.40929 0.0050453 0.26574 0.26587 0.22948 0.57719 0.19161 -0.23111 0.058937 -0.18427 0.079032 0.30866 0.22841 0.56953 0.39539 0.29092 0.26451 -0.35369 0.041515 -0.18187 -0.32814 -0.12309 -0.39999 -0.27613 -0.051122 -0.0038409 -0.18435 0.19966 0.015342 0.24611 0.37221 0.36562 0.27032 -0.15116 -0.086341 0.038378 0.0050809 0.33604 -0.4133 -0.016866 0.27789 0.063291 -0.3631 0.025543 0.15296 0.27418 0.21003 -0.28166 -0.46384 -0.14618 0.53039 -0.17705 -0.24966 0.49144 
hypertensio -0.60972 0.11256 -0.41494 0.10736 0.095518 0.22802 0.18992 0.46843 0.62679 -0.08648 -0.23313 -0.037251 -1.0632 0.55534 -0.30505 0.23487 -0.54351 0.1333 0.186 -0.47697 0.34849 -0.31963 -0.080721 0.11532 0.15646 0.43998 0.58534 0.53651 -0.17798 -0.41916 0.55051 0.51973 -0.58994 -0.4981 0.13646 -0.38108 0.29449 0.32051 0.069972 0.090984 0.28259 -0.035223 -0.17711 0.22949 0.58303 -0.11324 -0.083288 -0.50905 0.30262 0.53354 0.048462 0.44415 0.020763 -0.74871 -0.53103 -0.032566 -0.22067 -0.14848 0.37379 0.81 0.52018 0.35346 0.38641 -0.50791 0.24876 -0.55211 -0.78591 -0.1863 0.16342 -0.20031 0.14181 -0.33787 -0.33754 0.11704 0.092194 0.29058 -0.079134 0.4035 0.47417 -0.16087 0.32435 0.88262 0.41615 -0.45661 -0.12484 -0.31706 0.38296 0.04704 -0.21632 0.27559 -0.48652 -0.12058 0.51886 -0.30642 -0.36748 0.27763 0.63813 -0.11703 -0.29072 0.40714 
syy -0.024775 -0.33076 -0.31636 0.16357 0.46723 0.45581 -0.29877 0.47019 0.26113 -0.10798 -0.24709 0.26072 0.091192 0.5365 -0.11871 0.06343 -0.069142 -0.053674 0.25942 -0.27293 0.015452 -0.040525 -0.17858 0.018188 -0.19123 0.27102 0.18993 0.094395 0.2481 -0.17652 -0.027066 0.48131 -0.050293 -0.022401 -0.12407 -0.3162 0.37774 -0.299 0.056298 0.032044 0.15315 -0.12366 -0.34911 0.12251 0.52805 0.3514 0.40929 0.0050453 0.26574 0.26587 0.22948 0.57719 0.19161 -0.23111 0.058937 -0.18427 0.079032 0.30866 0.22841 0.56953 0.39539 0.29092 0.26451 -0.35369 0.041515 -0.18187 -0.32814 -0.12309 -0.39999 -0.27613 -0.051122 -0.0038409 -0.18435 0.19966 0.015342 0.24611 0.37221 0.36562 0.27032 -0.15116 -0.086341 0.038378 0.0050809 0.33604 -0.4133 -0.016866 0.27789 0.063291 -0.3631 0.025543 0.15296 0.27418 0.21003 -0.28166 -0.46384 -0.14618 0.53039 -0.17705 -0.24966 0.49144 
kriteeri 0.30431 -0.6567 -0.48152 -0.073511 0.47631 0.23052 0.21877 0.61857 0.41372 -0.53431 -0.41636 0.20201 -0.14476 0.10427 0.13636 0.23031 -0.12064 0.046413 0.28332 -0.43979 0.056221 -0.22655 -0.21296 -0.17993 -0.22988 -0.042038 -0.041974 0.18288 0.039248 -0.41992 -0.036508 0.21697 -0.05223 -0.056619 -0.32769 -0.23705 0.028452 -0.10743 0.2087 0.29169 0.21113 -0.11717 -0.41541 -0.068136 0.32413 0.55496 -0.093742 0.20279 0.1947 -0.18122 0.32825 0.42723 0.23511 -0.22551 -0.2848 -0.095483 0.39369 0.15562 0.17984 0.38608 0.079352 0.2736 0.138 -0.19087 0.46808 -0.0080571 -0.48326 -0.22028 0.028438 -0.23353 -0.059859 0.095657 0.34035 0.26192 -0.0073324 -0.14606 0.19215 0.6175 0.43638 -0.21144 0.085407 0.32799 0.063649 0.22448 0.062854 0.22056 0.1143 0.032813 -0.079343 -0.094974 0.41127 -0.11995 0.23512 -0.09836 -0.64095 -0.025657 0.28556 -0.2508 -0.11309 0.17534 
sata -0.07734 -0.40831 -0.60743 -0.32994 0.56778 0.15527 -0.27004 0.52349 0.26053 -0.55571 0.29758 -0.025635 -0.61415 0.038405 0.12846 0.40092 0.22467 0.094264 0.20919 -0.48188 -0.49145 -0.35544 0.15809 0.037706 -0.77229 0.52904 -0.24846 -0.19356 -0.035526 -0.87934 -0.17878 0.73543 -0.27418 -0.0029973 0.083733 0.022665 -0.3301 -0.62808 0.14124 0.036843 0.04156 0.69347 -0.47627 0.03664 0.38708 0.83419 -0.28732 -0.17537 0.74967 0.29707 0.13916 0.27283 0.38142 -0.77734 -0.31247 0.25507 0.26348 -0.48755 0.60993 1.0082 0.23247 0.38365 0.07277 -0.28753 0.66201 -0.11102 -0.24107 -0.29749 0.048728 -0.19132 -0.096492 0.30014 0.39702 0.35852 0.30247 -0.096087 0.13679 0.66473 0.90344 0.0891 0.58059 0.089677 -0.47182 -0.014511 -0.12224 0.20797 0.83422 -0.078944 -0.73187 -0.53537 0.52012 0.15634 0.47355 -1.0026 -0.63799 -0.62826 0.14711 0.088137 -0.76579 0.26732 
